digraph Tree {
node [shape=box] ;
0 [label="marital-status_Married-civ-spouse <= 0.5\ngini = 0.3656\nsamples = 32561\nvalue = [24720, 7841]"] ;
1 [label="capital-gain <= 7073.5\ngini = 0.1221\nsamples = 17585\nvalue = [16436, 1149]"] ;
0 -> 1 [labeldistance=2.5, labelangle=45, headlabel="True"] ;
2 [label="education-num <= 12.5\ngini = 0.0935\nsamples = 17274\nvalue = [16425, 849]"] ;
1 -> 2 ;
3 [label="capital-loss <= 2218.5\ngini = 0.0481\nsamples = 13864\nvalue = [13522, 342]"] ;
2 -> 3 ;
4 [label="hours-per-week <= 40.5\ngini = 0.0446\nsamples = 13807\nvalue = [13492, 315]"] ;
3 -> 4 ;
5 [label="age <= 33.5\ngini = 0.0268\nsamples = 11351\nvalue = [11197, 154]"] ;
4 -> 5 ;
6 [label="relationship_Husband <= 0.5\ngini = 0.0071\nsamples = 6698\nvalue = [6674, 24]"] ;
5 -> 6 ;
7 [label="relationship_Wife <= 0.5\ngini = 0.0068\nsamples = 6696\nvalue = [6673, 23]"] ;
6 -> 7 ;
8 [label="fnlwgt <= 23759.0\ngini = 0.0066\nsamples = 6692\nvalue = [6670, 22]"] ;
7 -> 8 ;
9 [label="fnlwgt <= 23381.0\ngini = 0.142\nsamples = 26\nvalue = [24, 2]"] ;
8 -> 9 ;
10 [label="gini = 0.0\nsamples = 23\nvalue = [23, 0]"] ;
9 -> 10 ;
11 [label="sex_Female <= 0.5\ngini = 0.4444\nsamples = 3\nvalue = [1, 2]"] ;
9 -> 11 ;
12 [label="gini = 0.0\nsamples = 2\nvalue = [0, 2]"] ;
11 -> 12 ;
13 [label="gini = 0.0\nsamples = 1\nvalue = [1, 0]"] ;
11 -> 13 ;
14 [label="age <= 28.5\ngini = 0.006\nsamples = 6666\nvalue = [6646, 20]"] ;
8 -> 14 ;
15 [label="workclass_Local-gov <= 0.5\ngini = 0.0026\nsamples = 5386\nvalue = [5379, 7]"] ;
14 -> 15 ;
16 [label="gini = 0.0015\nsamples = 5245\nvalue = [5241, 4]"] ;
15 -> 16 ;
17 [label="gini = 0.0416\nsamples = 141\nvalue = [138, 3]"] ;
15 -> 17 ;
18 [label="occupation_Craft-repair <= 0.5\ngini = 0.0201\nsamples = 1280\nvalue = [1267, 13]"] ;
14 -> 18 ;
19 [label="gini = 0.0125\nsamples = 1117\nvalue = [1110, 7]"] ;
18 -> 19 ;
20 [label="gini = 0.0709\nsamples = 163\nvalue = [157, 6]"] ;
18 -> 20 ;
21 [label="education_Some-college <= 0.5\ngini = 0.375\nsamples = 4\nvalue = [3, 1]"] ;
7 -> 21 ;
22 [label="gini = 0.0\nsamples = 3\nvalue = [3, 0]"] ;
21 -> 22 ;
23 [label="gini = 0.0\nsamples = 1\nvalue = [0, 1]"] ;
21 -> 23 ;
24 [label="age <= 26.5\ngini = 0.5\nsamples = 2\nvalue = [1, 1]"] ;
6 -> 24 ;
25 [label="gini = 0.0\nsamples = 1\nvalue = [1, 0]"] ;
24 -> 25 ;
26 [label="gini = 0.0\nsamples = 1\nvalue = [0, 1]"] ;
24 -> 26 ;
27 [label="occupation_Prof-specialty <= 0.5\ngini = 0.0543\nsamples = 4653\nvalue = [4523, 130]"] ;
5 -> 27 ;
28 [label="occupation_Exec-managerial <= 0.5\ngini = 0.046\nsamples = 4416\nvalue = [4312, 104]"] ;
27 -> 28 ;
29 [label="marital-status_Married-AF-spouse <= 0.5\ngini = 0.0376\nsamples = 4072\nvalue = [3994, 78]"] ;
28 -> 29 ;
30 [label="occupation_Protective-serv <= 0.5\ngini = 0.0367\nsamples = 4067\nvalue = [3991, 76]"] ;
29 -> 30 ;
31 [label="native-country_India <= 0.5\ngini = 0.0339\nsamples = 4000\nvalue = [3931, 69]"] ;
30 -> 31 ;
32 [label="gini = 0.0334\nsamples = 3999\nvalue = [3931, 68]"] ;
31 -> 32 ;
33 [label="gini = 0.0\nsamples = 1\nvalue = [0, 1]"] ;
31 -> 33 ;
34 [label="workclass_Private <= 0.5\ngini = 0.1871\nsamples = 67\nvalue = [60, 7]"] ;
30 -> 34 ;
35 [label="gini = 0.2726\nsamples = 43\nvalue = [36, 7]"] ;
34 -> 35 ;
36 [label="gini = 0.0\nsamples = 24\nvalue = [24, 0]"] ;
34 -> 36 ;
37 [label="age <= 36.5\ngini = 0.48\nsamples = 5\nvalue = [3, 2]"] ;
29 -> 37 ;
38 [label="education_Assoc-acdm <= 0.5\ngini = 0.4444\nsamples = 3\nvalue = [1, 2]"] ;
37 -> 38 ;
39 [label="gini = 0.0\nsamples = 2\nvalue = [0, 2]"] ;
38 -> 39 ;
40 [label="gini = 0.0\nsamples = 1\nvalue = [1, 0]"] ;
38 -> 40 ;
41 [label="gini = 0.0\nsamples = 2\nvalue = [2, 0]"] ;
37 -> 41 ;
42 [label="native-country_Ireland <= 0.5\ngini = 0.1397\nsamples = 344\nvalue = [318, 26]"] ;
28 -> 42 ;
43 [label="capital-gain <= 5373.5\ngini = 0.1351\nsamples = 343\nvalue = [318, 25]"] ;
42 -> 43 ;
44 [label="native-country_Japan <= 0.5\ngini = 0.1305\nsamples = 342\nvalue = [318, 24]"] ;
43 -> 44 ;
45 [label="gini = 0.1258\nsamples = 341\nvalue = [318, 23]"] ;
44 -> 45 ;
46 [label="gini = 0.0\nsamples = 1\nvalue = [0, 1]"] ;
44 -> 46 ;
47 [label="gini = 0.0\nsamples = 1\nvalue = [0, 1]"] ;
43 -> 47 ;
48 [label="gini = 0.0\nsamples = 1\nvalue = [0, 1]"] ;
42 -> 48 ;
49 [label="sex_Female <= 0.5\ngini = 0.1953\nsamples = 237\nvalue = [211, 26]"] ;
27 -> 49 ;
50 [label="capital-gain <= 4718.5\ngini = 0.4012\nsamples = 54\nvalue = [39, 15]"] ;
49 -> 50 ;
51 [label="fnlwgt <= 29452.0\ngini = 0.375\nsamples = 52\nvalue = [39, 13]"] ;
50 -> 51 ;
52 [label="gini = 0.0\nsamples = 1\nvalue = [0, 1]"] ;
51 -> 52 ;
53 [label="native-country_Germany <= 0.5\ngini = 0.3599\nsamples = 51\nvalue = [39, 12]"] ;
51 -> 53 ;
54 [label="gini = 0.3432\nsamples = 50\nvalue = [39, 11]"] ;
53 -> 54 ;
55 [label="gini = 0.0\nsamples = 1\nvalue = [0, 1]"] ;
53 -> 55 ;
56 [label="gini = 0.0\nsamples = 2\nvalue = [0, 2]"] ;
50 -> 56 ;
57 [label="native-country_Philippines <= 0.5\ngini = 0.113\nsamples = 183\nvalue = [172, 11]"] ;
49 -> 57 ;
58 [label="capital-loss <= 1472.0\ngini = 0.1039\nsamples = 182\nvalue = [172, 10]"] ;
57 -> 58 ;
59 [label="workclass_Federal-gov <= 0.5\ngini = 0.0955\nsamples = 179\nvalue = [170, 9]"] ;
58 -> 59 ;
60 [label="gini = 0.0794\nsamples = 169\nvalue = [162, 7]"] ;
59 -> 60 ;
61 [label="gini = 0.32\nsamples = 10\nvalue = [8, 2]"] ;
59 -> 61 ;
62 [label="marital-status_Never-married <= 0.5\ngini = 0.4444\nsamples = 3\nvalue = [2, 1]"] ;
58 -> 62 ;
63 [label="gini = 0.0\nsamples = 2\nvalue = [2, 0]"] ;
62 -> 63 ;
64 [label="gini = 0.0\nsamples = 1\nvalue = [0, 1]"] ;
62 -> 64 ;
65 [label="gini = 0.0\nsamples = 1\nvalue = [0, 1]"] ;
57 -> 65 ;
66 [label="age <= 38.5\ngini = 0.1225\nsamples = 2456\nvalue = [2295, 161]"] ;
4 -> 66 ;
67 [label="native-country_India <= 0.5\ngini = 0.0748\nsamples = 1568\nvalue = [1507, 61]"] ;
66 -> 67 ;
68 [label="relationship_Not-in-family <= 0.5\ngini = 0.0736\nsamples = 1567\nvalue = [1507, 60]"] ;
67 -> 68 ;
69 [label="native-country_Portugal <= 0.5\ngini = 0.0264\nsamples = 673\nvalue = [664, 9]"] ;
68 -> 69 ;
70 [label="race_Asian-Pac-Islander <= 0.5\ngini = 0.0236\nsamples = 671\nvalue = [663, 8]"] ;
69 -> 70 ;
71 [label="marital-status_Married-AF-spouse <= 0.5\ngini = 0.0181\nsamples = 657\nvalue = [651, 6]"] ;
70 -> 71 ;
72 [label="gini = 0.0152\nsamples = 653\nvalue = [648, 5]"] ;
71 -> 72 ;
73 [label="gini = 0.375\nsamples = 4\nvalue = [3, 1]"] ;
71 -> 73 ;
74 [label="fnlwgt <= 70533.5\ngini = 0.2449\nsamples = 14\nvalue = [12, 2]"] ;
70 -> 74 ;
75 [label="gini = 0.0\nsamples = 1\nvalue = [0, 1]"] ;
74 -> 75 ;
76 [label="gini = 0.142\nsamples = 13\nvalue = [12, 1]"] ;
74 -> 76 ;
77 [label="sex_Male <= 0.5\ngini = 0.5\nsamples = 2\nvalue = [1, 1]"] ;
69 -> 77 ;
78 [label="gini = 0.0\nsamples = 1\nvalue = [0, 1]"] ;
77 -> 78 ;
79 [label="gini = 0.0\nsamples = 1\nvalue = [1, 0]"] ;
77 -> 79 ;
80 [label="workclass_Private <= 0.5\ngini = 0.1076\nsamples = 894\nvalue = [843, 51]"] ;
68 -> 80 ;
81 [label="occupation_Exec-managerial <= 0.5\ngini = 0.2006\nsamples = 168\nvalue = [149, 19]"] ;
80 -> 81 ;
82 [label="occupation_Protective-serv <= 0.5\ngini = 0.1537\nsamples = 143\nvalue = [131, 12]"] ;
81 -> 82 ;
83 [label="gini = 0.1155\nsamples = 130\nvalue = [122, 8]"] ;
82 -> 83 ;
84 [label="gini = 0.426\nsamples = 13\nvalue = [9, 4]"] ;
82 -> 84 ;
85 [label="hours-per-week <= 62.5\ngini = 0.4032\nsamples = 25\nvalue = [18, 7]"] ;
81 -> 85 ;
86 [label="gini = 0.255\nsamples = 20\nvalue = [17, 3]"] ;
85 -> 86 ;
87 [label="gini = 0.32\nsamples = 5\nvalue = [1, 4]"] ;
85 -> 87 ;
88 [label="education-num <= 10.5\ngini = 0.0843\nsamples = 726\nvalue = [694, 32]"] ;
80 -> 88 ;
89 [label="fnlwgt <= 30808.5\ngini = 0.0672\nsamples = 632\nvalue = [610, 22]"] ;
88 -> 89 ;
90 [label="gini = 0.2975\nsamples = 11\nvalue = [9, 2]"] ;
89 -> 90 ;
91 [label="gini = 0.0623\nsamples = 621\nvalue = [601, 20]"] ;
89 -> 91 ;
92 [label="capital-gain <= 3692.0\ngini = 0.1901\nsamples = 94\nvalue = [84, 10]"] ;
88 -> 92 ;
93 [label="gini = 0.1748\nsamples = 93\nvalue = [84, 9]"] ;
92 -> 93 ;
94 [label="gini = 0.0\nsamples = 1\nvalue = [0, 1]"] ;
92 -> 94 ;
95 [label="gini = 0.0\nsamples = 1\nvalue = [0, 1]"] ;
67 -> 95 ;
96 [label="capital-gain <= 4668.5\ngini = 0.1999\nsamples = 888\nvalue = [788, 100]"] ;
66 -> 96 ;
97 [label="sex_Male <= 0.5\ngini = 0.1928\nsamples = 879\nvalue = [784, 95]"] ;
96 -> 97 ;
98 [label="marital-status_Married-AF-spouse <= 0.5\ngini = 0.12\nsamples = 421\nvalue = [394, 27]"] ;
97 -> 98 ;
99 [label="native-country_Greece <= 0.5\ngini = 0.1161\nsamples = 420\nvalue = [394, 26]"] ;
98 -> 99 ;
100 [label="occupation_Tech-support <= 0.5\ngini = 0.1122\nsamples = 419\nvalue = [394, 25]"] ;
99 -> 100 ;
101 [label="gini = 0.1018\nsamples = 409\nvalue = [387, 22]"] ;
100 -> 101 ;
102 [label="gini = 0.42\nsamples = 10\nvalue = [7, 3]"] ;
100 -> 102 ;
103 [label="gini = 0.0\nsamples = 1\nvalue = [0, 1]"] ;
99 -> 103 ;
104 [label="gini = 0.0\nsamples = 1\nvalue = [0, 1]"] ;
98 -> 104 ;
105 [label="fnlwgt <= 361071.0\ngini = 0.2529\nsamples = 458\nvalue = [390, 68]"] ;
97 -> 105 ;
106 [label="marital-status_Never-married <= 0.5\ngini = 0.2345\nsamples = 435\nvalue = [376, 59]"] ;
105 -> 106 ;
107 [label="occupation_Tech-support <= 0.5\ngini = 0.2828\nsamples = 311\nvalue = [258, 53]"] ;
106 -> 107 ;
108 [label="gini = 0.2727\nsamples = 307\nvalue = [257, 50]"] ;
107 -> 108 ;
109 [label="gini = 0.375\nsamples = 4\nvalue = [1, 3]"] ;
107 -> 109 ;
110 [label="capital-loss <= 1534.0\ngini = 0.0921\nsamples = 124\nvalue = [118, 6]"] ;
106 -> 110 ;
111 [label="gini = 0.065\nsamples = 119\nvalue = [115, 4]"] ;
110 -> 111 ;
112 [label="gini = 0.48\nsamples = 5\nvalue = [3, 2]"] ;
110 -> 112 ;
113 [label="education_Some-college <= 0.5\ngini = 0.4764\nsamples = 23\nvalue = [14, 9]"] ;
105 -> 113 ;
114 [label="fnlwgt <= 365071.5\ngini = 0.32\nsamples = 15\nvalue = [12, 3]"] ;
113 -> 114 ;
115 [label="gini = 0.0\nsamples = 1\nvalue = [0, 1]"] ;
114 -> 115 ;
116 [label="gini = 0.2449\nsamples = 14\nvalue = [12, 2]"] ;
114 -> 116 ;
117 [label="fnlwgt <= 420118.0\ngini = 0.375\nsamples = 8\nvalue = [2, 6]"] ;
113 -> 117 ;
118 [label="gini = 0.0\nsamples = 5\nvalue = [0, 5]"] ;
117 -> 118 ;
119 [label="gini = 0.4444\nsamples = 3\nvalue = [2, 1]"] ;
117 -> 119 ;
120 [label="capital-gain <= 5194.5\ngini = 0.4938\nsamples = 9\nvalue = [4, 5]"] ;
96 -> 120 ;
121 [label="hours-per-week <= 45.5\ngini = 0.2778\nsamples = 6\nvalue = [1, 5]"] ;
120 -> 121 ;
122 [label="gini = 0.0\nsamples = 1\nvalue = [1, 0]"] ;
121 -> 122 ;
123 [label="gini = 0.0\nsamples = 5\nvalue = [0, 5]"] ;
121 -> 123 ;
124 [label="gini = 0.0\nsamples = 3\nvalue = [3, 0]"] ;
120 -> 124 ;
125 [label="fnlwgt <= 125450.5\ngini = 0.4986\nsamples = 57\nvalue = [30, 27]"] ;
3 -> 125 ;
126 [label="age <= 60.0\ngini = 0.3457\nsamples = 18\nvalue = [4, 14]"] ;
125 -> 126 ;
127 [label="occupation_Sales <= 0.5\ngini = 0.1244\nsamples = 15\nvalue = [1, 14]"] ;
126 -> 127 ;
128 [label="gini = 0.0\nsamples = 14\nvalue = [0, 14]"] ;
127 -> 128 ;
129 [label="gini = 0.0\nsamples = 1\nvalue = [1, 0]"] ;
127 -> 129 ;
130 [label="gini = 0.0\nsamples = 3\nvalue = [3, 0]"] ;
126 -> 130 ;
131 [label="capital-loss <= 2391.5\ngini = 0.4444\nsamples = 39\nvalue = [26, 13]"] ;
125 -> 131 ;
132 [label="education-num <= 11.5\ngini = 0.2873\nsamples = 23\nvalue = [19, 4]"] ;
131 -> 132 ;
133 [label="workclass_Private <= 0.5\ngini = 0.2355\nsamples = 22\nvalue = [19, 3]"] ;
132 -> 133 ;
134 [label="gini = 0.0\nsamples = 10\nvalue = [10, 0]"] ;
133 -> 134 ;
135 [label="occupation_Farming-fishing <= 0.5\ngini = 0.375\nsamples = 12\nvalue = [9, 3]"] ;
133 -> 135 ;
136 [label="relationship_Own-child <= 0.5\ngini = 0.2975\nsamples = 11\nvalue = [9, 2]"] ;
135 -> 136 ;
137 [label="occupation_Exec-managerial <= 0.5\ngini = 0.18\nsamples = 10\nvalue = [9, 1]"] ;
136 -> 137 ;
138 [label="gini = 0.0\nsamples = 8\nvalue = [8, 0]"] ;
137 -> 138 ;
139 [label="gini = 0.5\nsamples = 2\nvalue = [1, 1]"] ;
137 -> 139 ;
140 [label="gini = 0.0\nsamples = 1\nvalue = [0, 1]"] ;
136 -> 140 ;
141 [label="gini = 0.0\nsamples = 1\nvalue = [0, 1]"] ;
135 -> 141 ;
142 [label="gini = 0.0\nsamples = 1\nvalue = [0, 1]"] ;
132 -> 142 ;
143 [label="capital-loss <= 3253.5\ngini = 0.4922\nsamples = 16\nvalue = [7, 9]"] ;
131 -> 143 ;
144 [label="gini = 0.0\nsamples = 9\nvalue = [0, 9]"] ;
143 -> 144 ;
145 [label="gini = 0.0\nsamples = 7\nvalue = [7, 0]"] ;
143 -> 145 ;
146 [label="hours-per-week <= 43.5\ngini = 0.2531\nsamples = 3410\nvalue = [2903, 507]"] ;
2 -> 146 ;
147 [label="age <= 33.5\ngini = 0.1608\nsamples = 2302\nvalue = [2099, 203]"] ;
146 -> 147 ;
148 [label="relationship_Wife <= 0.5\ngini = 0.0463\nsamples = 1181\nvalue = [1153, 28]"] ;
147 -> 148 ;
149 [label="capital-loss <= 2116.0\ngini = 0.0431\nsamples = 1179\nvalue = [1153, 26]"] ;
148 -> 149 ;
150 [label="age <= 29.5\ngini = 0.04\nsamples = 1175\nvalue = [1151, 24]"] ;
149 -> 150 ;
151 [label="marital-status_Separated <= 0.5\ngini = 0.0213\nsamples = 929\nvalue = [919, 10]"] ;
150 -> 151 ;
152 [label="fnlwgt <= 41011.0\ngini = 0.0193\nsamples = 924\nvalue = [915, 9]"] ;
151 -> 152 ;
153 [label="occupation_Craft-repair <= 0.5\ngini = 0.0973\nsamples = 39\nvalue = [37, 2]"] ;
152 -> 153 ;
154 [label="gini = 0.0512\nsamples = 38\nvalue = [37, 1]"] ;
153 -> 154 ;
155 [label="gini = 0.0\nsamples = 1\nvalue = [0, 1]"] ;
153 -> 155 ;
156 [label="capital-loss <= 1486.0\ngini = 0.0157\nsamples = 885\nvalue = [878, 7]"] ;
152 -> 156 ;
157 [label="gini = 0.0137\nsamples = 870\nvalue = [864, 6]"] ;
156 -> 157 ;
158 [label="gini = 0.1244\nsamples = 15\nvalue = [14, 1]"] ;
156 -> 158 ;
159 [label="native-country_Philippines <= 0.5\ngini = 0.32\nsamples = 5\nvalue = [4, 1]"] ;
151 -> 159 ;
160 [label="gini = 0.0\nsamples = 4\nvalue = [4, 0]"] ;
159 -> 160 ;
161 [label="gini = 0.0\nsamples = 1\nvalue = [0, 1]"] ;
159 -> 161 ;
162 [label="sex_Male <= 0.5\ngini = 0.1073\nsamples = 246\nvalue = [232, 14]"] ;
150 -> 162 ;
163 [label="occupation_Tech-support <= 0.5\ngini = 0.0161\nsamples = 123\nvalue = [122, 1]"] ;
162 -> 163 ;
164 [label="gini = 0.0\nsamples = 115\nvalue = [115, 0]"] ;
163 -> 164 ;
165 [label="fnlwgt <= 171021.5\ngini = 0.2188\nsamples = 8\nvalue = [7, 1]"] ;
163 -> 165 ;
166 [label="gini = 0.5\nsamples = 2\nvalue = [1, 1]"] ;
165 -> 166 ;
167 [label="gini = 0.0\nsamples = 6\nvalue = [6, 0]"] ;
165 -> 167 ;
168 [label="occupation_Sales <= 0.5\ngini = 0.189\nsamples = 123\nvalue = [110, 13]"] ;
162 -> 168 ;
169 [label="education-num <= 14.5\ngini = 0.1515\nsamples = 109\nvalue = [100, 9]"] ;
168 -> 169 ;
170 [label="gini = 0.1128\nsamples = 100\nvalue = [94, 6]"] ;
169 -> 170 ;
171 [label="gini = 0.4444\nsamples = 9\nvalue = [6, 3]"] ;
169 -> 171 ;
172 [label="relationship_Not-in-family <= 0.5\ngini = 0.4082\nsamples = 14\nvalue = [10, 4]"] ;
168 -> 172 ;
173 [label="gini = 0.0\nsamples = 5\nvalue = [5, 0]"] ;
172 -> 173 ;
174 [label="gini = 0.4938\nsamples = 9\nvalue = [5, 4]"] ;
172 -> 174 ;
175 [label="age <= 24.0\ngini = 0.5\nsamples = 4\nvalue = [2, 2]"] ;
149 -> 175 ;
176 [label="gini = 0.0\nsamples = 2\nvalue = [0, 2]"] ;
175 -> 176 ;
177 [label="gini = 0.0\nsamples = 2\nvalue = [2, 0]"] ;
175 -> 177 ;
178 [label="gini = 0.0\nsamples = 2\nvalue = [0, 2]"] ;
148 -> 178 ;
179 [label="capital-loss <= 2365.5\ngini = 0.2635\nsamples = 1121\nvalue = [946, 175]"] ;
147 -> 179 ;
180 [label="education-num <= 14.5\ngini = 0.2529\nsamples = 1111\nvalue = [946, 165]"] ;
179 -> 180 ;
181 [label="capital-gain <= 4668.5\ngini = 0.2246\nsamples = 1024\nvalue = [892, 132]"] ;
180 -> 181 ;
182 [label="age <= 46.5\ngini = 0.216\nsamples = 1007\nvalue = [883, 124]"] ;
181 -> 182 ;
183 [label="native-country_Taiwan <= 0.5\ngini = 0.1665\nsamples = 633\nvalue = [575, 58]"] ;
182 -> 183 ;
184 [label="relationship_Not-in-family <= 0.5\ngini = 0.1641\nsamples = 632\nvalue = [575, 57]"] ;
183 -> 184 ;
185 [label="gini = 0.0915\nsamples = 229\nvalue = [218, 11]"] ;
184 -> 185 ;
186 [label="gini = 0.2022\nsamples = 403\nvalue = [357, 46]"] ;
184 -> 186 ;
187 [label="gini = 0.0\nsamples = 1\nvalue = [0, 1]"] ;
183 -> 187 ;
188 [label="hours-per-week <= 31.0\ngini = 0.2907\nsamples = 374\nvalue = [308, 66]"] ;
182 -> 188 ;
189 [label="native-country_Japan <= 0.5\ngini = 0.0907\nsamples = 84\nvalue = [80, 4]"] ;
188 -> 189 ;
190 [label="gini = 0.0697\nsamples = 83\nvalue = [80, 3]"] ;
189 -> 190 ;
191 [label="gini = 0.0\nsamples = 1\nvalue = [0, 1]"] ;
189 -> 191 ;
192 [label="age <= 48.5\ngini = 0.3362\nsamples = 290\nvalue = [228, 62]"] ;
188 -> 192 ;
193 [label="gini = 0.4352\nsamples = 50\nvalue = [34, 16]"] ;
192 -> 193 ;
194 [label="gini = 0.3099\nsamples = 240\nvalue = [194, 46]"] ;
192 -> 194 ;
195 [label="capital-gain <= 5194.5\ngini = 0.4983\nsamples = 17\nvalue = [9, 8]"] ;
181 -> 195 ;
196 [label="gini = 0.0\nsamples = 8\nvalue = [0, 8]"] ;
195 -> 196 ;
197 [label="gini = 0.0\nsamples = 9\nvalue = [9, 0]"] ;
195 -> 197 ;
198 [label="sex_Male <= 0.5\ngini = 0.4709\nsamples = 87\nvalue = [54, 33]"] ;
180 -> 198 ;
199 [label="workclass_Federal-gov <= 0.5\ngini = 0.3482\nsamples = 49\nvalue = [38, 11]"] ;
198 -> 199 ;
200 [label="workclass_State-gov <= 0.5\ngini = 0.3096\nsamples = 47\nvalue = [38, 9]"] ;
199 -> 200 ;
201 [label="occupation_Machine-op-inspct <= 0.5\ngini = 0.1567\nsamples = 35\nvalue = [32, 3]"] ;
200 -> 201 ;
202 [label="gini = 0.1107\nsamples = 34\nvalue = [32, 2]"] ;
201 -> 202 ;
203 [label="gini = 0.0\nsamples = 1\nvalue = [0, 1]"] ;
201 -> 203 ;
204 [label="education_Doctorate <= 0.5\ngini = 0.5\nsamples = 12\nvalue = [6, 6]"] ;
200 -> 204 ;
205 [label="gini = 0.0\nsamples = 4\nvalue = [4, 0]"] ;
204 -> 205 ;
206 [label="gini = 0.375\nsamples = 8\nvalue = [2, 6]"] ;
204 -> 206 ;
207 [label="gini = 0.0\nsamples = 2\nvalue = [0, 2]"] ;
199 -> 207 ;
208 [label="marital-status_Divorced <= 0.5\ngini = 0.4875\nsamples = 38\nvalue = [16, 22]"] ;
198 -> 208 ;
209 [label="fnlwgt <= 93895.5\ngini = 0.42\nsamples = 30\nvalue = [9, 21]"] ;
208 -> 209 ;
210 [label="marital-status_Widowed <= 0.5\ngini = 0.32\nsamples = 5\nvalue = [4, 1]"] ;
209 -> 210 ;
211 [label="gini = 0.0\nsamples = 4\nvalue = [4, 0]"] ;
210 -> 211 ;
212 [label="gini = 0.0\nsamples = 1\nvalue = [0, 1]"] ;
210 -> 212 ;
213 [label="hours-per-week <= 16.5\ngini = 0.32\nsamples = 25\nvalue = [5, 20]"] ;
209 -> 213 ;
214 [label="gini = 0.0\nsamples = 2\nvalue = [2, 0]"] ;
213 -> 214 ;
215 [label="gini = 0.2268\nsamples = 23\nvalue = [3, 20]"] ;
213 -> 215 ;
216 [label="fnlwgt <= 316106.5\ngini = 0.2188\nsamples = 8\nvalue = [7, 1]"] ;
208 -> 216 ;
217 [label="gini = 0.0\nsamples = 7\nvalue = [7, 0]"] ;
216 -> 217 ;
218 [label="gini = 0.0\nsamples = 1\nvalue = [0, 1]"] ;
216 -> 218 ;
219 [label="gini = 0.0\nsamples = 10\nvalue = [0, 10]"] ;
179 -> 219 ;
220 [label="age <= 27.5\ngini = 0.3982\nsamples = 1108\nvalue = [804, 304]"] ;
146 -> 220 ;
221 [label="capital-loss <= 2116.0\ngini = 0.0736\nsamples = 209\nvalue = [201, 8]"] ;
220 -> 221 ;
222 [label="hours-per-week <= 62.5\ngini = 0.0653\nsamples = 207\nvalue = [200, 7]"] ;
221 -> 222 ;
223 [label="workclass_Self-emp-inc <= 0.5\ngini = 0.0425\nsamples = 184\nvalue = [180, 4]"] ;
222 -> 223 ;
224 [label="occupation_Craft-repair <= 0.5\ngini = 0.0328\nsamples = 180\nvalue = [177, 3]"] ;
223 -> 224 ;
225 [label="hours-per-week <= 53.5\ngini = 0.0225\nsamples = 176\nvalue = [174, 2]"] ;
224 -> 225 ;
226 [label="gini = 0.0\nsamples = 135\nvalue = [135, 0]"] ;
225 -> 226 ;
227 [label="occupation_Tech-support <= 0.5\ngini = 0.0928\nsamples = 41\nvalue = [39, 2]"] ;
225 -> 227 ;
228 [label="gini = 0.0512\nsamples = 38\nvalue = [37, 1]"] ;
227 -> 228 ;
229 [label="gini = 0.4444\nsamples = 3\nvalue = [2, 1]"] ;
227 -> 229 ;
230 [label="age <= 26.5\ngini = 0.375\nsamples = 4\nvalue = [3, 1]"] ;
224 -> 230 ;
231 [label="gini = 0.0\nsamples = 1\nvalue = [0, 1]"] ;
230 -> 231 ;
232 [label="gini = 0.0\nsamples = 3\nvalue = [3, 0]"] ;
230 -> 232 ;
233 [label="hours-per-week <= 47.5\ngini = 0.375\nsamples = 4\nvalue = [3, 1]"] ;
223 -> 233 ;
234 [label="gini = 0.0\nsamples = 1\nvalue = [0, 1]"] ;
233 -> 234 ;
235 [label="gini = 0.0\nsamples = 3\nvalue = [3, 0]"] ;
233 -> 235 ;
236 [label="fnlwgt <= 78354.0\ngini = 0.2268\nsamples = 23\nvalue = [20, 3]"] ;
222 -> 236 ;
237 [label="gini = 0.0\nsamples = 1\nvalue = [0, 1]"] ;
236 -> 237 ;
238 [label="occupation_Sales <= 0.5\ngini = 0.1653\nsamples = 22\nvalue = [20, 2]"] ;
236 -> 238 ;
239 [label="occupation_Exec-managerial <= 0.5\ngini = 0.0997\nsamples = 19\nvalue = [18, 1]"] ;
238 -> 239 ;
240 [label="gini = 0.0\nsamples = 15\nvalue = [15, 0]"] ;
239 -> 240 ;
241 [label="relationship_Own-child <= 0.5\ngini = 0.375\nsamples = 4\nvalue = [3, 1]"] ;
239 -> 241 ;
242 [label="gini = 0.0\nsamples = 1\nvalue = [0, 1]"] ;
241 -> 242 ;
243 [label="gini = 0.0\nsamples = 3\nvalue = [3, 0]"] ;
241 -> 243 ;
244 [label="age <= 26.0\ngini = 0.4444\nsamples = 3\nvalue = [2, 1]"] ;
238 -> 244 ;
245 [label="gini = 0.0\nsamples = 2\nvalue = [2, 0]"] ;
244 -> 245 ;
246 [label="gini = 0.0\nsamples = 1\nvalue = [0, 1]"] ;
244 -> 246 ;
247 [label="workclass_Private <= 0.5\ngini = 0.5\nsamples = 2\nvalue = [1, 1]"] ;
221 -> 247 ;
248 [label="gini = 0.0\nsamples = 1\nvalue = [1, 0]"] ;
247 -> 248 ;
249 [label="gini = 0.0\nsamples = 1\nvalue = [0, 1]"] ;
247 -> 249 ;
250 [label="capital-loss <= 2391.5\ngini = 0.4417\nsamples = 899\nvalue = [603, 296]"] ;
220 -> 250 ;
251 [label="occupation_Exec-managerial <= 0.5\ngini = 0.4337\nsamples = 884\nvalue = [603, 281]"] ;
250 -> 251 ;
252 [label="education-num <= 14.5\ngini = 0.3981\nsamples = 660\nvalue = [479, 181]"] ;
251 -> 252 ;
253 [label="sex_Female <= 0.5\ngini = 0.3612\nsamples = 558\nvalue = [426, 132]"] ;
252 -> 253 ;
254 [label="age <= 42.5\ngini = 0.4241\nsamples = 308\nvalue = [214, 94]"] ;
253 -> 254 ;
255 [label="workclass_Private <= 0.5\ngini = 0.385\nsamples = 196\nvalue = [145, 51]"] ;
254 -> 255 ;
256 [label="gini = 0.2809\nsamples = 71\nvalue = [59, 12]"] ;
255 -> 256 ;
257 [label="gini = 0.4293\nsamples = 125\nvalue = [86, 39]"] ;
255 -> 257 ;
258 [label="age <= 53.5\ngini = 0.4731\nsamples = 112\nvalue = [69, 43]"] ;
254 -> 258 ;
259 [label="gini = 0.4987\nsamples = 78\nvalue = [41, 37]"] ;
258 -> 259 ;
260 [label="gini = 0.2907\nsamples = 34\nvalue = [28, 6]"] ;
258 -> 260 ;
261 [label="fnlwgt <= 131504.0\ngini = 0.2578\nsamples = 250\nvalue = [212, 38]"] ;
253 -> 261 ;
262 [label="hours-per-week <= 61.0\ngini = 0.095\nsamples = 80\nvalue = [76, 4]"] ;
261 -> 262 ;
263 [label="gini = 0.0533\nsamples = 73\nvalue = [71, 2]"] ;
262 -> 263 ;
264 [label="gini = 0.4082\nsamples = 7\nvalue = [5, 2]"] ;
262 -> 264 ;
265 [label="fnlwgt <= 352536.5\ngini = 0.32\nsamples = 170\nvalue = [136, 34]"] ;
261 -> 265 ;
266 [label="gini = 0.2982\nsamples = 159\nvalue = [130, 29]"] ;
265 -> 266 ;
267 [label="gini = 0.4959\nsamples = 11\nvalue = [6, 5]"] ;
265 -> 267 ;
268 [label="age <= 32.5\ngini = 0.4992\nsamples = 102\nvalue = [53, 49]"] ;
252 -> 268 ;
269 [label="fnlwgt <= 401751.5\ngini = 0.2975\nsamples = 33\nvalue = [27, 6]"] ;
268 -> 269 ;
270 [label="native-country_Italy <= 0.5\ngini = 0.2311\nsamples = 30\nvalue = [26, 4]"] ;
269 -> 270 ;
271 [label="gini = 0.1855\nsamples = 29\nvalue = [26, 3]"] ;
270 -> 271 ;
272 [label="gini = 0.0\nsamples = 1\nvalue = [0, 1]"] ;
270 -> 272 ;
273 [label="native-country_United-States <= 0.5\ngini = 0.4444\nsamples = 3\nvalue = [1, 2]"] ;
269 -> 273 ;
274 [label="gini = 0.0\nsamples = 2\nvalue = [0, 2]"] ;
273 -> 274 ;
275 [label="gini = 0.0\nsamples = 1\nvalue = [1, 0]"] ;
273 -> 275 ;
276 [label="hours-per-week <= 89.5\ngini = 0.4696\nsamples = 69\nvalue = [26, 43]"] ;
268 -> 276 ;
277 [label="fnlwgt <= 40537.5\ngini = 0.4541\nsamples = 66\nvalue = [23, 43]"] ;
276 -> 277 ;
278 [label="gini = 0.32\nsamples = 5\nvalue = [4, 1]"] ;
277 -> 278 ;
279 [label="gini = 0.4289\nsamples = 61\nvalue = [19, 42]"] ;
277 -> 279 ;
280 [label="gini = 0.0\nsamples = 3\nvalue = [3, 0]"] ;
276 -> 280 ;
281 [label="age <= 39.5\ngini = 0.4943\nsamples = 224\nvalue = [124, 100]"] ;
251 -> 281 ;
282 [label="fnlwgt <= 185983.5\ngini = 0.4339\nsamples = 110\nvalue = [75, 35]"] ;
281 -> 282 ;
283 [label="marital-status_Divorced <= 0.5\ngini = 0.4824\nsamples = 64\nvalue = [38, 26]"] ;
282 -> 283 ;
284 [label="race_White <= 0.5\ngini = 0.4395\nsamples = 46\nvalue = [31, 15]"] ;
283 -> 284 ;
285 [label="gini = 0.0\nsamples = 5\nvalue = [5, 0]"] ;
284 -> 285 ;
286 [label="gini = 0.464\nsamples = 41\nvalue = [26, 15]"] ;
284 -> 286 ;
287 [label="fnlwgt <= 40949.5\ngini = 0.4753\nsamples = 18\nvalue = [7, 11]"] ;
283 -> 287 ;
288 [label="gini = 0.0\nsamples = 2\nvalue = [2, 0]"] ;
287 -> 288 ;
289 [label="gini = 0.4297\nsamples = 16\nvalue = [5, 11]"] ;
287 -> 289 ;
290 [label="fnlwgt <= 572687.5\ngini = 0.3147\nsamples = 46\nvalue = [37, 9]"] ;
282 -> 290 ;
291 [label="marital-status_Separated <= 0.5\ngini = 0.2676\nsamples = 44\nvalue = [37, 7]"] ;
290 -> 291 ;
292 [label="gini = 0.2142\nsamples = 41\nvalue = [36, 5]"] ;
291 -> 292 ;
293 [label="gini = 0.4444\nsamples = 3\nvalue = [1, 2]"] ;
291 -> 293 ;
294 [label="gini = 0.0\nsamples = 2\nvalue = [0, 2]"] ;
290 -> 294 ;
295 [label="workclass_Self-emp-not-inc <= 0.5\ngini = 0.4902\nsamples = 114\nvalue = [49, 65]"] ;
281 -> 295 ;
296 [label="education-num <= 14.5\ngini = 0.4741\nsamples = 101\nvalue = [39, 62]"] ;
295 -> 296 ;
297 [label="fnlwgt <= 114362.0\ngini = 0.487\nsamples = 93\nvalue = [39, 54]"] ;
296 -> 297 ;
298 [label="gini = 0.4851\nsamples = 29\nvalue = [17, 12]"] ;
297 -> 298 ;
299 [label="gini = 0.4512\nsamples = 64\nvalue = [22, 42]"] ;
297 -> 299 ;
300 [label="gini = 0.0\nsamples = 8\nvalue = [0, 8]"] ;
296 -> 300 ;
301 [label="education-num <= 13.5\ngini = 0.355\nsamples = 13\nvalue = [10, 3]"] ;
295 -> 301 ;
302 [label="gini = 0.0\nsamples = 9\nvalue = [9, 0]"] ;
301 -> 302 ;
303 [label="hours-per-week <= 52.5\ngini = 0.375\nsamples = 4\nvalue = [1, 3]"] ;
301 -> 303 ;
304 [label="gini = 0.0\nsamples = 3\nvalue = [0, 3]"] ;
303 -> 304 ;
305 [label="gini = 0.0\nsamples = 1\nvalue = [1, 0]"] ;
303 -> 305 ;
306 [label="gini = 0.0\nsamples = 15\nvalue = [0, 15]"] ;
250 -> 306 ;
307 [label="age <= 20.5\ngini = 0.0682\nsamples = 311\nvalue = [11, 300]"] ;
1 -> 307 ;
308 [label="gini = 0.0\nsamples = 4\nvalue = [4, 0]"] ;
307 -> 308 ;
309 [label="fnlwgt <= 25115.5\ngini = 0.0446\nsamples = 307\nvalue = [7, 300]"] ;
307 -> 309 ;
310 [label="gini = 0.0\nsamples = 2\nvalue = [2, 0]"] ;
309 -> 310 ;
311 [label="occupation_Handlers-cleaners <= 0.5\ngini = 0.0322\nsamples = 305\nvalue = [5, 300]"] ;
309 -> 311 ;
312 [label="capital-gain <= 8296.0\ngini = 0.026\nsamples = 304\nvalue = [4, 300]"] ;
311 -> 312 ;
313 [label="hours-per-week <= 35.5\ngini = 0.3047\nsamples = 16\nvalue = [3, 13]"] ;
312 -> 313 ;
314 [label="gini = 0.0\nsamples = 2\nvalue = [2, 0]"] ;
313 -> 314 ;
315 [label="education_Some-college <= 0.5\ngini = 0.1327\nsamples = 14\nvalue = [1, 13]"] ;
313 -> 315 ;
316 [label="gini = 0.0\nsamples = 12\nvalue = [0, 12]"] ;
315 -> 316 ;
317 [label="relationship_Unmarried <= 0.5\ngini = 0.5\nsamples = 2\nvalue = [1, 1]"] ;
315 -> 317 ;
318 [label="gini = 0.0\nsamples = 1\nvalue = [0, 1]"] ;
317 -> 318 ;
319 [label="gini = 0.0\nsamples = 1\nvalue = [1, 0]"] ;
317 -> 319 ;
320 [label="capital-gain <= 30961.5\ngini = 0.0069\nsamples = 288\nvalue = [1, 287]"] ;
312 -> 320 ;
321 [label="gini = 0.0\nsamples = 260\nvalue = [0, 260]"] ;
320 -> 321 ;
322 [label="capital-gain <= 67047.0\ngini = 0.0689\nsamples = 28\nvalue = [1, 27]"] ;
320 -> 322 ;
323 [label="gini = 0.0\nsamples = 1\nvalue = [1, 0]"] ;
322 -> 323 ;
324 [label="gini = 0.0\nsamples = 27\nvalue = [0, 27]"] ;
322 -> 324 ;
325 [label="gini = 0.0\nsamples = 1\nvalue = [1, 0]"] ;
311 -> 325 ;
326 [label="education-num <= 12.5\ngini = 0.4943\nsamples = 14976\nvalue = [8284, 6692]"] ;
0 -> 326 [labeldistance=2.5, labelangle=-45, headlabel="False"] ;
327 [label="capital-gain <= 5095.5\ngini = 0.4429\nsamples = 10507\nvalue = [7029, 3478]"] ;
326 -> 327 ;
328 [label="education-num <= 8.5\ngini = 0.4174\nsamples = 9979\nvalue = [7018, 2961]"] ;
327 -> 328 ;
329 [label="capital-loss <= 1791.5\ngini = 0.1814\nsamples = 1656\nvalue = [1489, 167]"] ;
328 -> 329 ;
330 [label="age <= 36.5\ngini = 0.17\nsamples = 1621\nvalue = [1469, 152]"] ;
329 -> 330 ;
331 [label="native-country_Trinadad&Tobago <= 0.5\ngini = 0.0816\nsamples = 493\nvalue = [472, 21]"] ;
330 -> 331 ;
332 [label="occupation_Tech-support <= 0.5\ngini = 0.078\nsamples = 492\nvalue = [472, 20]"] ;
331 -> 332 ;
333 [label="hours-per-week <= 49.0\ngini = 0.0712\nsamples = 487\nvalue = [469, 18]"] ;
332 -> 333 ;
334 [label="native-country_Laos <= 0.5\ngini = 0.0432\nsamples = 407\nvalue = [398, 9]"] ;
333 -> 334 ;
335 [label="education-num <= 7.5\ngini = 0.0387\nsamples = 405\nvalue = [397, 8]"] ;
334 -> 335 ;
336 [label="gini = 0.027\nsamples = 365\nvalue = [360, 5]"] ;
335 -> 336 ;
337 [label="gini = 0.1388\nsamples = 40\nvalue = [37, 3]"] ;
335 -> 337 ;
338 [label="education_11th <= 0.5\ngini = 0.5\nsamples = 2\nvalue = [1, 1]"] ;
334 -> 338 ;
339 [label="gini = 0.0\nsamples = 1\nvalue = [0, 1]"] ;
338 -> 339 ;
340 [label="gini = 0.0\nsamples = 1\nvalue = [1, 0]"] ;
338 -> 340 ;
341 [label="relationship_Not-in-family <= 0.5\ngini = 0.1997\nsamples = 80\nvalue = [71, 9]"] ;
333 -> 341 ;
342 [label="fnlwgt <= 29992.5\ngini = 0.182\nsamples = 79\nvalue = [71, 8]"] ;
341 -> 342 ;
343 [label="gini = 0.5\nsamples = 2\nvalue = [1, 1]"] ;
342 -> 343 ;
344 [label="gini = 0.1653\nsamples = 77\nvalue = [70, 7]"] ;
342 -> 344 ;
345 [label="gini = 0.0\nsamples = 1\nvalue = [0, 1]"] ;
341 -> 345 ;
346 [label="fnlwgt <= 273083.5\ngini = 0.48\nsamples = 5\nvalue = [3, 2]"] ;
332 -> 346 ;
347 [label="gini = 0.0\nsamples = 3\nvalue = [3, 0]"] ;
346 -> 347 ;
348 [label="gini = 0.0\nsamples = 2\nvalue = [0, 2]"] ;
346 -> 348 ;
349 [label="gini = 0.0\nsamples = 1\nvalue = [0, 1]"] ;
331 -> 349 ;
350 [label="education-num <= 5.5\ngini = 0.2053\nsamples = 1128\nvalue = [997, 131]"] ;
330 -> 350 ;
351 [label="hours-per-week <= 49.5\ngini = 0.155\nsamples = 626\nvalue = [573, 53]"] ;
350 -> 351 ;
352 [label="workclass_Self-emp-inc <= 0.5\ngini = 0.1117\nsamples = 522\nvalue = [491, 31]"] ;
351 -> 352 ;
353 [label="native-country_Yugoslavia <= 0.5\ngini = 0.0999\nsamples = 512\nvalue = [485, 27]"] ;
352 -> 353 ;
354 [label="workclass_Federal-gov <= 0.5\ngini = 0.0966\nsamples = 511\nvalue = [485, 26]"] ;
353 -> 354 ;
355 [label="gini = 0.0932\nsamples = 510\nvalue = [485, 25]"] ;
354 -> 355 ;
356 [label="gini = 0.0\nsamples = 1\nvalue = [0, 1]"] ;
354 -> 356 ;
357 [label="gini = 0.0\nsamples = 1\nvalue = [0, 1]"] ;
353 -> 357 ;
358 [label="education-num <= 4.5\ngini = 0.48\nsamples = 10\nvalue = [6, 4]"] ;
352 -> 358 ;
359 [label="fnlwgt <= 129309.0\ngini = 0.4898\nsamples = 7\nvalue = [3, 4]"] ;
358 -> 359 ;
360 [label="gini = 0.0\nsamples = 2\nvalue = [0, 2]"] ;
359 -> 360 ;
361 [label="gini = 0.48\nsamples = 5\nvalue = [3, 2]"] ;
359 -> 361 ;
362 [label="gini = 0.0\nsamples = 3\nvalue = [3, 0]"] ;
358 -> 362 ;
363 [label="capital-gain <= 4164.0\ngini = 0.3336\nsamples = 104\nvalue = [82, 22]"] ;
351 -> 363 ;
364 [label="age <= 63.5\ngini = 0.3246\nsamples = 103\nvalue = [82, 21]"] ;
363 -> 364 ;
365 [label="age <= 62.5\ngini = 0.3496\nsamples = 93\nvalue = [72, 21]"] ;
364 -> 365 ;
366 [label="gini = 0.3331\nsamples = 90\nvalue = [71, 19]"] ;
365 -> 366 ;
367 [label="gini = 0.4444\nsamples = 3\nvalue = [1, 2]"] ;
365 -> 367 ;
368 [label="gini = 0.0\nsamples = 10\nvalue = [10, 0]"] ;
364 -> 368 ;
369 [label="gini = 0.0\nsamples = 1\nvalue = [0, 1]"] ;
363 -> 369 ;
370 [label="age <= 65.5\ngini = 0.2625\nsamples = 502\nvalue = [424, 78]"] ;
350 -> 370 ;
371 [label="occupation_Prof-specialty <= 0.5\ngini = 0.2851\nsamples = 453\nvalue = [375, 78]"] ;
370 -> 371 ;
372 [label="fnlwgt <= 366223.0\ngini = 0.2783\nsamples = 449\nvalue = [374, 75]"] ;
371 -> 372 ;
373 [label="fnlwgt <= 198384.0\ngini = 0.2651\nsamples = 426\nvalue = [359, 67]"] ;
372 -> 373 ;
374 [label="gini = 0.3055\nsamples = 287\nvalue = [233, 54]"] ;
373 -> 374 ;
375 [label="gini = 0.1696\nsamples = 139\nvalue = [126, 13]"] ;
373 -> 375 ;
376 [label="hours-per-week <= 41.5\ngini = 0.4537\nsamples = 23\nvalue = [15, 8]"] ;
372 -> 376 ;
377 [label="gini = 0.3457\nsamples = 18\nvalue = [14, 4]"] ;
376 -> 377 ;
378 [label="gini = 0.32\nsamples = 5\nvalue = [1, 4]"] ;
376 -> 378 ;
379 [label="age <= 39.5\ngini = 0.375\nsamples = 4\nvalue = [1, 3]"] ;
371 -> 379 ;
380 [label="gini = 0.0\nsamples = 1\nvalue = [1, 0]"] ;
379 -> 380 ;
381 [label="gini = 0.0\nsamples = 3\nvalue = [0, 3]"] ;
379 -> 381 ;
382 [label="gini = 0.0\nsamples = 49\nvalue = [49, 0]"] ;
370 -> 382 ;
383 [label="capital-loss <= 1989.5\ngini = 0.4898\nsamples = 35\nvalue = [20, 15]"] ;
329 -> 383 ;
384 [label="race_Amer-Indian-Eskimo <= 0.5\ngini = 0.2076\nsamples = 17\nvalue = [2, 15]"] ;
383 -> 384 ;
385 [label="workclass_Local-gov <= 0.5\ngini = 0.1172\nsamples = 16\nvalue = [1, 15]"] ;
384 -> 385 ;
386 [label="gini = 0.0\nsamples = 13\nvalue = [0, 13]"] ;
385 -> 386 ;
387 [label="fnlwgt <= 281402.5\ngini = 0.4444\nsamples = 3\nvalue = [1, 2]"] ;
385 -> 387 ;
388 [label="gini = 0.0\nsamples = 1\nvalue = [1, 0]"] ;
387 -> 388 ;
389 [label="gini = 0.0\nsamples = 2\nvalue = [0, 2]"] ;
387 -> 389 ;
390 [label="gini = 0.0\nsamples = 1\nvalue = [1, 0]"] ;
384 -> 390 ;
391 [label="gini = 0.0\nsamples = 18\nvalue = [18, 0]"] ;
383 -> 391 ;
392 [label="capital-loss <= 1782.5\ngini = 0.446\nsamples = 8323\nvalue = [5529, 2794]"] ;
328 -> 392 ;
393 [label="age <= 35.5\ngini = 0.4339\nsamples = 7988\nvalue = [5446, 2542]"] ;
392 -> 393 ;
394 [label="age <= 29.5\ngini = 0.3249\nsamples = 2704\nvalue = [2152, 552]"] ;
393 -> 394 ;
395 [label="age <= 24.5\ngini = 0.2388\nsamples = 1205\nvalue = [1038, 167]"] ;
394 -> 395 ;
396 [label="occupation_Transport-moving <= 0.5\ngini = 0.1076\nsamples = 333\nvalue = [314, 19]"] ;
395 -> 396 ;
397 [label="fnlwgt <= 542762.5\ngini = 0.0794\nsamples = 314\nvalue = [301, 13]"] ;
396 -> 397 ;
398 [label="hours-per-week <= 71.0\ngini = 0.0737\nsamples = 313\nvalue = [301, 12]"] ;
397 -> 398 ;
399 [label="gini = 0.0682\nsamples = 311\nvalue = [300, 11]"] ;
398 -> 399 ;
400 [label="gini = 0.5\nsamples = 2\nvalue = [1, 1]"] ;
398 -> 400 ;
401 [label="gini = 0.0\nsamples = 1\nvalue = [0, 1]"] ;
397 -> 401 ;
402 [label="fnlwgt <= 332860.0\ngini = 0.4321\nsamples = 19\nvalue = [13, 6]"] ;
396 -> 402 ;
403 [label="workclass_State-gov <= 0.5\ngini = 0.3599\nsamples = 17\nvalue = [13, 4]"] ;
402 -> 403 ;
404 [label="gini = 0.3047\nsamples = 16\nvalue = [13, 3]"] ;
403 -> 404 ;
405 [label="gini = 0.0\nsamples = 1\nvalue = [0, 1]"] ;
403 -> 405 ;
406 [label="gini = 0.0\nsamples = 2\nvalue = [0, 2]"] ;
402 -> 406 ;
407 [label="education_HS-grad <= 0.5\ngini = 0.2818\nsamples = 872\nvalue = [724, 148]"] ;
395 -> 407 ;
408 [label="fnlwgt <= 291086.0\ngini = 0.3492\nsamples = 386\nvalue = [299, 87]"] ;
407 -> 408 ;
409 [label="workclass_Federal-gov <= 0.5\ngini = 0.3162\nsamples = 315\nvalue = [253, 62]"] ;
408 -> 409 ;
410 [label="gini = 0.3039\nsamples = 305\nvalue = [248, 57]"] ;
409 -> 410 ;
411 [label="gini = 0.5\nsamples = 10\nvalue = [5, 5]"] ;
409 -> 411 ;
412 [label="workclass_Local-gov <= 0.5\ngini = 0.4563\nsamples = 71\nvalue = [46, 25]"] ;
408 -> 412 ;
413 [label="gini = 0.4304\nsamples = 67\nvalue = [46, 21]"] ;
412 -> 413 ;
414 [label="gini = 0.0\nsamples = 4\nvalue = [0, 4]"] ;
412 -> 414 ;
415 [label="occupation_Prof-specialty <= 0.5\ngini = 0.2195\nsamples = 486\nvalue = [425, 61]"] ;
407 -> 415 ;
416 [label="hours-per-week <= 76.0\ngini = 0.208\nsamples = 475\nvalue = [419, 56]"] ;
415 -> 416 ;
417 [label="gini = 0.2008\nsamples = 468\nvalue = [415, 53]"] ;
416 -> 417 ;
418 [label="gini = 0.4898\nsamples = 7\nvalue = [4, 3]"] ;
416 -> 418 ;
419 [label="age <= 28.5\ngini = 0.4959\nsamples = 11\nvalue = [6, 5]"] ;
415 -> 419 ;
420 [label="gini = 0.0\nsamples = 5\nvalue = [5, 0]"] ;
419 -> 420 ;
421 [label="gini = 0.2778\nsamples = 6\nvalue = [1, 5]"] ;
419 -> 421 ;
422 [label="education_HS-grad <= 0.5\ngini = 0.3817\nsamples = 1499\nvalue = [1114, 385]"] ;
394 -> 422 ;
423 [label="fnlwgt <= 157762.5\ngini = 0.4342\nsamples = 678\nvalue = [462, 216]"] ;
422 -> 423 ;
424 [label="fnlwgt <= 27233.5\ngini = 0.3641\nsamples = 280\nvalue = [213, 67]"] ;
423 -> 424 ;
425 [label="fnlwgt <= 25285.5\ngini = 0.4444\nsamples = 9\nvalue = [3, 6]"] ;
424 -> 425 ;
426 [label="gini = 0.48\nsamples = 5\nvalue = [3, 2]"] ;
425 -> 426 ;
427 [label="gini = 0.0\nsamples = 4\nvalue = [0, 4]"] ;
425 -> 427 ;
428 [label="fnlwgt <= 83939.0\ngini = 0.3489\nsamples = 271\nvalue = [210, 61]"] ;
424 -> 428 ;
429 [label="gini = 0.2488\nsamples = 103\nvalue = [88, 15]"] ;
428 -> 429 ;
430 [label="gini = 0.3977\nsamples = 168\nvalue = [122, 46]"] ;
428 -> 430 ;
431 [label="occupation_Exec-managerial <= 0.5\ngini = 0.4684\nsamples = 398\nvalue = [249, 149]"] ;
423 -> 431 ;
432 [label="occupation_Prof-specialty <= 0.5\ngini = 0.4508\nsamples = 341\nvalue = [224, 117]"] ;
431 -> 432 ;
433 [label="gini = 0.4331\nsamples = 309\nvalue = [211, 98]"] ;
432 -> 433 ;
434 [label="gini = 0.4824\nsamples = 32\nvalue = [13, 19]"] ;
432 -> 434 ;
435 [label="workclass_Self-emp-not-inc <= 0.5\ngini = 0.4925\nsamples = 57\nvalue = [25, 32]"] ;
431 -> 435 ;
436 [label="gini = 0.4785\nsamples = 53\nvalue = [21, 32]"] ;
435 -> 436 ;
437 [label="gini = 0.0\nsamples = 4\nvalue = [4, 0]"] ;
435 -> 437 ;
438 [label="hours-per-week <= 52.5\ngini = 0.3269\nsamples = 821\nvalue = [652, 169]"] ;
422 -> 438 ;
439 [label="race_White <= 0.5\ngini = 0.2975\nsamples = 704\nvalue = [576, 128]"] ;
438 -> 439 ;
440 [label="fnlwgt <= 22421.0\ngini = 0.1083\nsamples = 87\nvalue = [82, 5]"] ;
439 -> 440 ;
441 [label="gini = 0.0\nsamples = 1\nvalue = [0, 1]"] ;
440 -> 441 ;
442 [label="gini = 0.0887\nsamples = 86\nvalue = [82, 4]"] ;
440 -> 442 ;
443 [label="relationship_Wife <= 0.5\ngini = 0.3192\nsamples = 617\nvalue = [494, 123]"] ;
439 -> 443 ;
444 [label="gini = 0.2977\nsamples = 555\nvalue = [454, 101]"] ;
443 -> 444 ;
445 [label="gini = 0.4579\nsamples = 62\nvalue = [40, 22]"] ;
443 -> 445 ;
446 [label="native-country_United-States <= 0.5\ngini = 0.4553\nsamples = 117\nvalue = [76, 41]"] ;
438 -> 446 ;
447 [label="relationship_Husband <= 0.5\ngini = 0.3457\nsamples = 9\nvalue = [2, 7]"] ;
446 -> 447 ;
448 [label="gini = 0.0\nsamples = 1\nvalue = [1, 0]"] ;
447 -> 448 ;
449 [label="gini = 0.2188\nsamples = 8\nvalue = [1, 7]"] ;
447 -> 449 ;
450 [label="workclass_Self-emp-not-inc <= 0.5\ngini = 0.4314\nsamples = 108\nvalue = [74, 34]"] ;
446 -> 450 ;
451 [label="gini = 0.4688\nsamples = 80\nvalue = [50, 30]"] ;
450 -> 451 ;
452 [label="gini = 0.2449\nsamples = 28\nvalue = [24, 4]"] ;
450 -> 452 ;
453 [label="hours-per-week <= 34.5\ngini = 0.4695\nsamples = 5284\nvalue = [3294, 1990]"] ;
393 -> 453 ;
454 [label="relationship_Wife <= 0.5\ngini = 0.2653\nsamples = 578\nvalue = [487, 91]"] ;
453 -> 454 ;
455 [label="education-num <= 9.5\ngini = 0.1859\nsamples = 434\nvalue = [389, 45]"] ;
454 -> 455 ;
456 [label="workclass_Self-emp-inc <= 0.5\ngini = 0.1064\nsamples = 266\nvalue = [251, 15]"] ;
455 -> 456 ;
457 [label="occupation_Tech-support <= 0.5\ngini = 0.0894\nsamples = 256\nvalue = [244, 12]"] ;
456 -> 457 ;
458 [label="gini = 0.0765\nsamples = 251\nvalue = [241, 10]"] ;
457 -> 458 ;
459 [label="gini = 0.48\nsamples = 5\nvalue = [3, 2]"] ;
457 -> 459 ;
460 [label="fnlwgt <= 222288.0\ngini = 0.42\nsamples = 10\nvalue = [7, 3]"] ;
456 -> 460 ;
461 [label="gini = 0.2449\nsamples = 7\nvalue = [6, 1]"] ;
460 -> 461 ;
462 [label="gini = 0.4444\nsamples = 3\nvalue = [1, 2]"] ;
460 -> 462 ;
463 [label="hours-per-week <= 2.5\ngini = 0.2934\nsamples = 168\nvalue = [138, 30]"] ;
455 -> 463 ;
464 [label="gini = 0.0\nsamples = 1\nvalue = [0, 1]"] ;
463 -> 464 ;
465 [label="age <= 69.5\ngini = 0.287\nsamples = 167\nvalue = [138, 29]"] ;
463 -> 465 ;
466 [label="gini = 0.2434\nsamples = 134\nvalue = [115, 19]"] ;
465 -> 466 ;
467 [label="gini = 0.4224\nsamples = 33\nvalue = [23, 10]"] ;
465 -> 467 ;
468 [label="occupation_Exec-managerial <= 0.5\ngini = 0.4348\nsamples = 144\nvalue = [98, 46]"] ;
454 -> 468 ;
469 [label="education-num <= 10.5\ngini = 0.4024\nsamples = 129\nvalue = [93, 36]"] ;
468 -> 469 ;
470 [label="occupation_Adm-clerical <= 0.5\ngini = 0.3581\nsamples = 107\nvalue = [82, 25]"] ;
469 -> 470 ;
471 [label="gini = 0.2807\nsamples = 77\nvalue = [64, 13]"] ;
470 -> 471 ;
472 [label="gini = 0.48\nsamples = 30\nvalue = [18, 12]"] ;
470 -> 472 ;
473 [label="fnlwgt <= 75722.5\ngini = 0.5\nsamples = 22\nvalue = [11, 11]"] ;
469 -> 473 ;
474 [label="gini = 0.0\nsamples = 3\nvalue = [3, 0]"] ;
473 -> 474 ;
475 [label="gini = 0.4875\nsamples = 19\nvalue = [8, 11]"] ;
473 -> 475 ;
476 [label="hours-per-week <= 31.0\ngini = 0.4444\nsamples = 15\nvalue = [5, 10]"] ;
468 -> 476 ;
477 [label="age <= 38.5\ngini = 0.2778\nsamples = 12\nvalue = [2, 10]"] ;
476 -> 477 ;
478 [label="gini = 0.0\nsamples = 1\nvalue = [1, 0]"] ;
477 -> 478 ;
479 [label="gini = 0.1653\nsamples = 11\nvalue = [1, 10]"] ;
477 -> 479 ;
480 [label="gini = 0.0\nsamples = 3\nvalue = [3, 0]"] ;
476 -> 480 ;
481 [label="education_HS-grad <= 0.5\ngini = 0.4814\nsamples = 4706\nvalue = [2807, 1899]"] ;
453 -> 481 ;
482 [label="workclass_Self-emp-not-inc <= 0.5\ngini = 0.4988\nsamples = 2084\nvalue = [1093, 991]"] ;
481 -> 482 ;
483 [label="occupation_Exec-managerial <= 0.5\ngini = 0.5\nsamples = 1846\nvalue = [923, 923]"] ;
482 -> 483 ;
484 [label="occupation_Handlers-cleaners <= 0.5\ngini = 0.4981\nsamples = 1519\nvalue = [806, 713]"] ;
483 -> 484 ;
485 [label="gini = 0.499\nsamples = 1481\nvalue = [773, 708]"] ;
484 -> 485 ;
486 [label="gini = 0.2285\nsamples = 38\nvalue = [33, 5]"] ;
484 -> 486 ;
487 [label="capital-loss <= 1512.0\ngini = 0.4596\nsamples = 327\nvalue = [117, 210]"] ;
483 -> 487 ;
488 [label="gini = 0.4512\nsamples = 320\nvalue = [110, 210]"] ;
487 -> 488 ;
489 [label="gini = 0.0\nsamples = 7\nvalue = [7, 0]"] ;
487 -> 489 ;
490 [label="fnlwgt <= 353260.0\ngini = 0.4082\nsamples = 238\nvalue = [170, 68]"] ;
482 -> 490 ;
491 [label="occupation_Machine-op-inspct <= 0.5\ngini = 0.3838\nsamples = 224\nvalue = [166, 58]"] ;
490 -> 491 ;
492 [label="gini = 0.3704\nsamples = 220\nvalue = [166, 54]"] ;
491 -> 492 ;
493 [label="gini = 0.0\nsamples = 4\nvalue = [0, 4]"] ;
491 -> 493 ;
494 [label="occupation_Sales <= 0.5\ngini = 0.4082\nsamples = 14\nvalue = [4, 10]"] ;
490 -> 494 ;
495 [label="gini = 0.4938\nsamples = 9\nvalue = [4, 5]"] ;
494 -> 495 ;
496 [label="gini = 0.0\nsamples = 5\nvalue = [0, 5]"] ;
494 -> 496 ;
497 [label="occupation_Exec-managerial <= 0.5\ngini = 0.4528\nsamples = 2622\nvalue = [1714, 908]"] ;
481 -> 497 ;
498 [label="workclass_Federal-gov <= 0.5\ngini = 0.4423\nsamples = 2353\nvalue = [1576, 777]"] ;
497 -> 498 ;
499 [label="occupation_Other-service <= 0.5\ngini = 0.4358\nsamples = 2269\nvalue = [1541, 728]"] ;
498 -> 499 ;
500 [label="gini = 0.4433\nsamples = 2129\nvalue = [1423, 706]"] ;
499 -> 500 ;
501 [label="gini = 0.2649\nsamples = 140\nvalue = [118, 22]"] ;
499 -> 501 ;
502 [label="age <= 43.5\ngini = 0.4861\nsamples = 84\nvalue = [35, 49]"] ;
498 -> 502 ;
503 [label="gini = 0.48\nsamples = 25\nvalue = [15, 10]"] ;
502 -> 503 ;
504 [label="gini = 0.4481\nsamples = 59\nvalue = [20, 39]"] ;
502 -> 504 ;
505 [label="workclass_Self-emp-not-inc <= 0.5\ngini = 0.4997\nsamples = 269\nvalue = [138, 131]"] ;
497 -> 505 ;
506 [label="fnlwgt <= 190421.0\ngini = 0.4966\nsamples = 218\nvalue = [100, 118]"] ;
505 -> 506 ;
507 [label="gini = 0.4996\nsamples = 144\nvalue = [74, 70]"] ;
506 -> 507 ;
508 [label="gini = 0.4558\nsamples = 74\nvalue = [26, 48]"] ;
506 -> 508 ;
509 [label="age <= 46.5\ngini = 0.3799\nsamples = 51\nvalue = [38, 13]"] ;
505 -> 509 ;
510 [label="gini = 0.1975\nsamples = 27\nvalue = [24, 3]"] ;
509 -> 510 ;
511 [label="gini = 0.4861\nsamples = 24\nvalue = [14, 10]"] ;
509 -> 511 ;
512 [label="capital-loss <= 1989.5\ngini = 0.3728\nsamples = 335\nvalue = [83, 252]"] ;
392 -> 512 ;
513 [label="age <= 24.0\ngini = 0.0795\nsamples = 241\nvalue = [10, 231]"] ;
512 -> 513 ;
514 [label="gini = 0.0\nsamples = 2\nvalue = [2, 0]"] ;
513 -> 514 ;
515 [label="age <= 66.5\ngini = 0.0647\nsamples = 239\nvalue = [8, 231]"] ;
513 -> 515 ;
516 [label="capital-loss <= 1894.5\ngini = 0.0571\nsamples = 238\nvalue = [7, 231]"] ;
515 -> 516 ;
517 [label="gini = 0.0\nsamples = 123\nvalue = [0, 123]"] ;
516 -> 517 ;
518 [label="age <= 27.5\ngini = 0.1143\nsamples = 115\nvalue = [7, 108]"] ;
516 -> 518 ;
519 [label="education_Some-college <= 0.5\ngini = 0.5\nsamples = 2\nvalue = [1, 1]"] ;
518 -> 519 ;
520 [label="gini = 0.0\nsamples = 1\nvalue = [1, 0]"] ;
519 -> 520 ;
521 [label="gini = 0.0\nsamples = 1\nvalue = [0, 1]"] ;
519 -> 521 ;
522 [label="workclass_State-gov <= 0.5\ngini = 0.1006\nsamples = 113\nvalue = [6, 107]"] ;
518 -> 522 ;
523 [label="gini = 0.086\nsamples = 111\nvalue = [5, 106]"] ;
522 -> 523 ;
524 [label="gini = 0.5\nsamples = 2\nvalue = [1, 1]"] ;
522 -> 524 ;
525 [label="gini = 0.0\nsamples = 1\nvalue = [1, 0]"] ;
515 -> 525 ;
526 [label="capital-loss <= 2161.5\ngini = 0.347\nsamples = 94\nvalue = [73, 21]"] ;
512 -> 526 ;
527 [label="gini = 0.0\nsamples = 45\nvalue = [45, 0]"] ;
526 -> 527 ;
528 [label="age <= 37.5\ngini = 0.4898\nsamples = 49\nvalue = [28, 21]"] ;
526 -> 528 ;
529 [label="occupation_Other-service <= 0.5\ngini = 0.1528\nsamples = 12\nvalue = [11, 1]"] ;
528 -> 529 ;
530 [label="gini = 0.0\nsamples = 11\nvalue = [11, 0]"] ;
529 -> 530 ;
531 [label="gini = 0.0\nsamples = 1\nvalue = [0, 1]"] ;
529 -> 531 ;
532 [label="capital-loss <= 2436.0\ngini = 0.4967\nsamples = 37\nvalue = [17, 20]"] ;
528 -> 532 ;
533 [label="capital-loss <= 2396.0\ngini = 0.4444\nsamples = 30\nvalue = [10, 20]"] ;
532 -> 533 ;
534 [label="age <= 63.0\ngini = 0.4989\nsamples = 21\nvalue = [10, 11]"] ;
533 -> 534 ;
535 [label="gini = 0.32\nsamples = 10\nvalue = [8, 2]"] ;
534 -> 535 ;
536 [label="gini = 0.2975\nsamples = 11\nvalue = [2, 9]"] ;
534 -> 536 ;
537 [label="gini = 0.0\nsamples = 9\nvalue = [0, 9]"] ;
533 -> 537 ;
538 [label="gini = 0.0\nsamples = 7\nvalue = [7, 0]"] ;
532 -> 538 ;
539 [label="age <= 60.5\ngini = 0.0408\nsamples = 528\nvalue = [11, 517]"] ;
327 -> 539 ;
540 [label="education-num <= 1.5\ngini = 0.0043\nsamples = 462\nvalue = [1, 461]"] ;
539 -> 540 ;
541 [label="gini = 0.0\nsamples = 1\nvalue = [1, 0]"] ;
540 -> 541 ;
542 [label="gini = 0.0\nsamples = 461\nvalue = [0, 461]"] ;
540 -> 542 ;
543 [label="occupation_Protective-serv <= 0.5\ngini = 0.2571\nsamples = 66\nvalue = [10, 56]"] ;
539 -> 543 ;
544 [label="workclass_Local-gov <= 0.5\ngini = 0.2386\nsamples = 65\nvalue = [9, 56]"] ;
543 -> 544 ;
545 [label="capital-gain <= 9976.0\ngini = 0.2188\nsamples = 64\nvalue = [8, 56]"] ;
544 -> 545 ;
546 [label="hours-per-week <= 8.0\ngini = 0.1049\nsamples = 36\nvalue = [2, 34]"] ;
545 -> 546 ;
547 [label="gini = 0.0\nsamples = 1\nvalue = [1, 0]"] ;
546 -> 547 ;
548 [label="education_Assoc-voc <= 0.5\ngini = 0.0555\nsamples = 35\nvalue = [1, 34]"] ;
546 -> 548 ;
549 [label="gini = 0.0\nsamples = 32\nvalue = [0, 32]"] ;
548 -> 549 ;
550 [label="occupation_Farming-fishing <= 0.5\ngini = 0.4444\nsamples = 3\nvalue = [1, 2]"] ;
548 -> 550 ;
551 [label="gini = 0.0\nsamples = 2\nvalue = [0, 2]"] ;
550 -> 551 ;
552 [label="gini = 0.0\nsamples = 1\nvalue = [1, 0]"] ;
550 -> 552 ;
553 [label="capital-gain <= 10585.5\ngini = 0.3367\nsamples = 28\nvalue = [6, 22]"] ;
545 -> 553 ;
554 [label="gini = 0.0\nsamples = 5\nvalue = [5, 0]"] ;
553 -> 554 ;
555 [label="fnlwgt <= 34689.5\ngini = 0.0832\nsamples = 23\nvalue = [1, 22]"] ;
553 -> 555 ;
556 [label="gini = 0.0\nsamples = 1\nvalue = [1, 0]"] ;
555 -> 556 ;
557 [label="gini = 0.0\nsamples = 22\nvalue = [0, 22]"] ;
555 -> 557 ;
558 [label="gini = 0.0\nsamples = 1\nvalue = [1, 0]"] ;
544 -> 558 ;
559 [label="gini = 0.0\nsamples = 1\nvalue = [1, 0]"] ;
543 -> 559 ;
560 [label="capital-gain <= 5095.5\ngini = 0.4039\nsamples = 4469\nvalue = [1255, 3214]"] ;
326 -> 560 ;
561 [label="capital-loss <= 1782.5\ngini = 0.4426\nsamples = 3788\nvalue = [1252, 2536]"] ;
560 -> 561 ;
562 [label="hours-per-week <= 31.0\ngini = 0.4638\nsamples = 3390\nvalue = [1239, 2151]"] ;
561 -> 562 ;
563 [label="relationship_Wife <= 0.5\ngini = 0.4641\nsamples = 306\nvalue = [194, 112]"] ;
562 -> 563 ;
564 [label="education-num <= 14.5\ngini = 0.4097\nsamples = 233\nvalue = [166, 67]"] ;
563 -> 564 ;
565 [label="age <= 32.5\ngini = 0.3585\nsamples = 188\nvalue = [144, 44]"] ;
564 -> 565 ;
566 [label="occupation_Other-service <= 0.5\ngini = 0.0571\nsamples = 34\nvalue = [33, 1]"] ;
565 -> 566 ;
567 [label="gini = 0.0\nsamples = 32\nvalue = [32, 0]"] ;
566 -> 567 ;
568 [label="hours-per-week <= 17.5\ngini = 0.5\nsamples = 2\nvalue = [1, 1]"] ;
566 -> 568 ;
569 [label="gini = 0.0\nsamples = 1\nvalue = [0, 1]"] ;
568 -> 569 ;
570 [label="gini = 0.0\nsamples = 1\nvalue = [1, 0]"] ;
568 -> 570 ;
571 [label="occupation_Tech-support <= 0.5\ngini = 0.4025\nsamples = 154\nvalue = [111, 43]"] ;
565 -> 571 ;
572 [label="fnlwgt <= 566384.5\ngini = 0.3784\nsamples = 146\nvalue = [109, 37]"] ;
571 -> 572 ;
573 [label="age <= 67.5\ngini = 0.368\nsamples = 144\nvalue = [109, 35]"] ;
572 -> 573 ;
574 [label="gini = 0.4082\nsamples = 105\nvalue = [75, 30]"] ;
573 -> 574 ;
575 [label="gini = 0.2235\nsamples = 39\nvalue = [34, 5]"] ;
573 -> 575 ;
576 [label="gini = 0.0\nsamples = 2\nvalue = [0, 2]"] ;
572 -> 576 ;
577 [label="age <= 42.0\ngini = 0.375\nsamples = 8\nvalue = [2, 6]"] ;
571 -> 577 ;
578 [label="gini = 0.0\nsamples = 2\nvalue = [2, 0]"] ;
577 -> 578 ;
579 [label="gini = 0.0\nsamples = 6\nvalue = [0, 6]"] ;
577 -> 579 ;
580 [label="hours-per-week <= 23.5\ngini = 0.4998\nsamples = 45\nvalue = [22, 23]"] ;
564 -> 580 ;
581 [label="fnlwgt <= 127052.5\ngini = 0.4734\nsamples = 26\nvalue = [16, 10]"] ;
580 -> 581 ;
582 [label="capital-gain <= 1890.5\ngini = 0.32\nsamples = 5\nvalue = [1, 4]"] ;
581 -> 582 ;
583 [label="gini = 0.0\nsamples = 4\nvalue = [0, 4]"] ;
582 -> 583 ;
584 [label="gini = 0.0\nsamples = 1\nvalue = [1, 0]"] ;
582 -> 584 ;
585 [label="native-country_Canada <= 0.5\ngini = 0.4082\nsamples = 21\nvalue = [15, 6]"] ;
581 -> 585 ;
586 [label="age <= 32.0\ngini = 0.375\nsamples = 20\nvalue = [15, 5]"] ;
585 -> 586 ;
587 [label="gini = 0.0\nsamples = 1\nvalue = [0, 1]"] ;
586 -> 587 ;
588 [label="gini = 0.3324\nsamples = 19\nvalue = [15, 4]"] ;
586 -> 588 ;
589 [label="gini = 0.0\nsamples = 1\nvalue = [0, 1]"] ;
585 -> 589 ;
590 [label="age <= 58.5\ngini = 0.4321\nsamples = 19\nvalue = [6, 13]"] ;
580 -> 590 ;
591 [label="gini = 0.0\nsamples = 7\nvalue = [0, 7]"] ;
590 -> 591 ;
592 [label="occupation_? <= 0.5\ngini = 0.5\nsamples = 12\nvalue = [6, 6]"] ;
590 -> 592 ;
593 [label="fnlwgt <= 127168.5\ngini = 0.4444\nsamples = 9\nvalue = [6, 3]"] ;
592 -> 593 ;
594 [label="gini = 0.0\nsamples = 4\nvalue = [4, 0]"] ;
593 -> 594 ;
595 [label="gini = 0.48\nsamples = 5\nvalue = [2, 3]"] ;
593 -> 595 ;
596 [label="gini = 0.0\nsamples = 3\nvalue = [0, 3]"] ;
592 -> 596 ;
597 [label="fnlwgt <= 373002.5\ngini = 0.4729\nsamples = 73\nvalue = [28, 45]"] ;
563 -> 597 ;
598 [label="fnlwgt <= 102478.5\ngini = 0.4592\nsamples = 70\nvalue = [25, 45]"] ;
597 -> 598 ;
599 [label="age <= 30.5\ngini = 0.4938\nsamples = 18\nvalue = [10, 8]"] ;
598 -> 599 ;
600 [label="gini = 0.0\nsamples = 5\nvalue = [5, 0]"] ;
599 -> 600 ;
601 [label="hours-per-week <= 17.5\ngini = 0.4734\nsamples = 13\nvalue = [5, 8]"] ;
599 -> 601 ;
602 [label="age <= 35.0\ngini = 0.375\nsamples = 4\nvalue = [3, 1]"] ;
601 -> 602 ;
603 [label="gini = 0.0\nsamples = 1\nvalue = [0, 1]"] ;
602 -> 603 ;
604 [label="gini = 0.0\nsamples = 3\nvalue = [3, 0]"] ;
602 -> 604 ;
605 [label="fnlwgt <= 94074.0\ngini = 0.3457\nsamples = 9\nvalue = [2, 7]"] ;
601 -> 605 ;
606 [label="gini = 0.2188\nsamples = 8\nvalue = [1, 7]"] ;
605 -> 606 ;
607 [label="gini = 0.0\nsamples = 1\nvalue = [1, 0]"] ;
605 -> 607 ;
608 [label="native-country_? <= 0.5\ngini = 0.4105\nsamples = 52\nvalue = [15, 37]"] ;
598 -> 608 ;
609 [label="occupation_Other-service <= 0.5\ngini = 0.3848\nsamples = 50\nvalue = [13, 37]"] ;
608 -> 609 ;
610 [label="fnlwgt <= 277638.0\ngini = 0.3698\nsamples = 49\nvalue = [12, 37]"] ;
609 -> 610 ;
611 [label="gini = 0.3141\nsamples = 41\nvalue = [8, 33]"] ;
610 -> 611 ;
612 [label="gini = 0.5\nsamples = 8\nvalue = [4, 4]"] ;
610 -> 612 ;
613 [label="gini = 0.0\nsamples = 1\nvalue = [1, 0]"] ;
609 -> 613 ;
614 [label="gini = 0.0\nsamples = 2\nvalue = [2, 0]"] ;
608 -> 614 ;
615 [label="gini = 0.0\nsamples = 3\nvalue = [3, 0]"] ;
597 -> 615 ;
616 [label="age <= 28.5\ngini = 0.4481\nsamples = 3084\nvalue = [1045, 2039]"] ;
562 -> 616 ;
617 [label="age <= 25.5\ngini = 0.4878\nsamples = 211\nvalue = [122, 89]"] ;
616 -> 617 ;
618 [label="fnlwgt <= 401760.0\ngini = 0.3636\nsamples = 67\nvalue = [51, 16]"] ;
617 -> 618 ;
619 [label="hours-per-week <= 43.5\ngini = 0.338\nsamples = 65\nvalue = [51, 14]"] ;
618 -> 619 ;
620 [label="workclass_Self-emp-inc <= 0.5\ngini = 0.2098\nsamples = 42\nvalue = [37, 5]"] ;
619 -> 620 ;
621 [label="occupation_Protective-serv <= 0.5\ngini = 0.1761\nsamples = 41\nvalue = [37, 4]"] ;
620 -> 621 ;
622 [label="gini = 0.1388\nsamples = 40\nvalue = [37, 3]"] ;
621 -> 622 ;
623 [label="gini = 0.0\nsamples = 1\nvalue = [0, 1]"] ;
621 -> 623 ;
624 [label="gini = 0.0\nsamples = 1\nvalue = [0, 1]"] ;
620 -> 624 ;
625 [label="occupation_Exec-managerial <= 0.5\ngini = 0.4764\nsamples = 23\nvalue = [14, 9]"] ;
619 -> 625 ;
626 [label="hours-per-week <= 47.5\ngini = 0.4444\nsamples = 21\nvalue = [14, 7]"] ;
625 -> 626 ;
627 [label="gini = 0.4959\nsamples = 11\nvalue = [5, 6]"] ;
626 -> 627 ;
628 [label="gini = 0.18\nsamples = 10\nvalue = [9, 1]"] ;
626 -> 628 ;
629 [label="gini = 0.0\nsamples = 2\nvalue = [0, 2]"] ;
625 -> 629 ;
630 [label="gini = 0.0\nsamples = 2\nvalue = [0, 2]"] ;
618 -> 630 ;
631 [label="relationship_Wife <= 0.5\ngini = 0.4999\nsamples = 144\nvalue = [71, 73]"] ;
617 -> 631 ;
632 [label="occupation_Sales <= 0.5\ngini = 0.4936\nsamples = 115\nvalue = [64, 51]"] ;
631 -> 632 ;
633 [label="fnlwgt <= 62036.5\ngini = 0.4791\nsamples = 93\nvalue = [56, 37]"] ;
632 -> 633 ;
634 [label="gini = 0.0\nsamples = 9\nvalue = [9, 0]"] ;
633 -> 634 ;
635 [label="fnlwgt <= 231769.0\ngini = 0.4929\nsamples = 84\nvalue = [47, 37]"] ;
633 -> 635 ;
636 [label="gini = 0.4996\nsamples = 68\nvalue = [35, 33]"] ;
635 -> 636 ;
637 [label="gini = 0.375\nsamples = 16\nvalue = [12, 4]"] ;
635 -> 637 ;
638 [label="fnlwgt <= 266229.0\ngini = 0.4628\nsamples = 22\nvalue = [8, 14]"] ;
632 -> 638 ;
639 [label="fnlwgt <= 180506.5\ngini = 0.4012\nsamples = 18\nvalue = [5, 13]"] ;
638 -> 639 ;
640 [label="gini = 0.4959\nsamples = 11\nvalue = [5, 6]"] ;
639 -> 640 ;
641 [label="gini = 0.0\nsamples = 7\nvalue = [0, 7]"] ;
639 -> 641 ;
642 [label="age <= 27.5\ngini = 0.375\nsamples = 4\nvalue = [3, 1]"] ;
638 -> 642 ;
643 [label="gini = 0.0\nsamples = 3\nvalue = [3, 0]"] ;
642 -> 643 ;
644 [label="gini = 0.0\nsamples = 1\nvalue = [0, 1]"] ;
642 -> 644 ;
645 [label="fnlwgt <= 194625.5\ngini = 0.3662\nsamples = 29\nvalue = [7, 22]"] ;
631 -> 645 ;
646 [label="native-country_South <= 0.5\ngini = 0.142\nsamples = 13\nvalue = [1, 12]"] ;
645 -> 646 ;
647 [label="gini = 0.0\nsamples = 12\nvalue = [0, 12]"] ;
646 -> 647 ;
648 [label="gini = 0.0\nsamples = 1\nvalue = [1, 0]"] ;
646 -> 648 ;
649 [label="fnlwgt <= 211105.5\ngini = 0.4688\nsamples = 16\nvalue = [6, 10]"] ;
645 -> 649 ;
650 [label="gini = 0.0\nsamples = 2\nvalue = [2, 0]"] ;
649 -> 650 ;
651 [label="occupation_Protective-serv <= 0.5\ngini = 0.4082\nsamples = 14\nvalue = [4, 10]"] ;
649 -> 651 ;
652 [label="gini = 0.355\nsamples = 13\nvalue = [3, 10]"] ;
651 -> 652 ;
653 [label="gini = 0.0\nsamples = 1\nvalue = [1, 0]"] ;
651 -> 653 ;
654 [label="capital-gain <= 3120.0\ngini = 0.4361\nsamples = 2873\nvalue = [923, 1950]"] ;
616 -> 654 ;
655 [label="occupation_Exec-managerial <= 0.5\ngini = 0.4298\nsamples = 2821\nvalue = [882, 1939]"] ;
654 -> 655 ;
656 [label="occupation_Prof-specialty <= 0.5\ngini = 0.4545\nsamples = 2019\nvalue = [705, 1314]"] ;
655 -> 656 ;
657 [label="occupation_Sales <= 0.5\ngini = 0.4926\nsamples = 954\nvalue = [419, 535]"] ;
656 -> 657 ;
658 [label="occupation_Tech-support <= 0.5\ngini = 0.4998\nsamples = 593\nvalue = [291, 302]"] ;
657 -> 658 ;
659 [label="gini = 0.4994\nsamples = 524\nvalue = [271, 253]"] ;
658 -> 659 ;
660 [label="gini = 0.4117\nsamples = 69\nvalue = [20, 49]"] ;
658 -> 660 ;
661 [label="native-country_United-States <= 0.5\ngini = 0.4577\nsamples = 361\nvalue = [128, 233]"] ;
657 -> 661 ;
662 [label="gini = 0.4688\nsamples = 32\nvalue = [20, 12]"] ;
661 -> 662 ;
663 [label="gini = 0.441\nsamples = 329\nvalue = [108, 221]"] ;
661 -> 663 ;
664 [label="education-num <= 14.5\ngini = 0.3929\nsamples = 1065\nvalue = [286, 779]"] ;
656 -> 664 ;
665 [label="age <= 36.5\ngini = 0.4261\nsamples = 757\nvalue = [233, 524]"] ;
664 -> 665 ;
666 [label="gini = 0.4788\nsamples = 209\nvalue = [83, 126]"] ;
665 -> 666 ;
667 [label="gini = 0.3976\nsamples = 548\nvalue = [150, 398]"] ;
665 -> 667 ;
668 [label="capital-loss <= 1556.5\ngini = 0.2849\nsamples = 308\nvalue = [53, 255]"] ;
664 -> 668 ;
669 [label="gini = 0.2778\nsamples = 306\nvalue = [51, 255]"] ;
668 -> 669 ;
670 [label="gini = 0.0\nsamples = 2\nvalue = [2, 0]"] ;
668 -> 670 ;
671 [label="capital-loss <= 629.0\ngini = 0.344\nsamples = 802\nvalue = [177, 625]"] ;
655 -> 671 ;
672 [label="workclass_Self-emp-not-inc <= 0.5\ngini = 0.3339\nsamples = 793\nvalue = [168, 625]"] ;
671 -> 672 ;
673 [label="native-country_? <= 0.5\ngini = 0.3104\nsamples = 734\nvalue = [141, 593]"] ;
672 -> 673 ;
674 [label="gini = 0.3003\nsamples = 712\nvalue = [131, 581]"] ;
673 -> 674 ;
675 [label="gini = 0.4959\nsamples = 22\nvalue = [10, 12]"] ;
673 -> 675 ;
676 [label="age <= 59.5\ngini = 0.4964\nsamples = 59\nvalue = [27, 32]"] ;
672 -> 676 ;
677 [label="gini = 0.4829\nsamples = 54\nvalue = [22, 32]"] ;
676 -> 677 ;
678 [label="gini = 0.0\nsamples = 5\nvalue = [5, 0]"] ;
676 -> 678 ;
679 [label="gini = 0.0\nsamples = 9\nvalue = [9, 0]"] ;
671 -> 679 ;
680 [label="capital-gain <= 4225.0\ngini = 0.3336\nsamples = 52\nvalue = [41, 11]"] ;
654 -> 680 ;
681 [label="gini = 0.0\nsamples = 21\nvalue = [21, 0]"] ;
680 -> 681 ;
682 [label="capital-gain <= 4447.0\ngini = 0.4579\nsamples = 31\nvalue = [20, 11]"] ;
680 -> 682 ;
683 [label="occupation_Exec-managerial <= 0.5\ngini = 0.1528\nsamples = 12\nvalue = [1, 11]"] ;
682 -> 683 ;
684 [label="gini = 0.0\nsamples = 8\nvalue = [0, 8]"] ;
683 -> 684 ;
685 [label="education-num <= 13.5\ngini = 0.375\nsamples = 4\nvalue = [1, 3]"] ;
683 -> 685 ;
686 [label="gini = 0.0\nsamples = 3\nvalue = [0, 3]"] ;
685 -> 686 ;
687 [label="gini = 0.0\nsamples = 1\nvalue = [1, 0]"] ;
685 -> 687 ;
688 [label="gini = 0.0\nsamples = 19\nvalue = [19, 0]"] ;
682 -> 688 ;
689 [label="capital-loss <= 1989.5\ngini = 0.0632\nsamples = 398\nvalue = [13, 385]"] ;
561 -> 689 ;
690 [label="age <= 28.5\ngini = 0.0122\nsamples = 327\nvalue = [2, 325]"] ;
689 -> 690 ;
691 [label="workclass_Local-gov <= 0.5\ngini = 0.142\nsamples = 13\nvalue = [1, 12]"] ;
690 -> 691 ;
692 [label="gini = 0.0\nsamples = 11\nvalue = [0, 11]"] ;
691 -> 692 ;
693 [label="sex_Male <= 0.5\ngini = 0.5\nsamples = 2\nvalue = [1, 1]"] ;
691 -> 693 ;
694 [label="gini = 0.0\nsamples = 1\nvalue = [1, 0]"] ;
693 -> 694 ;
695 [label="gini = 0.0\nsamples = 1\nvalue = [0, 1]"] ;
693 -> 695 ;
696 [label="workclass_Federal-gov <= 0.5\ngini = 0.0063\nsamples = 314\nvalue = [1, 313]"] ;
690 -> 696 ;
697 [label="gini = 0.0\nsamples = 301\nvalue = [0, 301]"] ;
696 -> 697 ;
698 [label="age <= 48.5\ngini = 0.142\nsamples = 13\nvalue = [1, 12]"] ;
696 -> 698 ;
699 [label="gini = 0.0\nsamples = 12\nvalue = [0, 12]"] ;
698 -> 699 ;
700 [label="gini = 0.0\nsamples = 1\nvalue = [1, 0]"] ;
698 -> 700 ;
701 [label="capital-loss <= 2168.5\ngini = 0.2619\nsamples = 71\nvalue = [11, 60]"] ;
689 -> 701 ;
702 [label="gini = 0.0\nsamples = 9\nvalue = [9, 0]"] ;
701 -> 702 ;
703 [label="workclass_Local-gov <= 0.5\ngini = 0.0624\nsamples = 62\nvalue = [2, 60]"] ;
701 -> 703 ;
704 [label="capital-loss <= 2212.5\ngini = 0.0328\nsamples = 60\nvalue = [1, 59]"] ;
703 -> 704 ;
705 [label="age <= 64.5\ngini = 0.4444\nsamples = 3\nvalue = [1, 2]"] ;
704 -> 705 ;
706 [label="gini = 0.0\nsamples = 1\nvalue = [1, 0]"] ;
705 -> 706 ;
707 [label="gini = 0.0\nsamples = 2\nvalue = [0, 2]"] ;
705 -> 707 ;
708 [label="gini = 0.0\nsamples = 57\nvalue = [0, 57]"] ;
704 -> 708 ;
709 [label="education_Masters <= 0.5\ngini = 0.5\nsamples = 2\nvalue = [1, 1]"] ;
703 -> 709 ;
710 [label="gini = 0.0\nsamples = 1\nvalue = [0, 1]"] ;
709 -> 710 ;
711 [label="gini = 0.0\nsamples = 1\nvalue = [1, 0]"] ;
709 -> 711 ;
712 [label="age <= 85.0\ngini = 0.0088\nsamples = 681\nvalue = [3, 678]"] ;
560 -> 712 ;
713 [label="occupation_Farming-fishing <= 0.5\ngini = 0.0059\nsamples = 677\nvalue = [2, 675]"] ;
712 -> 713 ;
714 [label="hours-per-week <= 22.0\ngini = 0.003\nsamples = 672\nvalue = [1, 671]"] ;
713 -> 714 ;
715 [label="capital-gain <= 7032.5\ngini = 0.1107\nsamples = 17\nvalue = [1, 16]"] ;
714 -> 715 ;
716 [label="capital-gain <= 6640.5\ngini = 0.4444\nsamples = 3\nvalue = [1, 2]"] ;
715 -> 716 ;
717 [label="gini = 0.0\nsamples = 2\nvalue = [0, 2]"] ;
716 -> 717 ;
718 [label="gini = 0.0\nsamples = 1\nvalue = [1, 0]"] ;
716 -> 718 ;
719 [label="gini = 0.0\nsamples = 14\nvalue = [0, 14]"] ;
715 -> 719 ;
720 [label="gini = 0.0\nsamples = 655\nvalue = [0, 655]"] ;
714 -> 720 ;
721 [label="workclass_Self-emp-not-inc <= 0.5\ngini = 0.32\nsamples = 5\nvalue = [1, 4]"] ;
713 -> 721 ;
722 [label="gini = 0.0\nsamples = 4\nvalue = [0, 4]"] ;
721 -> 722 ;
723 [label="gini = 0.0\nsamples = 1\nvalue = [1, 0]"] ;
721 -> 723 ;
724 [label="workclass_Self-emp-not-inc <= 0.5\ngini = 0.375\nsamples = 4\nvalue = [1, 3]"] ;
712 -> 724 ;
725 [label="gini = 0.0\nsamples = 3\nvalue = [0, 3]"] ;
724 -> 725 ;
726 [label="gini = 0.0\nsamples = 1\nvalue = [1, 0]"] ;
724 -> 726 ;
}