digraph Tree {
node [shape=box] ;
0 [label="marital-status_Married-civ-spouse <= 0.5\ngini = 0.3656\nsamples = 32561\nvalue = [24720, 7841]"] ;
1 [label="capital-gain <= 7073.5\ngini = 0.1221\nsamples = 17585\nvalue = [16436, 1149]"] ;
0 -> 1 [labeldistance=2.5, labelangle=45, headlabel="True"] ;
2 [label="education-num <= 12.5\ngini = 0.0935\nsamples = 17274\nvalue = [16425, 849]"] ;
1 -> 2 ;
3 [label="capital-loss <= 2218.5\ngini = 0.0481\nsamples = 13864\nvalue = [13522, 342]"] ;
2 -> 3 ;
4 [label="hours-per-week <= 40.5\ngini = 0.0446\nsamples = 13807\nvalue = [13492, 315]"] ;
3 -> 4 ;
5 [label="age <= 33.5\ngini = 0.0268\nsamples = 11351\nvalue = [11197, 154]"] ;
4 -> 5 ;
6 [label="relationship_Husband <= 0.5\ngini = 0.0071\nsamples = 6698\nvalue = [6674, 24]"] ;
5 -> 6 ;
7 [label="relationship_Wife <= 0.5\ngini = 0.0068\nsamples = 6696\nvalue = [6673, 23]"] ;
6 -> 7 ;
8 [label="fnlwgt <= 23759.0\ngini = 0.0066\nsamples = 6692\nvalue = [6670, 22]"] ;
7 -> 8 ;
9 [label="fnlwgt <= 23381.0\ngini = 0.142\nsamples = 26\nvalue = [24, 2]"] ;
8 -> 9 ;
10 [label="gini = 0.0\nsamples = 23\nvalue = [23, 0]"] ;
9 -> 10 ;
11 [label="occupation_Prof-specialty <= 0.5\ngini = 0.4444\nsamples = 3\nvalue = [1, 2]"] ;
9 -> 11 ;
12 [label="gini = 0.0\nsamples = 2\nvalue = [0, 2]"] ;
11 -> 12 ;
13 [label="gini = 0.0\nsamples = 1\nvalue = [1, 0]"] ;
11 -> 13 ;
14 [label="age <= 28.5\ngini = 0.006\nsamples = 6666\nvalue = [6646, 20]"] ;
8 -> 14 ;
15 [label="workclass_Local-gov <= 0.5\ngini = 0.0026\nsamples = 5386\nvalue = [5379, 7]"] ;
14 -> 15 ;
16 [label="workclass_Self-emp-not-inc <= 0.5\ngini = 0.0015\nsamples = 5245\nvalue = [5241, 4]"] ;
15 -> 16 ;
17 [label="occupation_Tech-support <= 0.5\ngini = 0.0012\nsamples = 5139\nvalue = [5136, 3]"] ;
16 -> 17 ;
18 [label="occupation_Exec-managerial <= 0.5\ngini = 0.0008\nsamples = 5026\nvalue = [5024, 2]"] ;
17 -> 18 ;
19 [label="occupation_Other-service <= 0.5\ngini = 0.0004\nsamples = 4882\nvalue = [4881, 1]"] ;
18 -> 19 ;
20 [label="gini = 0.0\nsamples = 3812\nvalue = [3812, 0]"] ;
19 -> 20 ;
21 [label="fnlwgt <= 127914.5\ngini = 0.0019\nsamples = 1070\nvalue = [1069, 1]"] ;
19 -> 21 ;
22 [label="fnlwgt <= 127707.5\ngini = 0.0065\nsamples = 308\nvalue = [307, 1]"] ;
21 -> 22 ;
23 [label="gini = 0.0\nsamples = 307\nvalue = [307, 0]"] ;
22 -> 23 ;
24 [label="gini = 0.0\nsamples = 1\nvalue = [0, 1]"] ;
22 -> 24 ;
25 [label="gini = 0.0\nsamples = 762\nvalue = [762, 0]"] ;
21 -> 25 ;
26 [label="education-num <= 11.5\ngini = 0.0138\nsamples = 144\nvalue = [143, 1]"] ;
18 -> 26 ;
27 [label="gini = 0.0\nsamples = 135\nvalue = [135, 0]"] ;
26 -> 27 ;
28 [label="age <= 26.5\ngini = 0.1975\nsamples = 9\nvalue = [8, 1]"] ;
26 -> 28 ;
29 [label="gini = 0.0\nsamples = 7\nvalue = [7, 0]"] ;
28 -> 29 ;
30 [label="sex_Female <= 0.5\ngini = 0.5\nsamples = 2\nvalue = [1, 1]"] ;
28 -> 30 ;
31 [label="gini = 0.0\nsamples = 1\nvalue = [1, 0]"] ;
30 -> 31 ;
32 [label="gini = 0.0\nsamples = 1\nvalue = [0, 1]"] ;
30 -> 32 ;
33 [label="marital-status_Separated <= 0.5\ngini = 0.0175\nsamples = 113\nvalue = [112, 1]"] ;
17 -> 33 ;
34 [label="gini = 0.0\nsamples = 111\nvalue = [111, 0]"] ;
33 -> 34 ;
35 [label="relationship_Own-child <= 0.5\ngini = 0.5\nsamples = 2\nvalue = [1, 1]"] ;
33 -> 35 ;
36 [label="gini = 0.0\nsamples = 1\nvalue = [0, 1]"] ;
35 -> 36 ;
37 [label="gini = 0.0\nsamples = 1\nvalue = [1, 0]"] ;
35 -> 37 ;
38 [label="race_Asian-Pac-Islander <= 0.5\ngini = 0.0187\nsamples = 106\nvalue = [105, 1]"] ;
16 -> 38 ;
39 [label="gini = 0.0\nsamples = 100\nvalue = [100, 0]"] ;
38 -> 39 ;
40 [label="relationship_Not-in-family <= 0.5\ngini = 0.2778\nsamples = 6\nvalue = [5, 1]"] ;
38 -> 40 ;
41 [label="gini = 0.0\nsamples = 4\nvalue = [4, 0]"] ;
40 -> 41 ;
42 [label="hours-per-week <= 35.0\ngini = 0.5\nsamples = 2\nvalue = [1, 1]"] ;
40 -> 42 ;
43 [label="gini = 0.0\nsamples = 1\nvalue = [0, 1]"] ;
42 -> 43 ;
44 [label="gini = 0.0\nsamples = 1\nvalue = [1, 0]"] ;
42 -> 44 ;
45 [label="education_5th-6th <= 0.5\ngini = 0.0416\nsamples = 141\nvalue = [138, 3]"] ;
15 -> 45 ;
46 [label="occupation_Protective-serv <= 0.5\ngini = 0.0282\nsamples = 140\nvalue = [138, 2]"] ;
45 -> 46 ;
47 [label="gini = 0.0\nsamples = 115\nvalue = [115, 0]"] ;
46 -> 47 ;
48 [label="fnlwgt <= 196863.0\ngini = 0.1472\nsamples = 25\nvalue = [23, 2]"] ;
46 -> 48 ;
49 [label="gini = 0.0\nsamples = 14\nvalue = [14, 0]"] ;
48 -> 49 ;
50 [label="fnlwgt <= 234027.0\ngini = 0.2975\nsamples = 11\nvalue = [9, 2]"] ;
48 -> 50 ;
51 [label="age <= 23.5\ngini = 0.4444\nsamples = 3\nvalue = [1, 2]"] ;
50 -> 51 ;
52 [label="gini = 0.0\nsamples = 1\nvalue = [0, 1]"] ;
51 -> 52 ;
53 [label="sex_Male <= 0.5\ngini = 0.5\nsamples = 2\nvalue = [1, 1]"] ;
51 -> 53 ;
54 [label="gini = 0.0\nsamples = 1\nvalue = [0, 1]"] ;
53 -> 54 ;
55 [label="gini = 0.0\nsamples = 1\nvalue = [1, 0]"] ;
53 -> 55 ;
56 [label="gini = 0.0\nsamples = 8\nvalue = [8, 0]"] ;
50 -> 56 ;
57 [label="gini = 0.0\nsamples = 1\nvalue = [0, 1]"] ;
45 -> 57 ;
58 [label="occupation_Craft-repair <= 0.5\ngini = 0.0201\nsamples = 1280\nvalue = [1267, 13]"] ;
14 -> 58 ;
59 [label="marital-status_Widowed <= 0.5\ngini = 0.0125\nsamples = 1117\nvalue = [1110, 7]"] ;
58 -> 59 ;
60 [label="workclass_State-gov <= 0.5\ngini = 0.0108\nsamples = 1106\nvalue = [1100, 6]"] ;
59 -> 60 ;
61 [label="education_7th-8th <= 0.5\ngini = 0.0075\nsamples = 1060\nvalue = [1056, 4]"] ;
60 -> 61 ;
62 [label="workclass_Federal-gov <= 0.5\ngini = 0.0057\nsamples = 1041\nvalue = [1038, 3]"] ;
61 -> 62 ;
63 [label="education_11th <= 0.5\ngini = 0.004\nsamples = 1004\nvalue = [1002, 2]"] ;
62 -> 63 ;
64 [label="fnlwgt <= 372765.0\ngini = 0.0021\nsamples = 963\nvalue = [962, 1]"] ;
63 -> 64 ;
65 [label="gini = 0.0\nsamples = 901\nvalue = [901, 0]"] ;
64 -> 65 ;
66 [label="fnlwgt <= 373437.5\ngini = 0.0317\nsamples = 62\nvalue = [61, 1]"] ;
64 -> 66 ;
67 [label="gini = 0.0\nsamples = 1\nvalue = [0, 1]"] ;
66 -> 67 ;
68 [label="gini = 0.0\nsamples = 61\nvalue = [61, 0]"] ;
66 -> 68 ;
69 [label="occupation_Exec-managerial <= 0.5\ngini = 0.0476\nsamples = 41\nvalue = [40, 1]"] ;
63 -> 69 ;
70 [label="gini = 0.0\nsamples = 39\nvalue = [39, 0]"] ;
69 -> 70 ;
71 [label="marital-status_Never-married <= 0.5\ngini = 0.5\nsamples = 2\nvalue = [1, 1]"] ;
69 -> 71 ;
72 [label="gini = 0.0\nsamples = 1\nvalue = [0, 1]"] ;
71 -> 72 ;
73 [label="gini = 0.0\nsamples = 1\nvalue = [1, 0]"] ;
71 -> 73 ;
74 [label="occupation_Other-service <= 0.5\ngini = 0.0526\nsamples = 37\nvalue = [36, 1]"] ;
62 -> 74 ;
75 [label="gini = 0.0\nsamples = 30\nvalue = [30, 0]"] ;
74 -> 75 ;
76 [label="age <= 30.5\ngini = 0.2449\nsamples = 7\nvalue = [6, 1]"] ;
74 -> 76 ;
77 [label="marital-status_Never-married <= 0.5\ngini = 0.5\nsamples = 2\nvalue = [1, 1]"] ;
76 -> 77 ;
78 [label="gini = 0.0\nsamples = 1\nvalue = [1, 0]"] ;
77 -> 78 ;
79 [label="gini = 0.0\nsamples = 1\nvalue = [0, 1]"] ;
77 -> 79 ;
80 [label="gini = 0.0\nsamples = 5\nvalue = [5, 0]"] ;
76 -> 80 ;
81 [label="occupation_Farming-fishing <= 0.5\ngini = 0.0997\nsamples = 19\nvalue = [18, 1]"] ;
61 -> 81 ;
82 [label="gini = 0.0\nsamples = 18\nvalue = [18, 0]"] ;
81 -> 82 ;
83 [label="gini = 0.0\nsamples = 1\nvalue = [0, 1]"] ;
81 -> 83 ;
84 [label="education_Assoc-acdm <= 0.5\ngini = 0.0832\nsamples = 46\nvalue = [44, 2]"] ;
60 -> 84 ;
85 [label="fnlwgt <= 399295.0\ngini = 0.0454\nsamples = 43\nvalue = [42, 1]"] ;
84 -> 85 ;
86 [label="gini = 0.0\nsamples = 39\nvalue = [39, 0]"] ;
85 -> 86 ;
87 [label="fnlwgt <= 460612.5\ngini = 0.375\nsamples = 4\nvalue = [3, 1]"] ;
85 -> 87 ;
88 [label="gini = 0.0\nsamples = 1\nvalue = [0, 1]"] ;
87 -> 88 ;
89 [label="gini = 0.0\nsamples = 3\nvalue = [3, 0]"] ;
87 -> 89 ;
90 [label="sex_Male <= 0.5\ngini = 0.4444\nsamples = 3\nvalue = [2, 1]"] ;
84 -> 90 ;
91 [label="gini = 0.0\nsamples = 2\nvalue = [2, 0]"] ;
90 -> 91 ;
92 [label="gini = 0.0\nsamples = 1\nvalue = [0, 1]"] ;
90 -> 92 ;
93 [label="education-num <= 11.5\ngini = 0.1653\nsamples = 11\nvalue = [10, 1]"] ;
59 -> 93 ;
94 [label="gini = 0.0\nsamples = 10\nvalue = [10, 0]"] ;
93 -> 94 ;
95 [label="gini = 0.0\nsamples = 1\nvalue = [0, 1]"] ;
93 -> 95 ;
96 [label="education-num <= 9.5\ngini = 0.0709\nsamples = 163\nvalue = [157, 6]"] ;
58 -> 96 ;
97 [label="fnlwgt <= 347879.0\ngini = 0.0177\nsamples = 112\nvalue = [111, 1]"] ;
96 -> 97 ;
98 [label="gini = 0.0\nsamples = 104\nvalue = [104, 0]"] ;
97 -> 98 ;
99 [label="fnlwgt <= 352303.5\ngini = 0.2188\nsamples = 8\nvalue = [7, 1]"] ;
97 -> 99 ;
100 [label="gini = 0.0\nsamples = 1\nvalue = [0, 1]"] ;
99 -> 100 ;
101 [label="gini = 0.0\nsamples = 7\nvalue = [7, 0]"] ;
99 -> 101 ;
102 [label="workclass_Federal-gov <= 0.5\ngini = 0.1769\nsamples = 51\nvalue = [46, 5]"] ;
96 -> 102 ;
103 [label="fnlwgt <= 220252.0\ngini = 0.1499\nsamples = 49\nvalue = [45, 4]"] ;
102 -> 103 ;
104 [label="fnlwgt <= 210558.0\ngini = 0.2188\nsamples = 32\nvalue = [28, 4]"] ;
103 -> 104 ;
105 [label="age <= 30.5\ngini = 0.1748\nsamples = 31\nvalue = [28, 3]"] ;
104 -> 105 ;
106 [label="fnlwgt <= 60105.0\ngini = 0.3367\nsamples = 14\nvalue = [11, 3]"] ;
105 -> 106 ;
107 [label="gini = 0.0\nsamples = 1\nvalue = [0, 1]"] ;
106 -> 107 ;
108 [label="fnlwgt <= 154796.5\ngini = 0.2604\nsamples = 13\nvalue = [11, 2]"] ;
106 -> 108 ;
109 [label="gini = 0.0\nsamples = 7\nvalue = [7, 0]"] ;
108 -> 109 ;
110 [label="gini = 0.4444\nsamples = 6\nvalue = [4, 2]"] ;
108 -> 110 ;
111 [label="gini = 0.0\nsamples = 17\nvalue = [17, 0]"] ;
105 -> 111 ;
112 [label="gini = 0.0\nsamples = 1\nvalue = [0, 1]"] ;
104 -> 112 ;
113 [label="gini = 0.0\nsamples = 17\nvalue = [17, 0]"] ;
103 -> 113 ;
114 [label="education-num <= 10.5\ngini = 0.5\nsamples = 2\nvalue = [1, 1]"] ;
102 -> 114 ;
115 [label="gini = 0.0\nsamples = 1\nvalue = [1, 0]"] ;
114 -> 115 ;
116 [label="gini = 0.0\nsamples = 1\nvalue = [0, 1]"] ;
114 -> 116 ;
117 [label="occupation_Other-service <= 0.5\ngini = 0.375\nsamples = 4\nvalue = [3, 1]"] ;
7 -> 117 ;
118 [label="gini = 0.0\nsamples = 3\nvalue = [3, 0]"] ;
117 -> 118 ;
119 [label="gini = 0.0\nsamples = 1\nvalue = [0, 1]"] ;
117 -> 119 ;
120 [label="education_Some-college <= 0.5\ngini = 0.5\nsamples = 2\nvalue = [1, 1]"] ;
6 -> 120 ;
121 [label="gini = 0.0\nsamples = 1\nvalue = [0, 1]"] ;
120 -> 121 ;
122 [label="gini = 0.0\nsamples = 1\nvalue = [1, 0]"] ;
120 -> 122 ;
123 [label="occupation_Prof-specialty <= 0.5\ngini = 0.0543\nsamples = 4653\nvalue = [4523, 130]"] ;
5 -> 123 ;
124 [label="occupation_Exec-managerial <= 0.5\ngini = 0.046\nsamples = 4416\nvalue = [4312, 104]"] ;
123 -> 124 ;
125 [label="marital-status_Married-AF-spouse <= 0.5\ngini = 0.0376\nsamples = 4072\nvalue = [3994, 78]"] ;
124 -> 125 ;
126 [label="occupation_Protective-serv <= 0.5\ngini = 0.0367\nsamples = 4067\nvalue = [3991, 76]"] ;
125 -> 126 ;
127 [label="native-country_India <= 0.5\ngini = 0.0339\nsamples = 4000\nvalue = [3931, 69]"] ;
126 -> 127 ;
128 [label="capital-gain <= 4718.5\ngini = 0.0334\nsamples = 3999\nvalue = [3931, 68]"] ;
127 -> 128 ;
129 [label="occupation_Craft-repair <= 0.5\ngini = 0.0317\nsamples = 3972\nvalue = [3908, 64]"] ;
128 -> 129 ;
130 [label="workclass_Self-emp-inc <= 0.5\ngini = 0.0255\nsamples = 3477\nvalue = [3432, 45]"] ;
129 -> 130 ;
131 [label="fnlwgt <= 20302.0\ngini = 0.024\nsamples = 3453\nvalue = [3411, 42]"] ;
130 -> 131 ;
132 [label="fnlwgt <= 20198.5\ngini = 0.32\nsamples = 5\nvalue = [4, 1]"] ;
131 -> 132 ;
133 [label="gini = 0.0\nsamples = 4\nvalue = [4, 0]"] ;
132 -> 133 ;
134 [label="gini = 0.0\nsamples = 1\nvalue = [0, 1]"] ;
132 -> 134 ;
135 [label="occupation_Tech-support <= 0.5\ngini = 0.0235\nsamples = 3448\nvalue = [3407, 41]"] ;
131 -> 135 ;
136 [label="native-country_England <= 0.5\ngini = 0.0209\nsamples = 3319\nvalue = [3284, 35]"] ;
135 -> 136 ;
137 [label="native-country_Italy <= 0.5\ngini = 0.0203\nsamples = 3311\nvalue = [3277, 34]"] ;
136 -> 137 ;
138 [label="gini = 0.0198\nsamples = 3302\nvalue = [3269, 33]"] ;
137 -> 138 ;
139 [label="gini = 0.1975\nsamples = 9\nvalue = [8, 1]"] ;
137 -> 139 ;
140 [label="education-num <= 9.5\ngini = 0.2188\nsamples = 8\nvalue = [7, 1]"] ;
136 -> 140 ;
141 [label="gini = 0.0\nsamples = 7\nvalue = [7, 0]"] ;
140 -> 141 ;
142 [label="gini = 0.0\nsamples = 1\nvalue = [0, 1]"] ;
140 -> 142 ;
143 [label="native-country_Guatemala <= 0.5\ngini = 0.0887\nsamples = 129\nvalue = [123, 6]"] ;
135 -> 143 ;
144 [label="hours-per-week <= 13.5\ngini = 0.0751\nsamples = 128\nvalue = [123, 5]"] ;
143 -> 144 ;
145 [label="gini = 0.5\nsamples = 2\nvalue = [1, 1]"] ;
144 -> 145 ;
146 [label="gini = 0.0615\nsamples = 126\nvalue = [122, 4]"] ;
144 -> 146 ;
147 [label="gini = 0.0\nsamples = 1\nvalue = [0, 1]"] ;
143 -> 147 ;
148 [label="race_Asian-Pac-Islander <= 0.5\ngini = 0.2188\nsamples = 24\nvalue = [21, 3]"] ;
130 -> 148 ;
149 [label="education_Some-college <= 0.5\ngini = 0.1588\nsamples = 23\nvalue = [21, 2]"] ;
148 -> 149 ;
150 [label="gini = 0.0\nsamples = 15\nvalue = [15, 0]"] ;
149 -> 150 ;
151 [label="fnlwgt <= 109262.0\ngini = 0.375\nsamples = 8\nvalue = [6, 2]"] ;
149 -> 151 ;
152 [label="gini = 0.0\nsamples = 1\nvalue = [0, 1]"] ;
151 -> 152 ;
153 [label="fnlwgt <= 212568.0\ngini = 0.2449\nsamples = 7\nvalue = [6, 1]"] ;
151 -> 153 ;
154 [label="gini = 0.0\nsamples = 5\nvalue = [5, 0]"] ;
153 -> 154 ;
155 [label="gini = 0.5\nsamples = 2\nvalue = [1, 1]"] ;
153 -> 155 ;
156 [label="gini = 0.0\nsamples = 1\nvalue = [0, 1]"] ;
148 -> 156 ;
157 [label="age <= 49.5\ngini = 0.0738\nsamples = 495\nvalue = [476, 19]"] ;
129 -> 157 ;
158 [label="education_Some-college <= 0.5\ngini = 0.0422\nsamples = 371\nvalue = [363, 8]"] ;
157 -> 158 ;
159 [label="marital-status_Married-spouse-absent <= 0.5\ngini = 0.014\nsamples = 284\nvalue = [282, 2]"] ;
158 -> 159 ;
160 [label="fnlwgt <= 85951.0\ngini = 0.0074\nsamples = 269\nvalue = [268, 1]"] ;
159 -> 160 ;
161 [label="fnlwgt <= 84861.5\ngini = 0.0713\nsamples = 27\nvalue = [26, 1]"] ;
160 -> 161 ;
162 [label="gini = 0.0\nsamples = 26\nvalue = [26, 0]"] ;
161 -> 162 ;
163 [label="gini = 0.0\nsamples = 1\nvalue = [0, 1]"] ;
161 -> 163 ;
164 [label="gini = 0.0\nsamples = 242\nvalue = [242, 0]"] ;
160 -> 164 ;
165 [label="age <= 40.5\ngini = 0.1244\nsamples = 15\nvalue = [14, 1]"] ;
159 -> 165 ;
166 [label="age <= 39.0\ngini = 0.2778\nsamples = 6\nvalue = [5, 1]"] ;
165 -> 166 ;
167 [label="gini = 0.0\nsamples = 5\nvalue = [5, 0]"] ;
166 -> 167 ;
168 [label="gini = 0.0\nsamples = 1\nvalue = [0, 1]"] ;
166 -> 168 ;
169 [label="gini = 0.0\nsamples = 9\nvalue = [9, 0]"] ;
165 -> 169 ;
170 [label="fnlwgt <= 41026.0\ngini = 0.1284\nsamples = 87\nvalue = [81, 6]"] ;
158 -> 170 ;
171 [label="fnlwgt <= 35229.0\ngini = 0.4444\nsamples = 3\nvalue = [1, 2]"] ;
170 -> 171 ;
172 [label="gini = 0.0\nsamples = 1\nvalue = [1, 0]"] ;
171 -> 172 ;
173 [label="gini = 0.0\nsamples = 2\nvalue = [0, 2]"] ;
171 -> 173 ;
174 [label="age <= 45.5\ngini = 0.0907\nsamples = 84\nvalue = [80, 4]"] ;
170 -> 174 ;
175 [label="hours-per-week <= 36.0\ngini = 0.0548\nsamples = 71\nvalue = [69, 2]"] ;
174 -> 175 ;
176 [label="gini = 0.1975\nsamples = 9\nvalue = [8, 1]"] ;
175 -> 176 ;
177 [label="gini = 0.0317\nsamples = 62\nvalue = [61, 1]"] ;
175 -> 177 ;
178 [label="fnlwgt <= 308836.0\ngini = 0.2604\nsamples = 13\nvalue = [11, 2]"] ;
174 -> 178 ;
179 [label="gini = 0.1528\nsamples = 12\nvalue = [11, 1]"] ;
178 -> 179 ;
180 [label="gini = 0.0\nsamples = 1\nvalue = [0, 1]"] ;
178 -> 180 ;
181 [label="workclass_Local-gov <= 0.5\ngini = 0.1617\nsamples = 124\nvalue = [113, 11]"] ;
157 -> 181 ;
182 [label="fnlwgt <= 111950.0\ngini = 0.1409\nsamples = 118\nvalue = [109, 9]"] ;
181 -> 182 ;
183 [label="fnlwgt <= 109658.0\ngini = 0.32\nsamples = 25\nvalue = [20, 5]"] ;
182 -> 183 ;
184 [label="age <= 57.0\ngini = 0.2778\nsamples = 24\nvalue = [20, 4]"] ;
183 -> 184 ;
185 [label="gini = 0.4082\nsamples = 14\nvalue = [10, 4]"] ;
184 -> 185 ;
186 [label="gini = 0.0\nsamples = 10\nvalue = [10, 0]"] ;
184 -> 186 ;
187 [label="gini = 0.0\nsamples = 1\nvalue = [0, 1]"] ;
183 -> 187 ;
188 [label="hours-per-week <= 9.0\ngini = 0.0823\nsamples = 93\nvalue = [89, 4]"] ;
182 -> 188 ;
189 [label="sex_Female <= 0.5\ngini = 0.5\nsamples = 2\nvalue = [1, 1]"] ;
188 -> 189 ;
190 [label="gini = 0.0\nsamples = 1\nvalue = [0, 1]"] ;
189 -> 190 ;
191 [label="gini = 0.0\nsamples = 1\nvalue = [1, 0]"] ;
189 -> 191 ;
192 [label="education_Assoc-voc <= 0.5\ngini = 0.0638\nsamples = 91\nvalue = [88, 3]"] ;
188 -> 192 ;
193 [label="gini = 0.0439\nsamples = 89\nvalue = [87, 2]"] ;
192 -> 193 ;
194 [label="gini = 0.5\nsamples = 2\nvalue = [1, 1]"] ;
192 -> 194 ;
195 [label="fnlwgt <= 171014.5\ngini = 0.4444\nsamples = 6\nvalue = [4, 2]"] ;
181 -> 195 ;
196 [label="gini = 0.0\nsamples = 3\nvalue = [3, 0]"] ;
195 -> 196 ;
197 [label="fnlwgt <= 301928.5\ngini = 0.4444\nsamples = 3\nvalue = [1, 2]"] ;
195 -> 197 ;
198 [label="gini = 0.0\nsamples = 2\nvalue = [0, 2]"] ;
197 -> 198 ;
199 [label="gini = 0.0\nsamples = 1\nvalue = [1, 0]"] ;
197 -> 199 ;
200 [label="capital-gain <= 4826.0\ngini = 0.2524\nsamples = 27\nvalue = [23, 4]"] ;
128 -> 200 ;
201 [label="gini = 0.0\nsamples = 3\nvalue = [0, 3]"] ;
200 -> 201 ;
202 [label="occupation_Tech-support <= 0.5\ngini = 0.0799\nsamples = 24\nvalue = [23, 1]"] ;
200 -> 202 ;
203 [label="gini = 0.0\nsamples = 21\nvalue = [21, 0]"] ;
202 -> 203 ;
204 [label="workclass_Local-gov <= 0.5\ngini = 0.4444\nsamples = 3\nvalue = [2, 1]"] ;
202 -> 204 ;
205 [label="gini = 0.0\nsamples = 2\nvalue = [2, 0]"] ;
204 -> 205 ;
206 [label="gini = 0.0\nsamples = 1\nvalue = [0, 1]"] ;
204 -> 206 ;
207 [label="gini = 0.0\nsamples = 1\nvalue = [0, 1]"] ;
127 -> 207 ;
208 [label="workclass_Private <= 0.5\ngini = 0.1871\nsamples = 67\nvalue = [60, 7]"] ;
126 -> 208 ;
209 [label="fnlwgt <= 364930.5\ngini = 0.2726\nsamples = 43\nvalue = [36, 7]"] ;
208 -> 209 ;
210 [label="fnlwgt <= 33692.0\ngini = 0.2449\nsamples = 42\nvalue = [36, 6]"] ;
209 -> 210 ;
211 [label="sex_Female <= 0.5\ngini = 0.5\nsamples = 2\nvalue = [1, 1]"] ;
210 -> 211 ;
212 [label="gini = 0.0\nsamples = 1\nvalue = [1, 0]"] ;
211 -> 212 ;
213 [label="gini = 0.0\nsamples = 1\nvalue = [0, 1]"] ;
211 -> 213 ;
214 [label="relationship_Not-in-family <= 0.5\ngini = 0.2188\nsamples = 40\nvalue = [35, 5]"] ;
210 -> 214 ;
215 [label="gini = 0.0\nsamples = 16\nvalue = [16, 0]"] ;
214 -> 215 ;
216 [label="marital-status_Divorced <= 0.5\ngini = 0.3299\nsamples = 24\nvalue = [19, 5]"] ;
214 -> 216 ;
217 [label="fnlwgt <= 152565.0\ngini = 0.4152\nsamples = 17\nvalue = [12, 5]"] ;
216 -> 217 ;
218 [label="gini = 0.0\nsamples = 6\nvalue = [6, 0]"] ;
217 -> 218 ;
219 [label="fnlwgt <= 188687.5\ngini = 0.4959\nsamples = 11\nvalue = [6, 5]"] ;
217 -> 219 ;
220 [label="gini = 0.0\nsamples = 2\nvalue = [0, 2]"] ;
219 -> 220 ;
221 [label="education_Assoc-voc <= 0.5\ngini = 0.4444\nsamples = 9\nvalue = [6, 3]"] ;
219 -> 221 ;
222 [label="gini = 0.375\nsamples = 8\nvalue = [6, 2]"] ;
221 -> 222 ;
223 [label="gini = 0.0\nsamples = 1\nvalue = [0, 1]"] ;
221 -> 223 ;
224 [label="gini = 0.0\nsamples = 7\nvalue = [7, 0]"] ;
216 -> 224 ;
225 [label="gini = 0.0\nsamples = 1\nvalue = [0, 1]"] ;
209 -> 225 ;
226 [label="gini = 0.0\nsamples = 24\nvalue = [24, 0]"] ;
208 -> 226 ;
227 [label="hours-per-week <= 32.5\ngini = 0.48\nsamples = 5\nvalue = [3, 2]"] ;
125 -> 227 ;
228 [label="gini = 0.0\nsamples = 2\nvalue = [2, 0]"] ;
227 -> 228 ;
229 [label="education_Assoc-acdm <= 0.5\ngini = 0.4444\nsamples = 3\nvalue = [1, 2]"] ;
227 -> 229 ;
230 [label="gini = 0.0\nsamples = 2\nvalue = [0, 2]"] ;
229 -> 230 ;
231 [label="gini = 0.0\nsamples = 1\nvalue = [1, 0]"] ;
229 -> 231 ;
232 [label="capital-gain <= 5373.5\ngini = 0.1397\nsamples = 344\nvalue = [318, 26]"] ;
124 -> 232 ;
233 [label="native-country_Ireland <= 0.5\ngini = 0.1351\nsamples = 343\nvalue = [318, 25]"] ;
232 -> 233 ;
234 [label="native-country_Japan <= 0.5\ngini = 0.1305\nsamples = 342\nvalue = [318, 24]"] ;
233 -> 234 ;
235 [label="education-num <= 10.5\ngini = 0.1258\nsamples = 341\nvalue = [318, 23]"] ;
234 -> 235 ;
236 [label="marital-status_Widowed <= 0.5\ngini = 0.1033\nsamples = 293\nvalue = [277, 16]"] ;
235 -> 236 ;
237 [label="fnlwgt <= 61980.5\ngini = 0.0835\nsamples = 252\nvalue = [241, 11]"] ;
236 -> 237 ;
238 [label="fnlwgt <= 47090.0\ngini = 0.2112\nsamples = 25\nvalue = [22, 3]"] ;
237 -> 238 ;
239 [label="gini = 0.0\nsamples = 19\nvalue = [19, 0]"] ;
238 -> 239 ;
240 [label="marital-status_Divorced <= 0.5\ngini = 0.5\nsamples = 6\nvalue = [3, 3]"] ;
238 -> 240 ;
241 [label="gini = 0.0\nsamples = 2\nvalue = [2, 0]"] ;
240 -> 241 ;
242 [label="workclass_Private <= 0.5\ngini = 0.375\nsamples = 4\nvalue = [1, 3]"] ;
240 -> 242 ;
243 [label="race_White <= 0.5\ngini = 0.5\nsamples = 2\nvalue = [1, 1]"] ;
242 -> 243 ;
244 [label="gini = 0.0\nsamples = 1\nvalue = [0, 1]"] ;
243 -> 244 ;
245 [label="gini = 0.0\nsamples = 1\nvalue = [1, 0]"] ;
243 -> 245 ;
246 [label="gini = 0.0\nsamples = 2\nvalue = [0, 2]"] ;
242 -> 246 ;
247 [label="fnlwgt <= 138184.0\ngini = 0.068\nsamples = 227\nvalue = [219, 8]"] ;
237 -> 247 ;
248 [label="gini = 0.0\nsamples = 63\nvalue = [63, 0]"] ;
247 -> 248 ;
249 [label="fnlwgt <= 140565.0\ngini = 0.0928\nsamples = 164\nvalue = [156, 8]"] ;
247 -> 249 ;
250 [label="gini = 0.0\nsamples = 1\nvalue = [0, 1]"] ;
249 -> 250 ;
251 [label="education_HS-grad <= 0.5\ngini = 0.0822\nsamples = 163\nvalue = [156, 7]"] ;
249 -> 251 ;
252 [label="age <= 53.5\ngini = 0.0222\nsamples = 89\nvalue = [88, 1]"] ;
251 -> 252 ;
253 [label="gini = 0.0\nsamples = 73\nvalue = [73, 0]"] ;
252 -> 253 ;
254 [label="gini = 0.1172\nsamples = 16\nvalue = [15, 1]"] ;
252 -> 254 ;
255 [label="fnlwgt <= 329254.5\ngini = 0.149\nsamples = 74\nvalue = [68, 6]"] ;
251 -> 255 ;
256 [label="gini = 0.1172\nsamples = 64\nvalue = [60, 4]"] ;
255 -> 256 ;
257 [label="gini = 0.32\nsamples = 10\nvalue = [8, 2]"] ;
255 -> 257 ;
258 [label="fnlwgt <= 25270.0\ngini = 0.2142\nsamples = 41\nvalue = [36, 5]"] ;
236 -> 258 ;
259 [label="relationship_Unmarried <= 0.5\ngini = 0.5\nsamples = 2\nvalue = [1, 1]"] ;
258 -> 259 ;
260 [label="gini = 0.0\nsamples = 1\nvalue = [0, 1]"] ;
259 -> 260 ;
261 [label="gini = 0.0\nsamples = 1\nvalue = [1, 0]"] ;
259 -> 261 ;
262 [label="fnlwgt <= 126767.0\ngini = 0.1841\nsamples = 39\nvalue = [35, 4]"] ;
258 -> 262 ;
263 [label="gini = 0.0\nsamples = 12\nvalue = [12, 0]"] ;
262 -> 263 ;
264 [label="fnlwgt <= 142112.0\ngini = 0.2524\nsamples = 27\nvalue = [23, 4]"] ;
262 -> 264 ;
265 [label="education_11th <= 0.5\ngini = 0.4444\nsamples = 3\nvalue = [1, 2]"] ;
264 -> 265 ;
266 [label="gini = 0.0\nsamples = 2\nvalue = [0, 2]"] ;
265 -> 266 ;
267 [label="gini = 0.0\nsamples = 1\nvalue = [1, 0]"] ;
265 -> 267 ;
268 [label="age <= 66.5\ngini = 0.1528\nsamples = 24\nvalue = [22, 2]"] ;
264 -> 268 ;
269 [label="gini = 0.0\nsamples = 16\nvalue = [16, 0]"] ;
268 -> 269 ;
270 [label="age <= 69.0\ngini = 0.375\nsamples = 8\nvalue = [6, 2]"] ;
268 -> 270 ;
271 [label="gini = 0.0\nsamples = 2\nvalue = [0, 2]"] ;
270 -> 271 ;
272 [label="gini = 0.0\nsamples = 6\nvalue = [6, 0]"] ;
270 -> 272 ;
273 [label="age <= 57.0\ngini = 0.2491\nsamples = 48\nvalue = [41, 7]"] ;
235 -> 273 ;
274 [label="fnlwgt <= 354495.0\ngini = 0.142\nsamples = 39\nvalue = [36, 3]"] ;
273 -> 274 ;
275 [label="relationship_Not-in-family <= 0.5\ngini = 0.1023\nsamples = 37\nvalue = [35, 2]"] ;
274 -> 275 ;
276 [label="gini = 0.0\nsamples = 19\nvalue = [19, 0]"] ;
275 -> 276 ;
277 [label="workclass_Private <= 0.5\ngini = 0.1975\nsamples = 18\nvalue = [16, 2]"] ;
275 -> 277 ;
278 [label="gini = 0.0\nsamples = 10\nvalue = [10, 0]"] ;
277 -> 278 ;
279 [label="age <= 47.0\ngini = 0.375\nsamples = 8\nvalue = [6, 2]"] ;
277 -> 279 ;
280 [label="education-num <= 11.5\ngini = 0.4444\nsamples = 6\nvalue = [4, 2]"] ;
279 -> 280 ;
281 [label="gini = 0.0\nsamples = 1\nvalue = [0, 1]"] ;
280 -> 281 ;
282 [label="gini = 0.32\nsamples = 5\nvalue = [4, 1]"] ;
280 -> 282 ;
283 [label="gini = 0.0\nsamples = 2\nvalue = [2, 0]"] ;
279 -> 283 ;
284 [label="marital-status_Never-married <= 0.5\ngini = 0.5\nsamples = 2\nvalue = [1, 1]"] ;
274 -> 284 ;
285 [label="gini = 0.0\nsamples = 1\nvalue = [0, 1]"] ;
284 -> 285 ;
286 [label="gini = 0.0\nsamples = 1\nvalue = [1, 0]"] ;
284 -> 286 ;
287 [label="fnlwgt <= 157862.0\ngini = 0.4938\nsamples = 9\nvalue = [5, 4]"] ;
273 -> 287 ;
288 [label="gini = 0.0\nsamples = 3\nvalue = [0, 3]"] ;
287 -> 288 ;
289 [label="fnlwgt <= 266228.0\ngini = 0.2778\nsamples = 6\nvalue = [5, 1]"] ;
287 -> 289 ;
290 [label="gini = 0.0\nsamples = 5\nvalue = [5, 0]"] ;
289 -> 290 ;
291 [label="gini = 0.0\nsamples = 1\nvalue = [0, 1]"] ;
289 -> 291 ;
292 [label="gini = 0.0\nsamples = 1\nvalue = [0, 1]"] ;
234 -> 292 ;
293 [label="gini = 0.0\nsamples = 1\nvalue = [0, 1]"] ;
233 -> 293 ;
294 [label="gini = 0.0\nsamples = 1\nvalue = [0, 1]"] ;
232 -> 294 ;
295 [label="sex_Male <= 0.5\ngini = 0.1953\nsamples = 237\nvalue = [211, 26]"] ;
123 -> 295 ;
296 [label="native-country_Philippines <= 0.5\ngini = 0.113\nsamples = 183\nvalue = [172, 11]"] ;
295 -> 296 ;
297 [label="capital-loss <= 1472.0\ngini = 0.1039\nsamples = 182\nvalue = [172, 10]"] ;
296 -> 297 ;
298 [label="workclass_Federal-gov <= 0.5\ngini = 0.0955\nsamples = 179\nvalue = [170, 9]"] ;
297 -> 298 ;
299 [label="age <= 36.5\ngini = 0.0794\nsamples = 169\nvalue = [162, 7]"] ;
298 -> 299 ;
300 [label="hours-per-week <= 16.0\ngini = 0.2041\nsamples = 26\nvalue = [23, 3]"] ;
299 -> 300 ;
301 [label="relationship_Not-in-family <= 0.5\ngini = 0.5\nsamples = 2\nvalue = [1, 1]"] ;
300 -> 301 ;
302 [label="gini = 0.0\nsamples = 1\nvalue = [1, 0]"] ;
301 -> 302 ;
303 [label="gini = 0.0\nsamples = 1\nvalue = [0, 1]"] ;
301 -> 303 ;
304 [label="marital-status_Divorced <= 0.5\ngini = 0.1528\nsamples = 24\nvalue = [22, 2]"] ;
300 -> 304 ;
305 [label="gini = 0.0\nsamples = 15\nvalue = [15, 0]"] ;
304 -> 305 ;
306 [label="relationship_Own-child <= 0.5\ngini = 0.3457\nsamples = 9\nvalue = [7, 2]"] ;
304 -> 306 ;
307 [label="education_Assoc-voc <= 0.5\ngini = 0.2188\nsamples = 8\nvalue = [7, 1]"] ;
306 -> 307 ;
308 [label="gini = 0.0\nsamples = 5\nvalue = [5, 0]"] ;
307 -> 308 ;
309 [label="fnlwgt <= 178916.0\ngini = 0.4444\nsamples = 3\nvalue = [2, 1]"] ;
307 -> 309 ;
310 [label="gini = 0.0\nsamples = 1\nvalue = [0, 1]"] ;
309 -> 310 ;
311 [label="gini = 0.0\nsamples = 2\nvalue = [2, 0]"] ;
309 -> 311 ;
312 [label="gini = 0.0\nsamples = 1\nvalue = [0, 1]"] ;
306 -> 312 ;
313 [label="marital-status_Divorced <= 0.5\ngini = 0.0544\nsamples = 143\nvalue = [139, 4]"] ;
299 -> 313 ;
314 [label="gini = 0.0\nsamples = 69\nvalue = [69, 0]"] ;
313 -> 314 ;
315 [label="education_Some-college <= 0.5\ngini = 0.1023\nsamples = 74\nvalue = [70, 4]"] ;
313 -> 315 ;
316 [label="fnlwgt <= 46887.0\ngini = 0.1557\nsamples = 47\nvalue = [43, 4]"] ;
315 -> 316 ;
317 [label="fnlwgt <= 39554.5\ngini = 0.5\nsamples = 2\nvalue = [1, 1]"] ;
316 -> 317 ;
318 [label="gini = 0.0\nsamples = 1\nvalue = [1, 0]"] ;
317 -> 318 ;
319 [label="gini = 0.0\nsamples = 1\nvalue = [0, 1]"] ;
317 -> 319 ;
320 [label="fnlwgt <= 137044.5\ngini = 0.1244\nsamples = 45\nvalue = [42, 3]"] ;
316 -> 320 ;
321 [label="gini = 0.0\nsamples = 18\nvalue = [18, 0]"] ;
320 -> 321 ;
322 [label="fnlwgt <= 139169.0\ngini = 0.1975\nsamples = 27\nvalue = [24, 3]"] ;
320 -> 322 ;
323 [label="gini = 0.0\nsamples = 1\nvalue = [0, 1]"] ;
322 -> 323 ;
324 [label="age <= 44.5\ngini = 0.142\nsamples = 26\nvalue = [24, 2]"] ;
322 -> 324 ;
325 [label="gini = 0.32\nsamples = 10\nvalue = [8, 2]"] ;
324 -> 325 ;
326 [label="gini = 0.0\nsamples = 16\nvalue = [16, 0]"] ;
324 -> 326 ;
327 [label="gini = 0.0\nsamples = 27\nvalue = [27, 0]"] ;
315 -> 327 ;
328 [label="marital-status_Separated <= 0.5\ngini = 0.32\nsamples = 10\nvalue = [8, 2]"] ;
298 -> 328 ;
329 [label="race_White <= 0.5\ngini = 0.1975\nsamples = 9\nvalue = [8, 1]"] ;
328 -> 329 ;
330 [label="gini = 0.0\nsamples = 5\nvalue = [5, 0]"] ;
329 -> 330 ;
331 [label="education-num <= 9.5\ngini = 0.375\nsamples = 4\nvalue = [3, 1]"] ;
329 -> 331 ;
332 [label="gini = 0.0\nsamples = 2\nvalue = [2, 0]"] ;
331 -> 332 ;
333 [label="age <= 47.0\ngini = 0.5\nsamples = 2\nvalue = [1, 1]"] ;
331 -> 333 ;
334 [label="gini = 0.0\nsamples = 1\nvalue = [0, 1]"] ;
333 -> 334 ;
335 [label="gini = 0.0\nsamples = 1\nvalue = [1, 0]"] ;
333 -> 335 ;
336 [label="gini = 0.0\nsamples = 1\nvalue = [0, 1]"] ;
328 -> 336 ;
337 [label="marital-status_Never-married <= 0.5\ngini = 0.4444\nsamples = 3\nvalue = [2, 1]"] ;
297 -> 337 ;
338 [label="gini = 0.0\nsamples = 2\nvalue = [2, 0]"] ;
337 -> 338 ;
339 [label="gini = 0.0\nsamples = 1\nvalue = [0, 1]"] ;
337 -> 339 ;
340 [label="gini = 0.0\nsamples = 1\nvalue = [0, 1]"] ;
296 -> 340 ;
341 [label="capital-gain <= 4718.5\ngini = 0.4012\nsamples = 54\nvalue = [39, 15]"] ;
295 -> 341 ;
342 [label="education_11th <= 0.5\ngini = 0.375\nsamples = 52\nvalue = [39, 13]"] ;
341 -> 342 ;
343 [label="fnlwgt <= 29452.0\ngini = 0.3599\nsamples = 51\nvalue = [39, 12]"] ;
342 -> 343 ;
344 [label="gini = 0.0\nsamples = 1\nvalue = [0, 1]"] ;
343 -> 344 ;
345 [label="native-country_Germany <= 0.5\ngini = 0.3432\nsamples = 50\nvalue = [39, 11]"] ;
343 -> 345 ;
346 [label="native-country_Japan <= 0.5\ngini = 0.3249\nsamples = 49\nvalue = [39, 10]"] ;
345 -> 346 ;
347 [label="fnlwgt <= 201059.0\ngini = 0.3047\nsamples = 48\nvalue = [39, 9]"] ;
346 -> 347 ;
348 [label="workclass_Local-gov <= 0.5\ngini = 0.1748\nsamples = 31\nvalue = [28, 3]"] ;
347 -> 348 ;
349 [label="age <= 38.5\ngini = 0.074\nsamples = 26\nvalue = [25, 1]"] ;
348 -> 349 ;
350 [label="education_HS-grad <= 0.5\ngini = 0.2778\nsamples = 6\nvalue = [5, 1]"] ;
349 -> 350 ;
351 [label="gini = 0.0\nsamples = 3\nvalue = [3, 0]"] ;
350 -> 351 ;
352 [label="fnlwgt <= 142626.0\ngini = 0.4444\nsamples = 3\nvalue = [2, 1]"] ;
350 -> 352 ;
353 [label="gini = 0.0\nsamples = 1\nvalue = [0, 1]"] ;
352 -> 353 ;
354 [label="gini = 0.0\nsamples = 2\nvalue = [2, 0]"] ;
352 -> 354 ;
355 [label="gini = 0.0\nsamples = 20\nvalue = [20, 0]"] ;
349 -> 355 ;
356 [label="education-num <= 10.5\ngini = 0.48\nsamples = 5\nvalue = [3, 2]"] ;
348 -> 356 ;
357 [label="gini = 0.0\nsamples = 2\nvalue = [2, 0]"] ;
356 -> 357 ;
358 [label="fnlwgt <= 191959.0\ngini = 0.4444\nsamples = 3\nvalue = [1, 2]"] ;
356 -> 358 ;
359 [label="gini = 0.0\nsamples = 2\nvalue = [0, 2]"] ;
358 -> 359 ;
360 [label="gini = 0.0\nsamples = 1\nvalue = [1, 0]"] ;
358 -> 360 ;
361 [label="fnlwgt <= 329693.0\ngini = 0.4567\nsamples = 17\nvalue = [11, 6]"] ;
347 -> 361 ;
362 [label="age <= 49.0\ngini = 0.4959\nsamples = 11\nvalue = [5, 6]"] ;
361 -> 362 ;
363 [label="age <= 39.5\ngini = 0.4688\nsamples = 8\nvalue = [5, 3]"] ;
362 -> 363 ;
364 [label="education_Some-college <= 0.5\ngini = 0.48\nsamples = 5\nvalue = [2, 3]"] ;
363 -> 364 ;
365 [label="gini = 0.0\nsamples = 2\nvalue = [0, 2]"] ;
364 -> 365 ;
366 [label="gini = 0.4444\nsamples = 3\nvalue = [2, 1]"] ;
364 -> 366 ;
367 [label="gini = 0.0\nsamples = 3\nvalue = [3, 0]"] ;
363 -> 367 ;
368 [label="gini = 0.0\nsamples = 3\nvalue = [0, 3]"] ;
362 -> 368 ;
369 [label="gini = 0.0\nsamples = 6\nvalue = [6, 0]"] ;
361 -> 369 ;
370 [label="gini = 0.0\nsamples = 1\nvalue = [0, 1]"] ;
346 -> 370 ;
371 [label="gini = 0.0\nsamples = 1\nvalue = [0, 1]"] ;
345 -> 371 ;
372 [label="gini = 0.0\nsamples = 1\nvalue = [0, 1]"] ;
342 -> 372 ;
373 [label="gini = 0.0\nsamples = 2\nvalue = [0, 2]"] ;
341 -> 373 ;
374 [label="age <= 38.5\ngini = 0.1225\nsamples = 2456\nvalue = [2295, 161]"] ;
4 -> 374 ;
375 [label="native-country_India <= 0.5\ngini = 0.0748\nsamples = 1568\nvalue = [1507, 61]"] ;
374 -> 375 ;
376 [label="relationship_Not-in-family <= 0.5\ngini = 0.0736\nsamples = 1567\nvalue = [1507, 60]"] ;
375 -> 376 ;
377 [label="native-country_Portugal <= 0.5\ngini = 0.0264\nsamples = 673\nvalue = [664, 9]"] ;
376 -> 377 ;
378 [label="race_Asian-Pac-Islander <= 0.5\ngini = 0.0236\nsamples = 671\nvalue = [663, 8]"] ;
377 -> 378 ;
379 [label="hours-per-week <= 98.5\ngini = 0.0181\nsamples = 657\nvalue = [651, 6]"] ;
378 -> 379 ;
380 [label="relationship_Husband <= 0.5\ngini = 0.0152\nsamples = 653\nvalue = [648, 5]"] ;
379 -> 380 ;
381 [label="workclass_Federal-gov <= 0.5\ngini = 0.0123\nsamples = 649\nvalue = [645, 4]"] ;
380 -> 381 ;
382 [label="marital-status_Married-spouse-absent <= 0.5\ngini = 0.0093\nsamples = 642\nvalue = [639, 3]"] ;
381 -> 382 ;
383 [label="fnlwgt <= 284055.5\ngini = 0.0063\nsamples = 628\nvalue = [626, 2]"] ;
382 -> 383 ;
384 [label="gini = 0.0\nsamples = 537\nvalue = [537, 0]"] ;
383 -> 384 ;
385 [label="fnlwgt <= 284811.5\ngini = 0.043\nsamples = 91\nvalue = [89, 2]"] ;
383 -> 385 ;
386 [label="gini = 0.0\nsamples = 1\nvalue = [0, 1]"] ;
385 -> 386 ;
387 [label="fnlwgt <= 287804.5\ngini = 0.022\nsamples = 90\nvalue = [89, 1]"] ;
385 -> 387 ;
388 [label="age <= 33.0\ngini = 0.4444\nsamples = 3\nvalue = [2, 1]"] ;
387 -> 388 ;
389 [label="gini = 0.0\nsamples = 2\nvalue = [2, 0]"] ;
388 -> 389 ;
390 [label="gini = 0.0\nsamples = 1\nvalue = [0, 1]"] ;
388 -> 390 ;
391 [label="gini = 0.0\nsamples = 87\nvalue = [87, 0]"] ;
387 -> 391 ;
392 [label="workclass_Self-emp-not-inc <= 0.5\ngini = 0.1327\nsamples = 14\nvalue = [13, 1]"] ;
382 -> 392 ;
393 [label="gini = 0.0\nsamples = 13\nvalue = [13, 0]"] ;
392 -> 393 ;
394 [label="gini = 0.0\nsamples = 1\nvalue = [0, 1]"] ;
392 -> 394 ;
395 [label="education_Assoc-acdm <= 0.5\ngini = 0.2449\nsamples = 7\nvalue = [6, 1]"] ;
381 -> 395 ;
396 [label="gini = 0.0\nsamples = 6\nvalue = [6, 0]"] ;
395 -> 396 ;
397 [label="gini = 0.0\nsamples = 1\nvalue = [0, 1]"] ;
395 -> 397 ;
398 [label="education_HS-grad <= 0.5\ngini = 0.375\nsamples = 4\nvalue = [3, 1]"] ;
380 -> 398 ;
399 [label="gini = 0.0\nsamples = 1\nvalue = [0, 1]"] ;
398 -> 399 ;
400 [label="gini = 0.0\nsamples = 3\nvalue = [3, 0]"] ;
398 -> 400 ;
401 [label="fnlwgt <= 173043.0\ngini = 0.375\nsamples = 4\nvalue = [3, 1]"] ;
379 -> 401 ;
402 [label="gini = 0.0\nsamples = 3\nvalue = [3, 0]"] ;
401 -> 402 ;
403 [label="gini = 0.0\nsamples = 1\nvalue = [0, 1]"] ;
401 -> 403 ;
404 [label="fnlwgt <= 70533.5\ngini = 0.2449\nsamples = 14\nvalue = [12, 2]"] ;
378 -> 404 ;
405 [label="gini = 0.0\nsamples = 1\nvalue = [0, 1]"] ;
404 -> 405 ;
406 [label="occupation_Adm-clerical <= 0.5\ngini = 0.142\nsamples = 13\nvalue = [12, 1]"] ;
404 -> 406 ;
407 [label="gini = 0.0\nsamples = 12\nvalue = [12, 0]"] ;
406 -> 407 ;
408 [label="gini = 0.0\nsamples = 1\nvalue = [0, 1]"] ;
406 -> 408 ;
409 [label="relationship_Unmarried <= 0.5\ngini = 0.5\nsamples = 2\nvalue = [1, 1]"] ;
377 -> 409 ;
410 [label="gini = 0.0\nsamples = 1\nvalue = [1, 0]"] ;
409 -> 410 ;
411 [label="gini = 0.0\nsamples = 1\nvalue = [0, 1]"] ;
409 -> 411 ;
412 [label="workclass_Private <= 0.5\ngini = 0.1076\nsamples = 894\nvalue = [843, 51]"] ;
376 -> 412 ;
413 [label="occupation_Exec-managerial <= 0.5\ngini = 0.2006\nsamples = 168\nvalue = [149, 19]"] ;
412 -> 413 ;
414 [label="occupation_Protective-serv <= 0.5\ngini = 0.1537\nsamples = 143\nvalue = [131, 12]"] ;
413 -> 414 ;
415 [label="fnlwgt <= 344990.0\ngini = 0.1155\nsamples = 130\nvalue = [122, 8]"] ;
414 -> 415 ;
416 [label="education_HS-grad <= 0.5\ngini = 0.0805\nsamples = 119\nvalue = [114, 5]"] ;
415 -> 416 ;
417 [label="gini = 0.0\nsamples = 68\nvalue = [68, 0]"] ;
416 -> 417 ;
418 [label="fnlwgt <= 34376.0\ngini = 0.1769\nsamples = 51\nvalue = [46, 5]"] ;
416 -> 418 ;
419 [label="fnlwgt <= 32842.0\ngini = 0.5\nsamples = 4\nvalue = [2, 2]"] ;
418 -> 419 ;
420 [label="gini = 0.0\nsamples = 2\nvalue = [2, 0]"] ;
419 -> 420 ;
421 [label="gini = 0.0\nsamples = 2\nvalue = [0, 2]"] ;
419 -> 421 ;
422 [label="occupation_Sales <= 0.5\ngini = 0.1195\nsamples = 47\nvalue = [44, 3]"] ;
418 -> 422 ;
423 [label="occupation_Adm-clerical <= 0.5\ngini = 0.0868\nsamples = 44\nvalue = [42, 2]"] ;
422 -> 423 ;
424 [label="age <= 29.5\ngini = 0.0487\nsamples = 40\nvalue = [39, 1]"] ;
423 -> 424 ;
425 [label="age <= 28.5\ngini = 0.18\nsamples = 10\nvalue = [9, 1]"] ;
424 -> 425 ;
426 [label="gini = 0.0\nsamples = 8\nvalue = [8, 0]"] ;
425 -> 426 ;
427 [label="gini = 0.5\nsamples = 2\nvalue = [1, 1]"] ;
425 -> 427 ;
428 [label="gini = 0.0\nsamples = 30\nvalue = [30, 0]"] ;
424 -> 428 ;
429 [label="marital-status_Never-married <= 0.5\ngini = 0.375\nsamples = 4\nvalue = [3, 1]"] ;
423 -> 429 ;
430 [label="gini = 0.0\nsamples = 3\nvalue = [3, 0]"] ;
429 -> 430 ;
431 [label="gini = 0.0\nsamples = 1\nvalue = [0, 1]"] ;
429 -> 431 ;
432 [label="age <= 33.5\ngini = 0.4444\nsamples = 3\nvalue = [2, 1]"] ;
422 -> 432 ;
433 [label="gini = 0.0\nsamples = 2\nvalue = [2, 0]"] ;
432 -> 433 ;
434 [label="gini = 0.0\nsamples = 1\nvalue = [0, 1]"] ;
432 -> 434 ;
435 [label="occupation_Craft-repair <= 0.5\ngini = 0.3967\nsamples = 11\nvalue = [8, 3]"] ;
415 -> 435 ;
436 [label="gini = 0.0\nsamples = 6\nvalue = [6, 0]"] ;
435 -> 436 ;
437 [label="education-num <= 9.5\ngini = 0.48\nsamples = 5\nvalue = [2, 3]"] ;
435 -> 437 ;
438 [label="gini = 0.0\nsamples = 3\nvalue = [0, 3]"] ;
437 -> 438 ;
439 [label="gini = 0.0\nsamples = 2\nvalue = [2, 0]"] ;
437 -> 439 ;
440 [label="age <= 28.0\ngini = 0.426\nsamples = 13\nvalue = [9, 4]"] ;
414 -> 440 ;
441 [label="gini = 0.0\nsamples = 4\nvalue = [4, 0]"] ;
440 -> 441 ;
442 [label="hours-per-week <= 53.0\ngini = 0.4938\nsamples = 9\nvalue = [5, 4]"] ;
440 -> 442 ;
443 [label="gini = 0.0\nsamples = 2\nvalue = [0, 2]"] ;
442 -> 443 ;
444 [label="sex_Female <= 0.5\ngini = 0.4082\nsamples = 7\nvalue = [5, 2]"] ;
442 -> 444 ;
445 [label="age <= 31.0\ngini = 0.2778\nsamples = 6\nvalue = [5, 1]"] ;
444 -> 445 ;
446 [label="gini = 0.0\nsamples = 1\nvalue = [0, 1]"] ;
445 -> 446 ;
447 [label="gini = 0.0\nsamples = 5\nvalue = [5, 0]"] ;
445 -> 447 ;
448 [label="gini = 0.0\nsamples = 1\nvalue = [0, 1]"] ;
444 -> 448 ;
449 [label="hours-per-week <= 62.5\ngini = 0.4032\nsamples = 25\nvalue = [18, 7]"] ;
413 -> 449 ;
450 [label="education_12th <= 0.5\ngini = 0.255\nsamples = 20\nvalue = [17, 3]"] ;
449 -> 450 ;
451 [label="fnlwgt <= 58156.5\ngini = 0.1884\nsamples = 19\nvalue = [17, 2]"] ;
450 -> 451 ;
452 [label="gini = 0.0\nsamples = 1\nvalue = [0, 1]"] ;
451 -> 452 ;
453 [label="fnlwgt <= 114965.0\ngini = 0.1049\nsamples = 18\nvalue = [17, 1]"] ;
451 -> 453 ;
454 [label="age <= 28.0\ngini = 0.4444\nsamples = 3\nvalue = [2, 1]"] ;
453 -> 454 ;
455 [label="gini = 0.0\nsamples = 1\nvalue = [0, 1]"] ;
454 -> 455 ;
456 [label="gini = 0.0\nsamples = 2\nvalue = [2, 0]"] ;
454 -> 456 ;
457 [label="gini = 0.0\nsamples = 15\nvalue = [15, 0]"] ;
453 -> 457 ;
458 [label="gini = 0.0\nsamples = 1\nvalue = [0, 1]"] ;
450 -> 458 ;
459 [label="native-country_Cuba <= 0.5\ngini = 0.32\nsamples = 5\nvalue = [1, 4]"] ;
449 -> 459 ;
460 [label="gini = 0.0\nsamples = 4\nvalue = [0, 4]"] ;
459 -> 460 ;
461 [label="gini = 0.0\nsamples = 1\nvalue = [1, 0]"] ;
459 -> 461 ;
462 [label="education-num <= 10.5\ngini = 0.0843\nsamples = 726\nvalue = [694, 32]"] ;
412 -> 462 ;
463 [label="fnlwgt <= 30808.5\ngini = 0.0672\nsamples = 632\nvalue = [610, 22]"] ;
462 -> 463 ;
464 [label="occupation_Transport-moving <= 0.5\ngini = 0.2975\nsamples = 11\nvalue = [9, 2]"] ;
463 -> 464 ;
465 [label="hours-per-week <= 49.0\ngini = 0.18\nsamples = 10\nvalue = [9, 1]"] ;
464 -> 465 ;
466 [label="marital-status_Never-married <= 0.5\ngini = 0.5\nsamples = 2\nvalue = [1, 1]"] ;
465 -> 466 ;
467 [label="gini = 0.0\nsamples = 1\nvalue = [0, 1]"] ;
466 -> 467 ;
468 [label="gini = 0.0\nsamples = 1\nvalue = [1, 0]"] ;
466 -> 468 ;
469 [label="gini = 0.0\nsamples = 8\nvalue = [8, 0]"] ;
465 -> 469 ;
470 [label="gini = 0.0\nsamples = 1\nvalue = [0, 1]"] ;
464 -> 470 ;
471 [label="education_9th <= 0.5\ngini = 0.0623\nsamples = 621\nvalue = [601, 20]"] ;
463 -> 471 ;
472 [label="fnlwgt <= 465605.5\ngini = 0.0575\nsamples = 608\nvalue = [590, 18]"] ;
471 -> 472 ;
473 [label="hours-per-week <= 41.5\ngini = 0.0524\nsamples = 594\nvalue = [578, 16]"] ;
472 -> 473 ;
474 [label="fnlwgt <= 127800.5\ngini = 0.32\nsamples = 5\nvalue = [4, 1]"] ;
473 -> 474 ;
475 [label="gini = 0.0\nsamples = 4\nvalue = [4, 0]"] ;
474 -> 475 ;
476 [label="gini = 0.0\nsamples = 1\nvalue = [0, 1]"] ;
474 -> 476 ;
477 [label="education_7th-8th <= 0.5\ngini = 0.0496\nsamples = 589\nvalue = [574, 15]"] ;
473 -> 477 ;
478 [label="fnlwgt <= 251746.5\ngini = 0.0469\nsamples = 583\nvalue = [569, 14]"] ;
477 -> 478 ;
479 [label="fnlwgt <= 250640.0\ngini = 0.0617\nsamples = 439\nvalue = [425, 14]"] ;
478 -> 479 ;
480 [label="age <= 23.5\ngini = 0.0576\nsamples = 438\nvalue = [425, 13]"] ;
479 -> 480 ;
481 [label="gini = 0.0\nsamples = 92\nvalue = [92, 0]"] ;
480 -> 481 ;
482 [label="gini = 0.0723\nsamples = 346\nvalue = [333, 13]"] ;
480 -> 482 ;
483 [label="gini = 0.0\nsamples = 1\nvalue = [0, 1]"] ;
479 -> 483 ;
484 [label="gini = 0.0\nsamples = 144\nvalue = [144, 0]"] ;
478 -> 484 ;
485 [label="fnlwgt <= 310057.0\ngini = 0.2778\nsamples = 6\nvalue = [5, 1]"] ;
477 -> 485 ;
486 [label="gini = 0.0\nsamples = 5\nvalue = [5, 0]"] ;
485 -> 486 ;
487 [label="gini = 0.0\nsamples = 1\nvalue = [0, 1]"] ;
485 -> 487 ;
488 [label="marital-status_Separated <= 0.5\ngini = 0.2449\nsamples = 14\nvalue = [12, 2]"] ;
472 -> 488 ;
489 [label="fnlwgt <= 477227.5\ngini = 0.142\nsamples = 13\nvalue = [12, 1]"] ;
488 -> 489 ;
490 [label="gini = 0.0\nsamples = 1\nvalue = [0, 1]"] ;
489 -> 490 ;
491 [label="gini = 0.0\nsamples = 12\nvalue = [12, 0]"] ;
489 -> 491 ;
492 [label="gini = 0.0\nsamples = 1\nvalue = [0, 1]"] ;
488 -> 492 ;
493 [label="hours-per-week <= 44.0\ngini = 0.2604\nsamples = 13\nvalue = [11, 2]"] ;
471 -> 493 ;
494 [label="gini = 0.0\nsamples = 1\nvalue = [0, 1]"] ;
493 -> 494 ;
495 [label="native-country_? <= 0.5\ngini = 0.1528\nsamples = 12\nvalue = [11, 1]"] ;
493 -> 495 ;
496 [label="gini = 0.0\nsamples = 11\nvalue = [11, 0]"] ;
495 -> 496 ;
497 [label="gini = 0.0\nsamples = 1\nvalue = [0, 1]"] ;
495 -> 497 ;
498 [label="capital-gain <= 3692.0\ngini = 0.1901\nsamples = 94\nvalue = [84, 10]"] ;
462 -> 498 ;
499 [label="hours-per-week <= 64.5\ngini = 0.1748\nsamples = 93\nvalue = [84, 9]"] ;
498 -> 499 ;
500 [label="fnlwgt <= 213271.5\ngini = 0.1464\nsamples = 88\nvalue = [81, 7]"] ;
499 -> 500 ;
501 [label="fnlwgt <= 205085.5\ngini = 0.2122\nsamples = 58\nvalue = [51, 7]"] ;
500 -> 501 ;
502 [label="age <= 35.5\ngini = 0.1396\nsamples = 53\nvalue = [49, 4]"] ;
501 -> 502 ;
503 [label="fnlwgt <= 180814.5\ngini = 0.0832\nsamples = 46\nvalue = [44, 2]"] ;
502 -> 503 ;
504 [label="gini = 0.0\nsamples = 37\nvalue = [37, 0]"] ;
503 -> 504 ;
505 [label="marital-status_Never-married <= 0.5\ngini = 0.3457\nsamples = 9\nvalue = [7, 2]"] ;
503 -> 505 ;
506 [label="hours-per-week <= 47.5\ngini = 0.4444\nsamples = 3\nvalue = [1, 2]"] ;
505 -> 506 ;
507 [label="gini = 0.0\nsamples = 1\nvalue = [1, 0]"] ;
506 -> 507 ;
508 [label="gini = 0.0\nsamples = 2\nvalue = [0, 2]"] ;
506 -> 508 ;
509 [label="gini = 0.0\nsamples = 6\nvalue = [6, 0]"] ;
505 -> 509 ;
510 [label="fnlwgt <= 58363.0\ngini = 0.4082\nsamples = 7\nvalue = [5, 2]"] ;
502 -> 510 ;
511 [label="gini = 0.0\nsamples = 1\nvalue = [0, 1]"] ;
510 -> 511 ;
512 [label="occupation_Sales <= 0.5\ngini = 0.2778\nsamples = 6\nvalue = [5, 1]"] ;
510 -> 512 ;
513 [label="gini = 0.0\nsamples = 5\nvalue = [5, 0]"] ;
512 -> 513 ;
514 [label="gini = 0.0\nsamples = 1\nvalue = [0, 1]"] ;
512 -> 514 ;
515 [label="hours-per-week <= 47.5\ngini = 0.48\nsamples = 5\nvalue = [2, 3]"] ;
501 -> 515 ;
516 [label="gini = 0.0\nsamples = 2\nvalue = [2, 0]"] ;
515 -> 516 ;
517 [label="gini = 0.0\nsamples = 3\nvalue = [0, 3]"] ;
515 -> 517 ;
518 [label="gini = 0.0\nsamples = 30\nvalue = [30, 0]"] ;
500 -> 518 ;
519 [label="occupation_Exec-managerial <= 0.5\ngini = 0.48\nsamples = 5\nvalue = [3, 2]"] ;
499 -> 519 ;
520 [label="age <= 31.5\ngini = 0.375\nsamples = 4\nvalue = [3, 1]"] ;
519 -> 520 ;
521 [label="gini = 0.0\nsamples = 2\nvalue = [2, 0]"] ;
520 -> 521 ;
522 [label="education_Assoc-voc <= 0.5\ngini = 0.5\nsamples = 2\nvalue = [1, 1]"] ;
520 -> 522 ;
523 [label="gini = 0.0\nsamples = 1\nvalue = [0, 1]"] ;
522 -> 523 ;
524 [label="gini = 0.0\nsamples = 1\nvalue = [1, 0]"] ;
522 -> 524 ;
525 [label="gini = 0.0\nsamples = 1\nvalue = [0, 1]"] ;
519 -> 525 ;
526 [label="gini = 0.0\nsamples = 1\nvalue = [0, 1]"] ;
498 -> 526 ;
527 [label="gini = 0.0\nsamples = 1\nvalue = [0, 1]"] ;
375 -> 527 ;
528 [label="capital-gain <= 4668.5\ngini = 0.1999\nsamples = 888\nvalue = [788, 100]"] ;
374 -> 528 ;
529 [label="sex_Female <= 0.5\ngini = 0.1928\nsamples = 879\nvalue = [784, 95]"] ;
528 -> 529 ;
530 [label="fnlwgt <= 361071.0\ngini = 0.2529\nsamples = 458\nvalue = [390, 68]"] ;
529 -> 530 ;
531 [label="marital-status_Never-married <= 0.5\ngini = 0.2345\nsamples = 435\nvalue = [376, 59]"] ;
530 -> 531 ;
532 [label="occupation_Tech-support <= 0.5\ngini = 0.2828\nsamples = 311\nvalue = [258, 53]"] ;
531 -> 532 ;
533 [label="education-num <= 9.5\ngini = 0.2727\nsamples = 307\nvalue = [257, 50]"] ;
532 -> 533 ;
534 [label="fnlwgt <= 26943.0\ngini = 0.1995\nsamples = 178\nvalue = [158, 20]"] ;
533 -> 534 ;
535 [label="education_HS-grad <= 0.5\ngini = 0.4444\nsamples = 3\nvalue = [1, 2]"] ;
534 -> 535 ;
536 [label="gini = 0.0\nsamples = 1\nvalue = [1, 0]"] ;
535 -> 536 ;
537 [label="gini = 0.0\nsamples = 2\nvalue = [0, 2]"] ;
535 -> 537 ;
538 [label="age <= 51.5\ngini = 0.1846\nsamples = 175\nvalue = [157, 18]"] ;
534 -> 538 ;
539 [label="fnlwgt <= 321184.5\ngini = 0.0899\nsamples = 106\nvalue = [101, 5]"] ;
538 -> 539 ;
540 [label="education_12th <= 0.5\ngini = 0.0594\nsamples = 98\nvalue = [95, 3]"] ;
539 -> 540 ;
541 [label="occupation_Sales <= 0.5\ngini = 0.0412\nsamples = 95\nvalue = [93, 2]"] ;
540 -> 541 ;
542 [label="gini = 0.0\nsamples = 81\nvalue = [81, 0]"] ;
541 -> 542 ;
543 [label="age <= 40.5\ngini = 0.2449\nsamples = 14\nvalue = [12, 2]"] ;
541 -> 543 ;
544 [label="gini = 0.0\nsamples = 1\nvalue = [0, 1]"] ;
543 -> 544 ;
545 [label="gini = 0.142\nsamples = 13\nvalue = [12, 1]"] ;
543 -> 545 ;
546 [label="fnlwgt <= 48655.0\ngini = 0.4444\nsamples = 3\nvalue = [2, 1]"] ;
540 -> 546 ;
547 [label="gini = 0.0\nsamples = 1\nvalue = [0, 1]"] ;
546 -> 547 ;
548 [label="gini = 0.0\nsamples = 2\nvalue = [2, 0]"] ;
546 -> 548 ;
549 [label="fnlwgt <= 322823.0\ngini = 0.375\nsamples = 8\nvalue = [6, 2]"] ;
539 -> 549 ;
550 [label="gini = 0.0\nsamples = 1\nvalue = [0, 1]"] ;
549 -> 550 ;
551 [label="age <= 45.0\ngini = 0.2449\nsamples = 7\nvalue = [6, 1]"] ;
549 -> 551 ;
552 [label="gini = 0.0\nsamples = 6\nvalue = [6, 0]"] ;
551 -> 552 ;
553 [label="gini = 0.0\nsamples = 1\nvalue = [0, 1]"] ;
551 -> 553 ;
554 [label="relationship_Not-in-family <= 0.5\ngini = 0.3058\nsamples = 69\nvalue = [56, 13]"] ;
538 -> 554 ;
555 [label="fnlwgt <= 191470.0\ngini = 0.4753\nsamples = 18\nvalue = [11, 7]"] ;
554 -> 555 ;
556 [label="education-num <= 5.5\ngini = 0.4628\nsamples = 11\nvalue = [4, 7]"] ;
555 -> 556 ;
557 [label="gini = 0.0\nsamples = 3\nvalue = [3, 0]"] ;
556 -> 557 ;
558 [label="age <= 76.5\ngini = 0.2188\nsamples = 8\nvalue = [1, 7]"] ;
556 -> 558 ;
559 [label="gini = 0.0\nsamples = 7\nvalue = [0, 7]"] ;
558 -> 559 ;
560 [label="gini = 0.0\nsamples = 1\nvalue = [1, 0]"] ;
558 -> 560 ;
561 [label="gini = 0.0\nsamples = 7\nvalue = [7, 0]"] ;
555 -> 561 ;
562 [label="occupation_? <= 0.5\ngini = 0.2076\nsamples = 51\nvalue = [45, 6]"] ;
554 -> 562 ;
563 [label="workclass_Self-emp-inc <= 0.5\ngini = 0.18\nsamples = 50\nvalue = [45, 5]"] ;
562 -> 563 ;
564 [label="hours-per-week <= 53.5\ngini = 0.1271\nsamples = 44\nvalue = [41, 3]"] ;
563 -> 564 ;
565 [label="gini = 0.0\nsamples = 23\nvalue = [23, 0]"] ;
564 -> 565 ;
566 [label="gini = 0.2449\nsamples = 21\nvalue = [18, 3]"] ;
564 -> 566 ;
567 [label="marital-status_Divorced <= 0.5\ngini = 0.4444\nsamples = 6\nvalue = [4, 2]"] ;
563 -> 567 ;
568 [label="gini = 0.0\nsamples = 2\nvalue = [0, 2]"] ;
567 -> 568 ;
569 [label="gini = 0.0\nsamples = 4\nvalue = [4, 0]"] ;
567 -> 569 ;
570 [label="gini = 0.0\nsamples = 1\nvalue = [0, 1]"] ;
562 -> 570 ;
571 [label="hours-per-week <= 45.5\ngini = 0.3569\nsamples = 129\nvalue = [99, 30]"] ;
533 -> 571 ;
572 [label="occupation_Exec-managerial <= 0.5\ngini = 0.1884\nsamples = 38\nvalue = [34, 4]"] ;
571 -> 572 ;
573 [label="fnlwgt <= 339936.0\ngini = 0.1172\nsamples = 32\nvalue = [30, 2]"] ;
572 -> 573 ;
574 [label="age <= 59.0\ngini = 0.0624\nsamples = 31\nvalue = [30, 1]"] ;
573 -> 574 ;
575 [label="gini = 0.0\nsamples = 28\nvalue = [28, 0]"] ;
574 -> 575 ;
576 [label="occupation_Craft-repair <= 0.5\ngini = 0.4444\nsamples = 3\nvalue = [2, 1]"] ;
574 -> 576 ;
577 [label="gini = 0.0\nsamples = 2\nvalue = [2, 0]"] ;
576 -> 577 ;
578 [label="gini = 0.0\nsamples = 1\nvalue = [0, 1]"] ;
576 -> 578 ;
579 [label="gini = 0.0\nsamples = 1\nvalue = [0, 1]"] ;
573 -> 579 ;
580 [label="education_Assoc-voc <= 0.5\ngini = 0.4444\nsamples = 6\nvalue = [4, 2]"] ;
572 -> 580 ;
581 [label="marital-status_Divorced <= 0.5\ngini = 0.32\nsamples = 5\nvalue = [4, 1]"] ;
580 -> 581 ;
582 [label="native-country_United-States <= 0.5\ngini = 0.5\nsamples = 2\nvalue = [1, 1]"] ;
581 -> 582 ;
583 [label="gini = 0.0\nsamples = 1\nvalue = [1, 0]"] ;
582 -> 583 ;
584 [label="gini = 0.0\nsamples = 1\nvalue = [0, 1]"] ;
582 -> 584 ;
585 [label="gini = 0.0\nsamples = 3\nvalue = [3, 0]"] ;
581 -> 585 ;
586 [label="gini = 0.0\nsamples = 1\nvalue = [0, 1]"] ;
580 -> 586 ;
587 [label="hours-per-week <= 49.0\ngini = 0.4082\nsamples = 91\nvalue = [65, 26]"] ;
571 -> 587 ;
588 [label="fnlwgt <= 203728.5\ngini = 0.4978\nsamples = 15\nvalue = [7, 8]"] ;
587 -> 588 ;
589 [label="fnlwgt <= 102092.0\ngini = 0.4628\nsamples = 11\nvalue = [7, 4]"] ;
588 -> 589 ;
590 [label="gini = 0.0\nsamples = 2\nvalue = [0, 2]"] ;
589 -> 590 ;
591 [label="occupation_Craft-repair <= 0.5\ngini = 0.3457\nsamples = 9\nvalue = [7, 2]"] ;
589 -> 591 ;
592 [label="gini = 0.0\nsamples = 6\nvalue = [6, 0]"] ;
591 -> 592 ;
593 [label="hours-per-week <= 47.5\ngini = 0.4444\nsamples = 3\nvalue = [1, 2]"] ;
591 -> 593 ;
594 [label="gini = 0.0\nsamples = 1\nvalue = [1, 0]"] ;
593 -> 594 ;
595 [label="gini = 0.0\nsamples = 2\nvalue = [0, 2]"] ;
593 -> 595 ;
596 [label="gini = 0.0\nsamples = 4\nvalue = [0, 4]"] ;
588 -> 596 ;
597 [label="age <= 43.5\ngini = 0.3615\nsamples = 76\nvalue = [58, 18]"] ;
587 -> 597 ;
598 [label="fnlwgt <= 101486.0\ngini = 0.48\nsamples = 25\nvalue = [15, 10]"] ;
597 -> 598 ;
599 [label="occupation_Sales <= 0.5\ngini = 0.2778\nsamples = 6\nvalue = [1, 5]"] ;
598 -> 599 ;
600 [label="gini = 0.0\nsamples = 5\nvalue = [0, 5]"] ;
599 -> 600 ;
601 [label="gini = 0.0\nsamples = 1\nvalue = [1, 0]"] ;
599 -> 601 ;
602 [label="age <= 41.5\ngini = 0.3878\nsamples = 19\nvalue = [14, 5]"] ;
598 -> 602 ;
603 [label="native-country_United-States <= 0.5\ngini = 0.3047\nsamples = 16\nvalue = [13, 3]"] ;
602 -> 603 ;
604 [label="gini = 0.0\nsamples = 1\nvalue = [0, 1]"] ;
603 -> 604 ;
605 [label="gini = 0.2311\nsamples = 15\nvalue = [13, 2]"] ;
603 -> 605 ;
606 [label="occupation_Exec-managerial <= 0.5\ngini = 0.4444\nsamples = 3\nvalue = [1, 2]"] ;
602 -> 606 ;
607 [label="gini = 0.0\nsamples = 2\nvalue = [0, 2]"] ;
606 -> 607 ;
608 [label="gini = 0.0\nsamples = 1\nvalue = [1, 0]"] ;
606 -> 608 ;
609 [label="workclass_Federal-gov <= 0.5\ngini = 0.2645\nsamples = 51\nvalue = [43, 8]"] ;
597 -> 609 ;
610 [label="age <= 58.5\ngini = 0.2408\nsamples = 50\nvalue = [43, 7]"] ;
609 -> 610 ;
611 [label="relationship_Unmarried <= 0.5\ngini = 0.1975\nsamples = 45\nvalue = [40, 5]"] ;
610 -> 611 ;
612 [label="gini = 0.1078\nsamples = 35\nvalue = [33, 2]"] ;
611 -> 612 ;
613 [label="gini = 0.42\nsamples = 10\nvalue = [7, 3]"] ;
611 -> 613 ;
614 [label="hours-per-week <= 53.0\ngini = 0.48\nsamples = 5\nvalue = [3, 2]"] ;
610 -> 614 ;
615 [label="gini = 0.4444\nsamples = 3\nvalue = [1, 2]"] ;
614 -> 615 ;
616 [label="gini = 0.0\nsamples = 2\nvalue = [2, 0]"] ;
614 -> 616 ;
617 [label="gini = 0.0\nsamples = 1\nvalue = [0, 1]"] ;
609 -> 617 ;
618 [label="education_Some-college <= 0.5\ngini = 0.375\nsamples = 4\nvalue = [1, 3]"] ;
532 -> 618 ;
619 [label="gini = 0.0\nsamples = 3\nvalue = [0, 3]"] ;
618 -> 619 ;
620 [label="gini = 0.0\nsamples = 1\nvalue = [1, 0]"] ;
618 -> 620 ;
621 [label="capital-loss <= 1534.0\ngini = 0.0921\nsamples = 124\nvalue = [118, 6]"] ;
531 -> 621 ;
622 [label="age <= 59.5\ngini = 0.065\nsamples = 119\nvalue = [115, 4]"] ;
621 -> 622 ;
623 [label="occupation_Adm-clerical <= 0.5\ngini = 0.0517\nsamples = 113\nvalue = [110, 3]"] ;
622 -> 623 ;
624 [label="fnlwgt <= 183920.0\ngini = 0.0374\nsamples = 105\nvalue = [103, 2]"] ;
623 -> 624 ;
625 [label="gini = 0.0\nsamples = 66\nvalue = [66, 0]"] ;
624 -> 625 ;
626 [label="fnlwgt <= 188732.0\ngini = 0.0973\nsamples = 39\nvalue = [37, 2]"] ;
624 -> 626 ;
627 [label="occupation_Other-service <= 0.5\ngini = 0.5\nsamples = 2\nvalue = [1, 1]"] ;
626 -> 627 ;
628 [label="gini = 0.0\nsamples = 1\nvalue = [0, 1]"] ;
627 -> 628 ;
629 [label="gini = 0.0\nsamples = 1\nvalue = [1, 0]"] ;
627 -> 629 ;
630 [label="occupation_Sales <= 0.5\ngini = 0.0526\nsamples = 37\nvalue = [36, 1]"] ;
626 -> 630 ;
631 [label="gini = 0.0\nsamples = 33\nvalue = [33, 0]"] ;
630 -> 631 ;
632 [label="fnlwgt <= 250791.5\ngini = 0.375\nsamples = 4\nvalue = [3, 1]"] ;
630 -> 632 ;
633 [label="gini = 0.0\nsamples = 3\nvalue = [3, 0]"] ;
632 -> 633 ;
634 [label="gini = 0.0\nsamples = 1\nvalue = [0, 1]"] ;
632 -> 634 ;
635 [label="relationship_Unmarried <= 0.5\ngini = 0.2188\nsamples = 8\nvalue = [7, 1]"] ;
623 -> 635 ;
636 [label="gini = 0.0\nsamples = 6\nvalue = [6, 0]"] ;
635 -> 636 ;
637 [label="age <= 47.5\ngini = 0.5\nsamples = 2\nvalue = [1, 1]"] ;
635 -> 637 ;
638 [label="gini = 0.0\nsamples = 1\nvalue = [0, 1]"] ;
637 -> 638 ;
639 [label="gini = 0.0\nsamples = 1\nvalue = [1, 0]"] ;
637 -> 639 ;
640 [label="fnlwgt <= 51439.0\ngini = 0.2778\nsamples = 6\nvalue = [5, 1]"] ;
622 -> 640 ;
641 [label="gini = 0.0\nsamples = 1\nvalue = [0, 1]"] ;
640 -> 641 ;
642 [label="gini = 0.0\nsamples = 5\nvalue = [5, 0]"] ;
640 -> 642 ;
643 [label="capital-loss <= 1577.0\ngini = 0.48\nsamples = 5\nvalue = [3, 2]"] ;
621 -> 643 ;
644 [label="gini = 0.0\nsamples = 2\nvalue = [0, 2]"] ;
643 -> 644 ;
645 [label="gini = 0.0\nsamples = 3\nvalue = [3, 0]"] ;
643 -> 645 ;
646 [label="education_Some-college <= 0.5\ngini = 0.4764\nsamples = 23\nvalue = [14, 9]"] ;
530 -> 646 ;
647 [label="occupation_Craft-repair <= 0.5\ngini = 0.32\nsamples = 15\nvalue = [12, 3]"] ;
646 -> 647 ;
648 [label="age <= 53.0\ngini = 0.2449\nsamples = 14\nvalue = [12, 2]"] ;
647 -> 648 ;
649 [label="occupation_Prof-specialty <= 0.5\ngini = 0.142\nsamples = 13\nvalue = [12, 1]"] ;
648 -> 649 ;
650 [label="gini = 0.0\nsamples = 12\nvalue = [12, 0]"] ;
649 -> 650 ;
651 [label="gini = 0.0\nsamples = 1\nvalue = [0, 1]"] ;
649 -> 651 ;
652 [label="gini = 0.0\nsamples = 1\nvalue = [0, 1]"] ;
648 -> 652 ;
653 [label="gini = 0.0\nsamples = 1\nvalue = [0, 1]"] ;
647 -> 653 ;
654 [label="fnlwgt <= 420118.0\ngini = 0.375\nsamples = 8\nvalue = [2, 6]"] ;
646 -> 654 ;
655 [label="gini = 0.0\nsamples = 5\nvalue = [0, 5]"] ;
654 -> 655 ;
656 [label="relationship_Own-child <= 0.5\ngini = 0.4444\nsamples = 3\nvalue = [2, 1]"] ;
654 -> 656 ;
657 [label="gini = 0.0\nsamples = 2\nvalue = [2, 0]"] ;
656 -> 657 ;
658 [label="gini = 0.0\nsamples = 1\nvalue = [0, 1]"] ;
656 -> 658 ;
659 [label="marital-status_Married-AF-spouse <= 0.5\ngini = 0.12\nsamples = 421\nvalue = [394, 27]"] ;
529 -> 659 ;
660 [label="native-country_Greece <= 0.5\ngini = 0.1161\nsamples = 420\nvalue = [394, 26]"] ;
659 -> 660 ;
661 [label="occupation_Tech-support <= 0.5\ngini = 0.1122\nsamples = 419\nvalue = [394, 25]"] ;
660 -> 661 ;
662 [label="education-num <= 9.5\ngini = 0.1018\nsamples = 409\nvalue = [387, 22]"] ;
661 -> 662 ;
663 [label="workclass_Self-emp-inc <= 0.5\ngini = 0.0375\nsamples = 209\nvalue = [205, 4]"] ;
662 -> 663 ;
664 [label="marital-status_Married-spouse-absent <= 0.5\ngini = 0.0287\nsamples = 206\nvalue = [203, 3]"] ;
663 -> 664 ;
665 [label="workclass_State-gov <= 0.5\ngini = 0.0198\nsamples = 200\nvalue = [198, 2]"] ;
664 -> 665 ;
666 [label="education_11th <= 0.5\ngini = 0.0103\nsamples = 193\nvalue = [192, 1]"] ;
665 -> 666 ;
667 [label="gini = 0.0\nsamples = 185\nvalue = [185, 0]"] ;
666 -> 667 ;
668 [label="occupation_Craft-repair <= 0.5\ngini = 0.2188\nsamples = 8\nvalue = [7, 1]"] ;
666 -> 668 ;
669 [label="gini = 0.0\nsamples = 6\nvalue = [6, 0]"] ;
668 -> 669 ;
670 [label="hours-per-week <= 47.5\ngini = 0.5\nsamples = 2\nvalue = [1, 1]"] ;
668 -> 670 ;
671 [label="gini = 0.0\nsamples = 1\nvalue = [1, 0]"] ;
670 -> 671 ;
672 [label="gini = 0.0\nsamples = 1\nvalue = [0, 1]"] ;
670 -> 672 ;
673 [label="occupation_Adm-clerical <= 0.5\ngini = 0.2449\nsamples = 7\nvalue = [6, 1]"] ;
665 -> 673 ;
674 [label="gini = 0.0\nsamples = 5\nvalue = [5, 0]"] ;
673 -> 674 ;
675 [label="fnlwgt <= 99324.0\ngini = 0.5\nsamples = 2\nvalue = [1, 1]"] ;
673 -> 675 ;
676 [label="gini = 0.0\nsamples = 1\nvalue = [1, 0]"] ;
675 -> 676 ;
677 [label="gini = 0.0\nsamples = 1\nvalue = [0, 1]"] ;
675 -> 677 ;
678 [label="race_White <= 0.5\ngini = 0.2778\nsamples = 6\nvalue = [5, 1]"] ;
664 -> 678 ;
679 [label="gini = 0.0\nsamples = 1\nvalue = [0, 1]"] ;
678 -> 679 ;
680 [label="gini = 0.0\nsamples = 5\nvalue = [5, 0]"] ;
678 -> 680 ;
681 [label="age <= 51.5\ngini = 0.4444\nsamples = 3\nvalue = [2, 1]"] ;
663 -> 681 ;
682 [label="gini = 0.0\nsamples = 2\nvalue = [2, 0]"] ;
681 -> 682 ;
683 [label="gini = 0.0\nsamples = 1\nvalue = [0, 1]"] ;
681 -> 683 ;
684 [label="occupation_Protective-serv <= 0.5\ngini = 0.1638\nsamples = 200\nvalue = [182, 18]"] ;
662 -> 684 ;
685 [label="workclass_? <= 0.5\ngini = 0.1563\nsamples = 199\nvalue = [182, 17]"] ;
684 -> 685 ;
686 [label="age <= 46.5\ngini = 0.1486\nsamples = 198\nvalue = [182, 16]"] ;
685 -> 686 ;
687 [label="fnlwgt <= 369903.5\ngini = 0.0754\nsamples = 102\nvalue = [98, 4]"] ;
686 -> 687 ;
688 [label="relationship_Own-child <= 0.5\ngini = 0.0582\nsamples = 100\nvalue = [97, 3]"] ;
687 -> 688 ;
689 [label="hours-per-week <= 52.5\ngini = 0.0421\nsamples = 93\nvalue = [91, 2]"] ;
688 -> 689 ;
690 [label="gini = 0.0\nsamples = 66\nvalue = [66, 0]"] ;
689 -> 690 ;
691 [label="gini = 0.1372\nsamples = 27\nvalue = [25, 2]"] ;
689 -> 691 ;
692 [label="hours-per-week <= 44.5\ngini = 0.2449\nsamples = 7\nvalue = [6, 1]"] ;
688 -> 692 ;
693 [label="gini = 0.0\nsamples = 1\nvalue = [0, 1]"] ;
692 -> 693 ;
694 [label="gini = 0.0\nsamples = 6\nvalue = [6, 0]"] ;
692 -> 694 ;
695 [label="age <= 39.5\ngini = 0.5\nsamples = 2\nvalue = [1, 1]"] ;
687 -> 695 ;
696 [label="gini = 0.0\nsamples = 1\nvalue = [0, 1]"] ;
695 -> 696 ;
697 [label="gini = 0.0\nsamples = 1\nvalue = [1, 0]"] ;
695 -> 697 ;
698 [label="hours-per-week <= 56.5\ngini = 0.2188\nsamples = 96\nvalue = [84, 12]"] ;
686 -> 698 ;
699 [label="hours-per-week <= 55.5\ngini = 0.2747\nsamples = 73\nvalue = [61, 12]"] ;
698 -> 699 ;
700 [label="workclass_Private <= 0.5\ngini = 0.2589\nsamples = 72\nvalue = [61, 11]"] ;
699 -> 700 ;
701 [label="gini = 0.0\nsamples = 18\nvalue = [18, 0]"] ;
700 -> 701 ;
702 [label="gini = 0.3244\nsamples = 54\nvalue = [43, 11]"] ;
700 -> 702 ;
703 [label="gini = 0.0\nsamples = 1\nvalue = [0, 1]"] ;
699 -> 703 ;
704 [label="gini = 0.0\nsamples = 23\nvalue = [23, 0]"] ;
698 -> 704 ;
705 [label="gini = 0.0\nsamples = 1\nvalue = [0, 1]"] ;
685 -> 705 ;
706 [label="gini = 0.0\nsamples = 1\nvalue = [0, 1]"] ;
684 -> 706 ;
707 [label="marital-status_Divorced <= 0.5\ngini = 0.42\nsamples = 10\nvalue = [7, 3]"] ;
661 -> 707 ;
708 [label="gini = 0.0\nsamples = 2\nvalue = [0, 2]"] ;
707 -> 708 ;
709 [label="fnlwgt <= 129209.0\ngini = 0.2188\nsamples = 8\nvalue = [7, 1]"] ;
707 -> 709 ;
710 [label="gini = 0.0\nsamples = 1\nvalue = [0, 1]"] ;
709 -> 710 ;
711 [label="gini = 0.0\nsamples = 7\nvalue = [7, 0]"] ;
709 -> 711 ;
712 [label="gini = 0.0\nsamples = 1\nvalue = [0, 1]"] ;
660 -> 712 ;
713 [label="gini = 0.0\nsamples = 1\nvalue = [0, 1]"] ;
659 -> 713 ;
714 [label="capital-gain <= 5194.5\ngini = 0.4938\nsamples = 9\nvalue = [4, 5]"] ;
528 -> 714 ;
715 [label="hours-per-week <= 45.5\ngini = 0.2778\nsamples = 6\nvalue = [1, 5]"] ;
714 -> 715 ;
716 [label="gini = 0.0\nsamples = 1\nvalue = [1, 0]"] ;
715 -> 716 ;
717 [label="gini = 0.0\nsamples = 5\nvalue = [0, 5]"] ;
715 -> 717 ;
718 [label="gini = 0.0\nsamples = 3\nvalue = [3, 0]"] ;
714 -> 718 ;
719 [label="fnlwgt <= 125450.5\ngini = 0.4986\nsamples = 57\nvalue = [30, 27]"] ;
3 -> 719 ;
720 [label="age <= 60.0\ngini = 0.3457\nsamples = 18\nvalue = [4, 14]"] ;
719 -> 720 ;
721 [label="occupation_Sales <= 0.5\ngini = 0.1244\nsamples = 15\nvalue = [1, 14]"] ;
720 -> 721 ;
722 [label="gini = 0.0\nsamples = 14\nvalue = [0, 14]"] ;
721 -> 722 ;
723 [label="gini = 0.0\nsamples = 1\nvalue = [1, 0]"] ;
721 -> 723 ;
724 [label="gini = 0.0\nsamples = 3\nvalue = [3, 0]"] ;
720 -> 724 ;
725 [label="capital-loss <= 2391.5\ngini = 0.4444\nsamples = 39\nvalue = [26, 13]"] ;
719 -> 725 ;
726 [label="education_Assoc-acdm <= 0.5\ngini = 0.2873\nsamples = 23\nvalue = [19, 4]"] ;
725 -> 726 ;
727 [label="education_HS-grad <= 0.5\ngini = 0.2355\nsamples = 22\nvalue = [19, 3]"] ;
726 -> 727 ;
728 [label="gini = 0.0\nsamples = 10\nvalue = [10, 0]"] ;
727 -> 728 ;
729 [label="relationship_Own-child <= 0.5\ngini = 0.375\nsamples = 12\nvalue = [9, 3]"] ;
727 -> 729 ;
730 [label="marital-status_Divorced <= 0.5\ngini = 0.2975\nsamples = 11\nvalue = [9, 2]"] ;
729 -> 730 ;
731 [label="gini = 0.0\nsamples = 7\nvalue = [7, 0]"] ;
730 -> 731 ;
732 [label="occupation_Craft-repair <= 0.5\ngini = 0.5\nsamples = 4\nvalue = [2, 2]"] ;
730 -> 732 ;
733 [label="gini = 0.0\nsamples = 2\nvalue = [0, 2]"] ;
732 -> 733 ;
734 [label="gini = 0.0\nsamples = 2\nvalue = [2, 0]"] ;
732 -> 734 ;
735 [label="gini = 0.0\nsamples = 1\nvalue = [0, 1]"] ;
729 -> 735 ;
736 [label="gini = 0.0\nsamples = 1\nvalue = [0, 1]"] ;
726 -> 736 ;
737 [label="capital-loss <= 3253.5\ngini = 0.4922\nsamples = 16\nvalue = [7, 9]"] ;
725 -> 737 ;
738 [label="gini = 0.0\nsamples = 9\nvalue = [0, 9]"] ;
737 -> 738 ;
739 [label="gini = 0.0\nsamples = 7\nvalue = [7, 0]"] ;
737 -> 739 ;
740 [label="hours-per-week <= 43.5\ngini = 0.2531\nsamples = 3410\nvalue = [2903, 507]"] ;
2 -> 740 ;
741 [label="age <= 33.5\ngini = 0.1608\nsamples = 2302\nvalue = [2099, 203]"] ;
740 -> 741 ;
742 [label="marital-status_Married-AF-spouse <= 0.5\ngini = 0.0463\nsamples = 1181\nvalue = [1153, 28]"] ;
741 -> 742 ;
743 [label="capital-loss <= 2116.0\ngini = 0.0431\nsamples = 1179\nvalue = [1153, 26]"] ;
742 -> 743 ;
744 [label="age <= 29.5\ngini = 0.04\nsamples = 1175\nvalue = [1151, 24]"] ;
743 -> 744 ;
745 [label="marital-status_Separated <= 0.5\ngini = 0.0213\nsamples = 929\nvalue = [919, 10]"] ;
744 -> 745 ;
746 [label="fnlwgt <= 41011.0\ngini = 0.0193\nsamples = 924\nvalue = [915, 9]"] ;
745 -> 746 ;
747 [label="occupation_Craft-repair <= 0.5\ngini = 0.0973\nsamples = 39\nvalue = [37, 2]"] ;
746 -> 747 ;
748 [label="fnlwgt <= 40713.5\ngini = 0.0512\nsamples = 38\nvalue = [37, 1]"] ;
747 -> 748 ;
749 [label="gini = 0.0\nsamples = 36\nvalue = [36, 0]"] ;
748 -> 749 ;
750 [label="hours-per-week <= 32.5\ngini = 0.5\nsamples = 2\nvalue = [1, 1]"] ;
748 -> 750 ;
751 [label="gini = 0.0\nsamples = 1\nvalue = [1, 0]"] ;
750 -> 751 ;
752 [label="gini = 0.0\nsamples = 1\nvalue = [0, 1]"] ;
750 -> 752 ;
753 [label="gini = 0.0\nsamples = 1\nvalue = [0, 1]"] ;
747 -> 753 ;
754 [label="capital-loss <= 1486.0\ngini = 0.0157\nsamples = 885\nvalue = [878, 7]"] ;
746 -> 754 ;
755 [label="education_Masters <= 0.5\ngini = 0.0137\nsamples = 870\nvalue = [864, 6]"] ;
754 -> 755 ;
756 [label="relationship_Unmarried <= 0.5\ngini = 0.0101\nsamples = 791\nvalue = [787, 4]"] ;
755 -> 756 ;
757 [label="occupation_Adm-clerical <= 0.5\ngini = 0.0078\nsamples = 764\nvalue = [761, 3]"] ;
756 -> 757 ;
758 [label="fnlwgt <= 323996.5\ngini = 0.0033\nsamples = 612\nvalue = [611, 1]"] ;
757 -> 758 ;
759 [label="gini = 0.0\nsamples = 537\nvalue = [537, 0]"] ;
758 -> 759 ;
760 [label="fnlwgt <= 325594.0\ngini = 0.0263\nsamples = 75\nvalue = [74, 1]"] ;
758 -> 760 ;
761 [label="gini = 0.0\nsamples = 1\nvalue = [0, 1]"] ;
760 -> 761 ;
762 [label="gini = 0.0\nsamples = 74\nvalue = [74, 0]"] ;
760 -> 762 ;
763 [label="fnlwgt <= 199150.0\ngini = 0.026\nsamples = 152\nvalue = [150, 2]"] ;
757 -> 763 ;
764 [label="fnlwgt <= 198928.0\ngini = 0.047\nsamples = 83\nvalue = [81, 2]"] ;
763 -> 764 ;
765 [label="fnlwgt <= 176654.5\ngini = 0.0241\nsamples = 82\nvalue = [81, 1]"] ;
764 -> 765 ;
766 [label="gini = 0.0\nsamples = 65\nvalue = [65, 0]"] ;
765 -> 766 ;
767 [label="fnlwgt <= 177636.5\ngini = 0.1107\nsamples = 17\nvalue = [16, 1]"] ;
765 -> 767 ;
768 [label="gini = 0.0\nsamples = 1\nvalue = [0, 1]"] ;
767 -> 768 ;
769 [label="gini = 0.0\nsamples = 16\nvalue = [16, 0]"] ;
767 -> 769 ;
770 [label="gini = 0.0\nsamples = 1\nvalue = [0, 1]"] ;
764 -> 770 ;
771 [label="gini = 0.0\nsamples = 69\nvalue = [69, 0]"] ;
763 -> 771 ;
772 [label="occupation_Exec-managerial <= 0.5\ngini = 0.0713\nsamples = 27\nvalue = [26, 1]"] ;
756 -> 772 ;
773 [label="gini = 0.0\nsamples = 22\nvalue = [22, 0]"] ;
772 -> 773 ;
774 [label="fnlwgt <= 163012.0\ngini = 0.32\nsamples = 5\nvalue = [4, 1]"] ;
772 -> 774 ;
775 [label="gini = 0.0\nsamples = 1\nvalue = [0, 1]"] ;
774 -> 775 ;
776 [label="gini = 0.0\nsamples = 4\nvalue = [4, 0]"] ;
774 -> 776 ;
777 [label="fnlwgt <= 345340.0\ngini = 0.0494\nsamples = 79\nvalue = [77, 2]"] ;
755 -> 777 ;
778 [label="relationship_Own-child <= 0.5\ngini = 0.0263\nsamples = 75\nvalue = [74, 1]"] ;
777 -> 778 ;
779 [label="gini = 0.0\nsamples = 50\nvalue = [50, 0]"] ;
778 -> 779 ;
780 [label="age <= 25.5\ngini = 0.0768\nsamples = 25\nvalue = [24, 1]"] ;
778 -> 780 ;
781 [label="hours-per-week <= 38.0\ngini = 0.1653\nsamples = 11\nvalue = [10, 1]"] ;
780 -> 781 ;
782 [label="gini = 0.0\nsamples = 7\nvalue = [7, 0]"] ;
781 -> 782 ;
783 [label="fnlwgt <= 189881.0\ngini = 0.375\nsamples = 4\nvalue = [3, 1]"] ;
781 -> 783 ;
784 [label="gini = 0.0\nsamples = 1\nvalue = [0, 1]"] ;
783 -> 784 ;
785 [label="gini = 0.0\nsamples = 3\nvalue = [3, 0]"] ;
783 -> 785 ;
786 [label="gini = 0.0\nsamples = 14\nvalue = [14, 0]"] ;
780 -> 786 ;
787 [label="age <= 27.5\ngini = 0.375\nsamples = 4\nvalue = [3, 1]"] ;
777 -> 787 ;
788 [label="gini = 0.0\nsamples = 3\nvalue = [3, 0]"] ;
787 -> 788 ;
789 [label="gini = 0.0\nsamples = 1\nvalue = [0, 1]"] ;
787 -> 789 ;
790 [label="capital-loss <= 1577.0\ngini = 0.1244\nsamples = 15\nvalue = [14, 1]"] ;
754 -> 790 ;
791 [label="gini = 0.0\nsamples = 1\nvalue = [0, 1]"] ;
790 -> 791 ;
792 [label="gini = 0.0\nsamples = 14\nvalue = [14, 0]"] ;
790 -> 792 ;
793 [label="race_Asian-Pac-Islander <= 0.5\ngini = 0.32\nsamples = 5\nvalue = [4, 1]"] ;
745 -> 793 ;
794 [label="gini = 0.0\nsamples = 4\nvalue = [4, 0]"] ;
793 -> 794 ;
795 [label="gini = 0.0\nsamples = 1\nvalue = [0, 1]"] ;
793 -> 795 ;
796 [label="sex_Female <= 0.5\ngini = 0.1073\nsamples = 246\nvalue = [232, 14]"] ;
744 -> 796 ;
797 [label="occupation_Sales <= 0.5\ngini = 0.189\nsamples = 123\nvalue = [110, 13]"] ;
796 -> 797 ;
798 [label="education-num <= 14.5\ngini = 0.1515\nsamples = 109\nvalue = [100, 9]"] ;
797 -> 798 ;
799 [label="fnlwgt <= 138993.5\ngini = 0.1128\nsamples = 100\nvalue = [94, 6]"] ;
798 -> 799 ;
800 [label="fnlwgt <= 134457.0\ngini = 0.213\nsamples = 33\nvalue = [29, 4]"] ;
799 -> 800 ;
801 [label="workclass_Federal-gov <= 0.5\ngini = 0.1699\nsamples = 32\nvalue = [29, 3]"] ;
800 -> 801 ;
802 [label="age <= 31.5\ngini = 0.1244\nsamples = 30\nvalue = [28, 2]"] ;
801 -> 802 ;
803 [label="gini = 0.0\nsamples = 17\nvalue = [17, 0]"] ;
802 -> 803 ;
804 [label="fnlwgt <= 90161.0\ngini = 0.2604\nsamples = 13\nvalue = [11, 2]"] ;
802 -> 804 ;
805 [label="gini = 0.0\nsamples = 6\nvalue = [6, 0]"] ;
804 -> 805 ;
806 [label="occupation_Exec-managerial <= 0.5\ngini = 0.4082\nsamples = 7\nvalue = [5, 2]"] ;
804 -> 806 ;
807 [label="occupation_Prof-specialty <= 0.5\ngini = 0.2778\nsamples = 6\nvalue = [5, 1]"] ;
806 -> 807 ;
808 [label="gini = 0.0\nsamples = 4\nvalue = [4, 0]"] ;
807 -> 808 ;
809 [label="gini = 0.5\nsamples = 2\nvalue = [1, 1]"] ;
807 -> 809 ;
810 [label="gini = 0.0\nsamples = 1\nvalue = [0, 1]"] ;
806 -> 810 ;
811 [label="age <= 31.5\ngini = 0.5\nsamples = 2\nvalue = [1, 1]"] ;
801 -> 811 ;
812 [label="gini = 0.0\nsamples = 1\nvalue = [0, 1]"] ;
811 -> 812 ;
813 [label="gini = 0.0\nsamples = 1\nvalue = [1, 0]"] ;
811 -> 813 ;
814 [label="gini = 0.0\nsamples = 1\nvalue = [0, 1]"] ;
800 -> 814 ;
815 [label="marital-status_Divorced <= 0.5\ngini = 0.0579\nsamples = 67\nvalue = [65, 2]"] ;
799 -> 815 ;
816 [label="capital-loss <= 1486.0\ngini = 0.0298\nsamples = 66\nvalue = [65, 1]"] ;
815 -> 816 ;
817 [label="gini = 0.0\nsamples = 62\nvalue = [62, 0]"] ;
816 -> 817 ;
818 [label="education-num <= 13.5\ngini = 0.375\nsamples = 4\nvalue = [3, 1]"] ;
816 -> 818 ;
819 [label="gini = 0.0\nsamples = 3\nvalue = [3, 0]"] ;
818 -> 819 ;
820 [label="gini = 0.0\nsamples = 1\nvalue = [0, 1]"] ;
818 -> 820 ;
821 [label="gini = 0.0\nsamples = 1\nvalue = [0, 1]"] ;
815 -> 821 ;
822 [label="age <= 31.5\ngini = 0.4444\nsamples = 9\nvalue = [6, 3]"] ;
798 -> 822 ;
823 [label="gini = 0.0\nsamples = 5\nvalue = [5, 0]"] ;
822 -> 823 ;
824 [label="fnlwgt <= 155365.5\ngini = 0.375\nsamples = 4\nvalue = [1, 3]"] ;
822 -> 824 ;
825 [label="relationship_Not-in-family <= 0.5\ngini = 0.5\nsamples = 2\nvalue = [1, 1]"] ;
824 -> 825 ;
826 [label="gini = 0.0\nsamples = 1\nvalue = [0, 1]"] ;
825 -> 826 ;
827 [label="gini = 0.0\nsamples = 1\nvalue = [1, 0]"] ;
825 -> 827 ;
828 [label="gini = 0.0\nsamples = 2\nvalue = [0, 2]"] ;
824 -> 828 ;
829 [label="relationship_Not-in-family <= 0.5\ngini = 0.4082\nsamples = 14\nvalue = [10, 4]"] ;
797 -> 829 ;
830 [label="gini = 0.0\nsamples = 5\nvalue = [5, 0]"] ;
829 -> 830 ;
831 [label="fnlwgt <= 184522.5\ngini = 0.4938\nsamples = 9\nvalue = [5, 4]"] ;
829 -> 831 ;
832 [label="gini = 0.0\nsamples = 3\nvalue = [0, 3]"] ;
831 -> 832 ;
833 [label="marital-status_Divorced <= 0.5\ngini = 0.2778\nsamples = 6\nvalue = [5, 1]"] ;
831 -> 833 ;
834 [label="gini = 0.0\nsamples = 5\nvalue = [5, 0]"] ;
833 -> 834 ;
835 [label="gini = 0.0\nsamples = 1\nvalue = [0, 1]"] ;
833 -> 835 ;
836 [label="occupation_Tech-support <= 0.5\ngini = 0.0161\nsamples = 123\nvalue = [122, 1]"] ;
796 -> 836 ;
837 [label="gini = 0.0\nsamples = 115\nvalue = [115, 0]"] ;
836 -> 837 ;
838 [label="fnlwgt <= 171021.5\ngini = 0.2188\nsamples = 8\nvalue = [7, 1]"] ;
836 -> 838 ;
839 [label="race_Asian-Pac-Islander <= 0.5\ngini = 0.5\nsamples = 2\nvalue = [1, 1]"] ;
838 -> 839 ;
840 [label="gini = 0.0\nsamples = 1\nvalue = [0, 1]"] ;
839 -> 840 ;
841 [label="gini = 0.0\nsamples = 1\nvalue = [1, 0]"] ;
839 -> 841 ;
842 [label="gini = 0.0\nsamples = 6\nvalue = [6, 0]"] ;
838 -> 842 ;
843 [label="capital-loss <= 2298.5\ngini = 0.5\nsamples = 4\nvalue = [2, 2]"] ;
743 -> 843 ;
844 [label="gini = 0.0\nsamples = 2\nvalue = [0, 2]"] ;
843 -> 844 ;
845 [label="gini = 0.0\nsamples = 2\nvalue = [2, 0]"] ;
843 -> 845 ;
846 [label="gini = 0.0\nsamples = 2\nvalue = [0, 2]"] ;
742 -> 846 ;
847 [label="capital-loss <= 2365.5\ngini = 0.2635\nsamples = 1121\nvalue = [946, 175]"] ;
741 -> 847 ;
848 [label="education-num <= 14.5\ngini = 0.2529\nsamples = 1111\nvalue = [946, 165]"] ;
847 -> 848 ;
849 [label="capital-gain <= 4668.5\ngini = 0.2246\nsamples = 1024\nvalue = [892, 132]"] ;
848 -> 849 ;
850 [label="age <= 46.5\ngini = 0.216\nsamples = 1007\nvalue = [883, 124]"] ;
849 -> 850 ;
851 [label="native-country_Taiwan <= 0.5\ngini = 0.1665\nsamples = 633\nvalue = [575, 58]"] ;
850 -> 851 ;
852 [label="relationship_Not-in-family <= 0.5\ngini = 0.1641\nsamples = 632\nvalue = [575, 57]"] ;
851 -> 852 ;
853 [label="occupation_Sales <= 0.5\ngini = 0.0915\nsamples = 229\nvalue = [218, 11]"] ;
852 -> 853 ;
854 [label="marital-status_Widowed <= 0.5\ngini = 0.0465\nsamples = 210\nvalue = [205, 5]"] ;
853 -> 854 ;
855 [label="native-country_Philippines <= 0.5\ngini = 0.03\nsamples = 197\nvalue = [194, 3]"] ;
854 -> 855 ;
856 [label="fnlwgt <= 408540.5\ngini = 0.0205\nsamples = 193\nvalue = [191, 2]"] ;
855 -> 856 ;
857 [label="age <= 34.5\ngini = 0.0106\nsamples = 188\nvalue = [187, 1]"] ;
856 -> 857 ;
858 [label="marital-status_Divorced <= 0.5\ngini = 0.095\nsamples = 20\nvalue = [19, 1]"] ;
857 -> 858 ;
859 [label="gini = 0.0\nsamples = 15\nvalue = [15, 0]"] ;
858 -> 859 ;
860 [label="education_Masters <= 0.5\ngini = 0.32\nsamples = 5\nvalue = [4, 1]"] ;
858 -> 860 ;
861 [label="gini = 0.4444\nsamples = 3\nvalue = [2, 1]"] ;
860 -> 861 ;
862 [label="gini = 0.0\nsamples = 2\nvalue = [2, 0]"] ;
860 -> 862 ;
863 [label="gini = 0.0\nsamples = 168\nvalue = [168, 0]"] ;
857 -> 863 ;
864 [label="relationship_Own-child <= 0.5\ngini = 0.32\nsamples = 5\nvalue = [4, 1]"] ;
856 -> 864 ;
865 [label="gini = 0.0\nsamples = 4\nvalue = [4, 0]"] ;
864 -> 865 ;
866 [label="gini = 0.0\nsamples = 1\nvalue = [0, 1]"] ;
864 -> 866 ;
867 [label="occupation_Prof-specialty <= 0.5\ngini = 0.375\nsamples = 4\nvalue = [3, 1]"] ;
855 -> 867 ;
868 [label="gini = 0.0\nsamples = 3\nvalue = [3, 0]"] ;
867 -> 868 ;
869 [label="gini = 0.0\nsamples = 1\nvalue = [0, 1]"] ;
867 -> 869 ;
870 [label="age <= 35.5\ngini = 0.2604\nsamples = 13\nvalue = [11, 2]"] ;
854 -> 870 ;
871 [label="gini = 0.0\nsamples = 1\nvalue = [0, 1]"] ;
870 -> 871 ;
872 [label="fnlwgt <= 55932.5\ngini = 0.1528\nsamples = 12\nvalue = [11, 1]"] ;
870 -> 872 ;
873 [label="gini = 0.0\nsamples = 1\nvalue = [0, 1]"] ;
872 -> 873 ;
874 [label="gini = 0.0\nsamples = 11\nvalue = [11, 0]"] ;
872 -> 874 ;
875 [label="age <= 45.0\ngini = 0.4321\nsamples = 19\nvalue = [13, 6]"] ;
853 -> 875 ;
876 [label="fnlwgt <= 310021.5\ngini = 0.3599\nsamples = 17\nvalue = [13, 4]"] ;
875 -> 876 ;
877 [label="age <= 42.5\ngini = 0.2449\nsamples = 14\nvalue = [12, 2]"] ;
876 -> 877 ;
878 [label="age <= 34.5\ngini = 0.1528\nsamples = 12\nvalue = [11, 1]"] ;
877 -> 878 ;
879 [label="sex_Female <= 0.5\ngini = 0.4444\nsamples = 3\nvalue = [2, 1]"] ;
878 -> 879 ;
880 [label="gini = 0.0\nsamples = 1\nvalue = [0, 1]"] ;
879 -> 880 ;
881 [label="gini = 0.0\nsamples = 2\nvalue = [2, 0]"] ;
879 -> 881 ;
882 [label="gini = 0.0\nsamples = 9\nvalue = [9, 0]"] ;
878 -> 882 ;
883 [label="age <= 43.5\ngini = 0.5\nsamples = 2\nvalue = [1, 1]"] ;
877 -> 883 ;
884 [label="gini = 0.0\nsamples = 1\nvalue = [0, 1]"] ;
883 -> 884 ;
885 [label="gini = 0.0\nsamples = 1\nvalue = [1, 0]"] ;
883 -> 885 ;
886 [label="fnlwgt <= 572438.0\ngini = 0.4444\nsamples = 3\nvalue = [1, 2]"] ;
876 -> 886 ;
887 [label="gini = 0.0\nsamples = 2\nvalue = [0, 2]"] ;
886 -> 887 ;
888 [label="gini = 0.0\nsamples = 1\nvalue = [1, 0]"] ;
886 -> 888 ;
889 [label="gini = 0.0\nsamples = 2\nvalue = [0, 2]"] ;
875 -> 889 ;
890 [label="hours-per-week <= 37.5\ngini = 0.2022\nsamples = 403\nvalue = [357, 46]"] ;
852 -> 890 ;
891 [label="occupation_Tech-support <= 0.5\ngini = 0.0217\nsamples = 91\nvalue = [90, 1]"] ;
890 -> 891 ;
892 [label="gini = 0.0\nsamples = 86\nvalue = [86, 0]"] ;
891 -> 892 ;
893 [label="age <= 45.0\ngini = 0.32\nsamples = 5\nvalue = [4, 1]"] ;
891 -> 893 ;
894 [label="gini = 0.0\nsamples = 4\nvalue = [4, 0]"] ;
893 -> 894 ;
895 [label="gini = 0.0\nsamples = 1\nvalue = [0, 1]"] ;
893 -> 895 ;
896 [label="occupation_Exec-managerial <= 0.5\ngini = 0.2469\nsamples = 312\nvalue = [267, 45]"] ;
890 -> 896 ;
897 [label="occupation_Prof-specialty <= 0.5\ngini = 0.2076\nsamples = 255\nvalue = [225, 30]"] ;
896 -> 897 ;
898 [label="capital-loss <= 2129.5\ngini = 0.1244\nsamples = 120\nvalue = [112, 8]"] ;
897 -> 898 ;
899 [label="native-country_Mexico <= 0.5\ngini = 0.1116\nsamples = 118\nvalue = [111, 7]"] ;
898 -> 899 ;
900 [label="marital-status_Widowed <= 0.5\ngini = 0.0981\nsamples = 116\nvalue = [110, 6]"] ;
899 -> 900 ;
901 [label="age <= 42.5\ngini = 0.0839\nsamples = 114\nvalue = [109, 5]"] ;
900 -> 901 ;
902 [label="gini = 0.0247\nsamples = 80\nvalue = [79, 1]"] ;
901 -> 902 ;
903 [label="gini = 0.2076\nsamples = 34\nvalue = [30, 4]"] ;
901 -> 903 ;
904 [label="workclass_Federal-gov <= 0.5\ngini = 0.5\nsamples = 2\nvalue = [1, 1]"] ;
900 -> 904 ;
905 [label="gini = 0.0\nsamples = 1\nvalue = [1, 0]"] ;
904 -> 905 ;
906 [label="gini = 0.0\nsamples = 1\nvalue = [0, 1]"] ;
904 -> 906 ;
907 [label="race_Other <= 0.5\ngini = 0.5\nsamples = 2\nvalue = [1, 1]"] ;
899 -> 907 ;
908 [label="gini = 0.0\nsamples = 1\nvalue = [0, 1]"] ;
907 -> 908 ;
909 [label="gini = 0.0\nsamples = 1\nvalue = [1, 0]"] ;
907 -> 909 ;
910 [label="race_Asian-Pac-Islander <= 0.5\ngini = 0.5\nsamples = 2\nvalue = [1, 1]"] ;
898 -> 910 ;
911 [label="gini = 0.0\nsamples = 1\nvalue = [0, 1]"] ;
910 -> 911 ;
912 [label="gini = 0.0\nsamples = 1\nvalue = [1, 0]"] ;
910 -> 912 ;
913 [label="workclass_Private <= 0.5\ngini = 0.2728\nsamples = 135\nvalue = [113, 22]"] ;
897 -> 913 ;
914 [label="workclass_Self-emp-not-inc <= 0.5\ngini = 0.1362\nsamples = 68\nvalue = [63, 5]"] ;
913 -> 914 ;
915 [label="fnlwgt <= 144328.0\ngini = 0.0907\nsamples = 63\nvalue = [60, 3]"] ;
914 -> 915 ;
916 [label="gini = 0.0\nsamples = 30\nvalue = [30, 0]"] ;
915 -> 916 ;
917 [label="fnlwgt <= 145026.5\ngini = 0.1653\nsamples = 33\nvalue = [30, 3]"] ;
915 -> 917 ;
918 [label="gini = 0.0\nsamples = 1\nvalue = [0, 1]"] ;
917 -> 918 ;
919 [label="gini = 0.1172\nsamples = 32\nvalue = [30, 2]"] ;
917 -> 919 ;
920 [label="age <= 38.5\ngini = 0.48\nsamples = 5\nvalue = [3, 2]"] ;
914 -> 920 ;
921 [label="gini = 0.0\nsamples = 2\nvalue = [0, 2]"] ;
920 -> 921 ;
922 [label="gini = 0.0\nsamples = 3\nvalue = [3, 0]"] ;
920 -> 922 ;
923 [label="hours-per-week <= 39.0\ngini = 0.3787\nsamples = 67\nvalue = [50, 17]"] ;
913 -> 923 ;
924 [label="gini = 0.0\nsamples = 2\nvalue = [0, 2]"] ;
923 -> 924 ;
925 [label="native-country_? <= 0.5\ngini = 0.355\nsamples = 65\nvalue = [50, 15]"] ;
923 -> 925 ;
926 [label="marital-status_Separated <= 0.5\ngini = 0.3314\nsamples = 62\nvalue = [49, 13]"] ;
925 -> 926 ;
927 [label="gini = 0.316\nsamples = 61\nvalue = [49, 12]"] ;
926 -> 927 ;
928 [label="gini = 0.0\nsamples = 1\nvalue = [0, 1]"] ;
926 -> 928 ;
929 [label="age <= 37.5\ngini = 0.4444\nsamples = 3\nvalue = [1, 2]"] ;
925 -> 929 ;
930 [label="gini = 0.0\nsamples = 1\nvalue = [1, 0]"] ;
929 -> 930 ;
931 [label="gini = 0.0\nsamples = 2\nvalue = [0, 2]"] ;
929 -> 931 ;
932 [label="education_Masters <= 0.5\ngini = 0.3878\nsamples = 57\nvalue = [42, 15]"] ;
896 -> 932 ;
933 [label="age <= 39.5\ngini = 0.2887\nsamples = 40\nvalue = [33, 7]"] ;
932 -> 933 ;
934 [label="fnlwgt <= 254082.5\ngini = 0.0868\nsamples = 22\nvalue = [21, 1]"] ;
933 -> 934 ;
935 [label="gini = 0.0\nsamples = 17\nvalue = [17, 0]"] ;
934 -> 935 ;
936 [label="age <= 38.0\ngini = 0.32\nsamples = 5\nvalue = [4, 1]"] ;
934 -> 936 ;
937 [label="gini = 0.0\nsamples = 4\nvalue = [4, 0]"] ;
936 -> 937 ;
938 [label="gini = 0.0\nsamples = 1\nvalue = [0, 1]"] ;
936 -> 938 ;
939 [label="sex_Male <= 0.5\ngini = 0.4444\nsamples = 18\nvalue = [12, 6]"] ;
933 -> 939 ;
940 [label="race_White <= 0.5\ngini = 0.1975\nsamples = 9\nvalue = [8, 1]"] ;
939 -> 940 ;
941 [label="fnlwgt <= 259435.5\ngini = 0.5\nsamples = 2\nvalue = [1, 1]"] ;
940 -> 941 ;
942 [label="gini = 0.0\nsamples = 1\nvalue = [0, 1]"] ;
941 -> 942 ;
943 [label="gini = 0.0\nsamples = 1\nvalue = [1, 0]"] ;
941 -> 943 ;
944 [label="gini = 0.0\nsamples = 7\nvalue = [7, 0]"] ;
940 -> 944 ;
945 [label="workclass_Federal-gov <= 0.5\ngini = 0.4938\nsamples = 9\nvalue = [4, 5]"] ;
939 -> 945 ;
946 [label="workclass_Private <= 0.5\ngini = 0.4444\nsamples = 6\nvalue = [4, 2]"] ;
945 -> 946 ;
947 [label="gini = 0.0\nsamples = 4\nvalue = [4, 0]"] ;
946 -> 947 ;
948 [label="gini = 0.0\nsamples = 2\nvalue = [0, 2]"] ;
946 -> 948 ;
949 [label="gini = 0.0\nsamples = 3\nvalue = [0, 3]"] ;
945 -> 949 ;
950 [label="workclass_Private <= 0.5\ngini = 0.4983\nsamples = 17\nvalue = [9, 8]"] ;
932 -> 950 ;
951 [label="workclass_Federal-gov <= 0.5\ngini = 0.32\nsamples = 5\nvalue = [4, 1]"] ;
950 -> 951 ;
952 [label="gini = 0.0\nsamples = 4\nvalue = [4, 0]"] ;
951 -> 952 ;
953 [label="gini = 0.0\nsamples = 1\nvalue = [0, 1]"] ;
951 -> 953 ;
954 [label="fnlwgt <= 184648.0\ngini = 0.4861\nsamples = 12\nvalue = [5, 7]"] ;
950 -> 954 ;
955 [label="fnlwgt <= 73980.5\ngini = 0.2778\nsamples = 6\nvalue = [1, 5]"] ;
954 -> 955 ;
956 [label="gini = 0.0\nsamples = 1\nvalue = [1, 0]"] ;
955 -> 956 ;
957 [label="gini = 0.0\nsamples = 5\nvalue = [0, 5]"] ;
955 -> 957 ;
958 [label="sex_Male <= 0.5\ngini = 0.4444\nsamples = 6\nvalue = [4, 2]"] ;
954 -> 958 ;
959 [label="age <= 41.0\ngini = 0.4444\nsamples = 3\nvalue = [1, 2]"] ;
958 -> 959 ;
960 [label="gini = 0.0\nsamples = 2\nvalue = [0, 2]"] ;
959 -> 960 ;
961 [label="gini = 0.0\nsamples = 1\nvalue = [1, 0]"] ;
959 -> 961 ;
962 [label="gini = 0.0\nsamples = 3\nvalue = [3, 0]"] ;
958 -> 962 ;
963 [label="gini = 0.0\nsamples = 1\nvalue = [0, 1]"] ;
851 -> 963 ;
964 [label="hours-per-week <= 31.0\ngini = 0.2907\nsamples = 374\nvalue = [308, 66]"] ;
850 -> 964 ;
965 [label="race_Asian-Pac-Islander <= 0.5\ngini = 0.0907\nsamples = 84\nvalue = [80, 4]"] ;
964 -> 965 ;
966 [label="marital-status_Married-spouse-absent <= 0.5\ngini = 0.0697\nsamples = 83\nvalue = [80, 3]"] ;
965 -> 966 ;
967 [label="occupation_Adm-clerical <= 0.5\ngini = 0.0487\nsamples = 80\nvalue = [78, 2]"] ;
966 -> 967 ;
968 [label="fnlwgt <= 43926.5\ngini = 0.026\nsamples = 76\nvalue = [75, 1]"] ;
967 -> 968 ;
969 [label="workclass_? <= 0.5\ngini = 0.2449\nsamples = 7\nvalue = [6, 1]"] ;
968 -> 969 ;
970 [label="gini = 0.0\nsamples = 6\nvalue = [6, 0]"] ;
969 -> 970 ;
971 [label="gini = 0.0\nsamples = 1\nvalue = [0, 1]"] ;
969 -> 971 ;
972 [label="gini = 0.0\nsamples = 69\nvalue = [69, 0]"] ;
968 -> 972 ;
973 [label="education-num <= 13.5\ngini = 0.375\nsamples = 4\nvalue = [3, 1]"] ;
967 -> 973 ;
974 [label="gini = 0.0\nsamples = 3\nvalue = [3, 0]"] ;
973 -> 974 ;
975 [label="gini = 0.0\nsamples = 1\nvalue = [0, 1]"] ;
973 -> 975 ;
976 [label="relationship_Unmarried <= 0.5\ngini = 0.4444\nsamples = 3\nvalue = [2, 1]"] ;
966 -> 976 ;
977 [label="gini = 0.0\nsamples = 1\nvalue = [0, 1]"] ;
976 -> 977 ;
978 [label="gini = 0.0\nsamples = 2\nvalue = [2, 0]"] ;
976 -> 978 ;
979 [label="gini = 0.0\nsamples = 1\nvalue = [0, 1]"] ;
965 -> 979 ;
980 [label="age <= 48.5\ngini = 0.3362\nsamples = 290\nvalue = [228, 62]"] ;
964 -> 980 ;
981 [label="fnlwgt <= 104358.5\ngini = 0.4352\nsamples = 50\nvalue = [34, 16]"] ;
980 -> 981 ;
982 [label="fnlwgt <= 64128.5\ngini = 0.2449\nsamples = 14\nvalue = [12, 2]"] ;
981 -> 982 ;
983 [label="workclass_State-gov <= 0.5\ngini = 0.4444\nsamples = 3\nvalue = [1, 2]"] ;
982 -> 983 ;
984 [label="gini = 0.0\nsamples = 2\nvalue = [0, 2]"] ;
983 -> 984 ;
985 [label="gini = 0.0\nsamples = 1\nvalue = [1, 0]"] ;
983 -> 985 ;
986 [label="gini = 0.0\nsamples = 11\nvalue = [11, 0]"] ;
982 -> 986 ;
987 [label="occupation_Sales <= 0.5\ngini = 0.4753\nsamples = 36\nvalue = [22, 14]"] ;
981 -> 987 ;
988 [label="occupation_Exec-managerial <= 0.5\ngini = 0.4444\nsamples = 33\nvalue = [22, 11]"] ;
987 -> 988 ;
989 [label="hours-per-week <= 39.0\ngini = 0.355\nsamples = 26\nvalue = [20, 6]"] ;
988 -> 989 ;
990 [label="education-num <= 13.5\ngini = 0.4444\nsamples = 6\nvalue = [2, 4]"] ;
989 -> 990 ;
991 [label="gini = 0.0\nsamples = 3\nvalue = [0, 3]"] ;
990 -> 991 ;
992 [label="workclass_Local-gov <= 0.5\ngini = 0.4444\nsamples = 3\nvalue = [2, 1]"] ;
990 -> 992 ;
993 [label="gini = 0.0\nsamples = 2\nvalue = [2, 0]"] ;
992 -> 993 ;
994 [label="gini = 0.0\nsamples = 1\nvalue = [0, 1]"] ;
992 -> 994 ;
995 [label="workclass_State-gov <= 0.5\ngini = 0.18\nsamples = 20\nvalue = [18, 2]"] ;
989 -> 995 ;
996 [label="fnlwgt <= 146121.5\ngini = 0.1049\nsamples = 18\nvalue = [17, 1]"] ;
995 -> 996 ;
997 [label="fnlwgt <= 132872.0\ngini = 0.4444\nsamples = 3\nvalue = [2, 1]"] ;
996 -> 997 ;
998 [label="gini = 0.0\nsamples = 2\nvalue = [2, 0]"] ;
997 -> 998 ;
999 [label="gini = 0.0\nsamples = 1\nvalue = [0, 1]"] ;
997 -> 999 ;
1000 [label="gini = 0.0\nsamples = 15\nvalue = [15, 0]"] ;
996 -> 1000 ;
1001 [label="relationship_Unmarried <= 0.5\ngini = 0.5\nsamples = 2\nvalue = [1, 1]"] ;
995 -> 1001 ;
1002 [label="gini = 0.0\nsamples = 1\nvalue = [0, 1]"] ;
1001 -> 1002 ;
1003 [label="gini = 0.0\nsamples = 1\nvalue = [1, 0]"] ;
1001 -> 1003 ;
1004 [label="marital-status_Never-married <= 0.5\ngini = 0.4082\nsamples = 7\nvalue = [2, 5]"] ;
988 -> 1004 ;
1005 [label="relationship_Other-relative <= 0.5\ngini = 0.2778\nsamples = 6\nvalue = [1, 5]"] ;
1004 -> 1005 ;
1006 [label="gini = 0.0\nsamples = 5\nvalue = [0, 5]"] ;
1005 -> 1006 ;
1007 [label="gini = 0.0\nsamples = 1\nvalue = [1, 0]"] ;
1005 -> 1007 ;
1008 [label="gini = 0.0\nsamples = 1\nvalue = [1, 0]"] ;
1004 -> 1008 ;
1009 [label="gini = 0.0\nsamples = 3\nvalue = [0, 3]"] ;
987 -> 1009 ;
1010 [label="workclass_Local-gov <= 0.5\ngini = 0.3099\nsamples = 240\nvalue = [194, 46]"] ;
980 -> 1010 ;
1011 [label="hours-per-week <= 39.5\ngini = 0.2743\nsamples = 195\nvalue = [163, 32]"] ;
1010 -> 1011 ;
1012 [label="age <= 67.5\ngini = 0.0588\nsamples = 33\nvalue = [32, 1]"] ;
1011 -> 1012 ;
1013 [label="gini = 0.0\nsamples = 30\nvalue = [30, 0]"] ;
1012 -> 1013 ;
1014 [label="age <= 69.0\ngini = 0.4444\nsamples = 3\nvalue = [2, 1]"] ;
1012 -> 1014 ;
1015 [label="gini = 0.0\nsamples = 1\nvalue = [0, 1]"] ;
1014 -> 1015 ;
1016 [label="gini = 0.0\nsamples = 2\nvalue = [2, 0]"] ;
1014 -> 1016 ;
1017 [label="race_White <= 0.5\ngini = 0.3095\nsamples = 162\nvalue = [131, 31]"] ;
1011 -> 1017 ;
1018 [label="workclass_State-gov <= 0.5\ngini = 0.0768\nsamples = 25\nvalue = [24, 1]"] ;
1017 -> 1018 ;
1019 [label="gini = 0.0\nsamples = 20\nvalue = [20, 0]"] ;
1018 -> 1019 ;
1020 [label="fnlwgt <= 127374.5\ngini = 0.32\nsamples = 5\nvalue = [4, 1]"] ;
1018 -> 1020 ;
1021 [label="gini = 0.0\nsamples = 1\nvalue = [0, 1]"] ;
1020 -> 1021 ;
1022 [label="gini = 0.0\nsamples = 4\nvalue = [4, 0]"] ;
1020 -> 1022 ;
1023 [label="education_Masters <= 0.5\ngini = 0.3421\nsamples = 137\nvalue = [107, 30]"] ;
1017 -> 1023 ;
1024 [label="capital-loss <= 1452.0\ngini = 0.2825\nsamples = 94\nvalue = [78, 16]"] ;
1023 -> 1024 ;
1025 [label="native-country_Hungary <= 0.5\ngini = 0.2495\nsamples = 89\nvalue = [76, 13]"] ;
1024 -> 1025 ;
1026 [label="age <= 63.5\ngini = 0.2355\nsamples = 88\nvalue = [76, 12]"] ;
1025 -> 1026 ;
1027 [label="gini = 0.2631\nsamples = 77\nvalue = [65, 12]"] ;
1026 -> 1027 ;
1028 [label="gini = 0.0\nsamples = 11\nvalue = [11, 0]"] ;
1026 -> 1028 ;
1029 [label="gini = 0.0\nsamples = 1\nvalue = [0, 1]"] ;
1025 -> 1029 ;
1030 [label="workclass_Private <= 0.5\ngini = 0.48\nsamples = 5\nvalue = [2, 3]"] ;
1024 -> 1030 ;
1031 [label="gini = 0.0\nsamples = 2\nvalue = [2, 0]"] ;
1030 -> 1031 ;
1032 [label="gini = 0.0\nsamples = 3\nvalue = [0, 3]"] ;
1030 -> 1032 ;
1033 [label="fnlwgt <= 174180.0\ngini = 0.4392\nsamples = 43\nvalue = [29, 14]"] ;
1023 -> 1033 ;
1034 [label="workclass_? <= 0.5\ngini = 0.4965\nsamples = 24\nvalue = [13, 11]"] ;
1033 -> 1034 ;
1035 [label="fnlwgt <= 51517.5\ngini = 0.495\nsamples = 20\nvalue = [9, 11]"] ;
1034 -> 1035 ;
1036 [label="gini = 0.0\nsamples = 4\nvalue = [0, 4]"] ;
1035 -> 1036 ;
1037 [label="gini = 0.4922\nsamples = 16\nvalue = [9, 7]"] ;
1035 -> 1037 ;
1038 [label="gini = 0.0\nsamples = 4\nvalue = [4, 0]"] ;
1034 -> 1038 ;
1039 [label="fnlwgt <= 334511.5\ngini = 0.2659\nsamples = 19\nvalue = [16, 3]"] ;
1033 -> 1039 ;
1040 [label="occupation_Sales <= 0.5\ngini = 0.1107\nsamples = 17\nvalue = [16, 1]"] ;
1039 -> 1040 ;
1041 [label="gini = 0.0\nsamples = 14\nvalue = [14, 0]"] ;
1040 -> 1041 ;
1042 [label="gini = 0.4444\nsamples = 3\nvalue = [2, 1]"] ;
1040 -> 1042 ;
1043 [label="gini = 0.0\nsamples = 2\nvalue = [0, 2]"] ;
1039 -> 1043 ;
1044 [label="hours-per-week <= 33.5\ngini = 0.4286\nsamples = 45\nvalue = [31, 14]"] ;
1010 -> 1044 ;
1045 [label="gini = 0.0\nsamples = 2\nvalue = [0, 2]"] ;
1044 -> 1045 ;
1046 [label="age <= 50.5\ngini = 0.4024\nsamples = 43\nvalue = [31, 12]"] ;
1044 -> 1046 ;
1047 [label="age <= 49.5\ngini = 0.5\nsamples = 10\nvalue = [5, 5]"] ;
1046 -> 1047 ;
1048 [label="fnlwgt <= 111723.0\ngini = 0.2778\nsamples = 6\nvalue = [5, 1]"] ;
1047 -> 1048 ;
1049 [label="gini = 0.0\nsamples = 1\nvalue = [0, 1]"] ;
1048 -> 1049 ;
1050 [label="gini = 0.0\nsamples = 5\nvalue = [5, 0]"] ;
1048 -> 1050 ;
1051 [label="gini = 0.0\nsamples = 4\nvalue = [0, 4]"] ;
1047 -> 1051 ;
1052 [label="fnlwgt <= 42423.0\ngini = 0.3343\nsamples = 33\nvalue = [26, 7]"] ;
1046 -> 1052 ;
1053 [label="gini = 0.0\nsamples = 1\nvalue = [0, 1]"] ;
1052 -> 1053 ;
1054 [label="education_Masters <= 0.5\ngini = 0.3047\nsamples = 32\nvalue = [26, 6]"] ;
1052 -> 1054 ;
1055 [label="gini = 0.0\nsamples = 11\nvalue = [11, 0]"] ;
1054 -> 1055 ;
1056 [label="fnlwgt <= 145329.0\ngini = 0.4082\nsamples = 21\nvalue = [15, 6]"] ;
1054 -> 1056 ;
1057 [label="gini = 0.0\nsamples = 4\nvalue = [4, 0]"] ;
1056 -> 1057 ;
1058 [label="hours-per-week <= 36.5\ngini = 0.4567\nsamples = 17\nvalue = [11, 6]"] ;
1056 -> 1058 ;
1059 [label="gini = 0.0\nsamples = 2\nvalue = [0, 2]"] ;
1058 -> 1059 ;
1060 [label="gini = 0.3911\nsamples = 15\nvalue = [11, 4]"] ;
1058 -> 1060 ;
1061 [label="capital-gain <= 5194.5\ngini = 0.4983\nsamples = 17\nvalue = [9, 8]"] ;
849 -> 1061 ;
1062 [label="gini = 0.0\nsamples = 8\nvalue = [0, 8]"] ;
1061 -> 1062 ;
1063 [label="gini = 0.0\nsamples = 9\nvalue = [9, 0]"] ;
1061 -> 1063 ;
1064 [label="sex_Male <= 0.5\ngini = 0.4709\nsamples = 87\nvalue = [54, 33]"] ;
848 -> 1064 ;
1065 [label="workclass_Federal-gov <= 0.5\ngini = 0.3482\nsamples = 49\nvalue = [38, 11]"] ;
1064 -> 1065 ;
1066 [label="workclass_State-gov <= 0.5\ngini = 0.3096\nsamples = 47\nvalue = [38, 9]"] ;
1065 -> 1066 ;
1067 [label="occupation_Machine-op-inspct <= 0.5\ngini = 0.1567\nsamples = 35\nvalue = [32, 3]"] ;
1066 -> 1067 ;
1068 [label="fnlwgt <= 177465.0\ngini = 0.1107\nsamples = 34\nvalue = [32, 2]"] ;
1067 -> 1068 ;
1069 [label="gini = 0.0\nsamples = 20\nvalue = [20, 0]"] ;
1068 -> 1069 ;
1070 [label="fnlwgt <= 183153.0\ngini = 0.2449\nsamples = 14\nvalue = [12, 2]"] ;
1068 -> 1070 ;
1071 [label="gini = 0.0\nsamples = 1\nvalue = [0, 1]"] ;
1070 -> 1071 ;
1072 [label="fnlwgt <= 193657.5\ngini = 0.142\nsamples = 13\nvalue = [12, 1]"] ;
1070 -> 1072 ;
1073 [label="education-num <= 15.5\ngini = 0.375\nsamples = 4\nvalue = [3, 1]"] ;
1072 -> 1073 ;
1074 [label="gini = 0.0\nsamples = 1\nvalue = [0, 1]"] ;
1073 -> 1074 ;
1075 [label="gini = 0.0\nsamples = 3\nvalue = [3, 0]"] ;
1073 -> 1075 ;
1076 [label="gini = 0.0\nsamples = 9\nvalue = [9, 0]"] ;
1072 -> 1076 ;
1077 [label="gini = 0.0\nsamples = 1\nvalue = [0, 1]"] ;
1067 -> 1077 ;
1078 [label="education-num <= 15.5\ngini = 0.5\nsamples = 12\nvalue = [6, 6]"] ;
1066 -> 1078 ;
1079 [label="gini = 0.0\nsamples = 4\nvalue = [4, 0]"] ;
1078 -> 1079 ;
1080 [label="fnlwgt <= 98306.0\ngini = 0.375\nsamples = 8\nvalue = [2, 6]"] ;
1078 -> 1080 ;
1081 [label="gini = 0.0\nsamples = 1\nvalue = [1, 0]"] ;
1080 -> 1081 ;
1082 [label="fnlwgt <= 342011.5\ngini = 0.2449\nsamples = 7\nvalue = [1, 6]"] ;
1080 -> 1082 ;
1083 [label="gini = 0.0\nsamples = 6\nvalue = [0, 6]"] ;
1082 -> 1083 ;
1084 [label="gini = 0.0\nsamples = 1\nvalue = [1, 0]"] ;
1082 -> 1084 ;
1085 [label="gini = 0.0\nsamples = 2\nvalue = [0, 2]"] ;
1065 -> 1085 ;
1086 [label="marital-status_Divorced <= 0.5\ngini = 0.4875\nsamples = 38\nvalue = [16, 22]"] ;
1064 -> 1086 ;
1087 [label="fnlwgt <= 93895.5\ngini = 0.42\nsamples = 30\nvalue = [9, 21]"] ;
1086 -> 1087 ;
1088 [label="marital-status_Widowed <= 0.5\ngini = 0.32\nsamples = 5\nvalue = [4, 1]"] ;
1087 -> 1088 ;
1089 [label="gini = 0.0\nsamples = 4\nvalue = [4, 0]"] ;
1088 -> 1089 ;
1090 [label="gini = 0.0\nsamples = 1\nvalue = [0, 1]"] ;
1088 -> 1090 ;
1091 [label="hours-per-week <= 16.5\ngini = 0.32\nsamples = 25\nvalue = [5, 20]"] ;
1087 -> 1091 ;
1092 [label="gini = 0.0\nsamples = 2\nvalue = [2, 0]"] ;
1091 -> 1092 ;
1093 [label="native-country_England <= 0.5\ngini = 0.2268\nsamples = 23\nvalue = [3, 20]"] ;
1091 -> 1093 ;
1094 [label="workclass_Local-gov <= 0.5\ngini = 0.1653\nsamples = 22\nvalue = [2, 20]"] ;
1093 -> 1094 ;
1095 [label="age <= 66.5\ngini = 0.0907\nsamples = 21\nvalue = [1, 20]"] ;
1094 -> 1095 ;
1096 [label="gini = 0.0\nsamples = 19\nvalue = [0, 19]"] ;
1095 -> 1096 ;
1097 [label="marital-status_Married-spouse-absent <= 0.5\ngini = 0.5\nsamples = 2\nvalue = [1, 1]"] ;
1095 -> 1097 ;
1098 [label="gini = 0.0\nsamples = 1\nvalue = [1, 0]"] ;
1097 -> 1098 ;
1099 [label="gini = 0.0\nsamples = 1\nvalue = [0, 1]"] ;
1097 -> 1099 ;
1100 [label="gini = 0.0\nsamples = 1\nvalue = [1, 0]"] ;
1094 -> 1100 ;
1101 [label="gini = 0.0\nsamples = 1\nvalue = [1, 0]"] ;
1093 -> 1101 ;
1102 [label="workclass_Federal-gov <= 0.5\ngini = 0.2188\nsamples = 8\nvalue = [7, 1]"] ;
1086 -> 1102 ;
1103 [label="gini = 0.0\nsamples = 7\nvalue = [7, 0]"] ;
1102 -> 1103 ;
1104 [label="gini = 0.0\nsamples = 1\nvalue = [0, 1]"] ;
1102 -> 1104 ;
1105 [label="gini = 0.0\nsamples = 10\nvalue = [0, 10]"] ;
847 -> 1105 ;
1106 [label="age <= 27.5\ngini = 0.3982\nsamples = 1108\nvalue = [804, 304]"] ;
740 -> 1106 ;
1107 [label="capital-loss <= 2116.0\ngini = 0.0736\nsamples = 209\nvalue = [201, 8]"] ;
1106 -> 1107 ;
1108 [label="hours-per-week <= 62.5\ngini = 0.0653\nsamples = 207\nvalue = [200, 7]"] ;
1107 -> 1108 ;
1109 [label="occupation_Craft-repair <= 0.5\ngini = 0.0425\nsamples = 184\nvalue = [180, 4]"] ;
1108 -> 1109 ;
1110 [label="workclass_Self-emp-inc <= 0.5\ngini = 0.0328\nsamples = 180\nvalue = [177, 3]"] ;
1109 -> 1110 ;
1111 [label="hours-per-week <= 53.5\ngini = 0.0225\nsamples = 176\nvalue = [174, 2]"] ;
1110 -> 1111 ;
1112 [label="gini = 0.0\nsamples = 135\nvalue = [135, 0]"] ;
1111 -> 1112 ;
1113 [label="occupation_Tech-support <= 0.5\ngini = 0.0928\nsamples = 41\nvalue = [39, 2]"] ;
1111 -> 1113 ;
1114 [label="education_Masters <= 0.5\ngini = 0.0512\nsamples = 38\nvalue = [37, 1]"] ;
1113 -> 1114 ;
1115 [label="gini = 0.0\nsamples = 33\nvalue = [33, 0]"] ;
1114 -> 1115 ;
1116 [label="age <= 25.5\ngini = 0.32\nsamples = 5\nvalue = [4, 1]"] ;
1114 -> 1116 ;
1117 [label="gini = 0.0\nsamples = 4\nvalue = [4, 0]"] ;
1116 -> 1117 ;
1118 [label="gini = 0.0\nsamples = 1\nvalue = [0, 1]"] ;
1116 -> 1118 ;
1119 [label="fnlwgt <= 181076.0\ngini = 0.4444\nsamples = 3\nvalue = [2, 1]"] ;
1113 -> 1119 ;
1120 [label="gini = 0.0\nsamples = 2\nvalue = [2, 0]"] ;
1119 -> 1120 ;
1121 [label="gini = 0.0\nsamples = 1\nvalue = [0, 1]"] ;
1119 -> 1121 ;
1122 [label="fnlwgt <= 179865.5\ngini = 0.375\nsamples = 4\nvalue = [3, 1]"] ;
1110 -> 1122 ;
1123 [label="gini = 0.0\nsamples = 3\nvalue = [3, 0]"] ;
1122 -> 1123 ;
1124 [label="gini = 0.0\nsamples = 1\nvalue = [0, 1]"] ;
1122 -> 1124 ;
1125 [label="age <= 26.5\ngini = 0.375\nsamples = 4\nvalue = [3, 1]"] ;
1109 -> 1125 ;
1126 [label="gini = 0.0\nsamples = 1\nvalue = [0, 1]"] ;
1125 -> 1126 ;
1127 [label="gini = 0.0\nsamples = 3\nvalue = [3, 0]"] ;
1125 -> 1127 ;
1128 [label="fnlwgt <= 78354.0\ngini = 0.2268\nsamples = 23\nvalue = [20, 3]"] ;
1108 -> 1128 ;
1129 [label="gini = 0.0\nsamples = 1\nvalue = [0, 1]"] ;
1128 -> 1129 ;
1130 [label="occupation_Sales <= 0.5\ngini = 0.1653\nsamples = 22\nvalue = [20, 2]"] ;
1128 -> 1130 ;
1131 [label="occupation_Exec-managerial <= 0.5\ngini = 0.0997\nsamples = 19\nvalue = [18, 1]"] ;
1130 -> 1131 ;
1132 [label="gini = 0.0\nsamples = 15\nvalue = [15, 0]"] ;
1131 -> 1132 ;
1133 [label="relationship_Not-in-family <= 0.5\ngini = 0.375\nsamples = 4\nvalue = [3, 1]"] ;
1131 -> 1133 ;
1134 [label="gini = 0.0\nsamples = 3\nvalue = [3, 0]"] ;
1133 -> 1134 ;
1135 [label="gini = 0.0\nsamples = 1\nvalue = [0, 1]"] ;
1133 -> 1135 ;
1136 [label="age <= 26.0\ngini = 0.4444\nsamples = 3\nvalue = [2, 1]"] ;
1130 -> 1136 ;
1137 [label="gini = 0.0\nsamples = 2\nvalue = [2, 0]"] ;
1136 -> 1137 ;
1138 [label="gini = 0.0\nsamples = 1\nvalue = [0, 1]"] ;
1136 -> 1138 ;
1139 [label="capital-loss <= 2298.5\ngini = 0.5\nsamples = 2\nvalue = [1, 1]"] ;
1107 -> 1139 ;
1140 [label="gini = 0.0\nsamples = 1\nvalue = [0, 1]"] ;
1139 -> 1140 ;
1141 [label="gini = 0.0\nsamples = 1\nvalue = [1, 0]"] ;
1139 -> 1141 ;
1142 [label="capital-loss <= 2391.5\ngini = 0.4417\nsamples = 899\nvalue = [603, 296]"] ;
1106 -> 1142 ;
1143 [label="occupation_Exec-managerial <= 0.5\ngini = 0.4337\nsamples = 884\nvalue = [603, 281]"] ;
1142 -> 1143 ;
1144 [label="education-num <= 14.5\ngini = 0.3981\nsamples = 660\nvalue = [479, 181]"] ;
1143 -> 1144 ;
1145 [label="sex_Female <= 0.5\ngini = 0.3612\nsamples = 558\nvalue = [426, 132]"] ;
1144 -> 1145 ;
1146 [label="age <= 42.5\ngini = 0.4241\nsamples = 308\nvalue = [214, 94]"] ;
1145 -> 1146 ;
1147 [label="workclass_Private <= 0.5\ngini = 0.385\nsamples = 196\nvalue = [145, 51]"] ;
1146 -> 1147 ;
1148 [label="race_Black <= 0.5\ngini = 0.2809\nsamples = 71\nvalue = [59, 12]"] ;
1147 -> 1148 ;
1149 [label="relationship_Husband <= 0.5\ngini = 0.2386\nsamples = 65\nvalue = [56, 9]"] ;
1148 -> 1149 ;
1150 [label="native-country_India <= 0.5\ngini = 0.2188\nsamples = 64\nvalue = [56, 8]"] ;
1149 -> 1150 ;
1151 [label="fnlwgt <= 30280.5\ngini = 0.1975\nsamples = 63\nvalue = [56, 7]"] ;
1150 -> 1151 ;
1152 [label="gini = 0.0\nsamples = 1\nvalue = [0, 1]"] ;
1151 -> 1152 ;
1153 [label="occupation_Protective-serv <= 0.5\ngini = 0.1748\nsamples = 62\nvalue = [56, 6]"] ;
1151 -> 1153 ;
1154 [label="fnlwgt <= 390353.5\ngini = 0.1305\nsamples = 57\nvalue = [53, 4]"] ;
1153 -> 1154 ;
1155 [label="occupation_Sales <= 0.5\ngini = 0.074\nsamples = 52\nvalue = [50, 2]"] ;
1154 -> 1155 ;
1156 [label="gini = 0.0425\nsamples = 46\nvalue = [45, 1]"] ;
1155 -> 1156 ;
1157 [label="gini = 0.2778\nsamples = 6\nvalue = [5, 1]"] ;
1155 -> 1157 ;
1158 [label="fnlwgt <= 471215.0\ngini = 0.48\nsamples = 5\nvalue = [3, 2]"] ;
1154 -> 1158 ;
1159 [label="gini = 0.4444\nsamples = 3\nvalue = [1, 2]"] ;
1158 -> 1159 ;
1160 [label="gini = 0.0\nsamples = 2\nvalue = [2, 0]"] ;
1158 -> 1160 ;
1161 [label="hours-per-week <= 55.5\ngini = 0.48\nsamples = 5\nvalue = [3, 2]"] ;
1153 -> 1161 ;
1162 [label="age <= 29.5\ngini = 0.4444\nsamples = 3\nvalue = [1, 2]"] ;
1161 -> 1162 ;
1163 [label="gini = 0.0\nsamples = 1\nvalue = [1, 0]"] ;
1162 -> 1163 ;
1164 [label="gini = 0.0\nsamples = 2\nvalue = [0, 2]"] ;
1162 -> 1164 ;
1165 [label="gini = 0.0\nsamples = 2\nvalue = [2, 0]"] ;
1161 -> 1165 ;
1166 [label="gini = 0.0\nsamples = 1\nvalue = [0, 1]"] ;
1150 -> 1166 ;
1167 [label="gini = 0.0\nsamples = 1\nvalue = [0, 1]"] ;
1149 -> 1167 ;
1168 [label="native-country_United-States <= 0.5\ngini = 0.5\nsamples = 6\nvalue = [3, 3]"] ;
1148 -> 1168 ;
1169 [label="gini = 0.0\nsamples = 2\nvalue = [2, 0]"] ;
1168 -> 1169 ;
1170 [label="relationship_Own-child <= 0.5\ngini = 0.375\nsamples = 4\nvalue = [1, 3]"] ;
1168 -> 1170 ;
1171 [label="gini = 0.0\nsamples = 3\nvalue = [0, 3]"] ;
1170 -> 1171 ;
1172 [label="gini = 0.0\nsamples = 1\nvalue = [1, 0]"] ;
1170 -> 1172 ;
1173 [label="education_Bachelors <= 0.5\ngini = 0.4293\nsamples = 125\nvalue = [86, 39]"] ;
1147 -> 1173 ;
1174 [label="age <= 34.5\ngini = 0.4991\nsamples = 23\nvalue = [12, 11]"] ;
1173 -> 1174 ;
1175 [label="occupation_Sales <= 0.5\ngini = 0.3967\nsamples = 11\nvalue = [8, 3]"] ;
1174 -> 1175 ;
1176 [label="hours-per-week <= 47.5\ngini = 0.2188\nsamples = 8\nvalue = [7, 1]"] ;
1175 -> 1176 ;
1177 [label="occupation_Prof-specialty <= 0.5\ngini = 0.5\nsamples = 2\nvalue = [1, 1]"] ;
1176 -> 1177 ;
1178 [label="gini = 0.0\nsamples = 1\nvalue = [1, 0]"] ;
1177 -> 1178 ;
1179 [label="gini = 0.0\nsamples = 1\nvalue = [0, 1]"] ;
1177 -> 1179 ;
1180 [label="gini = 0.0\nsamples = 6\nvalue = [6, 0]"] ;
1176 -> 1180 ;
1181 [label="native-country_? <= 0.5\ngini = 0.4444\nsamples = 3\nvalue = [1, 2]"] ;
1175 -> 1181 ;
1182 [label="gini = 0.0\nsamples = 2\nvalue = [0, 2]"] ;
1181 -> 1182 ;
1183 [label="gini = 0.0\nsamples = 1\nvalue = [1, 0]"] ;
1181 -> 1183 ;
1184 [label="fnlwgt <= 215015.5\ngini = 0.4444\nsamples = 12\nvalue = [4, 8]"] ;
1174 -> 1184 ;
1185 [label="fnlwgt <= 33060.5\ngini = 0.1975\nsamples = 9\nvalue = [1, 8]"] ;
1184 -> 1185 ;
1186 [label="gini = 0.0\nsamples = 1\nvalue = [1, 0]"] ;
1185 -> 1186 ;
1187 [label="gini = 0.0\nsamples = 8\nvalue = [0, 8]"] ;
1185 -> 1187 ;
