digraph Tree {
node [shape=box] ;
0 [label="marital-status_Married-civ-spouse <= 0.5\ngini = 0.3656\nsamples = 32561\nvalue = [24720, 7841]"] ;
1 [label="capital-gain <= 7073.5\ngini = 0.1221\nsamples = 17585\nvalue = [16436, 1149]"] ;
0 -> 1 [labeldistance=2.5, labelangle=45, headlabel="True"] ;
2 [label="education-num <= 12.5\ngini = 0.0935\nsamples = 17274\nvalue = [16425, 849]"] ;
1 -> 2 ;
3 [label="capital-loss <= 2218.5\ngini = 0.0481\nsamples = 13864\nvalue = [13522, 342]"] ;
2 -> 3 ;
4 [label="hours-per-week <= 40.5\ngini = 0.0446\nsamples = 13807\nvalue = [13492, 315]"] ;
3 -> 4 ;
5 [label="age <= 33.5\ngini = 0.0268\nsamples = 11351\nvalue = [11197, 154]"] ;
4 -> 5 ;
6 [label="relationship_Husband <= 0.5\ngini = 0.0071\nsamples = 6698\nvalue = [6674, 24]"] ;
5 -> 6 ;
7 [label="relationship_Wife <= 0.5\ngini = 0.0068\nsamples = 6696\nvalue = [6673, 23]"] ;
6 -> 7 ;
8 [label="fnlwgt <= 23759.0\ngini = 0.0066\nsamples = 6692\nvalue = [6670, 22]"] ;
7 -> 8 ;
9 [label="fnlwgt <= 23381.0\ngini = 0.142\nsamples = 26\nvalue = [24, 2]"] ;
8 -> 9 ;
10 [label="gini = 0.0\nsamples = 23\nvalue = [23, 0]"] ;
9 -> 10 ;
11 [label="hours-per-week <= 39.0\ngini = 0.4444\nsamples = 3\nvalue = [1, 2]"] ;
9 -> 11 ;
12 [label="gini = 0.0\nsamples = 2\nvalue = [0, 2]"] ;
11 -> 12 ;
13 [label="gini = 0.0\nsamples = 1\nvalue = [1, 0]"] ;
11 -> 13 ;
14 [label="age <= 28.5\ngini = 0.006\nsamples = 6666\nvalue = [6646, 20]"] ;
8 -> 14 ;
15 [label="workclass_Local-gov <= 0.5\ngini = 0.0026\nsamples = 5386\nvalue = [5379, 7]"] ;
14 -> 15 ;
16 [label="workclass_Self-emp-not-inc <= 0.5\ngini = 0.0015\nsamples = 5245\nvalue = [5241, 4]"] ;
15 -> 16 ;
17 [label="occupation_Tech-support <= 0.5\ngini = 0.0012\nsamples = 5139\nvalue = [5136, 3]"] ;
16 -> 17 ;
18 [label="occupation_Exec-managerial <= 0.5\ngini = 0.0008\nsamples = 5026\nvalue = [5024, 2]"] ;
17 -> 18 ;
19 [label="occupation_Other-service <= 0.5\ngini = 0.0004\nsamples = 4882\nvalue = [4881, 1]"] ;
18 -> 19 ;
20 [label="gini = 0.0\nsamples = 3812\nvalue = [3812, 0]"] ;
19 -> 20 ;
21 [label="fnlwgt <= 127914.5\ngini = 0.0019\nsamples = 1070\nvalue = [1069, 1]"] ;
19 -> 21 ;
22 [label="fnlwgt <= 127707.5\ngini = 0.0065\nsamples = 308\nvalue = [307, 1]"] ;
21 -> 22 ;
23 [label="gini = 0.0\nsamples = 307\nvalue = [307, 0]"] ;
22 -> 23 ;
24 [label="gini = 0.0\nsamples = 1\nvalue = [0, 1]"] ;
22 -> 24 ;
25 [label="gini = 0.0\nsamples = 762\nvalue = [762, 0]"] ;
21 -> 25 ;
26 [label="education-num <= 11.5\ngini = 0.0138\nsamples = 144\nvalue = [143, 1]"] ;
18 -> 26 ;
27 [label="gini = 0.0\nsamples = 135\nvalue = [135, 0]"] ;
26 -> 27 ;
28 [label="age <= 26.5\ngini = 0.1975\nsamples = 9\nvalue = [8, 1]"] ;
26 -> 28 ;
29 [label="gini = 0.0\nsamples = 7\nvalue = [7, 0]"] ;
28 -> 29 ;
30 [label="fnlwgt <= 279321.0\ngini = 0.5\nsamples = 2\nvalue = [1, 1]"] ;
28 -> 30 ;
31 [label="gini = 0.0\nsamples = 1\nvalue = [0, 1]"] ;
30 -> 31 ;
32 [label="gini = 0.0\nsamples = 1\nvalue = [1, 0]"] ;
30 -> 32 ;
33 [label="marital-status_Separated <= 0.5\ngini = 0.0175\nsamples = 113\nvalue = [112, 1]"] ;
17 -> 33 ;
34 [label="gini = 0.0\nsamples = 111\nvalue = [111, 0]"] ;
33 -> 34 ;
35 [label="education_HS-grad <= 0.5\ngini = 0.5\nsamples = 2\nvalue = [1, 1]"] ;
33 -> 35 ;
36 [label="gini = 0.0\nsamples = 1\nvalue = [0, 1]"] ;
35 -> 36 ;
37 [label="gini = 0.0\nsamples = 1\nvalue = [1, 0]"] ;
35 -> 37 ;
38 [label="race_Asian-Pac-Islander <= 0.5\ngini = 0.0187\nsamples = 106\nvalue = [105, 1]"] ;
16 -> 38 ;
39 [label="gini = 0.0\nsamples = 100\nvalue = [100, 0]"] ;
38 -> 39 ;
40 [label="relationship_Not-in-family <= 0.5\ngini = 0.2778\nsamples = 6\nvalue = [5, 1]"] ;
38 -> 40 ;
41 [label="gini = 0.0\nsamples = 4\nvalue = [4, 0]"] ;
40 -> 41 ;
42 [label="fnlwgt <= 229343.5\ngini = 0.5\nsamples = 2\nvalue = [1, 1]"] ;
40 -> 42 ;
43 [label="gini = 0.0\nsamples = 1\nvalue = [0, 1]"] ;
42 -> 43 ;
44 [label="gini = 0.0\nsamples = 1\nvalue = [1, 0]"] ;
42 -> 44 ;
45 [label="education-num <= 3.5\ngini = 0.0416\nsamples = 141\nvalue = [138, 3]"] ;
15 -> 45 ;
46 [label="gini = 0.0\nsamples = 1\nvalue = [0, 1]"] ;
45 -> 46 ;
47 [label="occupation_Protective-serv <= 0.5\ngini = 0.0282\nsamples = 140\nvalue = [138, 2]"] ;
45 -> 47 ;
48 [label="gini = 0.0\nsamples = 115\nvalue = [115, 0]"] ;
47 -> 48 ;
49 [label="fnlwgt <= 196863.0\ngini = 0.1472\nsamples = 25\nvalue = [23, 2]"] ;
47 -> 49 ;
50 [label="gini = 0.0\nsamples = 14\nvalue = [14, 0]"] ;
49 -> 50 ;
51 [label="fnlwgt <= 234027.0\ngini = 0.2975\nsamples = 11\nvalue = [9, 2]"] ;
49 -> 51 ;
52 [label="fnlwgt <= 199791.0\ngini = 0.4444\nsamples = 3\nvalue = [1, 2]"] ;
51 -> 52 ;
53 [label="gini = 0.0\nsamples = 1\nvalue = [0, 1]"] ;
52 -> 53 ;
54 [label="fnlwgt <= 215443.5\ngini = 0.5\nsamples = 2\nvalue = [1, 1]"] ;
52 -> 54 ;
55 [label="gini = 0.0\nsamples = 1\nvalue = [1, 0]"] ;
54 -> 55 ;
56 [label="gini = 0.0\nsamples = 1\nvalue = [0, 1]"] ;
54 -> 56 ;
57 [label="gini = 0.0\nsamples = 8\nvalue = [8, 0]"] ;
51 -> 57 ;
58 [label="occupation_Craft-repair <= 0.5\ngini = 0.0201\nsamples = 1280\nvalue = [1267, 13]"] ;
14 -> 58 ;
59 [label="marital-status_Widowed <= 0.5\ngini = 0.0125\nsamples = 1117\nvalue = [1110, 7]"] ;
58 -> 59 ;
60 [label="workclass_State-gov <= 0.5\ngini = 0.0108\nsamples = 1106\nvalue = [1100, 6]"] ;
59 -> 60 ;
61 [label="education_7th-8th <= 0.5\ngini = 0.0075\nsamples = 1060\nvalue = [1056, 4]"] ;
60 -> 61 ;
62 [label="workclass_Federal-gov <= 0.5\ngini = 0.0057\nsamples = 1041\nvalue = [1038, 3]"] ;
61 -> 62 ;
63 [label="education_11th <= 0.5\ngini = 0.004\nsamples = 1004\nvalue = [1002, 2]"] ;
62 -> 63 ;
64 [label="fnlwgt <= 372765.0\ngini = 0.0021\nsamples = 963\nvalue = [962, 1]"] ;
63 -> 64 ;
65 [label="gini = 0.0\nsamples = 901\nvalue = [901, 0]"] ;
64 -> 65 ;
66 [label="gini = 0.0317\nsamples = 62\nvalue = [61, 1]"] ;
64 -> 66 ;
67 [label="occupation_Exec-managerial <= 0.5\ngini = 0.0476\nsamples = 41\nvalue = [40, 1]"] ;
63 -> 67 ;
68 [label="gini = 0.0\nsamples = 39\nvalue = [39, 0]"] ;
67 -> 68 ;
69 [label="gini = 0.5\nsamples = 2\nvalue = [1, 1]"] ;
67 -> 69 ;
70 [label="occupation_Other-service <= 0.5\ngini = 0.0526\nsamples = 37\nvalue = [36, 1]"] ;
62 -> 70 ;
71 [label="gini = 0.0\nsamples = 30\nvalue = [30, 0]"] ;
70 -> 71 ;
72 [label="age <= 30.5\ngini = 0.2449\nsamples = 7\nvalue = [6, 1]"] ;
70 -> 72 ;
73 [label="gini = 0.5\nsamples = 2\nvalue = [1, 1]"] ;
72 -> 73 ;
74 [label="gini = 0.0\nsamples = 5\nvalue = [5, 0]"] ;
72 -> 74 ;
75 [label="occupation_Farming-fishing <= 0.5\ngini = 0.0997\nsamples = 19\nvalue = [18, 1]"] ;
61 -> 75 ;
76 [label="gini = 0.0\nsamples = 18\nvalue = [18, 0]"] ;
75 -> 76 ;
77 [label="gini = 0.0\nsamples = 1\nvalue = [0, 1]"] ;
75 -> 77 ;
78 [label="education-num <= 11.5\ngini = 0.0832\nsamples = 46\nvalue = [44, 2]"] ;
60 -> 78 ;
79 [label="fnlwgt <= 399295.0\ngini = 0.0454\nsamples = 43\nvalue = [42, 1]"] ;
78 -> 79 ;
80 [label="gini = 0.0\nsamples = 39\nvalue = [39, 0]"] ;
79 -> 80 ;
81 [label="age <= 31.5\ngini = 0.375\nsamples = 4\nvalue = [3, 1]"] ;
79 -> 81 ;
82 [label="gini = 0.0\nsamples = 1\nvalue = [0, 1]"] ;
81 -> 82 ;
83 [label="gini = 0.0\nsamples = 3\nvalue = [3, 0]"] ;
81 -> 83 ;
84 [label="occupation_Prof-specialty <= 0.5\ngini = 0.4444\nsamples = 3\nvalue = [2, 1]"] ;
78 -> 84 ;
85 [label="gini = 0.0\nsamples = 2\nvalue = [2, 0]"] ;
84 -> 85 ;
86 [label="gini = 0.0\nsamples = 1\nvalue = [0, 1]"] ;
84 -> 86 ;
87 [label="age <= 29.5\ngini = 0.1653\nsamples = 11\nvalue = [10, 1]"] ;
59 -> 87 ;
88 [label="gini = 0.0\nsamples = 1\nvalue = [0, 1]"] ;
87 -> 88 ;
89 [label="gini = 0.0\nsamples = 10\nvalue = [10, 0]"] ;
87 -> 89 ;
90 [label="education-num <= 9.5\ngini = 0.0709\nsamples = 163\nvalue = [157, 6]"] ;
58 -> 90 ;
91 [label="fnlwgt <= 347879.0\ngini = 0.0177\nsamples = 112\nvalue = [111, 1]"] ;
90 -> 91 ;
92 [label="gini = 0.0\nsamples = 104\nvalue = [104, 0]"] ;
91 -> 92 ;
93 [label="fnlwgt <= 352303.5\ngini = 0.2188\nsamples = 8\nvalue = [7, 1]"] ;
91 -> 93 ;
94 [label="gini = 0.0\nsamples = 1\nvalue = [0, 1]"] ;
93 -> 94 ;
95 [label="gini = 0.0\nsamples = 7\nvalue = [7, 0]"] ;
93 -> 95 ;
96 [label="workclass_Federal-gov <= 0.5\ngini = 0.1769\nsamples = 51\nvalue = [46, 5]"] ;
90 -> 96 ;
97 [label="fnlwgt <= 220252.0\ngini = 0.1499\nsamples = 49\nvalue = [45, 4]"] ;
96 -> 97 ;
98 [label="fnlwgt <= 210558.0\ngini = 0.2188\nsamples = 32\nvalue = [28, 4]"] ;
97 -> 98 ;
99 [label="age <= 30.5\ngini = 0.1748\nsamples = 31\nvalue = [28, 3]"] ;
98 -> 99 ;
100 [label="fnlwgt <= 60105.0\ngini = 0.3367\nsamples = 14\nvalue = [11, 3]"] ;
99 -> 100 ;
101 [label="gini = 0.0\nsamples = 1\nvalue = [0, 1]"] ;
100 -> 101 ;
102 [label="gini = 0.2604\nsamples = 13\nvalue = [11, 2]"] ;
100 -> 102 ;
103 [label="gini = 0.0\nsamples = 17\nvalue = [17, 0]"] ;
99 -> 103 ;
104 [label="gini = 0.0\nsamples = 1\nvalue = [0, 1]"] ;
98 -> 104 ;
105 [label="gini = 0.0\nsamples = 17\nvalue = [17, 0]"] ;
97 -> 105 ;
106 [label="sex_Male <= 0.5\ngini = 0.5\nsamples = 2\nvalue = [1, 1]"] ;
96 -> 106 ;
107 [label="gini = 0.0\nsamples = 1\nvalue = [0, 1]"] ;
106 -> 107 ;
108 [label="gini = 0.0\nsamples = 1\nvalue = [1, 0]"] ;
106 -> 108 ;
109 [label="education_Some-college <= 0.5\ngini = 0.375\nsamples = 4\nvalue = [3, 1]"] ;
7 -> 109 ;
110 [label="gini = 0.0\nsamples = 3\nvalue = [3, 0]"] ;
109 -> 110 ;
111 [label="gini = 0.0\nsamples = 1\nvalue = [0, 1]"] ;
109 -> 111 ;
112 [label="education_Some-college <= 0.5\ngini = 0.5\nsamples = 2\nvalue = [1, 1]"] ;
6 -> 112 ;
113 [label="gini = 0.0\nsamples = 1\nvalue = [0, 1]"] ;
112 -> 113 ;
114 [label="gini = 0.0\nsamples = 1\nvalue = [1, 0]"] ;
112 -> 114 ;
115 [label="occupation_Prof-specialty <= 0.5\ngini = 0.0543\nsamples = 4653\nvalue = [4523, 130]"] ;
5 -> 115 ;
116 [label="occupation_Exec-managerial <= 0.5\ngini = 0.046\nsamples = 4416\nvalue = [4312, 104]"] ;
115 -> 116 ;
117 [label="relationship_Wife <= 0.5\ngini = 0.0376\nsamples = 4072\nvalue = [3994, 78]"] ;
116 -> 117 ;
118 [label="occupation_Protective-serv <= 0.5\ngini = 0.0367\nsamples = 4067\nvalue = [3991, 76]"] ;
117 -> 118 ;
119 [label="native-country_India <= 0.5\ngini = 0.0339\nsamples = 4000\nvalue = [3931, 69]"] ;
118 -> 119 ;
120 [label="capital-gain <= 4718.5\ngini = 0.0334\nsamples = 3999\nvalue = [3931, 68]"] ;
119 -> 120 ;
121 [label="occupation_Craft-repair <= 0.5\ngini = 0.0317\nsamples = 3972\nvalue = [3908, 64]"] ;
120 -> 121 ;
122 [label="workclass_Self-emp-inc <= 0.5\ngini = 0.0255\nsamples = 3477\nvalue = [3432, 45]"] ;
121 -> 122 ;
123 [label="fnlwgt <= 20302.0\ngini = 0.024\nsamples = 3453\nvalue = [3411, 42]"] ;
122 -> 123 ;
124 [label="relationship_Unmarried <= 0.5\ngini = 0.32\nsamples = 5\nvalue = [4, 1]"] ;
123 -> 124 ;
125 [label="gini = 0.0\nsamples = 1\nvalue = [0, 1]"] ;
124 -> 125 ;
126 [label="gini = 0.0\nsamples = 4\nvalue = [4, 0]"] ;
124 -> 126 ;
127 [label="occupation_Tech-support <= 0.5\ngini = 0.0235\nsamples = 3448\nvalue = [3407, 41]"] ;
123 -> 127 ;
128 [label="native-country_England <= 0.5\ngini = 0.0209\nsamples = 3319\nvalue = [3284, 35]"] ;
127 -> 128 ;
129 [label="gini = 0.0203\nsamples = 3311\nvalue = [3277, 34]"] ;
128 -> 129 ;
130 [label="gini = 0.2188\nsamples = 8\nvalue = [7, 1]"] ;
128 -> 130 ;
131 [label="native-country_Guatemala <= 0.5\ngini = 0.0887\nsamples = 129\nvalue = [123, 6]"] ;
127 -> 131 ;
132 [label="gini = 0.0751\nsamples = 128\nvalue = [123, 5]"] ;
131 -> 132 ;
133 [label="gini = 0.0\nsamples = 1\nvalue = [0, 1]"] ;
131 -> 133 ;
134 [label="race_Asian-Pac-Islander <= 0.5\ngini = 0.2188\nsamples = 24\nvalue = [21, 3]"] ;
122 -> 134 ;
135 [label="age <= 56.5\ngini = 0.1588\nsamples = 23\nvalue = [21, 2]"] ;
134 -> 135 ;
136 [label="gini = 0.0\nsamples = 15\nvalue = [15, 0]"] ;
135 -> 136 ;
137 [label="age <= 59.5\ngini = 0.375\nsamples = 8\nvalue = [6, 2]"] ;
135 -> 137 ;
138 [label="gini = 0.0\nsamples = 1\nvalue = [0, 1]"] ;
137 -> 138 ;
139 [label="gini = 0.2449\nsamples = 7\nvalue = [6, 1]"] ;
137 -> 139 ;
140 [label="gini = 0.0\nsamples = 1\nvalue = [0, 1]"] ;
134 -> 140 ;
141 [label="age <= 49.5\ngini = 0.0738\nsamples = 495\nvalue = [476, 19]"] ;
121 -> 141 ;
142 [label="education_Some-college <= 0.5\ngini = 0.0422\nsamples = 371\nvalue = [363, 8]"] ;
141 -> 142 ;
143 [label="marital-status_Married-spouse-absent <= 0.5\ngini = 0.014\nsamples = 284\nvalue = [282, 2]"] ;
142 -> 143 ;
144 [label="fnlwgt <= 85951.0\ngini = 0.0074\nsamples = 269\nvalue = [268, 1]"] ;
143 -> 144 ;
145 [label="gini = 0.0713\nsamples = 27\nvalue = [26, 1]"] ;
144 -> 145 ;
146 [label="gini = 0.0\nsamples = 242\nvalue = [242, 0]"] ;
144 -> 146 ;
147 [label="age <= 40.5\ngini = 0.1244\nsamples = 15\nvalue = [14, 1]"] ;
143 -> 147 ;
148 [label="gini = 0.2778\nsamples = 6\nvalue = [5, 1]"] ;
147 -> 148 ;
149 [label="gini = 0.0\nsamples = 9\nvalue = [9, 0]"] ;
147 -> 149 ;
150 [label="fnlwgt <= 41026.0\ngini = 0.1284\nsamples = 87\nvalue = [81, 6]"] ;
142 -> 150 ;
151 [label="fnlwgt <= 35229.0\ngini = 0.4444\nsamples = 3\nvalue = [1, 2]"] ;
150 -> 151 ;
152 [label="gini = 0.0\nsamples = 1\nvalue = [1, 0]"] ;
151 -> 152 ;
153 [label="gini = 0.0\nsamples = 2\nvalue = [0, 2]"] ;
151 -> 153 ;
154 [label="age <= 45.5\ngini = 0.0907\nsamples = 84\nvalue = [80, 4]"] ;
150 -> 154 ;
155 [label="gini = 0.0548\nsamples = 71\nvalue = [69, 2]"] ;
154 -> 155 ;
156 [label="gini = 0.2604\nsamples = 13\nvalue = [11, 2]"] ;
154 -> 156 ;
157 [label="workclass_Local-gov <= 0.5\ngini = 0.1617\nsamples = 124\nvalue = [113, 11]"] ;
141 -> 157 ;
158 [label="fnlwgt <= 111950.0\ngini = 0.1409\nsamples = 118\nvalue = [109, 9]"] ;
157 -> 158 ;
159 [label="fnlwgt <= 109658.0\ngini = 0.32\nsamples = 25\nvalue = [20, 5]"] ;
158 -> 159 ;
160 [label="gini = 0.2778\nsamples = 24\nvalue = [20, 4]"] ;
159 -> 160 ;
161 [label="gini = 0.0\nsamples = 1\nvalue = [0, 1]"] ;
159 -> 161 ;
162 [label="fnlwgt <= 380931.5\ngini = 0.0823\nsamples = 93\nvalue = [89, 4]"] ;
158 -> 162 ;
163 [label="gini = 0.0638\nsamples = 91\nvalue = [88, 3]"] ;
162 -> 163 ;
164 [label="gini = 0.5\nsamples = 2\nvalue = [1, 1]"] ;
162 -> 164 ;
165 [label="marital-status_Divorced <= 0.5\ngini = 0.4444\nsamples = 6\nvalue = [4, 2]"] ;
157 -> 165 ;
166 [label="gini = 0.0\nsamples = 3\nvalue = [3, 0]"] ;
165 -> 166 ;
167 [label="education_HS-grad <= 0.5\ngini = 0.4444\nsamples = 3\nvalue = [1, 2]"] ;
165 -> 167 ;
168 [label="gini = 0.0\nsamples = 1\nvalue = [1, 0]"] ;
167 -> 168 ;
169 [label="gini = 0.0\nsamples = 2\nvalue = [0, 2]"] ;
167 -> 169 ;
170 [label="capital-gain <= 4826.0\ngini = 0.2524\nsamples = 27\nvalue = [23, 4]"] ;
120 -> 170 ;
171 [label="gini = 0.0\nsamples = 3\nvalue = [0, 3]"] ;
170 -> 171 ;
172 [label="occupation_Tech-support <= 0.5\ngini = 0.0799\nsamples = 24\nvalue = [23, 1]"] ;
170 -> 172 ;
173 [label="gini = 0.0\nsamples = 21\nvalue = [21, 0]"] ;
172 -> 173 ;
174 [label="workclass_Local-gov <= 0.5\ngini = 0.4444\nsamples = 3\nvalue = [2, 1]"] ;
172 -> 174 ;
175 [label="gini = 0.0\nsamples = 2\nvalue = [2, 0]"] ;
174 -> 175 ;
176 [label="gini = 0.0\nsamples = 1\nvalue = [0, 1]"] ;
174 -> 176 ;
177 [label="gini = 0.0\nsamples = 1\nvalue = [0, 1]"] ;
119 -> 177 ;
178 [label="workclass_Private <= 0.5\ngini = 0.1871\nsamples = 67\nvalue = [60, 7]"] ;
118 -> 178 ;
179 [label="fnlwgt <= 364930.5\ngini = 0.2726\nsamples = 43\nvalue = [36, 7]"] ;
178 -> 179 ;
180 [label="fnlwgt <= 33692.0\ngini = 0.2449\nsamples = 42\nvalue = [36, 6]"] ;
179 -> 180 ;
181 [label="workclass_Local-gov <= 0.5\ngini = 0.5\nsamples = 2\nvalue = [1, 1]"] ;
180 -> 181 ;
182 [label="gini = 0.0\nsamples = 1\nvalue = [0, 1]"] ;
181 -> 182 ;
183 [label="gini = 0.0\nsamples = 1\nvalue = [1, 0]"] ;
181 -> 183 ;
184 [label="relationship_Not-in-family <= 0.5\ngini = 0.2188\nsamples = 40\nvalue = [35, 5]"] ;
180 -> 184 ;
185 [label="gini = 0.0\nsamples = 16\nvalue = [16, 0]"] ;
184 -> 185 ;
186 [label="fnlwgt <= 158186.0\ngini = 0.3299\nsamples = 24\nvalue = [19, 5]"] ;
184 -> 186 ;
187 [label="gini = 0.0\nsamples = 7\nvalue = [7, 0]"] ;
186 -> 187 ;
188 [label="marital-status_Divorced <= 0.5\ngini = 0.4152\nsamples = 17\nvalue = [12, 5]"] ;
186 -> 188 ;
189 [label="fnlwgt <= 188687.5\ngini = 0.4959\nsamples = 11\nvalue = [6, 5]"] ;
188 -> 189 ;
190 [label="gini = 0.0\nsamples = 2\nvalue = [0, 2]"] ;
189 -> 190 ;
191 [label="gini = 0.4444\nsamples = 9\nvalue = [6, 3]"] ;
189 -> 191 ;
192 [label="gini = 0.0\nsamples = 6\nvalue = [6, 0]"] ;
188 -> 192 ;
193 [label="gini = 0.0\nsamples = 1\nvalue = [0, 1]"] ;
179 -> 193 ;
194 [label="gini = 0.0\nsamples = 24\nvalue = [24, 0]"] ;
178 -> 194 ;
195 [label="age <= 36.5\ngini = 0.48\nsamples = 5\nvalue = [3, 2]"] ;
117 -> 195 ;
196 [label="education_Assoc-acdm <= 0.5\ngini = 0.4444\nsamples = 3\nvalue = [1, 2]"] ;
195 -> 196 ;
197 [label="gini = 0.0\nsamples = 2\nvalue = [0, 2]"] ;
196 -> 197 ;
198 [label="gini = 0.0\nsamples = 1\nvalue = [1, 0]"] ;
196 -> 198 ;
199 [label="gini = 0.0\nsamples = 2\nvalue = [2, 0]"] ;
195 -> 199 ;
200 [label="native-country_Japan <= 0.5\ngini = 0.1397\nsamples = 344\nvalue = [318, 26]"] ;
116 -> 200 ;
201 [label="native-country_Ireland <= 0.5\ngini = 0.1351\nsamples = 343\nvalue = [318, 25]"] ;
200 -> 201 ;
202 [label="capital-gain <= 5373.5\ngini = 0.1305\nsamples = 342\nvalue = [318, 24]"] ;
201 -> 202 ;
203 [label="education-num <= 10.5\ngini = 0.1258\nsamples = 341\nvalue = [318, 23]"] ;
202 -> 203 ;
204 [label="marital-status_Widowed <= 0.5\ngini = 0.1033\nsamples = 293\nvalue = [277, 16]"] ;
203 -> 204 ;
205 [label="fnlwgt <= 61980.5\ngini = 0.0835\nsamples = 252\nvalue = [241, 11]"] ;
204 -> 205 ;
206 [label="fnlwgt <= 47090.0\ngini = 0.2112\nsamples = 25\nvalue = [22, 3]"] ;
205 -> 206 ;
207 [label="gini = 0.0\nsamples = 19\nvalue = [19, 0]"] ;
206 -> 207 ;
208 [label="marital-status_Divorced <= 0.5\ngini = 0.5\nsamples = 6\nvalue = [3, 3]"] ;
206 -> 208 ;
209 [label="gini = 0.0\nsamples = 2\nvalue = [2, 0]"] ;
208 -> 209 ;
210 [label="workclass_Private <= 0.5\ngini = 0.375\nsamples = 4\nvalue = [1, 3]"] ;
208 -> 210 ;
211 [label="gini = 0.5\nsamples = 2\nvalue = [1, 1]"] ;
210 -> 211 ;
212 [label="gini = 0.0\nsamples = 2\nvalue = [0, 2]"] ;
210 -> 212 ;
213 [label="fnlwgt <= 138184.0\ngini = 0.068\nsamples = 227\nvalue = [219, 8]"] ;
205 -> 213 ;
214 [label="gini = 0.0\nsamples = 63\nvalue = [63, 0]"] ;
213 -> 214 ;
215 [label="fnlwgt <= 140565.0\ngini = 0.0928\nsamples = 164\nvalue = [156, 8]"] ;
213 -> 215 ;
216 [label="gini = 0.0\nsamples = 1\nvalue = [0, 1]"] ;
215 -> 216 ;
217 [label="education_HS-grad <= 0.5\ngini = 0.0822\nsamples = 163\nvalue = [156, 7]"] ;
215 -> 217 ;
218 [label="gini = 0.0222\nsamples = 89\nvalue = [88, 1]"] ;
217 -> 218 ;
219 [label="gini = 0.149\nsamples = 74\nvalue = [68, 6]"] ;
217 -> 219 ;
220 [label="fnlwgt <= 25270.0\ngini = 0.2142\nsamples = 41\nvalue = [36, 5]"] ;
204 -> 220 ;
221 [label="race_Amer-Indian-Eskimo <= 0.5\ngini = 0.5\nsamples = 2\nvalue = [1, 1]"] ;
220 -> 221 ;
222 [label="gini = 0.0\nsamples = 1\nvalue = [0, 1]"] ;
221 -> 222 ;
223 [label="gini = 0.0\nsamples = 1\nvalue = [1, 0]"] ;
221 -> 223 ;
224 [label="fnlwgt <= 126767.0\ngini = 0.1841\nsamples = 39\nvalue = [35, 4]"] ;
220 -> 224 ;
225 [label="gini = 0.0\nsamples = 12\nvalue = [12, 0]"] ;
224 -> 225 ;
226 [label="fnlwgt <= 142112.0\ngini = 0.2524\nsamples = 27\nvalue = [23, 4]"] ;
224 -> 226 ;
227 [label="education-num <= 8.5\ngini = 0.4444\nsamples = 3\nvalue = [1, 2]"] ;
226 -> 227 ;
228 [label="gini = 0.0\nsamples = 1\nvalue = [1, 0]"] ;
227 -> 228 ;
229 [label="gini = 0.0\nsamples = 2\nvalue = [0, 2]"] ;
227 -> 229 ;
230 [label="age <= 66.5\ngini = 0.1528\nsamples = 24\nvalue = [22, 2]"] ;
226 -> 230 ;
231 [label="gini = 0.0\nsamples = 16\nvalue = [16, 0]"] ;
230 -> 231 ;
232 [label="gini = 0.375\nsamples = 8\nvalue = [6, 2]"] ;
230 -> 232 ;
233 [label="age <= 57.0\ngini = 0.2491\nsamples = 48\nvalue = [41, 7]"] ;
203 -> 233 ;
234 [label="fnlwgt <= 354495.0\ngini = 0.142\nsamples = 39\nvalue = [36, 3]"] ;
233 -> 234 ;
235 [label="relationship_Not-in-family <= 0.5\ngini = 0.1023\nsamples = 37\nvalue = [35, 2]"] ;
234 -> 235 ;
236 [label="gini = 0.0\nsamples = 19\nvalue = [19, 0]"] ;
235 -> 236 ;
237 [label="workclass_Private <= 0.5\ngini = 0.1975\nsamples = 18\nvalue = [16, 2]"] ;
235 -> 237 ;
238 [label="gini = 0.0\nsamples = 10\nvalue = [10, 0]"] ;
237 -> 238 ;
239 [label="marital-status_Divorced <= 0.5\ngini = 0.375\nsamples = 8\nvalue = [6, 2]"] ;
237 -> 239 ;
240 [label="gini = 0.0\nsamples = 2\nvalue = [2, 0]"] ;
239 -> 240 ;
241 [label="gini = 0.4444\nsamples = 6\nvalue = [4, 2]"] ;
239 -> 241 ;
242 [label="marital-status_Divorced <= 0.5\ngini = 0.5\nsamples = 2\nvalue = [1, 1]"] ;
234 -> 242 ;
243 [label="gini = 0.0\nsamples = 1\nvalue = [1, 0]"] ;
242 -> 243 ;
244 [label="gini = 0.0\nsamples = 1\nvalue = [0, 1]"] ;
242 -> 244 ;
245 [label="fnlwgt <= 157862.0\ngini = 0.4938\nsamples = 9\nvalue = [5, 4]"] ;
233 -> 245 ;
246 [label="gini = 0.0\nsamples = 3\nvalue = [0, 3]"] ;
245 -> 246 ;
247 [label="fnlwgt <= 266228.0\ngini = 0.2778\nsamples = 6\nvalue = [5, 1]"] ;
245 -> 247 ;
248 [label="gini = 0.0\nsamples = 5\nvalue = [5, 0]"] ;
247 -> 248 ;
249 [label="gini = 0.0\nsamples = 1\nvalue = [0, 1]"] ;
247 -> 249 ;
250 [label="gini = 0.0\nsamples = 1\nvalue = [0, 1]"] ;
202 -> 250 ;
251 [label="gini = 0.0\nsamples = 1\nvalue = [0, 1]"] ;
201 -> 251 ;
252 [label="gini = 0.0\nsamples = 1\nvalue = [0, 1]"] ;
200 -> 252 ;
253 [label="sex_Male <= 0.5\ngini = 0.1953\nsamples = 237\nvalue = [211, 26]"] ;
115 -> 253 ;
254 [label="native-country_Philippines <= 0.5\ngini = 0.113\nsamples = 183\nvalue = [172, 11]"] ;
253 -> 254 ;
255 [label="capital-loss <= 1472.0\ngini = 0.1039\nsamples = 182\nvalue = [172, 10]"] ;
254 -> 255 ;
256 [label="workclass_Federal-gov <= 0.5\ngini = 0.0955\nsamples = 179\nvalue = [170, 9]"] ;
255 -> 256 ;
257 [label="age <= 36.5\ngini = 0.0794\nsamples = 169\nvalue = [162, 7]"] ;
256 -> 257 ;
258 [label="hours-per-week <= 16.0\ngini = 0.2041\nsamples = 26\nvalue = [23, 3]"] ;
257 -> 258 ;
259 [label="fnlwgt <= 143074.5\ngini = 0.5\nsamples = 2\nvalue = [1, 1]"] ;
258 -> 259 ;
260 [label="gini = 0.0\nsamples = 1\nvalue = [1, 0]"] ;
259 -> 260 ;
261 [label="gini = 0.0\nsamples = 1\nvalue = [0, 1]"] ;
259 -> 261 ;
262 [label="marital-status_Divorced <= 0.5\ngini = 0.1528\nsamples = 24\nvalue = [22, 2]"] ;
258 -> 262 ;
263 [label="gini = 0.0\nsamples = 15\nvalue = [15, 0]"] ;
262 -> 263 ;
264 [label="relationship_Own-child <= 0.5\ngini = 0.3457\nsamples = 9\nvalue = [7, 2]"] ;
262 -> 264 ;
265 [label="education_Assoc-voc <= 0.5\ngini = 0.2188\nsamples = 8\nvalue = [7, 1]"] ;
264 -> 265 ;
266 [label="gini = 0.0\nsamples = 5\nvalue = [5, 0]"] ;
265 -> 266 ;
267 [label="fnlwgt <= 178916.0\ngini = 0.4444\nsamples = 3\nvalue = [2, 1]"] ;
265 -> 267 ;
268 [label="gini = 0.0\nsamples = 1\nvalue = [0, 1]"] ;
267 -> 268 ;
269 [label="gini = 0.0\nsamples = 2\nvalue = [2, 0]"] ;
267 -> 269 ;
270 [label="gini = 0.0\nsamples = 1\nvalue = [0, 1]"] ;
264 -> 270 ;
271 [label="marital-status_Divorced <= 0.5\ngini = 0.0544\nsamples = 143\nvalue = [139, 4]"] ;
257 -> 271 ;
272 [label="gini = 0.0\nsamples = 69\nvalue = [69, 0]"] ;
271 -> 272 ;
273 [label="education_Some-college <= 0.5\ngini = 0.1023\nsamples = 74\nvalue = [70, 4]"] ;
271 -> 273 ;
274 [label="fnlwgt <= 46887.0\ngini = 0.1557\nsamples = 47\nvalue = [43, 4]"] ;
273 -> 274 ;
275 [label="fnlwgt <= 39554.5\ngini = 0.5\nsamples = 2\nvalue = [1, 1]"] ;
274 -> 275 ;
276 [label="gini = 0.0\nsamples = 1\nvalue = [1, 0]"] ;
275 -> 276 ;
277 [label="gini = 0.0\nsamples = 1\nvalue = [0, 1]"] ;
275 -> 277 ;
278 [label="fnlwgt <= 137044.5\ngini = 0.1244\nsamples = 45\nvalue = [42, 3]"] ;
274 -> 278 ;
279 [label="gini = 0.0\nsamples = 18\nvalue = [18, 0]"] ;
278 -> 279 ;
280 [label="fnlwgt <= 139169.0\ngini = 0.1975\nsamples = 27\nvalue = [24, 3]"] ;
278 -> 280 ;
281 [label="gini = 0.0\nsamples = 1\nvalue = [0, 1]"] ;
280 -> 281 ;
282 [label="gini = 0.142\nsamples = 26\nvalue = [24, 2]"] ;
280 -> 282 ;
283 [label="gini = 0.0\nsamples = 27\nvalue = [27, 0]"] ;
273 -> 283 ;
284 [label="education_Assoc-acdm <= 0.5\ngini = 0.32\nsamples = 10\nvalue = [8, 2]"] ;
256 -> 284 ;
285 [label="race_White <= 0.5\ngini = 0.1975\nsamples = 9\nvalue = [8, 1]"] ;
284 -> 285 ;
286 [label="gini = 0.0\nsamples = 5\nvalue = [5, 0]"] ;
285 -> 286 ;
287 [label="age <= 39.5\ngini = 0.375\nsamples = 4\nvalue = [3, 1]"] ;
285 -> 287 ;
288 [label="gini = 0.0\nsamples = 2\nvalue = [2, 0]"] ;
287 -> 288 ;
289 [label="fnlwgt <= 142097.0\ngini = 0.5\nsamples = 2\nvalue = [1, 1]"] ;
287 -> 289 ;
290 [label="gini = 0.0\nsamples = 1\nvalue = [0, 1]"] ;
289 -> 290 ;
291 [label="gini = 0.0\nsamples = 1\nvalue = [1, 0]"] ;
289 -> 291 ;
292 [label="gini = 0.0\nsamples = 1\nvalue = [0, 1]"] ;
284 -> 292 ;
293 [label="fnlwgt <= 175854.0\ngini = 0.4444\nsamples = 3\nvalue = [2, 1]"] ;
255 -> 293 ;
294 [label="gini = 0.0\nsamples = 2\nvalue = [2, 0]"] ;
293 -> 294 ;
295 [label="gini = 0.0\nsamples = 1\nvalue = [0, 1]"] ;
293 -> 295 ;
296 [label="gini = 0.0\nsamples = 1\nvalue = [0, 1]"] ;
254 -> 296 ;
297 [label="capital-gain <= 4718.5\ngini = 0.4012\nsamples = 54\nvalue = [39, 15]"] ;
253 -> 297 ;
298 [label="race_Amer-Indian-Eskimo <= 0.5\ngini = 0.375\nsamples = 52\nvalue = [39, 13]"] ;
297 -> 298 ;
299 [label="native-country_Germany <= 0.5\ngini = 0.3599\nsamples = 51\nvalue = [39, 12]"] ;
298 -> 299 ;
300 [label="native-country_Japan <= 0.5\ngini = 0.3432\nsamples = 50\nvalue = [39, 11]"] ;
299 -> 300 ;
301 [label="fnlwgt <= 29452.0\ngini = 0.3249\nsamples = 49\nvalue = [39, 10]"] ;
300 -> 301 ;
302 [label="gini = 0.0\nsamples = 1\nvalue = [0, 1]"] ;
301 -> 302 ;
303 [label="fnlwgt <= 201059.0\ngini = 0.3047\nsamples = 48\nvalue = [39, 9]"] ;
301 -> 303 ;
304 [label="workclass_Local-gov <= 0.5\ngini = 0.1748\nsamples = 31\nvalue = [28, 3]"] ;
303 -> 304 ;
305 [label="age <= 38.5\ngini = 0.074\nsamples = 26\nvalue = [25, 1]"] ;
304 -> 305 ;
306 [label="education_HS-grad <= 0.5\ngini = 0.2778\nsamples = 6\nvalue = [5, 1]"] ;
305 -> 306 ;
307 [label="gini = 0.0\nsamples = 3\nvalue = [3, 0]"] ;
306 -> 307 ;
308 [label="gini = 0.4444\nsamples = 3\nvalue = [2, 1]"] ;
306 -> 308 ;
309 [label="gini = 0.0\nsamples = 20\nvalue = [20, 0]"] ;
305 -> 309 ;
310 [label="education_Some-college <= 0.5\ngini = 0.48\nsamples = 5\nvalue = [3, 2]"] ;
304 -> 310 ;
311 [label="fnlwgt <= 191959.0\ngini = 0.4444\nsamples = 3\nvalue = [1, 2]"] ;
310 -> 311 ;
312 [label="gini = 0.0\nsamples = 2\nvalue = [0, 2]"] ;
311 -> 312 ;
313 [label="gini = 0.0\nsamples = 1\nvalue = [1, 0]"] ;
311 -> 313 ;
314 [label="gini = 0.0\nsamples = 2\nvalue = [2, 0]"] ;
310 -> 314 ;
315 [label="fnlwgt <= 329693.0\ngini = 0.4567\nsamples = 17\nvalue = [11, 6]"] ;
303 -> 315 ;
316 [label="age <= 49.0\ngini = 0.4959\nsamples = 11\nvalue = [5, 6]"] ;
315 -> 316 ;
317 [label="age <= 39.5\ngini = 0.4688\nsamples = 8\nvalue = [5, 3]"] ;
316 -> 317 ;
318 [label="gini = 0.48\nsamples = 5\nvalue = [2, 3]"] ;
317 -> 318 ;
319 [label="gini = 0.0\nsamples = 3\nvalue = [3, 0]"] ;
317 -> 319 ;
320 [label="gini = 0.0\nsamples = 3\nvalue = [0, 3]"] ;
316 -> 320 ;
321 [label="gini = 0.0\nsamples = 6\nvalue = [6, 0]"] ;
315 -> 321 ;
322 [label="gini = 0.0\nsamples = 1\nvalue = [0, 1]"] ;
300 -> 322 ;
323 [label="gini = 0.0\nsamples = 1\nvalue = [0, 1]"] ;
299 -> 323 ;
324 [label="gini = 0.0\nsamples = 1\nvalue = [0, 1]"] ;
298 -> 324 ;
325 [label="gini = 0.0\nsamples = 2\nvalue = [0, 2]"] ;
297 -> 325 ;
326 [label="age <= 38.5\ngini = 0.1225\nsamples = 2456\nvalue = [2295, 161]"] ;
4 -> 326 ;
327 [label="native-country_India <= 0.5\ngini = 0.0748\nsamples = 1568\nvalue = [1507, 61]"] ;
326 -> 327 ;
328 [label="relationship_Not-in-family <= 0.5\ngini = 0.0736\nsamples = 1567\nvalue = [1507, 60]"] ;
327 -> 328 ;
329 [label="native-country_Portugal <= 0.5\ngini = 0.0264\nsamples = 673\nvalue = [664, 9]"] ;
328 -> 329 ;
330 [label="race_Asian-Pac-Islander <= 0.5\ngini = 0.0236\nsamples = 671\nvalue = [663, 8]"] ;
329 -> 330 ;
331 [label="marital-status_Married-AF-spouse <= 0.5\ngini = 0.0181\nsamples = 657\nvalue = [651, 6]"] ;
330 -> 331 ;
332 [label="hours-per-week <= 98.5\ngini = 0.0152\nsamples = 653\nvalue = [648, 5]"] ;
331 -> 332 ;
333 [label="workclass_Federal-gov <= 0.5\ngini = 0.0123\nsamples = 649\nvalue = [645, 4]"] ;
332 -> 333 ;
334 [label="marital-status_Married-spouse-absent <= 0.5\ngini = 0.0093\nsamples = 642\nvalue = [639, 3]"] ;
333 -> 334 ;
335 [label="fnlwgt <= 284055.5\ngini = 0.0063\nsamples = 628\nvalue = [626, 2]"] ;
334 -> 335 ;
336 [label="gini = 0.0\nsamples = 537\nvalue = [537, 0]"] ;
335 -> 336 ;
337 [label="fnlwgt <= 284811.5\ngini = 0.043\nsamples = 91\nvalue = [89, 2]"] ;
335 -> 337 ;
338 [label="gini = 0.0\nsamples = 1\nvalue = [0, 1]"] ;
337 -> 338 ;
339 [label="fnlwgt <= 287804.5\ngini = 0.022\nsamples = 90\nvalue = [89, 1]"] ;
337 -> 339 ;
340 [label="gini = 0.4444\nsamples = 3\nvalue = [2, 1]"] ;
339 -> 340 ;
341 [label="gini = 0.0\nsamples = 87\nvalue = [87, 0]"] ;
339 -> 341 ;
342 [label="workclass_Self-emp-not-inc <= 0.5\ngini = 0.1327\nsamples = 14\nvalue = [13, 1]"] ;
334 -> 342 ;
343 [label="gini = 0.0\nsamples = 13\nvalue = [13, 0]"] ;
342 -> 343 ;
344 [label="gini = 0.0\nsamples = 1\nvalue = [0, 1]"] ;
342 -> 344 ;
345 [label="education-num <= 11.5\ngini = 0.2449\nsamples = 7\nvalue = [6, 1]"] ;
333 -> 345 ;
346 [label="gini = 0.0\nsamples = 6\nvalue = [6, 0]"] ;
345 -> 346 ;
347 [label="gini = 0.0\nsamples = 1\nvalue = [0, 1]"] ;
345 -> 347 ;
348 [label="fnlwgt <= 173043.0\ngini = 0.375\nsamples = 4\nvalue = [3, 1]"] ;
332 -> 348 ;
349 [label="gini = 0.0\nsamples = 3\nvalue = [3, 0]"] ;
348 -> 349 ;
350 [label="gini = 0.0\nsamples = 1\nvalue = [0, 1]"] ;
348 -> 350 ;
351 [label="hours-per-week <= 49.5\ngini = 0.375\nsamples = 4\nvalue = [3, 1]"] ;
331 -> 351 ;
352 [label="gini = 0.0\nsamples = 1\nvalue = [0, 1]"] ;
351 -> 352 ;
353 [label="gini = 0.0\nsamples = 3\nvalue = [3, 0]"] ;
351 -> 353 ;
354 [label="occupation_Adm-clerical <= 0.5\ngini = 0.2449\nsamples = 14\nvalue = [12, 2]"] ;
330 -> 354 ;
355 [label="fnlwgt <= 70533.5\ngini = 0.142\nsamples = 13\nvalue = [12, 1]"] ;
354 -> 355 ;
356 [label="gini = 0.0\nsamples = 1\nvalue = [0, 1]"] ;
355 -> 356 ;
357 [label="gini = 0.0\nsamples = 12\nvalue = [12, 0]"] ;
355 -> 357 ;
358 [label="gini = 0.0\nsamples = 1\nvalue = [0, 1]"] ;
354 -> 358 ;
359 [label="marital-status_Never-married <= 0.5\ngini = 0.5\nsamples = 2\nvalue = [1, 1]"] ;
329 -> 359 ;
360 [label="gini = 0.0\nsamples = 1\nvalue = [0, 1]"] ;
359 -> 360 ;
361 [label="gini = 0.0\nsamples = 1\nvalue = [1, 0]"] ;
359 -> 361 ;
362 [label="workclass_Private <= 0.5\ngini = 0.1076\nsamples = 894\nvalue = [843, 51]"] ;
328 -> 362 ;
363 [label="occupation_Exec-managerial <= 0.5\ngini = 0.2006\nsamples = 168\nvalue = [149, 19]"] ;
362 -> 363 ;
364 [label="occupation_Protective-serv <= 0.5\ngini = 0.1537\nsamples = 143\nvalue = [131, 12]"] ;
363 -> 364 ;
365 [label="fnlwgt <= 344990.0\ngini = 0.1155\nsamples = 130\nvalue = [122, 8]"] ;
364 -> 365 ;
366 [label="education_HS-grad <= 0.5\ngini = 0.0805\nsamples = 119\nvalue = [114, 5]"] ;
365 -> 366 ;
367 [label="gini = 0.0\nsamples = 68\nvalue = [68, 0]"] ;
366 -> 367 ;
368 [label="fnlwgt <= 34376.0\ngini = 0.1769\nsamples = 51\nvalue = [46, 5]"] ;
366 -> 368 ;
369 [label="hours-per-week <= 57.5\ngini = 0.5\nsamples = 4\nvalue = [2, 2]"] ;
368 -> 369 ;
370 [label="gini = 0.0\nsamples = 2\nvalue = [2, 0]"] ;
369 -> 370 ;
371 [label="gini = 0.0\nsamples = 2\nvalue = [0, 2]"] ;
369 -> 371 ;
372 [label="occupation_Sales <= 0.5\ngini = 0.1195\nsamples = 47\nvalue = [44, 3]"] ;
368 -> 372 ;
373 [label="occupation_Adm-clerical <= 0.5\ngini = 0.0868\nsamples = 44\nvalue = [42, 2]"] ;
372 -> 373 ;
374 [label="age <= 29.5\ngini = 0.0487\nsamples = 40\nvalue = [39, 1]"] ;
373 -> 374 ;
375 [label="gini = 0.18\nsamples = 10\nvalue = [9, 1]"] ;
374 -> 375 ;
376 [label="gini = 0.0\nsamples = 30\nvalue = [30, 0]"] ;
374 -> 376 ;
377 [label="marital-status_Divorced <= 0.5\ngini = 0.375\nsamples = 4\nvalue = [3, 1]"] ;
373 -> 377 ;
378 [label="gini = 0.0\nsamples = 1\nvalue = [0, 1]"] ;
377 -> 378 ;
379 [label="gini = 0.0\nsamples = 3\nvalue = [3, 0]"] ;
377 -> 379 ;
380 [label="age <= 33.5\ngini = 0.4444\nsamples = 3\nvalue = [2, 1]"] ;
372 -> 380 ;
381 [label="gini = 0.0\nsamples = 2\nvalue = [2, 0]"] ;
380 -> 381 ;
382 [label="gini = 0.0\nsamples = 1\nvalue = [0, 1]"] ;
380 -> 382 ;
383 [label="workclass_Self-emp-not-inc <= 0.5\ngini = 0.3967\nsamples = 11\nvalue = [8, 3]"] ;
365 -> 383 ;
384 [label="gini = 0.0\nsamples = 6\nvalue = [6, 0]"] ;
383 -> 384 ;
385 [label="education_Some-college <= 0.5\ngini = 0.48\nsamples = 5\nvalue = [2, 3]"] ;
383 -> 385 ;
386 [label="gini = 0.0\nsamples = 3\nvalue = [0, 3]"] ;
385 -> 386 ;
387 [label="gini = 0.0\nsamples = 2\nvalue = [2, 0]"] ;
385 -> 387 ;
388 [label="age <= 28.0\ngini = 0.426\nsamples = 13\nvalue = [9, 4]"] ;
364 -> 388 ;
389 [label="gini = 0.0\nsamples = 4\nvalue = [4, 0]"] ;
388 -> 389 ;
390 [label="age <= 32.0\ngini = 0.4938\nsamples = 9\nvalue = [5, 4]"] ;
388 -> 390 ;
391 [label="gini = 0.0\nsamples = 2\nvalue = [0, 2]"] ;
390 -> 391 ;
392 [label="fnlwgt <= 183982.5\ngini = 0.4082\nsamples = 7\nvalue = [5, 2]"] ;
390 -> 392 ;
393 [label="hours-per-week <= 65.0\ngini = 0.4444\nsamples = 3\nvalue = [1, 2]"] ;
392 -> 393 ;
394 [label="gini = 0.0\nsamples = 2\nvalue = [0, 2]"] ;
393 -> 394 ;
395 [label="gini = 0.0\nsamples = 1\nvalue = [1, 0]"] ;
393 -> 395 ;
396 [label="gini = 0.0\nsamples = 4\nvalue = [4, 0]"] ;
392 -> 396 ;
397 [label="hours-per-week <= 62.5\ngini = 0.4032\nsamples = 25\nvalue = [18, 7]"] ;
363 -> 397 ;
398 [label="education_12th <= 0.5\ngini = 0.255\nsamples = 20\nvalue = [17, 3]"] ;
397 -> 398 ;
399 [label="fnlwgt <= 58156.5\ngini = 0.1884\nsamples = 19\nvalue = [17, 2]"] ;
398 -> 399 ;
400 [label="gini = 0.0\nsamples = 1\nvalue = [0, 1]"] ;
399 -> 400 ;
401 [label="fnlwgt <= 114965.0\ngini = 0.1049\nsamples = 18\nvalue = [17, 1]"] ;
399 -> 401 ;
402 [label="age <= 28.0\ngini = 0.4444\nsamples = 3\nvalue = [2, 1]"] ;
401 -> 402 ;
403 [label="gini = 0.0\nsamples = 1\nvalue = [0, 1]"] ;
402 -> 403 ;
404 [label="gini = 0.0\nsamples = 2\nvalue = [2, 0]"] ;
402 -> 404 ;
405 [label="gini = 0.0\nsamples = 15\nvalue = [15, 0]"] ;
401 -> 405 ;
406 [label="gini = 0.0\nsamples = 1\nvalue = [0, 1]"] ;
398 -> 406 ;
407 [label="native-country_Cuba <= 0.5\ngini = 0.32\nsamples = 5\nvalue = [1, 4]"] ;
397 -> 407 ;
408 [label="gini = 0.0\nsamples = 4\nvalue = [0, 4]"] ;
407 -> 408 ;
409 [label="gini = 0.0\nsamples = 1\nvalue = [1, 0]"] ;
407 -> 409 ;
410 [label="education-num <= 10.5\ngini = 0.0843\nsamples = 726\nvalue = [694, 32]"] ;
362 -> 410 ;
411 [label="fnlwgt <= 30808.5\ngini = 0.0672\nsamples = 632\nvalue = [610, 22]"] ;
410 -> 411 ;
412 [label="occupation_Transport-moving <= 0.5\ngini = 0.2975\nsamples = 11\nvalue = [9, 2]"] ;
411 -> 412 ;
413 [label="hours-per-week <= 49.0\ngini = 0.18\nsamples = 10\nvalue = [9, 1]"] ;
412 -> 413 ;
414 [label="race_White <= 0.5\ngini = 0.5\nsamples = 2\nvalue = [1, 1]"] ;
413 -> 414 ;
415 [label="gini = 0.0\nsamples = 1\nvalue = [0, 1]"] ;
414 -> 415 ;
416 [label="gini = 0.0\nsamples = 1\nvalue = [1, 0]"] ;
414 -> 416 ;
417 [label="gini = 0.0\nsamples = 8\nvalue = [8, 0]"] ;
413 -> 417 ;
418 [label="gini = 0.0\nsamples = 1\nvalue = [0, 1]"] ;
412 -> 418 ;
419 [label="education_9th <= 0.5\ngini = 0.0623\nsamples = 621\nvalue = [601, 20]"] ;
411 -> 419 ;
420 [label="fnlwgt <= 465605.5\ngini = 0.0575\nsamples = 608\nvalue = [590, 18]"] ;
419 -> 420 ;
421 [label="hours-per-week <= 41.5\ngini = 0.0524\nsamples = 594\nvalue = [578, 16]"] ;
420 -> 421 ;
422 [label="education_HS-grad <= 0.5\ngini = 0.32\nsamples = 5\nvalue = [4, 1]"] ;
421 -> 422 ;
423 [label="gini = 0.0\nsamples = 1\nvalue = [0, 1]"] ;
422 -> 423 ;
424 [label="gini = 0.0\nsamples = 4\nvalue = [4, 0]"] ;
422 -> 424 ;
425 [label="education_7th-8th <= 0.5\ngini = 0.0496\nsamples = 589\nvalue = [574, 15]"] ;
421 -> 425 ;
426 [label="fnlwgt <= 251746.5\ngini = 0.0469\nsamples = 583\nvalue = [569, 14]"] ;
425 -> 426 ;
427 [label="fnlwgt <= 250640.0\ngini = 0.0617\nsamples = 439\nvalue = [425, 14]"] ;
426 -> 427 ;
428 [label="gini = 0.0576\nsamples = 438\nvalue = [425, 13]"] ;
427 -> 428 ;
429 [label="gini = 0.0\nsamples = 1\nvalue = [0, 1]"] ;
427 -> 429 ;
430 [label="gini = 0.0\nsamples = 144\nvalue = [144, 0]"] ;
426 -> 430 ;
431 [label="hours-per-week <= 55.0\ngini = 0.2778\nsamples = 6\nvalue = [5, 1]"] ;
425 -> 431 ;
432 [label="gini = 0.0\nsamples = 5\nvalue = [5, 0]"] ;
431 -> 432 ;
433 [label="gini = 0.0\nsamples = 1\nvalue = [0, 1]"] ;
431 -> 433 ;
434 [label="marital-status_Never-married <= 0.5\ngini = 0.2449\nsamples = 14\nvalue = [12, 2]"] ;
420 -> 434 ;
435 [label="gini = 0.0\nsamples = 1\nvalue = [0, 1]"] ;
434 -> 435 ;
436 [label="fnlwgt <= 477227.5\ngini = 0.142\nsamples = 13\nvalue = [12, 1]"] ;
434 -> 436 ;
437 [label="gini = 0.0\nsamples = 1\nvalue = [0, 1]"] ;
436 -> 437 ;
438 [label="gini = 0.0\nsamples = 12\nvalue = [12, 0]"] ;
436 -> 438 ;
439 [label="native-country_? <= 0.5\ngini = 0.2604\nsamples = 13\nvalue = [11, 2]"] ;
419 -> 439 ;
440 [label="hours-per-week <= 44.0\ngini = 0.1528\nsamples = 12\nvalue = [11, 1]"] ;
439 -> 440 ;
441 [label="gini = 0.0\nsamples = 1\nvalue = [0, 1]"] ;
440 -> 441 ;
442 [label="gini = 0.0\nsamples = 11\nvalue = [11, 0]"] ;
440 -> 442 ;
443 [label="gini = 0.0\nsamples = 1\nvalue = [0, 1]"] ;
439 -> 443 ;
444 [label="capital-gain <= 3692.0\ngini = 0.1901\nsamples = 94\nvalue = [84, 10]"] ;
410 -> 444 ;
445 [label="hours-per-week <= 64.5\ngini = 0.1748\nsamples = 93\nvalue = [84, 9]"] ;
444 -> 445 ;
446 [label="fnlwgt <= 213271.5\ngini = 0.1464\nsamples = 88\nvalue = [81, 7]"] ;
445 -> 446 ;
447 [label="fnlwgt <= 205085.5\ngini = 0.2122\nsamples = 58\nvalue = [51, 7]"] ;
446 -> 447 ;
448 [label="age <= 35.5\ngini = 0.1396\nsamples = 53\nvalue = [49, 4]"] ;
447 -> 448 ;
449 [label="fnlwgt <= 180814.5\ngini = 0.0832\nsamples = 46\nvalue = [44, 2]"] ;
448 -> 449 ;
450 [label="gini = 0.0\nsamples = 37\nvalue = [37, 0]"] ;
449 -> 450 ;
451 [label="marital-status_Divorced <= 0.5\ngini = 0.3457\nsamples = 9\nvalue = [7, 2]"] ;
449 -> 451 ;
452 [label="gini = 0.0\nsamples = 6\nvalue = [6, 0]"] ;
451 -> 452 ;
453 [label="gini = 0.4444\nsamples = 3\nvalue = [1, 2]"] ;
451 -> 453 ;
454 [label="fnlwgt <= 58363.0\ngini = 0.4082\nsamples = 7\nvalue = [5, 2]"] ;
448 -> 454 ;
455 [label="gini = 0.0\nsamples = 1\nvalue = [0, 1]"] ;
454 -> 455 ;
456 [label="occupation_Sales <= 0.5\ngini = 0.2778\nsamples = 6\nvalue = [5, 1]"] ;
454 -> 456 ;
457 [label="gini = 0.0\nsamples = 5\nvalue = [5, 0]"] ;
456 -> 457 ;
458 [label="gini = 0.0\nsamples = 1\nvalue = [0, 1]"] ;
456 -> 458 ;
459 [label="hours-per-week <= 47.5\ngini = 0.48\nsamples = 5\nvalue = [2, 3]"] ;
447 -> 459 ;
460 [label="gini = 0.0\nsamples = 2\nvalue = [2, 0]"] ;
459 -> 460 ;
461 [label="gini = 0.0\nsamples = 3\nvalue = [0, 3]"] ;
459 -> 461 ;
462 [label="gini = 0.0\nsamples = 30\nvalue = [30, 0]"] ;
446 -> 462 ;
463 [label="occupation_Exec-managerial <= 0.5\ngini = 0.48\nsamples = 5\nvalue = [3, 2]"] ;
445 -> 463 ;
464 [label="fnlwgt <= 313562.5\ngini = 0.375\nsamples = 4\nvalue = [3, 1]"] ;
463 -> 464 ;
465 [label="gini = 0.0\nsamples = 2\nvalue = [2, 0]"] ;
464 -> 465 ;
466 [label="education-num <= 11.5\ngini = 0.5\nsamples = 2\nvalue = [1, 1]"] ;
464 -> 466 ;
467 [label="gini = 0.0\nsamples = 1\nvalue = [1, 0]"] ;
466 -> 467 ;
468 [label="gini = 0.0\nsamples = 1\nvalue = [0, 1]"] ;
466 -> 468 ;
469 [label="gini = 0.0\nsamples = 1\nvalue = [0, 1]"] ;
463 -> 469 ;
470 [label="gini = 0.0\nsamples = 1\nvalue = [0, 1]"] ;
444 -> 470 ;
471 [label="gini = 0.0\nsamples = 1\nvalue = [0, 1]"] ;
327 -> 471 ;
472 [label="capital-gain <= 4668.5\ngini = 0.1999\nsamples = 888\nvalue = [788, 100]"] ;
326 -> 472 ;
473 [label="sex_Male <= 0.5\ngini = 0.1928\nsamples = 879\nvalue = [784, 95]"] ;
472 -> 473 ;
474 [label="marital-status_Married-AF-spouse <= 0.5\ngini = 0.12\nsamples = 421\nvalue = [394, 27]"] ;
473 -> 474 ;
475 [label="native-country_Greece <= 0.5\ngini = 0.1161\nsamples = 420\nvalue = [394, 26]"] ;
474 -> 475 ;
476 [label="occupation_Tech-support <= 0.5\ngini = 0.1122\nsamples = 419\nvalue = [394, 25]"] ;
475 -> 476 ;
477 [label="education-num <= 9.5\ngini = 0.1018\nsamples = 409\nvalue = [387, 22]"] ;
476 -> 477 ;
478 [label="workclass_Self-emp-inc <= 0.5\ngini = 0.0375\nsamples = 209\nvalue = [205, 4]"] ;
477 -> 478 ;
479 [label="marital-status_Married-spouse-absent <= 0.5\ngini = 0.0287\nsamples = 206\nvalue = [203, 3]"] ;
478 -> 479 ;
480 [label="workclass_State-gov <= 0.5\ngini = 0.0198\nsamples = 200\nvalue = [198, 2]"] ;
479 -> 480 ;
481 [label="education_11th <= 0.5\ngini = 0.0103\nsamples = 193\nvalue = [192, 1]"] ;
480 -> 481 ;
482 [label="gini = 0.0\nsamples = 185\nvalue = [185, 0]"] ;
481 -> 482 ;
483 [label="occupation_Craft-repair <= 0.5\ngini = 0.2188\nsamples = 8\nvalue = [7, 1]"] ;
481 -> 483 ;
484 [label="gini = 0.0\nsamples = 6\nvalue = [6, 0]"] ;
483 -> 484 ;
485 [label="gini = 0.5\nsamples = 2\nvalue = [1, 1]"] ;
483 -> 485 ;
486 [label="occupation_Adm-clerical <= 0.5\ngini = 0.2449\nsamples = 7\nvalue = [6, 1]"] ;
480 -> 486 ;
487 [label="gini = 0.0\nsamples = 5\nvalue = [5, 0]"] ;
486 -> 487 ;
488 [label="hours-per-week <= 48.0\ngini = 0.5\nsamples = 2\nvalue = [1, 1]"] ;
486 -> 488 ;
489 [label="gini = 0.0\nsamples = 1\nvalue = [1, 0]"] ;
488 -> 489 ;
490 [label="gini = 0.0\nsamples = 1\nvalue = [0, 1]"] ;
488 -> 490 ;
491 [label="race_White <= 0.5\ngini = 0.2778\nsamples = 6\nvalue = [5, 1]"] ;
479 -> 491 ;
492 [label="gini = 0.0\nsamples = 1\nvalue = [0, 1]"] ;
491 -> 492 ;
493 [label="gini = 0.0\nsamples = 5\nvalue = [5, 0]"] ;
491 -> 493 ;
494 [label="native-country_United-States <= 0.5\ngini = 0.4444\nsamples = 3\nvalue = [2, 1]"] ;
478 -> 494 ;
495 [label="gini = 0.0\nsamples = 2\nvalue = [2, 0]"] ;
494 -> 495 ;
496 [label="gini = 0.0\nsamples = 1\nvalue = [0, 1]"] ;
494 -> 496 ;
497 [label="workclass_? <= 0.5\ngini = 0.1638\nsamples = 200\nvalue = [182, 18]"] ;
477 -> 497 ;
498 [label="occupation_Protective-serv <= 0.5\ngini = 0.1563\nsamples = 199\nvalue = [182, 17]"] ;
497 -> 498 ;
499 [label="age <= 46.5\ngini = 0.1486\nsamples = 198\nvalue = [182, 16]"] ;
498 -> 499 ;
500 [label="fnlwgt <= 369903.5\ngini = 0.0754\nsamples = 102\nvalue = [98, 4]"] ;
499 -> 500 ;
501 [label="relationship_Own-child <= 0.5\ngini = 0.0582\nsamples = 100\nvalue = [97, 3]"] ;
500 -> 501 ;
502 [label="gini = 0.0421\nsamples = 93\nvalue = [91, 2]"] ;
501 -> 502 ;
503 [label="gini = 0.2449\nsamples = 7\nvalue = [6, 1]"] ;
501 -> 503 ;
504 [label="occupation_Sales <= 0.5\ngini = 0.5\nsamples = 2\nvalue = [1, 1]"] ;
500 -> 504 ;
505 [label="gini = 0.0\nsamples = 1\nvalue = [0, 1]"] ;
504 -> 505 ;
506 [label="gini = 0.0\nsamples = 1\nvalue = [1, 0]"] ;
504 -> 506 ;
507 [label="hours-per-week <= 56.5\ngini = 0.2188\nsamples = 96\nvalue = [84, 12]"] ;
499 -> 507 ;
508 [label="hours-per-week <= 55.5\ngini = 0.2747\nsamples = 73\nvalue = [61, 12]"] ;
507 -> 508 ;
509 [label="gini = 0.2589\nsamples = 72\nvalue = [61, 11]"] ;
508 -> 509 ;
510 [label="gini = 0.0\nsamples = 1\nvalue = [0, 1]"] ;
508 -> 510 ;
511 [label="gini = 0.0\nsamples = 23\nvalue = [23, 0]"] ;
507 -> 511 ;
512 [label="gini = 0.0\nsamples = 1\nvalue = [0, 1]"] ;
498 -> 512 ;
513 [label="gini = 0.0\nsamples = 1\nvalue = [0, 1]"] ;
497 -> 513 ;
514 [label="marital-status_Divorced <= 0.5\ngini = 0.42\nsamples = 10\nvalue = [7, 3]"] ;
476 -> 514 ;
515 [label="gini = 0.0\nsamples = 2\nvalue = [0, 2]"] ;
514 -> 515 ;
516 [label="fnlwgt <= 129209.0\ngini = 0.2188\nsamples = 8\nvalue = [7, 1]"] ;
514 -> 516 ;
517 [label="gini = 0.0\nsamples = 1\nvalue = [0, 1]"] ;
516 -> 517 ;
518 [label="gini = 0.0\nsamples = 7\nvalue = [7, 0]"] ;
516 -> 518 ;
519 [label="gini = 0.0\nsamples = 1\nvalue = [0, 1]"] ;
475 -> 519 ;
520 [label="gini = 0.0\nsamples = 1\nvalue = [0, 1]"] ;
474 -> 520 ;
521 [label="fnlwgt <= 361071.0\ngini = 0.2529\nsamples = 458\nvalue = [390, 68]"] ;
473 -> 521 ;
522 [label="marital-status_Never-married <= 0.5\ngini = 0.2345\nsamples = 435\nvalue = [376, 59]"] ;
521 -> 522 ;
523 [label="occupation_Tech-support <= 0.5\ngini = 0.2828\nsamples = 311\nvalue = [258, 53]"] ;
522 -> 523 ;
524 [label="education-num <= 9.5\ngini = 0.2727\nsamples = 307\nvalue = [257, 50]"] ;
523 -> 524 ;
525 [label="fnlwgt <= 26943.0\ngini = 0.1995\nsamples = 178\nvalue = [158, 20]"] ;
524 -> 525 ;
526 [label="education_9th <= 0.5\ngini = 0.4444\nsamples = 3\nvalue = [1, 2]"] ;
525 -> 526 ;
527 [label="gini = 0.0\nsamples = 2\nvalue = [0, 2]"] ;
526 -> 527 ;
528 [label="gini = 0.0\nsamples = 1\nvalue = [1, 0]"] ;
526 -> 528 ;
529 [label="age <= 51.5\ngini = 0.1846\nsamples = 175\nvalue = [157, 18]"] ;
525 -> 529 ;
530 [label="fnlwgt <= 321184.5\ngini = 0.0899\nsamples = 106\nvalue = [101, 5]"] ;
529 -> 530 ;
531 [label="education_12th <= 0.5\ngini = 0.0594\nsamples = 98\nvalue = [95, 3]"] ;
530 -> 531 ;
532 [label="occupation_Sales <= 0.5\ngini = 0.0412\nsamples = 95\nvalue = [93, 2]"] ;
531 -> 532 ;
533 [label="gini = 0.0\nsamples = 81\nvalue = [81, 0]"] ;
532 -> 533 ;
534 [label="gini = 0.2449\nsamples = 14\nvalue = [12, 2]"] ;
532 -> 534 ;
535 [label="hours-per-week <= 67.0\ngini = 0.4444\nsamples = 3\nvalue = [2, 1]"] ;
531 -> 535 ;
536 [label="gini = 0.0\nsamples = 2\nvalue = [2, 0]"] ;
535 -> 536 ;
537 [label="gini = 0.0\nsamples = 1\nvalue = [0, 1]"] ;
535 -> 537 ;
538 [label="occupation_Exec-managerial <= 0.5\ngini = 0.375\nsamples = 8\nvalue = [6, 2]"] ;
530 -> 538 ;
539 [label="occupation_Transport-moving <= 0.5\ngini = 0.2449\nsamples = 7\nvalue = [6, 1]"] ;
538 -> 539 ;
540 [label="gini = 0.0\nsamples = 6\nvalue = [6, 0]"] ;
539 -> 540 ;
541 [label="gini = 0.0\nsamples = 1\nvalue = [0, 1]"] ;
539 -> 541 ;
542 [label="gini = 0.0\nsamples = 1\nvalue = [0, 1]"] ;
538 -> 542 ;
543 [label="relationship_Not-in-family <= 0.5\ngini = 0.3058\nsamples = 69\nvalue = [56, 13]"] ;
529 -> 543 ;
544 [label="fnlwgt <= 191470.0\ngini = 0.4753\nsamples = 18\nvalue = [11, 7]"] ;
543 -> 544 ;
545 [label="age <= 64.5\ngini = 0.4628\nsamples = 11\nvalue = [4, 7]"] ;
544 -> 545 ;
546 [label="gini = 0.2188\nsamples = 8\nvalue = [1, 7]"] ;
545 -> 546 ;
547 [label="gini = 0.0\nsamples = 3\nvalue = [3, 0]"] ;
545 -> 547 ;
548 [label="gini = 0.0\nsamples = 7\nvalue = [7, 0]"] ;
544 -> 548 ;
549 [label="workclass_? <= 0.5\ngini = 0.2076\nsamples = 51\nvalue = [45, 6]"] ;
543 -> 549 ;
550 [label="workclass_Self-emp-inc <= 0.5\ngini = 0.18\nsamples = 50\nvalue = [45, 5]"] ;
549 -> 550 ;
551 [label="gini = 0.1271\nsamples = 44\nvalue = [41, 3]"] ;
550 -> 551 ;
552 [label="gini = 0.4444\nsamples = 6\nvalue = [4, 2]"] ;
550 -> 552 ;
553 [label="gini = 0.0\nsamples = 1\nvalue = [0, 1]"] ;
549 -> 553 ;
554 [label="hours-per-week <= 45.5\ngini = 0.3569\nsamples = 129\nvalue = [99, 30]"] ;
524 -> 554 ;
555 [label="occupation_Exec-managerial <= 0.5\ngini = 0.1884\nsamples = 38\nvalue = [34, 4]"] ;
554 -> 555 ;
556 [label="fnlwgt <= 339936.0\ngini = 0.1172\nsamples = 32\nvalue = [30, 2]"] ;
555 -> 556 ;
557 [label="age <= 59.0\ngini = 0.0624\nsamples = 31\nvalue = [30, 1]"] ;
556 -> 557 ;
558 [label="gini = 0.0\nsamples = 28\nvalue = [28, 0]"] ;
557 -> 558 ;
559 [label="relationship_Own-child <= 0.5\ngini = 0.4444\nsamples = 3\nvalue = [2, 1]"] ;
557 -> 559 ;
560 [label="gini = 0.0\nsamples = 2\nvalue = [2, 0]"] ;
559 -> 560 ;
561 [label="gini = 0.0\nsamples = 1\nvalue = [0, 1]"] ;
559 -> 561 ;
562 [label="gini = 0.0\nsamples = 1\nvalue = [0, 1]"] ;
556 -> 562 ;
563 [label="education_Some-college <= 0.5\ngini = 0.4444\nsamples = 6\nvalue = [4, 2]"] ;
555 -> 563 ;
564 [label="gini = 0.0\nsamples = 1\nvalue = [0, 1]"] ;
563 -> 564 ;
565 [label="marital-status_Divorced <= 0.5\ngini = 0.32\nsamples = 5\nvalue = [4, 1]"] ;
563 -> 565 ;
566 [label="fnlwgt <= 250253.0\ngini = 0.5\nsamples = 2\nvalue = [1, 1]"] ;
565 -> 566 ;
567 [label="gini = 0.0\nsamples = 1\nvalue = [0, 1]"] ;
566 -> 567 ;
568 [label="gini = 0.0\nsamples = 1\nvalue = [1, 0]"] ;
566 -> 568 ;
569 [label="gini = 0.0\nsamples = 3\nvalue = [3, 0]"] ;
565 -> 569 ;
570 [label="hours-per-week <= 49.0\ngini = 0.4082\nsamples = 91\nvalue = [65, 26]"] ;
554 -> 570 ;
571 [label="fnlwgt <= 203728.5\ngini = 0.4978\nsamples = 15\nvalue = [7, 8]"] ;
570 -> 571 ;
572 [label="fnlwgt <= 102092.0\ngini = 0.4628\nsamples = 11\nvalue = [7, 4]"] ;
571 -> 572 ;
573 [label="gini = 0.0\nsamples = 2\nvalue = [0, 2]"] ;
572 -> 573 ;
574 [label="occupation_Craft-repair <= 0.5\ngini = 0.3457\nsamples = 9\nvalue = [7, 2]"] ;
572 -> 574 ;
575 [label="gini = 0.0\nsamples = 6\nvalue = [6, 0]"] ;
574 -> 575 ;
576 [label="gini = 0.4444\nsamples = 3\nvalue = [1, 2]"] ;
574 -> 576 ;
577 [label="gini = 0.0\nsamples = 4\nvalue = [0, 4]"] ;
571 -> 577 ;
578 [label="age <= 43.5\ngini = 0.3615\nsamples = 76\nvalue = [58, 18]"] ;
570 -> 578 ;
579 [label="fnlwgt <= 101486.0\ngini = 0.48\nsamples = 25\nvalue = [15, 10]"] ;
578 -> 579 ;
580 [label="relationship_Own-child <= 0.5\ngini = 0.2778\nsamples = 6\nvalue = [1, 5]"] ;
579 -> 580 ;
581 [label="gini = 0.0\nsamples = 5\nvalue = [0, 5]"] ;
580 -> 581 ;
582 [label="gini = 0.0\nsamples = 1\nvalue = [1, 0]"] ;
580 -> 582 ;
583 [label="age <= 41.5\ngini = 0.3878\nsamples = 19\nvalue = [14, 5]"] ;
579 -> 583 ;
584 [label="gini = 0.3047\nsamples = 16\nvalue = [13, 3]"] ;
583 -> 584 ;
585 [label="gini = 0.4444\nsamples = 3\nvalue = [1, 2]"] ;
583 -> 585 ;
586 [label="workclass_Federal-gov <= 0.5\ngini = 0.2645\nsamples = 51\nvalue = [43, 8]"] ;
578 -> 586 ;
587 [label="age <= 58.5\ngini = 0.2408\nsamples = 50\nvalue = [43, 7]"] ;
586 -> 587 ;
588 [label="gini = 0.1975\nsamples = 45\nvalue = [40, 5]"] ;
587 -> 588 ;
589 [label="gini = 0.48\nsamples = 5\nvalue = [3, 2]"] ;
587 -> 589 ;
590 [label="gini = 0.0\nsamples = 1\nvalue = [0, 1]"] ;
586 -> 590 ;
591 [label="education_Some-college <= 0.5\ngini = 0.375\nsamples = 4\nvalue = [1, 3]"] ;
523 -> 591 ;
592 [label="gini = 0.0\nsamples = 3\nvalue = [0, 3]"] ;
591 -> 592 ;
593 [label="gini = 0.0\nsamples = 1\nvalue = [1, 0]"] ;
591 -> 593 ;
594 [label="capital-loss <= 1534.0\ngini = 0.0921\nsamples = 124\nvalue = [118, 6]"] ;
522 -> 594 ;
595 [label="age <= 59.5\ngini = 0.065\nsamples = 119\nvalue = [115, 4]"] ;
594 -> 595 ;
596 [label="occupation_Adm-clerical <= 0.5\ngini = 0.0517\nsamples = 113\nvalue = [110, 3]"] ;
595 -> 596 ;
597 [label="fnlwgt <= 183920.0\ngini = 0.0374\nsamples = 105\nvalue = [103, 2]"] ;
596 -> 597 ;
598 [label="gini = 0.0\nsamples = 66\nvalue = [66, 0]"] ;
597 -> 598 ;
599 [label="fnlwgt <= 188732.0\ngini = 0.0973\nsamples = 39\nvalue = [37, 2]"] ;
597 -> 599 ;
600 [label="occupation_Exec-managerial <= 0.5\ngini = 0.5\nsamples = 2\nvalue = [1, 1]"] ;
599 -> 600 ;
601 [label="gini = 0.0\nsamples = 1\nvalue = [1, 0]"] ;
600 -> 601 ;
602 [label="gini = 0.0\nsamples = 1\nvalue = [0, 1]"] ;
600 -> 602 ;
603 [label="occupation_Sales <= 0.5\ngini = 0.0526\nsamples = 37\nvalue = [36, 1]"] ;
599 -> 603 ;
604 [label="gini = 0.0\nsamples = 33\nvalue = [33, 0]"] ;
603 -> 604 ;
605 [label="fnlwgt <= 250791.5\ngini = 0.375\nsamples = 4\nvalue = [3, 1]"] ;
603 -> 605 ;
606 [label="gini = 0.0\nsamples = 3\nvalue = [3, 0]"] ;
605 -> 606 ;
607 [label="gini = 0.0\nsamples = 1\nvalue = [0, 1]"] ;
605 -> 607 ;
608 [label="relationship_Unmarried <= 0.5\ngini = 0.2188\nsamples = 8\nvalue = [7, 1]"] ;
596 -> 608 ;
609 [label="gini = 0.0\nsamples = 6\nvalue = [6, 0]"] ;
608 -> 609 ;
610 [label="hours-per-week <= 46.5\ngini = 0.5\nsamples = 2\nvalue = [1, 1]"] ;
608 -> 610 ;
611 [label="gini = 0.0\nsamples = 1\nvalue = [1, 0]"] ;
610 -> 611 ;
612 [label="gini = 0.0\nsamples = 1\nvalue = [0, 1]"] ;
610 -> 612 ;
613 [label="fnlwgt <= 51439.0\ngini = 0.2778\nsamples = 6\nvalue = [5, 1]"] ;
595 -> 613 ;
614 [label="gini = 0.0\nsamples = 1\nvalue = [0, 1]"] ;
613 -> 614 ;
615 [label="gini = 0.0\nsamples = 5\nvalue = [5, 0]"] ;
613 -> 615 ;
616 [label="capital-loss <= 1577.0\ngini = 0.48\nsamples = 5\nvalue = [3, 2]"] ;
594 -> 616 ;
617 [label="gini = 0.0\nsamples = 2\nvalue = [0, 2]"] ;
616 -> 617 ;
618 [label="gini = 0.0\nsamples = 3\nvalue = [3, 0]"] ;
616 -> 618 ;
619 [label="education_Some-college <= 0.5\ngini = 0.4764\nsamples = 23\nvalue = [14, 9]"] ;
521 -> 619 ;
620 [label="age <= 53.0\ngini = 0.32\nsamples = 15\nvalue = [12, 3]"] ;
619 -> 620 ;
621 [label="occupation_Prof-specialty <= 0.5\ngini = 0.2449\nsamples = 14\nvalue = [12, 2]"] ;
620 -> 621 ;
622 [label="fnlwgt <= 365071.5\ngini = 0.142\nsamples = 13\nvalue = [12, 1]"] ;
621 -> 622 ;
623 [label="gini = 0.0\nsamples = 1\nvalue = [0, 1]"] ;
622 -> 623 ;
624 [label="gini = 0.0\nsamples = 12\nvalue = [12, 0]"] ;
622 -> 624 ;
625 [label="gini = 0.0\nsamples = 1\nvalue = [0, 1]"] ;
621 -> 625 ;
626 [label="gini = 0.0\nsamples = 1\nvalue = [0, 1]"] ;
620 -> 626 ;
627 [label="fnlwgt <= 420118.0\ngini = 0.375\nsamples = 8\nvalue = [2, 6]"] ;
619 -> 627 ;
628 [label="gini = 0.0\nsamples = 5\nvalue = [0, 5]"] ;
627 -> 628 ;
629 [label="workclass_Self-emp-inc <= 0.5\ngini = 0.4444\nsamples = 3\nvalue = [2, 1]"] ;
627 -> 629 ;
630 [label="gini = 0.0\nsamples = 2\nvalue = [2, 0]"] ;
629 -> 630 ;
631 [label="gini = 0.0\nsamples = 1\nvalue = [0, 1]"] ;
629 -> 631 ;
632 [label="capital-gain <= 5194.5\ngini = 0.4938\nsamples = 9\nvalue = [4, 5]"] ;
472 -> 632 ;
633 [label="age <= 54.0\ngini = 0.2778\nsamples = 6\nvalue = [1, 5]"] ;
632 -> 633 ;
634 [label="gini = 0.0\nsamples = 5\nvalue = [0, 5]"] ;
633 -> 634 ;
635 [label="gini = 0.0\nsamples = 1\nvalue = [1, 0]"] ;
633 -> 635 ;
636 [label="gini = 0.0\nsamples = 3\nvalue = [3, 0]"] ;
632 -> 636 ;
637 [label="fnlwgt <= 125450.5\ngini = 0.4986\nsamples = 57\nvalue = [30, 27]"] ;
3 -> 637 ;
638 [label="age <= 60.0\ngini = 0.3457\nsamples = 18\nvalue = [4, 14]"] ;
637 -> 638 ;
639 [label="occupation_Sales <= 0.5\ngini = 0.1244\nsamples = 15\nvalue = [1, 14]"] ;
638 -> 639 ;
640 [label="gini = 0.0\nsamples = 14\nvalue = [0, 14]"] ;
639 -> 640 ;
641 [label="gini = 0.0\nsamples = 1\nvalue = [1, 0]"] ;
639 -> 641 ;
642 [label="gini = 0.0\nsamples = 3\nvalue = [3, 0]"] ;
638 -> 642 ;
643 [label="capital-loss <= 2391.5\ngini = 0.4444\nsamples = 39\nvalue = [26, 13]"] ;
637 -> 643 ;
644 [label="education-num <= 11.5\ngini = 0.2873\nsamples = 23\nvalue = [19, 4]"] ;
643 -> 644 ;
645 [label="workclass_Private <= 0.5\ngini = 0.2355\nsamples = 22\nvalue = [19, 3]"] ;
644 -> 645 ;
646 [label="gini = 0.0\nsamples = 10\nvalue = [10, 0]"] ;
645 -> 646 ;
647 [label="relationship_Own-child <= 0.5\ngini = 0.375\nsamples = 12\nvalue = [9, 3]"] ;
645 -> 647 ;
648 [label="occupation_Farming-fishing <= 0.5\ngini = 0.2975\nsamples = 11\nvalue = [9, 2]"] ;
647 -> 648 ;
649 [label="age <= 47.0\ngini = 0.18\nsamples = 10\nvalue = [9, 1]"] ;
648 -> 649 ;
650 [label="gini = 0.0\nsamples = 8\nvalue = [8, 0]"] ;
649 -> 650 ;
651 [label="occupation_Exec-managerial <= 0.5\ngini = 0.5\nsamples = 2\nvalue = [1, 1]"] ;
649 -> 651 ;
652 [label="gini = 0.0\nsamples = 1\nvalue = [1, 0]"] ;
651 -> 652 ;
653 [label="gini = 0.0\nsamples = 1\nvalue = [0, 1]"] ;
651 -> 653 ;
654 [label="gini = 0.0\nsamples = 1\nvalue = [0, 1]"] ;
648 -> 654 ;
655 [label="gini = 0.0\nsamples = 1\nvalue = [0, 1]"] ;
647 -> 655 ;
656 [label="gini = 0.0\nsamples = 1\nvalue = [0, 1]"] ;
644 -> 656 ;
657 [label="capital-loss <= 3253.5\ngini = 0.4922\nsamples = 16\nvalue = [7, 9]"] ;
643 -> 657 ;
658 [label="gini = 0.0\nsamples = 9\nvalue = [0, 9]"] ;
657 -> 658 ;
659 [label="gini = 0.0\nsamples = 7\nvalue = [7, 0]"] ;
657 -> 659 ;
660 [label="hours-per-week <= 43.5\ngini = 0.2531\nsamples = 3410\nvalue = [2903, 507]"] ;
2 -> 660 ;
661 [label="age <= 33.5\ngini = 0.1608\nsamples = 2302\nvalue = [2099, 203]"] ;
660 -> 661 ;
662 [label="relationship_Wife <= 0.5\ngini = 0.0463\nsamples = 1181\nvalue = [1153, 28]"] ;
661 -> 662 ;
663 [label="capital-loss <= 2116.0\ngini = 0.0431\nsamples = 1179\nvalue = [1153, 26]"] ;
662 -> 663 ;
664 [label="age <= 29.5\ngini = 0.04\nsamples = 1175\nvalue = [1151, 24]"] ;
663 -> 664 ;
665 [label="marital-status_Separated <= 0.5\ngini = 0.0213\nsamples = 929\nvalue = [919, 10]"] ;
664 -> 665 ;
666 [label="fnlwgt <= 41011.0\ngini = 0.0193\nsamples = 924\nvalue = [915, 9]"] ;
665 -> 666 ;
667 [label="occupation_Craft-repair <= 0.5\ngini = 0.0973\nsamples = 39\nvalue = [37, 2]"] ;
666 -> 667 ;
668 [label="fnlwgt <= 40713.5\ngini = 0.0512\nsamples = 38\nvalue = [37, 1]"] ;
667 -> 668 ;
669 [label="gini = 0.0\nsamples = 36\nvalue = [36, 0]"] ;
668 -> 669 ;
670 [label="occupation_Exec-managerial <= 0.5\ngini = 0.5\nsamples = 2\nvalue = [1, 1]"] ;
668 -> 670 ;
671 [label="gini = 0.0\nsamples = 1\nvalue = [1, 0]"] ;
670 -> 671 ;
672 [label="gini = 0.0\nsamples = 1\nvalue = [0, 1]"] ;
670 -> 672 ;
673 [label="gini = 0.0\nsamples = 1\nvalue = [0, 1]"] ;
667 -> 673 ;
674 [label="capital-loss <= 1486.0\ngini = 0.0157\nsamples = 885\nvalue = [878, 7]"] ;
666 -> 674 ;
675 [label="education_Masters <= 0.5\ngini = 0.0137\nsamples = 870\nvalue = [864, 6]"] ;
674 -> 675 ;
676 [label="relationship_Unmarried <= 0.5\ngini = 0.0101\nsamples = 791\nvalue = [787, 4]"] ;
675 -> 676 ;
677 [label="occupation_Adm-clerical <= 0.5\ngini = 0.0078\nsamples = 764\nvalue = [761, 3]"] ;
676 -> 677 ;
678 [label="fnlwgt <= 323996.5\ngini = 0.0033\nsamples = 612\nvalue = [611, 1]"] ;
677 -> 678 ;
679 [label="gini = 0.0\nsamples = 537\nvalue = [537, 0]"] ;
678 -> 679 ;
680 [label="fnlwgt <= 325594.0\ngini = 0.0263\nsamples = 75\nvalue = [74, 1]"] ;
678 -> 680 ;
681 [label="gini = 0.0\nsamples = 1\nvalue = [0, 1]"] ;
680 -> 681 ;
682 [label="gini = 0.0\nsamples = 74\nvalue = [74, 0]"] ;
680 -> 682 ;
683 [label="age <= 24.5\ngini = 0.026\nsamples = 152\nvalue = [150, 2]"] ;
677 -> 683 ;
684 [label="gini = 0.0\nsamples = 69\nvalue = [69, 0]"] ;
683 -> 684 ;
685 [label="age <= 26.5\ngini = 0.047\nsamples = 83\nvalue = [81, 2]"] ;
683 -> 685 ;
686 [label="fnlwgt <= 211774.5\ngini = 0.0887\nsamples = 43\nvalue = [41, 2]"] ;
685 -> 686 ;
687 [label="gini = 0.1472\nsamples = 25\nvalue = [23, 2]"] ;
686 -> 687 ;
688 [label="gini = 0.0\nsamples = 18\nvalue = [18, 0]"] ;
686 -> 688 ;
689 [label="gini = 0.0\nsamples = 40\nvalue = [40, 0]"] ;
685 -> 689 ;
690 [label="occupation_Exec-managerial <= 0.5\ngini = 0.0713\nsamples = 27\nvalue = [26, 1]"] ;
676 -> 690 ;
691 [label="gini = 0.0\nsamples = 22\nvalue = [22, 0]"] ;
690 -> 691 ;
692 [label="fnlwgt <= 163012.0\ngini = 0.32\nsamples = 5\nvalue = [4, 1]"] ;
690 -> 692 ;
693 [label="gini = 0.0\nsamples = 1\nvalue = [0, 1]"] ;
692 -> 693 ;
694 [label="gini = 0.0\nsamples = 4\nvalue = [4, 0]"] ;
692 -> 694 ;
695 [label="fnlwgt <= 345340.0\ngini = 0.0494\nsamples = 79\nvalue = [77, 2]"] ;
675 -> 695 ;
696 [label="relationship_Own-child <= 0.5\ngini = 0.0263\nsamples = 75\nvalue = [74, 1]"] ;
695 -> 696 ;
697 [label="gini = 0.0\nsamples = 50\nvalue = [50, 0]"] ;
696 -> 697 ;
698 [label="fnlwgt <= 188084.5\ngini = 0.0768\nsamples = 25\nvalue = [24, 1]"] ;
696 -> 698 ;
699 [label="fnlwgt <= 182947.5\ngini = 0.1653\nsamples = 11\nvalue = [10, 1]"] ;
698 -> 699 ;
700 [label="gini = 0.0\nsamples = 10\nvalue = [10, 0]"] ;
699 -> 700 ;
701 [label="gini = 0.0\nsamples = 1\nvalue = [0, 1]"] ;
699 -> 701 ;
702 [label="gini = 0.0\nsamples = 14\nvalue = [14, 0]"] ;
698 -> 702 ;
703 [label="fnlwgt <= 373063.0\ngini = 0.375\nsamples = 4\nvalue = [3, 1]"] ;
695 -> 703 ;
704 [label="gini = 0.0\nsamples = 1\nvalue = [0, 1]"] ;
703 -> 704 ;
705 [label="gini = 0.0\nsamples = 3\nvalue = [3, 0]"] ;
703 -> 705 ;
706 [label="capital-loss <= 1577.0\ngini = 0.1244\nsamples = 15\nvalue = [14, 1]"] ;
674 -> 706 ;
707 [label="gini = 0.0\nsamples = 1\nvalue = [0, 1]"] ;
706 -> 707 ;
708 [label="gini = 0.0\nsamples = 14\nvalue = [14, 0]"] ;
706 -> 708 ;
709 [label="native-country_Philippines <= 0.5\ngini = 0.32\nsamples = 5\nvalue = [4, 1]"] ;
665 -> 709 ;
710 [label="gini = 0.0\nsamples = 4\nvalue = [4, 0]"] ;
709 -> 710 ;
711 [label="gini = 0.0\nsamples = 1\nvalue = [0, 1]"] ;
709 -> 711 ;
712 [label="sex_Male <= 0.5\ngini = 0.1073\nsamples = 246\nvalue = [232, 14]"] ;
664 -> 712 ;
713 [label="occupation_Tech-support <= 0.5\ngini = 0.0161\nsamples = 123\nvalue = [122, 1]"] ;
712 -> 713 ;
714 [label="gini = 0.0\nsamples = 115\nvalue = [115, 0]"] ;
713 -> 714 ;
715 [label="fnlwgt <= 171021.5\ngini = 0.2188\nsamples = 8\nvalue = [7, 1]"] ;
713 -> 715 ;
716 [label="age <= 31.0\ngini = 0.5\nsamples = 2\nvalue = [1, 1]"] ;
715 -> 716 ;
717 [label="gini = 0.0\nsamples = 1\nvalue = [0, 1]"] ;
716 -> 717 ;
718 [label="gini = 0.0\nsamples = 1\nvalue = [1, 0]"] ;
716 -> 718 ;
719 [label="gini = 0.0\nsamples = 6\nvalue = [6, 0]"] ;
715 -> 719 ;
720 [label="occupation_Sales <= 0.5\ngini = 0.189\nsamples = 123\nvalue = [110, 13]"] ;
712 -> 720 ;
721 [label="education-num <= 14.5\ngini = 0.1515\nsamples = 109\nvalue = [100, 9]"] ;
720 -> 721 ;
722 [label="fnlwgt <= 138993.5\ngini = 0.1128\nsamples = 100\nvalue = [94, 6]"] ;
721 -> 722 ;
723 [label="fnlwgt <= 134457.0\ngini = 0.213\nsamples = 33\nvalue = [29, 4]"] ;
722 -> 723 ;
724 [label="workclass_Federal-gov <= 0.5\ngini = 0.1699\nsamples = 32\nvalue = [29, 3]"] ;
723 -> 724 ;
725 [label="age <= 31.5\ngini = 0.1244\nsamples = 30\nvalue = [28, 2]"] ;
724 -> 725 ;
726 [label="gini = 0.0\nsamples = 17\nvalue = [17, 0]"] ;
725 -> 726 ;
727 [label="fnlwgt <= 90161.0\ngini = 0.2604\nsamples = 13\nvalue = [11, 2]"] ;
725 -> 727 ;
728 [label="gini = 0.0\nsamples = 6\nvalue = [6, 0]"] ;
727 -> 728 ;
729 [label="fnlwgt <= 104050.0\ngini = 0.4082\nsamples = 7\nvalue = [5, 2]"] ;
727 -> 729 ;
730 [label="gini = 0.0\nsamples = 1\nvalue = [0, 1]"] ;
729 -> 730 ;
731 [label="gini = 0.2778\nsamples = 6\nvalue = [5, 1]"] ;
729 -> 731 ;
732 [label="relationship_Own-child <= 0.5\ngini = 0.5\nsamples = 2\nvalue = [1, 1]"] ;
724 -> 732 ;
733 [label="gini = 0.0\nsamples = 1\nvalue = [0, 1]"] ;
732 -> 733 ;
734 [label="gini = 0.0\nsamples = 1\nvalue = [1, 0]"] ;
732 -> 734 ;
735 [label="gini = 0.0\nsamples = 1\nvalue = [0, 1]"] ;
723 -> 735 ;
736 [label="marital-status_Divorced <= 0.5\ngini = 0.0579\nsamples = 67\nvalue = [65, 2]"] ;
722 -> 736 ;
737 [label="capital-loss <= 1486.0\ngini = 0.0298\nsamples = 66\nvalue = [65, 1]"] ;
736 -> 737 ;
738 [label="gini = 0.0\nsamples = 62\nvalue = [62, 0]"] ;
737 -> 738 ;
739 [label="capital-loss <= 1652.5\ngini = 0.375\nsamples = 4\nvalue = [3, 1]"] ;
737 -> 739 ;
740 [label="gini = 0.0\nsamples = 1\nvalue = [0, 1]"] ;
739 -> 740 ;
741 [label="gini = 0.0\nsamples = 3\nvalue = [3, 0]"] ;
739 -> 741 ;
742 [label="gini = 0.0\nsamples = 1\nvalue = [0, 1]"] ;
736 -> 742 ;
743 [label="age <= 31.5\ngini = 0.4444\nsamples = 9\nvalue = [6, 3]"] ;
721 -> 743 ;
744 [label="gini = 0.0\nsamples = 5\nvalue = [5, 0]"] ;
743 -> 744 ;
745 [label="age <= 32.5\ngini = 0.375\nsamples = 4\nvalue = [1, 3]"] ;
743 -> 745 ;
746 [label="education-num <= 15.5\ngini = 0.5\nsamples = 2\nvalue = [1, 1]"] ;
745 -> 746 ;
747 [label="gini = 0.0\nsamples = 1\nvalue = [1, 0]"] ;
746 -> 747 ;
748 [label="gini = 0.0\nsamples = 1\nvalue = [0, 1]"] ;
746 -> 748 ;
749 [label="gini = 0.0\nsamples = 2\nvalue = [0, 2]"] ;
745 -> 749 ;
750 [label="relationship_Not-in-family <= 0.5\ngini = 0.4082\nsamples = 14\nvalue = [10, 4]"] ;
720 -> 750 ;
751 [label="gini = 0.0\nsamples = 5\nvalue = [5, 0]"] ;
750 -> 751 ;
752 [label="fnlwgt <= 184522.5\ngini = 0.4938\nsamples = 9\nvalue = [5, 4]"] ;
750 -> 752 ;
753 [label="gini = 0.0\nsamples = 3\nvalue = [0, 3]"] ;
752 -> 753 ;
754 [label="capital-loss <= 782.0\ngini = 0.2778\nsamples = 6\nvalue = [5, 1]"] ;
752 -> 754 ;
755 [label="gini = 0.0\nsamples = 5\nvalue = [5, 0]"] ;
754 -> 755 ;
756 [label="gini = 0.0\nsamples = 1\nvalue = [0, 1]"] ;
754 -> 756 ;
757 [label="capital-loss <= 2298.5\ngini = 0.5\nsamples = 4\nvalue = [2, 2]"] ;
663 -> 757 ;
758 [label="gini = 0.0\nsamples = 2\nvalue = [0, 2]"] ;
757 -> 758 ;
759 [label="gini = 0.0\nsamples = 2\nvalue = [2, 0]"] ;
757 -> 759 ;
760 [label="gini = 0.0\nsamples = 2\nvalue = [0, 2]"] ;
662 -> 760 ;
761 [label="capital-loss <= 2365.5\ngini = 0.2635\nsamples = 1121\nvalue = [946, 175]"] ;
661 -> 761 ;
762 [label="education-num <= 14.5\ngini = 0.2529\nsamples = 1111\nvalue = [946, 165]"] ;
761 -> 762 ;
763 [label="capital-gain <= 4668.5\ngini = 0.2246\nsamples = 1024\nvalue = [892, 132]"] ;
762 -> 763 ;
764 [label="age <= 46.5\ngini = 0.216\nsamples = 1007\nvalue = [883, 124]"] ;
763 -> 764 ;
765 [label="native-country_Taiwan <= 0.5\ngini = 0.1665\nsamples = 633\nvalue = [575, 58]"] ;
764 -> 765 ;
766 [label="relationship_Not-in-family <= 0.5\ngini = 0.1641\nsamples = 632\nvalue = [575, 57]"] ;
765 -> 766 ;
767 [label="occupation_Sales <= 0.5\ngini = 0.0915\nsamples = 229\nvalue = [218, 11]"] ;
766 -> 767 ;
768 [label="marital-status_Widowed <= 0.5\ngini = 0.0465\nsamples = 210\nvalue = [205, 5]"] ;
767 -> 768 ;
769 [label="native-country_Philippines <= 0.5\ngini = 0.03\nsamples = 197\nvalue = [194, 3]"] ;
768 -> 769 ;
770 [label="fnlwgt <= 408540.5\ngini = 0.0205\nsamples = 193\nvalue = [191, 2]"] ;
769 -> 770 ;
771 [label="age <= 34.5\ngini = 0.0106\nsamples = 188\nvalue = [187, 1]"] ;
770 -> 771 ;
772 [label="marital-status_Divorced <= 0.5\ngini = 0.095\nsamples = 20\nvalue = [19, 1]"] ;
771 -> 772 ;
773 [label="gini = 0.0\nsamples = 15\nvalue = [15, 0]"] ;
772 -> 773 ;
774 [label="gini = 0.32\nsamples = 5\nvalue = [4, 1]"] ;
772 -> 774 ;
775 [label="gini = 0.0\nsamples = 168\nvalue = [168, 0]"] ;
771 -> 775 ;
776 [label="fnlwgt <= 445001.0\ngini = 0.32\nsamples = 5\nvalue = [4, 1]"] ;
770 -> 776 ;
777 [label="gini = 0.0\nsamples = 1\nvalue = [0, 1]"] ;
776 -> 777 ;
778 [label="gini = 0.0\nsamples = 4\nvalue = [4, 0]"] ;
776 -> 778 ;
779 [label="occupation_Prof-specialty <= 0.5\ngini = 0.375\nsamples = 4\nvalue = [3, 1]"] ;
769 -> 779 ;
780 [label="gini = 0.0\nsamples = 3\nvalue = [3, 0]"] ;
779 -> 780 ;
781 [label="gini = 0.0\nsamples = 1\nvalue = [0, 1]"] ;
779 -> 781 ;
782 [label="age <= 35.5\ngini = 0.2604\nsamples = 13\nvalue = [11, 2]"] ;
768 -> 782 ;
783 [label="gini = 0.0\nsamples = 1\nvalue = [0, 1]"] ;
782 -> 783 ;
784 [label="workclass_Federal-gov <= 0.5\ngini = 0.1528\nsamples = 12\nvalue = [11, 1]"] ;
782 -> 784 ;
785 [label="gini = 0.0\nsamples = 11\nvalue = [11, 0]"] ;
784 -> 785 ;
786 [label="gini = 0.0\nsamples = 1\nvalue = [0, 1]"] ;
784 -> 786 ;
787 [label="age <= 45.0\ngini = 0.4321\nsamples = 19\nvalue = [13, 6]"] ;
767 -> 787 ;
788 [label="fnlwgt <= 310021.5\ngini = 0.3599\nsamples = 17\nvalue = [13, 4]"] ;
787 -> 788 ;
789 [label="age <= 42.5\ngini = 0.2449\nsamples = 14\nvalue = [12, 2]"] ;
788 -> 789 ;
790 [label="age <= 34.5\ngini = 0.1528\nsamples = 12\nvalue = [11, 1]"] ;
789 -> 790 ;
791 [label="sex_Male <= 0.5\ngini = 0.4444\nsamples = 3\nvalue = [2, 1]"] ;
790 -> 791 ;
792 [label="gini = 0.0\nsamples = 2\nvalue = [2, 0]"] ;
791 -> 792 ;
793 [label="gini = 0.0\nsamples = 1\nvalue = [0, 1]"] ;
791 -> 793 ;
794 [label="gini = 0.0\nsamples = 9\nvalue = [9, 0]"] ;
790 -> 794 ;
795 [label="race_White <= 0.5\ngini = 0.5\nsamples = 2\nvalue = [1, 1]"] ;
789 -> 795 ;
796 [label="gini = 0.0\nsamples = 1\nvalue = [0, 1]"] ;
795 -> 796 ;
797 [label="gini = 0.0\nsamples = 1\nvalue = [1, 0]"] ;
795 -> 797 ;
798 [label="fnlwgt <= 572438.0\ngini = 0.4444\nsamples = 3\nvalue = [1, 2]"] ;
788 -> 798 ;
799 [label="gini = 0.0\nsamples = 2\nvalue = [0, 2]"] ;
798 -> 799 ;
800 [label="gini = 0.0\nsamples = 1\nvalue = [1, 0]"] ;
798 -> 800 ;
801 [label="gini = 0.0\nsamples = 2\nvalue = [0, 2]"] ;
787 -> 801 ;
802 [label="hours-per-week <= 37.5\ngini = 0.2022\nsamples = 403\nvalue = [357, 46]"] ;
766 -> 802 ;
803 [label="occupation_Tech-support <= 0.5\ngini = 0.0217\nsamples = 91\nvalue = [90, 1]"] ;
802 -> 803 ;
804 [label="gini = 0.0\nsamples = 86\nvalue = [86, 0]"] ;
803 -> 804 ;
805 [label="age <= 45.0\ngini = 0.32\nsamples = 5\nvalue = [4, 1]"] ;
803 -> 805 ;
806 [label="gini = 0.0\nsamples = 4\nvalue = [4, 0]"] ;
805 -> 806 ;
807 [label="gini = 0.0\nsamples = 1\nvalue = [0, 1]"] ;
805 -> 807 ;
808 [label="occupation_Exec-managerial <= 0.5\ngini = 0.2469\nsamples = 312\nvalue = [267, 45]"] ;
802 -> 808 ;
809 [label="occupation_Prof-specialty <= 0.5\ngini = 0.2076\nsamples = 255\nvalue = [225, 30]"] ;
808 -> 809 ;
810 [label="native-country_Mexico <= 0.5\ngini = 0.1244\nsamples = 120\nvalue = [112, 8]"] ;
809 -> 810 ;
811 [label="marital-status_Widowed <= 0.5\ngini = 0.1116\nsamples = 118\nvalue = [111, 7]"] ;
810 -> 811 ;
812 [label="age <= 42.5\ngini = 0.0981\nsamples = 116\nvalue = [110, 6]"] ;
811 -> 812 ;
813 [label="gini = 0.0244\nsamples = 81\nvalue = [80, 1]"] ;
812 -> 813 ;
814 [label="gini = 0.2449\nsamples = 35\nvalue = [30, 5]"] ;
812 -> 814 ;
815 [label="workclass_Local-gov <= 0.5\ngini = 0.5\nsamples = 2\nvalue = [1, 1]"] ;
811 -> 815 ;
816 [label="gini = 0.0\nsamples = 1\nvalue = [0, 1]"] ;
815 -> 816 ;
817 [label="gini = 0.0\nsamples = 1\nvalue = [1, 0]"] ;
815 -> 817 ;
818 [label="age <= 39.5\ngini = 0.5\nsamples = 2\nvalue = [1, 1]"] ;
810 -> 818 ;
819 [label="gini = 0.0\nsamples = 1\nvalue = [0, 1]"] ;
818 -> 819 ;
820 [label="gini = 0.0\nsamples = 1\nvalue = [1, 0]"] ;
818 -> 820 ;
821 [label="workclass_Private <= 0.5\ngini = 0.2728\nsamples = 135\nvalue = [113, 22]"] ;
809 -> 821 ;
822 [label="workclass_Self-emp-not-inc <= 0.5\ngini = 0.1362\nsamples = 68\nvalue = [63, 5]"] ;
821 -> 822 ;
823 [label="fnlwgt <= 144328.0\ngini = 0.0907\nsamples = 63\nvalue = [60, 3]"] ;
822 -> 823 ;
824 [label="gini = 0.0\nsamples = 30\nvalue = [30, 0]"] ;
823 -> 824 ;
825 [label="gini = 0.1653\nsamples = 33\nvalue = [30, 3]"] ;
823 -> 825 ;
826 [label="age <= 38.5\ngini = 0.48\nsamples = 5\nvalue = [3, 2]"] ;
822 -> 826 ;
827 [label="gini = 0.0\nsamples = 2\nvalue = [0, 2]"] ;
826 -> 827 ;
828 [label="gini = 0.0\nsamples = 3\nvalue = [3, 0]"] ;
826 -> 828 ;
829 [label="hours-per-week <= 39.0\ngini = 0.3787\nsamples = 67\nvalue = [50, 17]"] ;
821 -> 829 ;
830 [label="gini = 0.0\nsamples = 2\nvalue = [0, 2]"] ;
829 -> 830 ;
831 [label="native-country_? <= 0.5\ngini = 0.355\nsamples = 65\nvalue = [50, 15]"] ;
829 -> 831 ;
832 [label="gini = 0.3314\nsamples = 62\nvalue = [49, 13]"] ;
831 -> 832 ;
833 [label="gini = 0.4444\nsamples = 3\nvalue = [1, 2]"] ;
831 -> 833 ;
834 [label="education_Bachelors <= 0.5\ngini = 0.3878\nsamples = 57\nvalue = [42, 15]"] ;
808 -> 834 ;
835 [label="workclass_Private <= 0.5\ngini = 0.4983\nsamples = 17\nvalue = [9, 8]"] ;
834 -> 835 ;
836 [label="workclass_Federal-gov <= 0.5\ngini = 0.32\nsamples = 5\nvalue = [4, 1]"] ;
835 -> 836 ;
837 [label="gini = 0.0\nsamples = 4\nvalue = [4, 0]"] ;
836 -> 837 ;
838 [label="gini = 0.0\nsamples = 1\nvalue = [0, 1]"] ;
836 -> 838 ;
839 [label="fnlwgt <= 184648.0\ngini = 0.4861\nsamples = 12\nvalue = [5, 7]"] ;
835 -> 839 ;
840 [label="capital-loss <= 987.0\ngini = 0.2778\nsamples = 6\nvalue = [1, 5]"] ;
839 -> 840 ;
841 [label="gini = 0.0\nsamples = 5\nvalue = [0, 5]"] ;
840 -> 841 ;
842 [label="gini = 0.0\nsamples = 1\nvalue = [1, 0]"] ;
840 -> 842 ;
843 [label="sex_Female <= 0.5\ngini = 0.4444\nsamples = 6\nvalue = [4, 2]"] ;
839 -> 843 ;
844 [label="gini = 0.0\nsamples = 3\nvalue = [3, 0]"] ;
843 -> 844 ;
845 [label="gini = 0.4444\nsamples = 3\nvalue = [1, 2]"] ;
843 -> 845 ;
846 [label="age <= 39.5\ngini = 0.2887\nsamples = 40\nvalue = [33, 7]"] ;
834 -> 846 ;
847 [label="fnlwgt <= 254082.5\ngini = 0.0868\nsamples = 22\nvalue = [21, 1]"] ;
846 -> 847 ;
848 [label="gini = 0.0\nsamples = 17\nvalue = [17, 0]"] ;
847 -> 848 ;
849 [label="fnlwgt <= 257296.0\ngini = 0.32\nsamples = 5\nvalue = [4, 1]"] ;
847 -> 849 ;
850 [label="gini = 0.0\nsamples = 1\nvalue = [0, 1]"] ;
849 -> 850 ;
851 [label="gini = 0.0\nsamples = 4\nvalue = [4, 0]"] ;
849 -> 851 ;
852 [label="sex_Male <= 0.5\ngini = 0.4444\nsamples = 18\nvalue = [12, 6]"] ;
846 -> 852 ;
853 [label="race_Black <= 0.5\ngini = 0.1975\nsamples = 9\nvalue = [8, 1]"] ;
852 -> 853 ;
854 [label="gini = 0.0\nsamples = 7\nvalue = [7, 0]"] ;
853 -> 854 ;
855 [label="gini = 0.5\nsamples = 2\nvalue = [1, 1]"] ;
853 -> 855 ;
856 [label="fnlwgt <= 202621.5\ngini = 0.4938\nsamples = 9\nvalue = [4, 5]"] ;
852 -> 856 ;
857 [label="gini = 0.4444\nsamples = 6\nvalue = [4, 2]"] ;
856 -> 857 ;
858 [label="gini = 0.0\nsamples = 3\nvalue = [0, 3]"] ;
856 -> 858 ;
859 [label="gini = 0.0\nsamples = 1\nvalue = [0, 1]"] ;
765 -> 859 ;
860 [label="hours-per-week <= 31.0\ngini = 0.2907\nsamples = 374\nvalue = [308, 66]"] ;
764 -> 860 ;
861 [label="race_Asian-Pac-Islander <= 0.5\ngini = 0.0907\nsamples = 84\nvalue = [80, 4]"] ;
860 -> 861 ;
862 [label="marital-status_Married-spouse-absent <= 0.5\ngini = 0.0697\nsamples = 83\nvalue = [80, 3]"] ;
861 -> 862 ;
863 [label="occupation_Adm-clerical <= 0.5\ngini = 0.0487\nsamples = 80\nvalue = [78, 2]"] ;
862 -> 863 ;
864 [label="fnlwgt <= 43926.5\ngini = 0.026\nsamples = 76\nvalue = [75, 1]"] ;
863 -> 864 ;
865 [label="fnlwgt <= 38785.0\ngini = 0.2449\nsamples = 7\nvalue = [6, 1]"] ;
864 -> 865 ;
866 [label="gini = 0.0\nsamples = 6\nvalue = [6, 0]"] ;
865 -> 866 ;
867 [label="gini = 0.0\nsamples = 1\nvalue = [0, 1]"] ;
865 -> 867 ;
868 [label="gini = 0.0\nsamples = 69\nvalue = [69, 0]"] ;
864 -> 868 ;
869 [label="education-num <= 13.5\ngini = 0.375\nsamples = 4\nvalue = [3, 1]"] ;
863 -> 869 ;
870 [label="gini = 0.0\nsamples = 3\nvalue = [3, 0]"] ;
869 -> 870 ;
871 [label="gini = 0.0\nsamples = 1\nvalue = [0, 1]"] ;
869 -> 871 ;
872 [label="relationship_Not-in-family <= 0.5\ngini = 0.4444\nsamples = 3\nvalue = [2, 1]"] ;
862 -> 872 ;
873 [label="gini = 0.0\nsamples = 2\nvalue = [2, 0]"] ;
872 -> 873 ;
874 [label="gini = 0.0\nsamples = 1\nvalue = [0, 1]"] ;
872 -> 874 ;
875 [label="gini = 0.0\nsamples = 1\nvalue = [0, 1]"] ;
861 -> 875 ;
876 [label="age <= 48.5\ngini = 0.3362\nsamples = 290\nvalue = [228, 62]"] ;
860 -> 876 ;
877 [label="fnlwgt <= 104358.5\ngini = 0.4352\nsamples = 50\nvalue = [34, 16]"] ;
876 -> 877 ;
878 [label="fnlwgt <= 64128.5\ngini = 0.2449\nsamples = 14\nvalue = [12, 2]"] ;
877 -> 878 ;
879 [label="sex_Male <= 0.5\ngini = 0.4444\nsamples = 3\nvalue = [1, 2]"] ;
878 -> 879 ;
880 [label="gini = 0.0\nsamples = 1\nvalue = [1, 0]"] ;
879 -> 880 ;
881 [label="gini = 0.0\nsamples = 2\nvalue = [0, 2]"] ;
879 -> 881 ;
882 [label="gini = 0.0\nsamples = 11\nvalue = [11, 0]"] ;
878 -> 882 ;
883 [label="occupation_Sales <= 0.5\ngini = 0.4753\nsamples = 36\nvalue = [22, 14]"] ;
877 -> 883 ;
884 [label="occupation_Exec-managerial <= 0.5\ngini = 0.4444\nsamples = 33\nvalue = [22, 11]"] ;
883 -> 884 ;
885 [label="hours-per-week <= 39.0\ngini = 0.355\nsamples = 26\nvalue = [20, 6]"] ;
884 -> 885 ;
886 [label="age <= 47.5\ngini = 0.4444\nsamples = 6\nvalue = [2, 4]"] ;
885 -> 886 ;
887 [label="workclass_Local-gov <= 0.5\ngini = 0.4444\nsamples = 3\nvalue = [2, 1]"] ;
886 -> 887 ;
888 [label="gini = 0.0\nsamples = 2\nvalue = [2, 0]"] ;
887 -> 888 ;
889 [label="gini = 0.0\nsamples = 1\nvalue = [0, 1]"] ;
887 -> 889 ;
890 [label="gini = 0.0\nsamples = 3\nvalue = [0, 3]"] ;
886 -> 890 ;
891 [label="workclass_State-gov <= 0.5\ngini = 0.18\nsamples = 20\nvalue = [18, 2]"] ;
885 -> 891 ;
892 [label="fnlwgt <= 146121.5\ngini = 0.1049\nsamples = 18\nvalue = [17, 1]"] ;
891 -> 892 ;
893 [label="gini = 0.4444\nsamples = 3\nvalue = [2, 1]"] ;
892 -> 893 ;
894 [label="gini = 0.0\nsamples = 15\nvalue = [15, 0]"] ;
892 -> 894 ;
895 [label="relationship_Not-in-family <= 0.5\ngini = 0.5\nsamples = 2\nvalue = [1, 1]"] ;
891 -> 895 ;
896 [label="gini = 0.0\nsamples = 1\nvalue = [1, 0]"] ;
895 -> 896 ;
897 [label="gini = 0.0\nsamples = 1\nvalue = [0, 1]"] ;
895 -> 897 ;
898 [label="relationship_Other-relative <= 0.5\ngini = 0.4082\nsamples = 7\nvalue = [2, 5]"] ;
884 -> 898 ;
899 [label="marital-status_Never-married <= 0.5\ngini = 0.2778\nsamples = 6\nvalue = [1, 5]"] ;
898 -> 899 ;
900 [label="gini = 0.0\nsamples = 5\nvalue = [0, 5]"] ;
899 -> 900 ;
901 [label="gini = 0.0\nsamples = 1\nvalue = [1, 0]"] ;
899 -> 901 ;
902 [label="gini = 0.0\nsamples = 1\nvalue = [1, 0]"] ;
898 -> 902 ;
903 [label="gini = 0.0\nsamples = 3\nvalue = [0, 3]"] ;
883 -> 903 ;
904 [label="workclass_Local-gov <= 0.5\ngini = 0.3099\nsamples = 240\nvalue = [194, 46]"] ;
876 -> 904 ;
905 [label="hours-per-week <= 39.5\ngini = 0.2743\nsamples = 195\nvalue = [163, 32]"] ;
904 -> 905 ;
906 [label="age <= 67.5\ngini = 0.0588\nsamples = 33\nvalue = [32, 1]"] ;
905 -> 906 ;
907 [label="gini = 0.0\nsamples = 30\nvalue = [30, 0]"] ;
906 -> 907 ;
908 [label="occupation_Sales <= 0.5\ngini = 0.4444\nsamples = 3\nvalue = [2, 1]"] ;
906 -> 908 ;
909 [label="gini = 0.0\nsamples = 2\nvalue = [2, 0]"] ;
908 -> 909 ;
910 [label="gini = 0.0\nsamples = 1\nvalue = [0, 1]"] ;
908 -> 910 ;
911 [label="race_White <= 0.5\ngini = 0.3095\nsamples = 162\nvalue = [131, 31]"] ;
905 -> 911 ;
912 [label="workclass_State-gov <= 0.5\ngini = 0.0768\nsamples = 25\nvalue = [24, 1]"] ;
911 -> 912 ;
913 [label="gini = 0.0\nsamples = 20\nvalue = [20, 0]"] ;
912 -> 913 ;
914 [label="fnlwgt <= 127374.5\ngini = 0.32\nsamples = 5\nvalue = [4, 1]"] ;
912 -> 914 ;
915 [label="gini = 0.0\nsamples = 1\nvalue = [0, 1]"] ;
914 -> 915 ;
916 [label="gini = 0.0\nsamples = 4\nvalue = [4, 0]"] ;
914 -> 916 ;
917 [label="education_Masters <= 0.5\ngini = 0.3421\nsamples = 137\nvalue = [107, 30]"] ;
911 -> 917 ;
918 [label="capital-loss <= 1452.0\ngini = 0.2825\nsamples = 94\nvalue = [78, 16]"] ;
917 -> 918 ;
919 [label="native-country_Hungary <= 0.5\ngini = 0.2495\nsamples = 89\nvalue = [76, 13]"] ;
918 -> 919 ;
920 [label="gini = 0.2355\nsamples = 88\nvalue = [76, 12]"] ;
919 -> 920 ;
921 [label="gini = 0.0\nsamples = 1\nvalue = [0, 1]"] ;
919 -> 921 ;
922 [label="workclass_Private <= 0.5\ngini = 0.48\nsamples = 5\nvalue = [2, 3]"] ;
918 -> 922 ;
923 [label="gini = 0.0\nsamples = 2\nvalue = [2, 0]"] ;
922 -> 923 ;
924 [label="gini = 0.0\nsamples = 3\nvalue = [0, 3]"] ;
922 -> 924 ;
925 [label="fnlwgt <= 174180.0\ngini = 0.4392\nsamples = 43\nvalue = [29, 14]"] ;
917 -> 925 ;
926 [label="workclass_? <= 0.5\ngini = 0.4965\nsamples = 24\nvalue = [13, 11]"] ;
925 -> 926 ;
927 [label="gini = 0.495\nsamples = 20\nvalue = [9, 11]"] ;
926 -> 927 ;
928 [label="gini = 0.0\nsamples = 4\nvalue = [4, 0]"] ;
926 -> 928 ;
929 [label="fnlwgt <= 334511.5\ngini = 0.2659\nsamples = 19\nvalue = [16, 3]"] ;
925 -> 929 ;
930 [label="gini = 0.1107\nsamples = 17\nvalue = [16, 1]"] ;
929 -> 930 ;
931 [label="gini = 0.0\nsamples = 2\nvalue = [0, 2]"] ;
929 -> 931 ;
932 [label="hours-per-week <= 33.5\ngini = 0.4286\nsamples = 45\nvalue = [31, 14]"] ;
904 -> 932 ;
933 [label="gini = 0.0\nsamples = 2\nvalue = [0, 2]"] ;
932 -> 933 ;
934 [label="age <= 50.5\ngini = 0.4024\nsamples = 43\nvalue = [31, 12]"] ;
932 -> 934 ;
935 [label="age <= 49.5\ngini = 0.5\nsamples = 10\nvalue = [5, 5]"] ;
934 -> 935 ;
936 [label="fnlwgt <= 111723.0\ngini = 0.2778\nsamples = 6\nvalue = [5, 1]"] ;
935 -> 936 ;
937 [label="gini = 0.0\nsamples = 1\nvalue = [0, 1]"] ;
936 -> 937 ;
938 [label="gini = 0.0\nsamples = 5\nvalue = [5, 0]"] ;
936 -> 938 ;
939 [label="gini = 0.0\nsamples = 4\nvalue = [0, 4]"] ;
935 -> 939 ;
940 [label="fnlwgt <= 42423.0\ngini = 0.3343\nsamples = 33\nvalue = [26, 7]"] ;
934 -> 940 ;
941 [label="gini = 0.0\nsamples = 1\nvalue = [0, 1]"] ;
940 -> 941 ;
942 [label="education_Masters <= 0.5\ngini = 0.3047\nsamples = 32\nvalue = [26, 6]"] ;
940 -> 942 ;
943 [label="gini = 0.0\nsamples = 11\nvalue = [11, 0]"] ;
942 -> 943 ;
944 [label="fnlwgt <= 145329.0\ngini = 0.4082\nsamples = 21\nvalue = [15, 6]"] ;
942 -> 944 ;
945 [label="gini = 0.0\nsamples = 4\nvalue = [4, 0]"] ;
944 -> 945 ;
946 [label="gini = 0.4567\nsamples = 17\nvalue = [11, 6]"] ;
944 -> 946 ;
947 [label="capital-gain <= 5194.5\ngini = 0.4983\nsamples = 17\nvalue = [9, 8]"] ;
763 -> 947 ;
948 [label="gini = 0.0\nsamples = 8\nvalue = [0, 8]"] ;
947 -> 948 ;
949 [label="gini = 0.0\nsamples = 9\nvalue = [9, 0]"] ;
947 -> 949 ;
950 [label="sex_Male <= 0.5\ngini = 0.4709\nsamples = 87\nvalue = [54, 33]"] ;
762 -> 950 ;
951 [label="workclass_Federal-gov <= 0.5\ngini = 0.3482\nsamples = 49\nvalue = [38, 11]"] ;
950 -> 951 ;
952 [label="workclass_State-gov <= 0.5\ngini = 0.3096\nsamples = 47\nvalue = [38, 9]"] ;
951 -> 952 ;
953 [label="occupation_Machine-op-inspct <= 0.5\ngini = 0.1567\nsamples = 35\nvalue = [32, 3]"] ;
952 -> 953 ;
954 [label="age <= 44.5\ngini = 0.1107\nsamples = 34\nvalue = [32, 2]"] ;
953 -> 954 ;
955 [label="age <= 41.5\ngini = 0.2449\nsamples = 14\nvalue = [12, 2]"] ;
954 -> 955 ;
956 [label="gini = 0.0\nsamples = 8\nvalue = [8, 0]"] ;
955 -> 956 ;
957 [label="education_Doctorate <= 0.5\ngini = 0.4444\nsamples = 6\nvalue = [4, 2]"] ;
955 -> 957 ;
958 [label="workclass_Local-gov <= 0.5\ngini = 0.4444\nsamples = 3\nvalue = [1, 2]"] ;
957 -> 958 ;
959 [label="gini = 0.0\nsamples = 2\nvalue = [0, 2]"] ;
958 -> 959 ;
960 [label="gini = 0.0\nsamples = 1\nvalue = [1, 0]"] ;
958 -> 960 ;
961 [label="gini = 0.0\nsamples = 3\nvalue = [3, 0]"] ;
957 -> 961 ;
962 [label="gini = 0.0\nsamples = 20\nvalue = [20, 0]"] ;
954 -> 962 ;
963 [label="gini = 0.0\nsamples = 1\nvalue = [0, 1]"] ;
953 -> 963 ;
964 [label="education-num <= 15.5\ngini = 0.5\nsamples = 12\nvalue = [6, 6]"] ;
952 -> 964 ;
965 [label="gini = 0.0\nsamples = 4\nvalue = [4, 0]"] ;
964 -> 965 ;
966 [label="race_White <= 0.5\ngini = 0.375\nsamples = 8\nvalue = [2, 6]"] ;
964 -> 966 ;
967 [label="gini = 0.0\nsamples = 1\nvalue = [1, 0]"] ;
966 -> 967 ;
968 [label="fnlwgt <= 342011.5\ngini = 0.2449\nsamples = 7\nvalue = [1, 6]"] ;
966 -> 968 ;
969 [label="gini = 0.0\nsamples = 6\nvalue = [0, 6]"] ;
968 -> 969 ;
970 [label="gini = 0.0\nsamples = 1\nvalue = [1, 0]"] ;
968 -> 970 ;
971 [label="gini = 0.0\nsamples = 2\nvalue = [0, 2]"] ;
951 -> 971 ;
972 [label="marital-status_Divorced <= 0.5\ngini = 0.4875\nsamples = 38\nvalue = [16, 22]"] ;
950 -> 972 ;
973 [label="fnlwgt <= 93895.5\ngini = 0.42\nsamples = 30\nvalue = [9, 21]"] ;
972 -> 973 ;
974 [label="occupation_Exec-managerial <= 0.5\ngini = 0.32\nsamples = 5\nvalue = [4, 1]"] ;
973 -> 974 ;
975 [label="gini = 0.0\nsamples = 4\nvalue = [4, 0]"] ;
974 -> 975 ;
976 [label="gini = 0.0\nsamples = 1\nvalue = [0, 1]"] ;
974 -> 976 ;
977 [label="hours-per-week <= 16.5\ngini = 0.32\nsamples = 25\nvalue = [5, 20]"] ;
973 -> 977 ;
978 [label="gini = 0.0\nsamples = 2\nvalue = [2, 0]"] ;
977 -> 978 ;
979 [label="workclass_Local-gov <= 0.5\ngini = 0.2268\nsamples = 23\nvalue = [3, 20]"] ;
977 -> 979 ;
980 [label="native-country_England <= 0.5\ngini = 0.1653\nsamples = 22\nvalue = [2, 20]"] ;
979 -> 980 ;
981 [label="age <= 66.5\ngini = 0.0907\nsamples = 21\nvalue = [1, 20]"] ;
980 -> 981 ;
982 [label="gini = 0.0\nsamples = 19\nvalue = [0, 19]"] ;
981 -> 982 ;
983 [label="age <= 73.0\ngini = 0.5\nsamples = 2\nvalue = [1, 1]"] ;
981 -> 983 ;
984 [label="gini = 0.0\nsamples = 1\nvalue = [1, 0]"] ;
983 -> 984 ;
985 [label="gini = 0.0\nsamples = 1\nvalue = [0, 1]"] ;
983 -> 985 ;
986 [label="gini = 0.0\nsamples = 1\nvalue = [1, 0]"] ;
980 -> 986 ;
987 [label="gini = 0.0\nsamples = 1\nvalue = [1, 0]"] ;
979 -> 987 ;
988 [label="relationship_Unmarried <= 0.5\ngini = 0.2188\nsamples = 8\nvalue = [7, 1]"] ;
972 -> 988 ;
989 [label="gini = 0.0\nsamples = 7\nvalue = [7, 0]"] ;
988 -> 989 ;
990 [label="gini = 0.0\nsamples = 1\nvalue = [0, 1]"] ;
988 -> 990 ;
991 [label="gini = 0.0\nsamples = 10\nvalue = [0, 10]"] ;
761 -> 991 ;
992 [label="age <= 27.5\ngini = 0.3982\nsamples = 1108\nvalue = [804, 304]"] ;
660 -> 992 ;
993 [label="capital-loss <= 2116.0\ngini = 0.0736\nsamples = 209\nvalue = [201, 8]"] ;
992 -> 993 ;
994 [label="hours-per-week <= 62.5\ngini = 0.0653\nsamples = 207\nvalue = [200, 7]"] ;
993 -> 994 ;
995 [label="workclass_Self-emp-inc <= 0.5\ngini = 0.0425\nsamples = 184\nvalue = [180, 4]"] ;
994 -> 995 ;
996 [label="occupation_Craft-repair <= 0.5\ngini = 0.0328\nsamples = 180\nvalue = [177, 3]"] ;
995 -> 996 ;
997 [label="hours-per-week <= 53.5\ngini = 0.0225\nsamples = 176\nvalue = [174, 2]"] ;
996 -> 997 ;
998 [label="gini = 0.0\nsamples = 135\nvalue = [135, 0]"] ;
997 -> 998 ;
999 [label="occupation_Tech-support <= 0.5\ngini = 0.0928\nsamples = 41\nvalue = [39, 2]"] ;
997 -> 999 ;
1000 [label="education-num <= 13.5\ngini = 0.0512\nsamples = 38\nvalue = [37, 1]"] ;
999 -> 1000 ;
1001 [label="gini = 0.0\nsamples = 33\nvalue = [33, 0]"] ;
1000 -> 1001 ;
1002 [label="age <= 25.5\ngini = 0.32\nsamples = 5\nvalue = [4, 1]"] ;
1000 -> 1002 ;
1003 [label="gini = 0.0\nsamples = 4\nvalue = [4, 0]"] ;
1002 -> 1003 ;
1004 [label="gini = 0.0\nsamples = 1\nvalue = [0, 1]"] ;
1002 -> 1004 ;
1005 [label="fnlwgt <= 181076.0\ngini = 0.4444\nsamples = 3\nvalue = [2, 1]"] ;
999 -> 1005 ;
1006 [label="gini = 0.0\nsamples = 2\nvalue = [2, 0]"] ;
1005 -> 1006 ;
1007 [label="gini = 0.0\nsamples = 1\nvalue = [0, 1]"] ;
1005 -> 1007 ;
1008 [label="age <= 26.5\ngini = 0.375\nsamples = 4\nvalue = [3, 1]"] ;
996 -> 1008 ;
1009 [label="gini = 0.0\nsamples = 1\nvalue = [0, 1]"] ;
1008 -> 1009 ;
1010 [label="gini = 0.0\nsamples = 3\nvalue = [3, 0]"] ;
1008 -> 1010 ;
1011 [label="hours-per-week <= 47.5\ngini = 0.375\nsamples = 4\nvalue = [3, 1]"] ;
995 -> 1011 ;
1012 [label="gini = 0.0\nsamples = 1\nvalue = [0, 1]"] ;
1011 -> 1012 ;
1013 [label="gini = 0.0\nsamples = 3\nvalue = [3, 0]"] ;
1011 -> 1013 ;
1014 [label="fnlwgt <= 78354.0\ngini = 0.2268\nsamples = 23\nvalue = [20, 3]"] ;
994 -> 1014 ;
1015 [label="gini = 0.0\nsamples = 1\nvalue = [0, 1]"] ;
1014 -> 1015 ;
1016 [label="occupation_Sales <= 0.5\ngini = 0.1653\nsamples = 22\nvalue = [20, 2]"] ;
1014 -> 1016 ;
1017 [label="occupation_Exec-managerial <= 0.5\ngini = 0.0997\nsamples = 19\nvalue = [18, 1]"] ;
1016 -> 1017 ;
1018 [label="gini = 0.0\nsamples = 15\nvalue = [15, 0]"] ;
1017 -> 1018 ;
1019 [label="fnlwgt <= 227228.0\ngini = 0.375\nsamples = 4\nvalue = [3, 1]"] ;
1017 -> 1019 ;
1020 [label="gini = 0.0\nsamples = 3\nvalue = [3, 0]"] ;
1019 -> 1020 ;
1021 [label="gini = 0.0\nsamples = 1\nvalue = [0, 1]"] ;
1019 -> 1021 ;
1022 [label="age <= 26.0\ngini = 0.4444\nsamples = 3\nvalue = [2, 1]"] ;
1016 -> 1022 ;
1023 [label="gini = 0.0\nsamples = 2\nvalue = [2, 0]"] ;
1022 -> 1023 ;
1024 [label="gini = 0.0\nsamples = 1\nvalue = [0, 1]"] ;
1022 -> 1024 ;
1025 [label="fnlwgt <= 223064.0\ngini = 0.5\nsamples = 2\nvalue = [1, 1]"] ;
993 -> 1025 ;
1026 [label="gini = 0.0\nsamples = 1\nvalue = [1, 0]"] ;
1025 -> 1026 ;
1027 [label="gini = 0.0\nsamples = 1\nvalue = [0, 1]"] ;
1025 -> 1027 ;
1028 [label="capital-loss <= 2391.5\ngini = 0.4417\nsamples = 899\nvalue = [603, 296]"] ;
992 -> 1028 ;
1029 [label="occupation_Exec-managerial <= 0.5\ngini = 0.4337\nsamples = 884\nvalue = [603, 281]"] ;
1028 -> 1029 ;
1030 [label="education-num <= 14.5\ngini = 0.3981\nsamples = 660\nvalue = [479, 181]"] ;
1029 -> 1030 ;
1031 [label="sex_Female <= 0.5\ngini = 0.3612\nsamples = 558\nvalue = [426, 132]"] ;
1030 -> 1031 ;
1032 [label="age <= 42.5\ngini = 0.4241\nsamples = 308\nvalue = [214, 94]"] ;
1031 -> 1032 ;
1033 [label="workclass_Private <= 0.5\ngini = 0.385\nsamples = 196\nvalue = [145, 51]"] ;
1032 -> 1033 ;
1034 [label="race_Black <= 0.5\ngini = 0.2809\nsamples = 71\nvalue = [59, 12]"] ;
1033 -> 1034 ;
1035 [label="fnlwgt <= 30280.5\ngini = 0.2386\nsamples = 65\nvalue = [56, 9]"] ;
1034 -> 1035 ;
1036 [label="gini = 0.0\nsamples = 1\nvalue = [0, 1]"] ;
1035 -> 1036 ;
1037 [label="marital-status_Married-AF-spouse <= 0.5\ngini = 0.2188\nsamples = 64\nvalue = [56, 8]"] ;
1035 -> 1037 ;
1038 [label="native-country_India <= 0.5\ngini = 0.1975\nsamples = 63\nvalue = [56, 7]"] ;
1037 -> 1038 ;
1039 [label="fnlwgt <= 390353.5\ngini = 0.1748\nsamples = 62\nvalue = [56, 6]"] ;
1038 -> 1039 ;
1040 [label="occupation_Protective-serv <= 0.5\ngini = 0.1305\nsamples = 57\nvalue = [53, 4]"] ;
1039 -> 1040 ;
1041 [label="gini = 0.074\nsamples = 52\nvalue = [50, 2]"] ;
1040 -> 1041 ;
1042 [label="gini = 0.48\nsamples = 5\nvalue = [3, 2]"] ;
1040 -> 1042 ;
1043 [label="occupation_Prof-specialty <= 0.5\ngini = 0.48\nsamples = 5\nvalue = [3, 2]"] ;
1039 -> 1043 ;
1044 [label="gini = 0.0\nsamples = 2\nvalue = [2, 0]"] ;
1043 -> 1044 ;
1045 [label="gini = 0.4444\nsamples = 3\nvalue = [1, 2]"] ;
1043 -> 1045 ;
1046 [label="gini = 0.0\nsamples = 1\nvalue = [0, 1]"] ;
1038 -> 1046 ;
1047 [label="gini = 0.0\nsamples = 1\nvalue = [0, 1]"] ;
1037 -> 1047 ;
1048 [label="native-country_? <= 0.5\ngini = 0.5\nsamples = 6\nvalue = [3, 3]"] ;
1034 -> 1048 ;
1049 [label="relationship_Own-child <= 0.5\ngini = 0.375\nsamples = 4\nvalue = [1, 3]"] ;
1048 -> 1049 ;
1050 [label="gini = 0.0\nsamples = 3\nvalue = [0, 3]"] ;
1049 -> 1050 ;
1051 [label="gini = 0.0\nsamples = 1\nvalue = [1, 0]"] ;
1049 -> 1051 ;
1052 [label="gini = 0.0\nsamples = 2\nvalue = [2, 0]"] ;
1048 -> 1052 ;
1053 [label="education_Masters <= 0.5\ngini = 0.4293\nsamples = 125\nvalue = [86, 39]"] ;
1033 -> 1053 ;
1054 [label="relationship_Not-in-family <= 0.5\ngini = 0.3983\nsamples = 102\nvalue = [74, 28]"] ;
1053 -> 1054 ;
1055 [label="race_Asian-Pac-Islander <= 0.5\ngini = 0.18\nsamples = 20\nvalue = [18, 2]"] ;
1054 -> 1055 ;
1056 [label="capital-loss <= 326.5\ngini = 0.0997\nsamples = 19\nvalue = [18, 1]"] ;
1055 -> 1056 ;
1057 [label="gini = 0.0\nsamples = 18\nvalue = [18, 0]"] ;
1056 -> 1057 ;
1058 [label="gini = 0.0\nsamples = 1\nvalue = [0, 1]"] ;
1056 -> 1058 ;
1059 [label="gini = 0.0\nsamples = 1\nvalue = [0, 1]"] ;
1055 -> 1059 ;
1060 [label="native-country_? <= 0.5\ngini = 0.4331\nsamples = 82\nvalue = [56, 26]"] ;
1054 -> 1060 ;
1061 [label="marital-status_Divorced <= 0.5\ngini = 0.4158\nsamples = 78\nvalue = [55, 23]"] ;
1060 -> 1061 ;
1062 [label="fnlwgt <= 197344.0\ngini = 0.3787\nsamples = 67\nvalue = [50, 17]"] ;
1061 -> 1062 ;
1063 [label="hours-per-week <= 87.0\ngini = 0.2449\nsamples = 35\nvalue = [30, 5]"] ;
1062 -> 1063 ;
1064 [label="gini = 0.2076\nsamples = 34\nvalue = [30, 4]"] ;
1063 -> 1064 ;
1065 [label="gini = 0.0\nsamples = 1\nvalue = [0, 1]"] ;
1063 -> 1065 ;
1066 [label="age <= 29.5\ngini = 0.4688\nsamples = 32\nvalue = [20, 12]"] ;
1062 -> 1066 ;
1067 [label="gini = 0.4688\nsamples = 8\nvalue = [3, 5]"] ;
1066 -> 1067 ;
1068 [label="gini = 0.4132\nsamples = 24\nvalue = [17, 7]"] ;
1066 -> 1068 ;
1069 [label="hours-per-week <= 46.5\ngini = 0.4959\nsamples = 11\nvalue = [5, 6]"] ;
1061 -> 1069 ;
1070 [label="gini = 0.0\nsamples = 3\nvalue = [3, 0]"] ;
1069 -> 1070 ;
1071 [label="occupation_Prof-specialty <= 0.5\ngini = 0.375\nsamples = 8\nvalue = [2, 6]"] ;
1069 -> 1071 ;
1072 [label="gini = 0.2449\nsamples = 7\nvalue = [1, 6]"] ;
1071 -> 1072 ;
1073 [label="gini = 0.0\nsamples = 1\nvalue = [1, 0]"] ;
1071 -> 1073 ;
1074 [label="occupation_Prof-specialty <= 0.5\ngini = 0.375\nsamples = 4\nvalue = [1, 3]"] ;
1060 -> 1074 ;
1075 [label="gini = 0.0\nsamples = 3\nvalue = [0, 3]"] ;
1074 -> 1075 ;
1076 [label="gini = 0.0\nsamples = 1\nvalue = [1, 0]"] ;
1074 -> 1076 ;
1077 [label="age <= 34.5\ngini = 0.4991\nsamples = 23\nvalue = [12, 11]"] ;
1053 -> 1077 ;
1078 [label="occupation_Sales <= 0.5\ngini = 0.3967\nsamples = 11\nvalue = [8, 3]"] ;
1077 -> 1078 ;
1079 [label="hours-per-week <= 47.5\ngini = 0.2188\nsamples = 8\nvalue = [7, 1]"] ;
1078 -> 1079 ;
1080 [label="occupation_Prof-specialty <= 0.5\ngini = 0.5\nsamples = 2\nvalue = [1, 1]"] ;
1079 -> 1080 ;
1081 [label="gini = 0.0\nsamples = 1\nvalue = [1, 0]"] ;
1080 -> 1081 ;
1082 [label="gini = 0.0\nsamples = 1\nvalue = [0, 1]"] ;
1080 -> 1082 ;
1083 [label="gini = 0.0\nsamples = 6\nvalue = [6, 0]"] ;
1079 -> 1083 ;
1084 [label="native-country_United-States <= 0.5\ngini = 0.4444\nsamples = 3\nvalue = [1, 2]"] ;
1078 -> 1084 ;
1085 [label="gini = 0.0\nsamples = 1\nvalue = [1, 0]"] ;
1084 -> 1085 ;
1086 [label="gini = 0.0\nsamples = 2\nvalue = [0, 2]"] ;
1084 -> 1086 ;
1087 [label="fnlwgt <= 215015.5\ngini = 0.4444\nsamples = 12\nvalue = [4, 8]"] ;
1077 -> 1087 ;
1088 [label="fnlwgt <= 33060.5\ngini = 0.1975\nsamples = 9\nvalue = [1, 8]"] ;
1087 -> 1088 ;
1089 [label="gini = 0.0\nsamples = 1\nvalue = [1, 0]"] ;
1088 -> 1089 ;
1090 [label="gini = 0.0\nsamples = 8\nvalue = [0, 8]"] ;
1088 -> 1090 ;
1091 [label="gini = 0.0\nsamples = 3\nvalue = [3, 0]"] ;
1087 -> 1091 ;
1092 [label="age <= 53.5\ngini = 0.4731\nsamples = 112\nvalue = [69, 43]"] ;
1032 -> 1092 ;
1093 [label="fnlwgt <= 74021.5\ngini = 0.4987\nsamples = 78\nvalue = [41, 37]"] ;
1092 -> 1093 ;
1094 [label="hours-per-week <= 44.5\ngini = 0.355\nsamples = 13\nvalue = [10, 3]"] ;
1093 -> 1094 ;
1095 [label="gini = 0.0\nsamples = 1\nvalue = [0, 1]"] ;
1094 -> 1095 ;
1096 [label="age <= 51.5\ngini = 0.2778\nsamples = 12\nvalue = [10, 2]"] ;
1094 -> 1096 ;
1097 [label="hours-per-week <= 65.0\ngini = 0.1653\nsamples = 11\nvalue = [10, 1]"] ;
1096 -> 1097 ;
1098 [label="gini = 0.0\nsamples = 9\nvalue = [9, 0]"] ;
1097 -> 1098 ;
1099 [label="education_Bachelors <= 0.5\ngini = 0.5\nsamples = 2\nvalue = [1, 1]"] ;
1097 -> 1099 ;
1100 [label="gini = 0.0\nsamples = 1\nvalue = [1, 0]"] ;
1099 -> 1100 ;
1101 [label="gini = 0.0\nsamples = 1\nvalue = [0, 1]"] ;
1099 -> 1101 ;
1102 [label="gini = 0.0\nsamples = 1\nvalue = [0, 1]"] ;
1096 -> 1102 ;
1103 [label="workclass_Self-emp-not-inc <= 0.5\ngini = 0.4989\nsamples = 65\nvalue = [31, 34]"] ;
1093 -> 1103 ;
1104 [label="marital-status_Married-spouse-absent <= 0.5\ngini = 0.4856\nsamples = 53\nvalue = [22, 31]"] ;
1103 -> 1104 ;
1105 [label="marital-status_Separated <= 0.5\ngini = 0.4712\nsamples = 50\nvalue = [19, 31]"] ;
1104 -> 1105 ;
1106 [label="fnlwgt <= 193763.0\ngini = 0.4575\nsamples = 48\nvalue = [17, 31]"] ;
1105 -> 1106 ;
1107 [label="age <= 51.5\ngini = 0.3299\nsamples = 24\nvalue = [5, 19]"] ;
1106 -> 1107 ;
1108 [label="gini = 0.2873\nsamples = 23\nvalue = [4, 19]"] ;
1107 -> 1108 ;
1109 [label="gini = 0.0\nsamples = 1\nvalue = [1, 0]"] ;
1107 -> 1109 ;
1110 [label="occupation_Sales <= 0.5\ngini = 0.5\nsamples = 24\nvalue = [12, 12]"] ;
1106 -> 1110 ;
1111 [label="gini = 0.4567\nsamples = 17\nvalue = [11, 6]"] ;
1110 -> 1111 ;
1112 [label="gini = 0.2449\nsamples = 7\nvalue = [1, 6]"] ;
1110 -> 1112 ;
1113 [label="gini = 0.0\nsamples = 2\nvalue = [2, 0]"] ;
1105 -> 1113 ;
1114 [label="gini = 0.0\nsamples = 3\nvalue = [3, 0]"] ;
1104 -> 1114 ;
1115 [label="relationship_Not-in-family <= 0.5\ngini = 0.375\nsamples = 12\nvalue = [9, 3]"] ;
1103 -> 1115 ;
1116 [label="occupation_Farming-fishing <= 0.5\ngini = 0.4444\nsamples = 3\nvalue = [1, 2]"] ;
1115 -> 1116 ;
1117 [label="gini = 0.0\nsamples = 2\nvalue = [0, 2]"] ;
1116 -> 1117 ;
1118 [label="gini = 0.0\nsamples = 1\nvalue = [1, 0]"] ;
1116 -> 1118 ;
1119 [label="age <= 44.5\ngini = 0.1975\nsamples = 9\nvalue = [8, 1]"] ;
1115 -> 1119 ;
1120 [label="fnlwgt <= 173918.5\ngini = 0.5\nsamples = 2\nvalue = [1, 1]"] ;
1119 -> 1120 ;
1121 [label="gini = 0.0\nsamples = 1\nvalue = [0, 1]"] ;
1120 -> 1121 ;
1122 [label="gini = 0.0\nsamples = 1\nvalue = [1, 0]"] ;
1120 -> 1122 ;
1123 [label="gini = 0.0\nsamples = 7\nvalue = [7, 0]"] ;
1119 -> 1123 ;
1124 [label="marital-status_Never-married <= 0.5\ngini = 0.2907\nsamples = 34\nvalue = [28, 6]"] ;
1092 -> 1124 ;
1125 [label="fnlwgt <= 101032.0\ngini = 0.4321\nsamples = 19\nvalue = [13, 6]"] ;
1124 -> 1125 ;
1126 [label="fnlwgt <= 60755.5\ngini = 0.375\nsamples = 4\nvalue = [1, 3]"] ;
1125 -> 1126 ;
1127 [label="gini = 0.0\nsamples = 1\nvalue = [1, 0]"] ;
1126 -> 1127 ;
1128 [label="gini = 0.0\nsamples = 3\nvalue = [0, 3]"] ;
1126 -> 1128 ;
1129 [label="race_Black <= 0.5\ngini = 0.32\nsamples = 15\nvalue = [12, 3]"] ;
1125 -> 1129 ;
1130 [label="occupation_Prof-specialty <= 0.5\ngini = 0.2449\nsamples = 14\nvalue = [12, 2]"] ;
1129 -> 1130 ;
1131 [label="gini = 0.0\nsamples = 8\nvalue = [8, 0]"] ;
1130 -> 1131 ;
1132 [label="hours-per-week <= 49.0\ngini = 0.4444\nsamples = 6\nvalue = [4, 2]"] ;
1130 -> 1132 ;
1133 [label="gini = 0.0\nsamples = 1\nvalue = [0, 1]"] ;
1132 -> 1133 ;
1134 [label="hours-per-week <= 65.0\ngini = 0.32\nsamples = 5\nvalue = [4, 1]"] ;
1132 -> 1134 ;
1135 [label="gini = 0.0\nsamples = 3\nvalue = [3, 0]"] ;
1134 -> 1135 ;
1136 [label="gini = 0.5\nsamples = 2\nvalue = [1, 1]"] ;
1134 -> 1136 ;
1137 [label="gini = 0.0\nsamples = 1\nvalue = [0, 1]"] ;
1129 -> 1137 ;
1138 [label="gini = 0.0\nsamples = 15\nvalue = [15, 0]"] ;
1124 -> 1138 ;
1139 [label="fnlwgt <= 131504.0\ngini = 0.2578\nsamples = 250\nvalue = [212, 38]"] ;
1031 -> 1139 ;
1140 [label="hours-per-week <= 61.0\ngini = 0.095\nsamples = 80\nvalue = [76, 4]"] ;
1139 -> 1140 ;
1141 [label="workclass_Federal-gov <= 0.5\ngini = 0.0533\nsamples = 73\nvalue = [71, 2]"] ;
1140 -> 1141 ;
1142 [label="occupation_Sales <= 0.5\ngini = 0.0282\nsamples = 70\nvalue = [69, 1]"] ;
1141 -> 1142 ;
1143 [label="gini = 0.0\nsamples = 62\nvalue = [62, 0]"] ;
1142 -> 1143 ;
1144 [label="age <= 35.5\ngini = 0.2188\nsamples = 8\nvalue = [7, 1]"] ;
1142 -> 1144 ;
1145 [label="marital-status_Divorced <= 0.5\ngini = 0.5\nsamples = 2\nvalue = [1, 1]"] ;
1144 -> 1145 ;
1146 [label="gini = 0.0\nsamples = 1\nvalue = [1, 0]"] ;
1145 -> 1146 ;
1147 [label="gini = 0.0\nsamples = 1\nvalue = [0, 1]"] ;
1145 -> 1147 ;
1148 [label="gini = 0.0\nsamples = 6\nvalue = [6, 0]"] ;
1144 -> 1148 ;
1149 [label="marital-status_Divorced <= 0.5\ngini = 0.4444\nsamples = 3\nvalue = [2, 1]"] ;
1141 -> 1149 ;
1150 [label="gini = 0.0\nsamples = 2\nvalue = [2, 0]"] ;
1149 -> 1150 ;
1151 [label="gini = 0.0\nsamples = 1\nvalue = [0, 1]"] ;
1149 -> 1151 ;
1152 [label="hours-per-week <= 67.5\ngini = 0.4082\nsamples = 7\nvalue = [5, 2]"] ;
1140 -> 1152 ;
1153 [label="marital-status_Never-married <= 0.5\ngini = 0.4444\nsamples = 3\nvalue = [1, 2]"] ;
1152 -> 1153 ;
1154 [label="gini = 0.0\nsamples = 1\nvalue = [1, 0]"] ;
1153 -> 1154 ;
1155 [label="gini = 0.0\nsamples = 2\nvalue = [0, 2]"] ;
1153 -> 1155 ;
1156 [label="gini = 0.0\nsamples = 4\nvalue = [4, 0]"] ;
1152 -> 1156 ;
1157 [label="fnlwgt <= 352536.5\ngini = 0.32\nsamples = 170\nvalue = [136, 34]"] ;
1139 -> 1157 ;
1158 [label="marital-status_Widowed <= 0.5\ngini = 0.2982\nsamples = 159\nvalue = [130, 29]"] ;
1157 -> 1158 ;
1159 [label="fnlwgt <= 134534.0\ngini = 0.2717\nsamples = 148\nvalue = [124, 24]"] ;
1158 -> 1159 ;
1160 [label="occupation_Sales <= 0.5\ngini = 0.4444\nsamples = 3\nvalue = [1, 2]"] ;
1159 -> 1160 ;
1161 [label="gini = 0.0\nsamples = 2\nvalue = [0, 2]"] ;
1160 -> 1161 ;
1162 [label="gini = 0.0\nsamples = 1\nvalue = [1, 0]"] ;
1160 -> 1162 ;
1163 [label="native-country_South <= 0.5\ngini = 0.2574\nsamples = 145\nvalue = [123, 22]"] ;
1159 -> 1163 ;
1164 [label="race_Amer-Indian-Eskimo <= 0.5\ngini = 0.2491\nsamples = 144\nvalue = [123, 21]"] ;
1163 -> 1164 ;
1165 [label="occupation_Protective-serv <= 0.5\ngini = 0.2406\nsamples = 143\nvalue = [123, 20]"] ;
1164 -> 1165 ;
1166 [label="race_Other <= 0.5\ngini = 0.2318\nsamples = 142\nvalue = [123, 19]"] ;
1165 -> 1166 ;
1167 [label="gini = 0.2227\nsamples = 141\nvalue = [123, 18]"] ;
1166 -> 1167 ;
1168 [label="gini = 0.0\nsamples = 1\nvalue = [0, 1]"] ;
1166 -> 1168 ;
1169 [label="gini = 0.0\nsamples = 1\nvalue = [0, 1]"] ;
1165 -> 1169 ;
1170 [label="gini = 0.0\nsamples = 1\nvalue = [0, 1]"] ;
1164 -> 1170 ;
1171 [label="gini = 0.0\nsamples = 1\nvalue = [0, 1]"] ;
1163 -> 1171 ;
1172 [label="hours-per-week <= 49.0\ngini = 0.4959\nsamples = 11\nvalue = [6, 5]"] ;
1158 -> 1172 ;
1173 [label="gini = 0.0\nsamples = 4\nvalue = [4, 0]"] ;
1172 -> 1173 ;
1174 [label="fnlwgt <= 182583.0\ngini = 0.4082\nsamples = 7\nvalue = [2, 5]"] ;
1172 -> 1174 ;
1175 [label="hours-per-week <= 52.5\ngini = 0.4444\nsamples = 3\nvalue = [2, 1]"] ;
1174 -> 1175 ;
1176 [label="gini = 0.0\nsamples = 2\nvalue = [2, 0]"] ;
1175 -> 1176 ;
1177 [label="gini = 0.0\nsamples = 1\nvalue = [0, 1]"] ;
1175 -> 1177 ;
1178 [label="gini = 0.0\nsamples = 4\nvalue = [0, 4]"] ;
1174 -> 1178 ;
1179 [label="age <= 38.5\ngini = 0.4959\nsamples = 11\nvalue = [6, 5]"] ;
1157 -> 1179 ;
1180 [label="fnlwgt <= 392054.5\ngini = 0.4082\nsamples = 7\nvalue = [2, 5]"] ;
1179 -> 1180 ;
1181 [label="gini = 0.0\nsamples = 3\nvalue = [0, 3]"] ;
1180 -> 1181 ;
1182 [label="fnlwgt <= 409631.5\ngini = 0.5\nsamples = 4\nvalue = [2, 2]"] ;
1180 -> 1182 ;
1183 [label="gini = 0.0\nsamples = 2\nvalue = [2, 0]"] ;
1182 -> 1183 ;
1184 [label="gini = 0.0\nsamples = 2\nvalue = [0, 2]"] ;
1182 -> 1184 ;
1185 [label="gini = 0.0\nsamples = 4\nvalue = [4, 0]"] ;
1179 -> 1185 ;
