digraph Tree {
node [shape=box] ;
0 [label="marital-status_Married-civ-spouse <= 0.5\ngini = 0.3656\nsamples = 32561\nvalue = [24720, 7841]"] ;
1 [label="capital-gain <= 7073.5\ngini = 0.1221\nsamples = 17585\nvalue = [16436, 1149]"] ;
0 -> 1 [labeldistance=2.5, labelangle=45, headlabel="True"] ;
2 [label="education-num <= 12.5\ngini = 0.0935\nsamples = 17274\nvalue = [16425, 849]"] ;
1 -> 2 ;
3 [label="capital-loss <= 2218.5\ngini = 0.0481\nsamples = 13864\nvalue = [13522, 342]"] ;
2 -> 3 ;
4 [label="hours-per-week <= 40.5\ngini = 0.0446\nsamples = 13807\nvalue = [13492, 315]"] ;
3 -> 4 ;
5 [label="age <= 33.5\ngini = 0.0268\nsamples = 11351\nvalue = [11197, 154]"] ;
4 -> 5 ;
6 [label="relationship_Husband <= 0.5\ngini = 0.0071\nsamples = 6698\nvalue = [6674, 24]"] ;
5 -> 6 ;
7 [label="relationship_Wife <= 0.5\ngini = 0.0068\nsamples = 6696\nvalue = [6673, 23]"] ;
6 -> 7 ;
8 [label="fnlwgt <= 23759.0\ngini = 0.0066\nsamples = 6692\nvalue = [6670, 22]"] ;
7 -> 8 ;
9 [label="fnlwgt <= 23381.0\ngini = 0.142\nsamples = 26\nvalue = [24, 2]"] ;
8 -> 9 ;
10 [label="gini = 0.0\nsamples = 23\nvalue = [23, 0]"] ;
9 -> 10 ;
11 [label="occupation_Prof-specialty <= 0.5\ngini = 0.4444\nsamples = 3\nvalue = [1, 2]"] ;
9 -> 11 ;
12 [label="gini = 0.0\nsamples = 2\nvalue = [0, 2]"] ;
11 -> 12 ;
13 [label="gini = 0.0\nsamples = 1\nvalue = [1, 0]"] ;
11 -> 13 ;
14 [label="age <= 28.5\ngini = 0.006\nsamples = 6666\nvalue = [6646, 20]"] ;
8 -> 14 ;
15 [label="workclass_Local-gov <= 0.5\ngini = 0.0026\nsamples = 5386\nvalue = [5379, 7]"] ;
14 -> 15 ;
16 [label="workclass_Self-emp-not-inc <= 0.5\ngini = 0.0015\nsamples = 5245\nvalue = [5241, 4]"] ;
15 -> 16 ;
17 [label="occupation_Tech-support <= 0.5\ngini = 0.0012\nsamples = 5139\nvalue = [5136, 3]"] ;
16 -> 17 ;
18 [label="occupation_Exec-managerial <= 0.5\ngini = 0.0008\nsamples = 5026\nvalue = [5024, 2]"] ;
17 -> 18 ;
19 [label="occupation_Other-service <= 0.5\ngini = 0.0004\nsamples = 4882\nvalue = [4881, 1]"] ;
18 -> 19 ;
20 [label="gini = 0.0\nsamples = 3812\nvalue = [3812, 0]"] ;
19 -> 20 ;
21 [label="gini = 0.0019\nsamples = 1070\nvalue = [1069, 1]"] ;
19 -> 21 ;
22 [label="education_Assoc-acdm <= 0.5\ngini = 0.0138\nsamples = 144\nvalue = [143, 1]"] ;
18 -> 22 ;
23 [label="gini = 0.0\nsamples = 135\nvalue = [135, 0]"] ;
22 -> 23 ;
24 [label="gini = 0.1975\nsamples = 9\nvalue = [8, 1]"] ;
22 -> 24 ;
25 [label="marital-status_Separated <= 0.5\ngini = 0.0175\nsamples = 113\nvalue = [112, 1]"] ;
17 -> 25 ;
26 [label="gini = 0.0\nsamples = 111\nvalue = [111, 0]"] ;
25 -> 26 ;
27 [label="fnlwgt <= 234274.5\ngini = 0.5\nsamples = 2\nvalue = [1, 1]"] ;
25 -> 27 ;
28 [label="gini = 0.0\nsamples = 1\nvalue = [1, 0]"] ;
27 -> 28 ;
29 [label="gini = 0.0\nsamples = 1\nvalue = [0, 1]"] ;
27 -> 29 ;
30 [label="race_Asian-Pac-Islander <= 0.5\ngini = 0.0187\nsamples = 106\nvalue = [105, 1]"] ;
16 -> 30 ;
31 [label="gini = 0.0\nsamples = 100\nvalue = [100, 0]"] ;
30 -> 31 ;
32 [label="relationship_Not-in-family <= 0.5\ngini = 0.2778\nsamples = 6\nvalue = [5, 1]"] ;
30 -> 32 ;
33 [label="gini = 0.0\nsamples = 4\nvalue = [4, 0]"] ;
32 -> 33 ;
34 [label="hours-per-week <= 35.0\ngini = 0.5\nsamples = 2\nvalue = [1, 1]"] ;
32 -> 34 ;
35 [label="gini = 0.0\nsamples = 1\nvalue = [0, 1]"] ;
34 -> 35 ;
36 [label="gini = 0.0\nsamples = 1\nvalue = [1, 0]"] ;
34 -> 36 ;
37 [label="education-num <= 3.5\ngini = 0.0416\nsamples = 141\nvalue = [138, 3]"] ;
15 -> 37 ;
38 [label="gini = 0.0\nsamples = 1\nvalue = [0, 1]"] ;
37 -> 38 ;
39 [label="occupation_Protective-serv <= 0.5\ngini = 0.0282\nsamples = 140\nvalue = [138, 2]"] ;
37 -> 39 ;
40 [label="gini = 0.0\nsamples = 115\nvalue = [115, 0]"] ;
39 -> 40 ;
41 [label="fnlwgt <= 196863.0\ngini = 0.1472\nsamples = 25\nvalue = [23, 2]"] ;
39 -> 41 ;
42 [label="gini = 0.0\nsamples = 14\nvalue = [14, 0]"] ;
41 -> 42 ;
43 [label="fnlwgt <= 234027.0\ngini = 0.2975\nsamples = 11\nvalue = [9, 2]"] ;
41 -> 43 ;
44 [label="gini = 0.4444\nsamples = 3\nvalue = [1, 2]"] ;
43 -> 44 ;
45 [label="gini = 0.0\nsamples = 8\nvalue = [8, 0]"] ;
43 -> 45 ;
46 [label="occupation_Craft-repair <= 0.5\ngini = 0.0201\nsamples = 1280\nvalue = [1267, 13]"] ;
14 -> 46 ;
47 [label="marital-status_Widowed <= 0.5\ngini = 0.0125\nsamples = 1117\nvalue = [1110, 7]"] ;
46 -> 47 ;
48 [label="workclass_State-gov <= 0.5\ngini = 0.0108\nsamples = 1106\nvalue = [1100, 6]"] ;
47 -> 48 ;
49 [label="education_7th-8th <= 0.5\ngini = 0.0075\nsamples = 1060\nvalue = [1056, 4]"] ;
48 -> 49 ;
50 [label="workclass_Federal-gov <= 0.5\ngini = 0.0057\nsamples = 1041\nvalue = [1038, 3]"] ;
49 -> 50 ;
51 [label="gini = 0.004\nsamples = 1004\nvalue = [1002, 2]"] ;
50 -> 51 ;
52 [label="gini = 0.0526\nsamples = 37\nvalue = [36, 1]"] ;
50 -> 52 ;
53 [label="occupation_Farming-fishing <= 0.5\ngini = 0.0997\nsamples = 19\nvalue = [18, 1]"] ;
49 -> 53 ;
54 [label="gini = 0.0\nsamples = 18\nvalue = [18, 0]"] ;
53 -> 54 ;
55 [label="gini = 0.0\nsamples = 1\nvalue = [0, 1]"] ;
53 -> 55 ;
56 [label="education_Assoc-acdm <= 0.5\ngini = 0.0832\nsamples = 46\nvalue = [44, 2]"] ;
48 -> 56 ;
57 [label="fnlwgt <= 399295.0\ngini = 0.0454\nsamples = 43\nvalue = [42, 1]"] ;
56 -> 57 ;
58 [label="gini = 0.0\nsamples = 39\nvalue = [39, 0]"] ;
57 -> 58 ;
59 [label="gini = 0.375\nsamples = 4\nvalue = [3, 1]"] ;
57 -> 59 ;
60 [label="age <= 30.0\ngini = 0.4444\nsamples = 3\nvalue = [2, 1]"] ;
56 -> 60 ;
61 [label="gini = 0.0\nsamples = 1\nvalue = [0, 1]"] ;
60 -> 61 ;
62 [label="gini = 0.0\nsamples = 2\nvalue = [2, 0]"] ;
60 -> 62 ;
63 [label="workclass_Self-emp-not-inc <= 0.5\ngini = 0.1653\nsamples = 11\nvalue = [10, 1]"] ;
47 -> 63 ;
64 [label="gini = 0.0\nsamples = 10\nvalue = [10, 0]"] ;
63 -> 64 ;
65 [label="gini = 0.0\nsamples = 1\nvalue = [0, 1]"] ;
63 -> 65 ;
66 [label="education-num <= 9.5\ngini = 0.0709\nsamples = 163\nvalue = [157, 6]"] ;
46 -> 66 ;
67 [label="fnlwgt <= 347879.0\ngini = 0.0177\nsamples = 112\nvalue = [111, 1]"] ;
66 -> 67 ;
68 [label="gini = 0.0\nsamples = 104\nvalue = [104, 0]"] ;
67 -> 68 ;
69 [label="fnlwgt <= 352303.5\ngini = 0.2188\nsamples = 8\nvalue = [7, 1]"] ;
67 -> 69 ;
70 [label="gini = 0.0\nsamples = 1\nvalue = [0, 1]"] ;
69 -> 70 ;
71 [label="gini = 0.0\nsamples = 7\nvalue = [7, 0]"] ;
69 -> 71 ;
72 [label="workclass_Federal-gov <= 0.5\ngini = 0.1769\nsamples = 51\nvalue = [46, 5]"] ;
66 -> 72 ;
73 [label="fnlwgt <= 220252.0\ngini = 0.1499\nsamples = 49\nvalue = [45, 4]"] ;
72 -> 73 ;
74 [label="fnlwgt <= 210558.0\ngini = 0.2188\nsamples = 32\nvalue = [28, 4]"] ;
73 -> 74 ;
75 [label="gini = 0.1748\nsamples = 31\nvalue = [28, 3]"] ;
74 -> 75 ;
76 [label="gini = 0.0\nsamples = 1\nvalue = [0, 1]"] ;
74 -> 76 ;
77 [label="gini = 0.0\nsamples = 17\nvalue = [17, 0]"] ;
73 -> 77 ;
78 [label="relationship_Unmarried <= 0.5\ngini = 0.5\nsamples = 2\nvalue = [1, 1]"] ;
72 -> 78 ;
79 [label="gini = 0.0\nsamples = 1\nvalue = [1, 0]"] ;
78 -> 79 ;
80 [label="gini = 0.0\nsamples = 1\nvalue = [0, 1]"] ;
78 -> 80 ;
81 [label="education_Some-college <= 0.5\ngini = 0.375\nsamples = 4\nvalue = [3, 1]"] ;
7 -> 81 ;
82 [label="gini = 0.0\nsamples = 3\nvalue = [3, 0]"] ;
81 -> 82 ;
83 [label="gini = 0.0\nsamples = 1\nvalue = [0, 1]"] ;
81 -> 83 ;
84 [label="occupation_Protective-serv <= 0.5\ngini = 0.5\nsamples = 2\nvalue = [1, 1]"] ;
6 -> 84 ;
85 [label="gini = 0.0\nsamples = 1\nvalue = [0, 1]"] ;
84 -> 85 ;
86 [label="gini = 0.0\nsamples = 1\nvalue = [1, 0]"] ;
84 -> 86 ;
87 [label="occupation_Prof-specialty <= 0.5\ngini = 0.0543\nsamples = 4653\nvalue = [4523, 130]"] ;
5 -> 87 ;
88 [label="occupation_Exec-managerial <= 0.5\ngini = 0.046\nsamples = 4416\nvalue = [4312, 104]"] ;
87 -> 88 ;
89 [label="relationship_Wife <= 0.5\ngini = 0.0376\nsamples = 4072\nvalue = [3994, 78]"] ;
88 -> 89 ;
90 [label="occupation_Protective-serv <= 0.5\ngini = 0.0367\nsamples = 4067\nvalue = [3991, 76]"] ;
89 -> 90 ;
91 [label="native-country_India <= 0.5\ngini = 0.0339\nsamples = 4000\nvalue = [3931, 69]"] ;
90 -> 91 ;
92 [label="capital-gain <= 4718.5\ngini = 0.0334\nsamples = 3999\nvalue = [3931, 68]"] ;
91 -> 92 ;
93 [label="occupation_Craft-repair <= 0.5\ngini = 0.0317\nsamples = 3972\nvalue = [3908, 64]"] ;
92 -> 93 ;
94 [label="workclass_Self-emp-inc <= 0.5\ngini = 0.0255\nsamples = 3477\nvalue = [3432, 45]"] ;
93 -> 94 ;
95 [label="fnlwgt <= 20302.0\ngini = 0.024\nsamples = 3453\nvalue = [3411, 42]"] ;
94 -> 95 ;
96 [label="gini = 0.32\nsamples = 5\nvalue = [4, 1]"] ;
95 -> 96 ;
97 [label="gini = 0.0235\nsamples = 3448\nvalue = [3407, 41]"] ;
95 -> 97 ;
98 [label="race_Asian-Pac-Islander <= 0.5\ngini = 0.2188\nsamples = 24\nvalue = [21, 3]"] ;
94 -> 98 ;
99 [label="gini = 0.1588\nsamples = 23\nvalue = [21, 2]"] ;
98 -> 99 ;
100 [label="gini = 0.0\nsamples = 1\nvalue = [0, 1]"] ;
98 -> 100 ;
101 [label="age <= 49.5\ngini = 0.0738\nsamples = 495\nvalue = [476, 19]"] ;
93 -> 101 ;
102 [label="education_Some-college <= 0.5\ngini = 0.0422\nsamples = 371\nvalue = [363, 8]"] ;
101 -> 102 ;
103 [label="gini = 0.014\nsamples = 284\nvalue = [282, 2]"] ;
102 -> 103 ;
104 [label="gini = 0.1284\nsamples = 87\nvalue = [81, 6]"] ;
102 -> 104 ;
105 [label="workclass_Local-gov <= 0.5\ngini = 0.1617\nsamples = 124\nvalue = [113, 11]"] ;
101 -> 105 ;
106 [label="gini = 0.1409\nsamples = 118\nvalue = [109, 9]"] ;
105 -> 106 ;
107 [label="gini = 0.4444\nsamples = 6\nvalue = [4, 2]"] ;
105 -> 107 ;
108 [label="capital-gain <= 4826.0\ngini = 0.2524\nsamples = 27\nvalue = [23, 4]"] ;
92 -> 108 ;
109 [label="gini = 0.0\nsamples = 3\nvalue = [0, 3]"] ;
108 -> 109 ;
110 [label="occupation_Tech-support <= 0.5\ngini = 0.0799\nsamples = 24\nvalue = [23, 1]"] ;
108 -> 110 ;
111 [label="gini = 0.0\nsamples = 21\nvalue = [21, 0]"] ;
110 -> 111 ;
112 [label="sex_Female <= 0.5\ngini = 0.4444\nsamples = 3\nvalue = [2, 1]"] ;
110 -> 112 ;
113 [label="gini = 0.0\nsamples = 1\nvalue = [0, 1]"] ;
112 -> 113 ;
114 [label="gini = 0.0\nsamples = 2\nvalue = [2, 0]"] ;
112 -> 114 ;
115 [label="gini = 0.0\nsamples = 1\nvalue = [0, 1]"] ;
91 -> 115 ;
116 [label="workclass_Private <= 0.5\ngini = 0.1871\nsamples = 67\nvalue = [60, 7]"] ;
90 -> 116 ;
117 [label="fnlwgt <= 364930.5\ngini = 0.2726\nsamples = 43\nvalue = [36, 7]"] ;
116 -> 117 ;
118 [label="fnlwgt <= 33692.0\ngini = 0.2449\nsamples = 42\nvalue = [36, 6]"] ;
117 -> 118 ;
119 [label="education_HS-grad <= 0.5\ngini = 0.5\nsamples = 2\nvalue = [1, 1]"] ;
118 -> 119 ;
120 [label="gini = 0.0\nsamples = 1\nvalue = [0, 1]"] ;
119 -> 120 ;
121 [label="gini = 0.0\nsamples = 1\nvalue = [1, 0]"] ;
119 -> 121 ;
122 [label="relationship_Not-in-family <= 0.5\ngini = 0.2188\nsamples = 40\nvalue = [35, 5]"] ;
118 -> 122 ;
123 [label="gini = 0.0\nsamples = 16\nvalue = [16, 0]"] ;
122 -> 123 ;
124 [label="fnlwgt <= 158186.0\ngini = 0.3299\nsamples = 24\nvalue = [19, 5]"] ;
122 -> 124 ;
125 [label="gini = 0.0\nsamples = 7\nvalue = [7, 0]"] ;
124 -> 125 ;
126 [label="gini = 0.4152\nsamples = 17\nvalue = [12, 5]"] ;
124 -> 126 ;
127 [label="gini = 0.0\nsamples = 1\nvalue = [0, 1]"] ;
117 -> 127 ;
128 [label="gini = 0.0\nsamples = 24\nvalue = [24, 0]"] ;
116 -> 128 ;
129 [label="hours-per-week <= 32.5\ngini = 0.48\nsamples = 5\nvalue = [3, 2]"] ;
89 -> 129 ;
130 [label="gini = 0.0\nsamples = 2\nvalue = [2, 0]"] ;
129 -> 130 ;
131 [label="education_Assoc-acdm <= 0.5\ngini = 0.4444\nsamples = 3\nvalue = [1, 2]"] ;
129 -> 131 ;
132 [label="gini = 0.0\nsamples = 2\nvalue = [0, 2]"] ;
131 -> 132 ;
133 [label="gini = 0.0\nsamples = 1\nvalue = [1, 0]"] ;
131 -> 133 ;
134 [label="native-country_Japan <= 0.5\ngini = 0.1397\nsamples = 344\nvalue = [318, 26]"] ;
88 -> 134 ;
135 [label="native-country_Ireland <= 0.5\ngini = 0.1351\nsamples = 343\nvalue = [318, 25]"] ;
134 -> 135 ;
136 [label="capital-gain <= 5373.5\ngini = 0.1305\nsamples = 342\nvalue = [318, 24]"] ;
135 -> 136 ;
137 [label="education-num <= 10.5\ngini = 0.1258\nsamples = 341\nvalue = [318, 23]"] ;
136 -> 137 ;
138 [label="marital-status_Widowed <= 0.5\ngini = 0.1033\nsamples = 293\nvalue = [277, 16]"] ;
137 -> 138 ;
139 [label="fnlwgt <= 61980.5\ngini = 0.0835\nsamples = 252\nvalue = [241, 11]"] ;
138 -> 139 ;
140 [label="fnlwgt <= 47090.0\ngini = 0.2112\nsamples = 25\nvalue = [22, 3]"] ;
139 -> 140 ;
141 [label="gini = 0.0\nsamples = 19\nvalue = [19, 0]"] ;
140 -> 141 ;
142 [label="gini = 0.5\nsamples = 6\nvalue = [3, 3]"] ;
140 -> 142 ;
143 [label="fnlwgt <= 138184.0\ngini = 0.068\nsamples = 227\nvalue = [219, 8]"] ;
139 -> 143 ;
144 [label="gini = 0.0\nsamples = 63\nvalue = [63, 0]"] ;
143 -> 144 ;
145 [label="gini = 0.0928\nsamples = 164\nvalue = [156, 8]"] ;
143 -> 145 ;
146 [label="fnlwgt <= 25270.0\ngini = 0.2142\nsamples = 41\nvalue = [36, 5]"] ;
138 -> 146 ;
147 [label="relationship_Not-in-family <= 0.5\ngini = 0.5\nsamples = 2\nvalue = [1, 1]"] ;
146 -> 147 ;
148 [label="gini = 0.0\nsamples = 1\nvalue = [1, 0]"] ;
147 -> 148 ;
149 [label="gini = 0.0\nsamples = 1\nvalue = [0, 1]"] ;
147 -> 149 ;
150 [label="fnlwgt <= 126767.0\ngini = 0.1841\nsamples = 39\nvalue = [35, 4]"] ;
146 -> 150 ;
151 [label="gini = 0.0\nsamples = 12\nvalue = [12, 0]"] ;
150 -> 151 ;
152 [label="gini = 0.2524\nsamples = 27\nvalue = [23, 4]"] ;
150 -> 152 ;
153 [label="age <= 57.0\ngini = 0.2491\nsamples = 48\nvalue = [41, 7]"] ;
137 -> 153 ;
154 [label="fnlwgt <= 354495.0\ngini = 0.142\nsamples = 39\nvalue = [36, 3]"] ;
153 -> 154 ;
155 [label="relationship_Not-in-family <= 0.5\ngini = 0.1023\nsamples = 37\nvalue = [35, 2]"] ;
154 -> 155 ;
156 [label="gini = 0.0\nsamples = 19\nvalue = [19, 0]"] ;
155 -> 156 ;
157 [label="gini = 0.1975\nsamples = 18\nvalue = [16, 2]"] ;
155 -> 157 ;
158 [label="workclass_Federal-gov <= 0.5\ngini = 0.5\nsamples = 2\nvalue = [1, 1]"] ;
154 -> 158 ;
159 [label="gini = 0.0\nsamples = 1\nvalue = [0, 1]"] ;
158 -> 159 ;
160 [label="gini = 0.0\nsamples = 1\nvalue = [1, 0]"] ;
158 -> 160 ;
161 [label="fnlwgt <= 157862.0\ngini = 0.4938\nsamples = 9\nvalue = [5, 4]"] ;
153 -> 161 ;
162 [label="gini = 0.0\nsamples = 3\nvalue = [0, 3]"] ;
161 -> 162 ;
163 [label="fnlwgt <= 266228.0\ngini = 0.2778\nsamples = 6\nvalue = [5, 1]"] ;
161 -> 163 ;
164 [label="gini = 0.0\nsamples = 5\nvalue = [5, 0]"] ;
163 -> 164 ;
165 [label="gini = 0.0\nsamples = 1\nvalue = [0, 1]"] ;
163 -> 165 ;
166 [label="gini = 0.0\nsamples = 1\nvalue = [0, 1]"] ;
136 -> 166 ;
167 [label="gini = 0.0\nsamples = 1\nvalue = [0, 1]"] ;
135 -> 167 ;
168 [label="gini = 0.0\nsamples = 1\nvalue = [0, 1]"] ;
134 -> 168 ;
169 [label="sex_Female <= 0.5\ngini = 0.1953\nsamples = 237\nvalue = [211, 26]"] ;
87 -> 169 ;
170 [label="capital-gain <= 4718.5\ngini = 0.4012\nsamples = 54\nvalue = [39, 15]"] ;
169 -> 170 ;
171 [label="native-country_Japan <= 0.5\ngini = 0.375\nsamples = 52\nvalue = [39, 13]"] ;
170 -> 171 ;
172 [label="education_HS-grad <= 0.5\ngini = 0.3599\nsamples = 51\nvalue = [39, 12]"] ;
171 -> 172 ;
173 [label="age <= 51.0\ngini = 0.4244\nsamples = 36\nvalue = [25, 11]"] ;
172 -> 173 ;
174 [label="race_Amer-Indian-Eskimo <= 0.5\ngini = 0.3578\nsamples = 30\nvalue = [23, 7]"] ;
173 -> 174 ;
175 [label="native-country_Germany <= 0.5\ngini = 0.3282\nsamples = 29\nvalue = [23, 6]"] ;
174 -> 175 ;
176 [label="workclass_Federal-gov <= 0.5\ngini = 0.2934\nsamples = 28\nvalue = [23, 5]"] ;
175 -> 176 ;
177 [label="gini = 0.2524\nsamples = 27\nvalue = [23, 4]"] ;
176 -> 177 ;
178 [label="gini = 0.0\nsamples = 1\nvalue = [0, 1]"] ;
176 -> 178 ;
179 [label="gini = 0.0\nsamples = 1\nvalue = [0, 1]"] ;
175 -> 179 ;
180 [label="gini = 0.0\nsamples = 1\nvalue = [0, 1]"] ;
174 -> 180 ;
181 [label="fnlwgt <= 188002.5\ngini = 0.4444\nsamples = 6\nvalue = [2, 4]"] ;
173 -> 181 ;
182 [label="workclass_Private <= 0.5\ngini = 0.4444\nsamples = 3\nvalue = [2, 1]"] ;
181 -> 182 ;
183 [label="gini = 0.0\nsamples = 1\nvalue = [0, 1]"] ;
182 -> 183 ;
184 [label="gini = 0.0\nsamples = 2\nvalue = [2, 0]"] ;
182 -> 184 ;
185 [label="gini = 0.0\nsamples = 3\nvalue = [0, 3]"] ;
181 -> 185 ;
186 [label="fnlwgt <= 119416.5\ngini = 0.1244\nsamples = 15\nvalue = [14, 1]"] ;
172 -> 186 ;
187 [label="age <= 44.5\ngini = 0.4444\nsamples = 3\nvalue = [2, 1]"] ;
186 -> 187 ;
188 [label="gini = 0.0\nsamples = 1\nvalue = [0, 1]"] ;
187 -> 188 ;
189 [label="gini = 0.0\nsamples = 2\nvalue = [2, 0]"] ;
187 -> 189 ;
190 [label="gini = 0.0\nsamples = 12\nvalue = [12, 0]"] ;
186 -> 190 ;
191 [label="gini = 0.0\nsamples = 1\nvalue = [0, 1]"] ;
171 -> 191 ;
192 [label="gini = 0.0\nsamples = 2\nvalue = [0, 2]"] ;
170 -> 192 ;
193 [label="native-country_Philippines <= 0.5\ngini = 0.113\nsamples = 183\nvalue = [172, 11]"] ;
169 -> 193 ;
194 [label="capital-loss <= 1472.0\ngini = 0.1039\nsamples = 182\nvalue = [172, 10]"] ;
193 -> 194 ;
195 [label="workclass_Federal-gov <= 0.5\ngini = 0.0955\nsamples = 179\nvalue = [170, 9]"] ;
194 -> 195 ;
196 [label="age <= 36.5\ngini = 0.0794\nsamples = 169\nvalue = [162, 7]"] ;
195 -> 196 ;
197 [label="hours-per-week <= 16.0\ngini = 0.2041\nsamples = 26\nvalue = [23, 3]"] ;
196 -> 197 ;
198 [label="relationship_Unmarried <= 0.5\ngini = 0.5\nsamples = 2\nvalue = [1, 1]"] ;
197 -> 198 ;
199 [label="gini = 0.0\nsamples = 1\nvalue = [0, 1]"] ;
198 -> 199 ;
200 [label="gini = 0.0\nsamples = 1\nvalue = [1, 0]"] ;
198 -> 200 ;
201 [label="marital-status_Divorced <= 0.5\ngini = 0.1528\nsamples = 24\nvalue = [22, 2]"] ;
197 -> 201 ;
202 [label="gini = 0.0\nsamples = 15\nvalue = [15, 0]"] ;
201 -> 202 ;
203 [label="relationship_Own-child <= 0.5\ngini = 0.3457\nsamples = 9\nvalue = [7, 2]"] ;
201 -> 203 ;
204 [label="gini = 0.2188\nsamples = 8\nvalue = [7, 1]"] ;
203 -> 204 ;
205 [label="gini = 0.0\nsamples = 1\nvalue = [0, 1]"] ;
203 -> 205 ;
206 [label="marital-status_Divorced <= 0.5\ngini = 0.0544\nsamples = 143\nvalue = [139, 4]"] ;
196 -> 206 ;
207 [label="gini = 0.0\nsamples = 69\nvalue = [69, 0]"] ;
206 -> 207 ;
208 [label="education_Some-college <= 0.5\ngini = 0.1023\nsamples = 74\nvalue = [70, 4]"] ;
206 -> 208 ;
209 [label="fnlwgt <= 46887.0\ngini = 0.1557\nsamples = 47\nvalue = [43, 4]"] ;
208 -> 209 ;
210 [label="gini = 0.5\nsamples = 2\nvalue = [1, 1]"] ;
209 -> 210 ;
211 [label="gini = 0.1244\nsamples = 45\nvalue = [42, 3]"] ;
209 -> 211 ;
212 [label="gini = 0.0\nsamples = 27\nvalue = [27, 0]"] ;
208 -> 212 ;
213 [label="age <= 62.0\ngini = 0.32\nsamples = 10\nvalue = [8, 2]"] ;
195 -> 213 ;
214 [label="fnlwgt <= 94417.5\ngini = 0.1975\nsamples = 9\nvalue = [8, 1]"] ;
213 -> 214 ;
215 [label="gini = 0.0\nsamples = 5\nvalue = [5, 0]"] ;
214 -> 215 ;
216 [label="fnlwgt <= 142097.0\ngini = 0.375\nsamples = 4\nvalue = [3, 1]"] ;
214 -> 216 ;
217 [label="gini = 0.0\nsamples = 1\nvalue = [0, 1]"] ;
216 -> 217 ;
218 [label="gini = 0.0\nsamples = 3\nvalue = [3, 0]"] ;
216 -> 218 ;
219 [label="gini = 0.0\nsamples = 1\nvalue = [0, 1]"] ;
213 -> 219 ;
220 [label="marital-status_Divorced <= 0.5\ngini = 0.4444\nsamples = 3\nvalue = [2, 1]"] ;
194 -> 220 ;
221 [label="gini = 0.0\nsamples = 1\nvalue = [0, 1]"] ;
220 -> 221 ;
222 [label="gini = 0.0\nsamples = 2\nvalue = [2, 0]"] ;
220 -> 222 ;
223 [label="gini = 0.0\nsamples = 1\nvalue = [0, 1]"] ;
193 -> 223 ;
224 [label="age <= 38.5\ngini = 0.1225\nsamples = 2456\nvalue = [2295, 161]"] ;
4 -> 224 ;
225 [label="native-country_India <= 0.5\ngini = 0.0748\nsamples = 1568\nvalue = [1507, 61]"] ;
224 -> 225 ;
226 [label="relationship_Not-in-family <= 0.5\ngini = 0.0736\nsamples = 1567\nvalue = [1507, 60]"] ;
225 -> 226 ;
227 [label="native-country_Portugal <= 0.5\ngini = 0.0264\nsamples = 673\nvalue = [664, 9]"] ;
226 -> 227 ;
228 [label="race_Asian-Pac-Islander <= 0.5\ngini = 0.0236\nsamples = 671\nvalue = [663, 8]"] ;
227 -> 228 ;
229 [label="hours-per-week <= 98.5\ngini = 0.0181\nsamples = 657\nvalue = [651, 6]"] ;
228 -> 229 ;
230 [label="relationship_Husband <= 0.5\ngini = 0.0152\nsamples = 653\nvalue = [648, 5]"] ;
229 -> 230 ;
231 [label="workclass_Federal-gov <= 0.5\ngini = 0.0123\nsamples = 649\nvalue = [645, 4]"] ;
230 -> 231 ;
232 [label="marital-status_Married-spouse-absent <= 0.5\ngini = 0.0093\nsamples = 642\nvalue = [639, 3]"] ;
231 -> 232 ;
233 [label="fnlwgt <= 284055.5\ngini = 0.0063\nsamples = 628\nvalue = [626, 2]"] ;
232 -> 233 ;
234 [label="gini = 0.0\nsamples = 537\nvalue = [537, 0]"] ;
233 -> 234 ;
235 [label="gini = 0.043\nsamples = 91\nvalue = [89, 2]"] ;
233 -> 235 ;
236 [label="workclass_Self-emp-not-inc <= 0.5\ngini = 0.1327\nsamples = 14\nvalue = [13, 1]"] ;
232 -> 236 ;
237 [label="gini = 0.0\nsamples = 13\nvalue = [13, 0]"] ;
236 -> 237 ;
238 [label="gini = 0.0\nsamples = 1\nvalue = [0, 1]"] ;
236 -> 238 ;
239 [label="education-num <= 11.5\ngini = 0.2449\nsamples = 7\nvalue = [6, 1]"] ;
231 -> 239 ;
240 [label="gini = 0.0\nsamples = 6\nvalue = [6, 0]"] ;
239 -> 240 ;
241 [label="gini = 0.0\nsamples = 1\nvalue = [0, 1]"] ;
239 -> 241 ;
242 [label="education_Assoc-voc <= 0.5\ngini = 0.375\nsamples = 4\nvalue = [3, 1]"] ;
230 -> 242 ;
243 [label="gini = 0.0\nsamples = 3\nvalue = [3, 0]"] ;
242 -> 243 ;
244 [label="gini = 0.0\nsamples = 1\nvalue = [0, 1]"] ;
242 -> 244 ;
245 [label="fnlwgt <= 173043.0\ngini = 0.375\nsamples = 4\nvalue = [3, 1]"] ;
229 -> 245 ;
246 [label="gini = 0.0\nsamples = 3\nvalue = [3, 0]"] ;
245 -> 246 ;
247 [label="gini = 0.0\nsamples = 1\nvalue = [0, 1]"] ;
245 -> 247 ;
248 [label="fnlwgt <= 70533.5\ngini = 0.2449\nsamples = 14\nvalue = [12, 2]"] ;
228 -> 248 ;
249 [label="gini = 0.0\nsamples = 1\nvalue = [0, 1]"] ;
248 -> 249 ;
250 [label="hours-per-week <= 70.0\ngini = 0.142\nsamples = 13\nvalue = [12, 1]"] ;
248 -> 250 ;
251 [label="gini = 0.0\nsamples = 12\nvalue = [12, 0]"] ;
250 -> 251 ;
252 [label="gini = 0.0\nsamples = 1\nvalue = [0, 1]"] ;
250 -> 252 ;
253 [label="occupation_Handlers-cleaners <= 0.5\ngini = 0.5\nsamples = 2\nvalue = [1, 1]"] ;
227 -> 253 ;
254 [label="gini = 0.0\nsamples = 1\nvalue = [0, 1]"] ;
253 -> 254 ;
255 [label="gini = 0.0\nsamples = 1\nvalue = [1, 0]"] ;
253 -> 255 ;
256 [label="workclass_Private <= 0.5\ngini = 0.1076\nsamples = 894\nvalue = [843, 51]"] ;
226 -> 256 ;
257 [label="occupation_Exec-managerial <= 0.5\ngini = 0.2006\nsamples = 168\nvalue = [149, 19]"] ;
256 -> 257 ;
258 [label="occupation_Protective-serv <= 0.5\ngini = 0.1537\nsamples = 143\nvalue = [131, 12]"] ;
257 -> 258 ;
259 [label="fnlwgt <= 344990.0\ngini = 0.1155\nsamples = 130\nvalue = [122, 8]"] ;
258 -> 259 ;
260 [label="education_HS-grad <= 0.5\ngini = 0.0805\nsamples = 119\nvalue = [114, 5]"] ;
259 -> 260 ;
261 [label="gini = 0.0\nsamples = 68\nvalue = [68, 0]"] ;
260 -> 261 ;
262 [label="fnlwgt <= 34376.0\ngini = 0.1769\nsamples = 51\nvalue = [46, 5]"] ;
260 -> 262 ;
263 [label="hours-per-week <= 57.5\ngini = 0.5\nsamples = 4\nvalue = [2, 2]"] ;
262 -> 263 ;
264 [label="gini = 0.0\nsamples = 2\nvalue = [2, 0]"] ;
263 -> 264 ;
265 [label="gini = 0.0\nsamples = 2\nvalue = [0, 2]"] ;
263 -> 265 ;
266 [label="occupation_Sales <= 0.5\ngini = 0.1195\nsamples = 47\nvalue = [44, 3]"] ;
262 -> 266 ;
267 [label="gini = 0.0868\nsamples = 44\nvalue = [42, 2]"] ;
266 -> 267 ;
268 [label="gini = 0.4444\nsamples = 3\nvalue = [2, 1]"] ;
266 -> 268 ;
269 [label="workclass_Self-emp-not-inc <= 0.5\ngini = 0.3967\nsamples = 11\nvalue = [8, 3]"] ;
259 -> 269 ;
270 [label="gini = 0.0\nsamples = 6\nvalue = [6, 0]"] ;
269 -> 270 ;
271 [label="education-num <= 9.5\ngini = 0.48\nsamples = 5\nvalue = [2, 3]"] ;
269 -> 271 ;
272 [label="gini = 0.0\nsamples = 3\nvalue = [0, 3]"] ;
271 -> 272 ;
273 [label="gini = 0.0\nsamples = 2\nvalue = [2, 0]"] ;
271 -> 273 ;
274 [label="age <= 28.0\ngini = 0.426\nsamples = 13\nvalue = [9, 4]"] ;
258 -> 274 ;
275 [label="gini = 0.0\nsamples = 4\nvalue = [4, 0]"] ;
274 -> 275 ;
276 [label="hours-per-week <= 53.0\ngini = 0.4938\nsamples = 9\nvalue = [5, 4]"] ;
274 -> 276 ;
277 [label="gini = 0.0\nsamples = 2\nvalue = [0, 2]"] ;
276 -> 277 ;
278 [label="age <= 31.0\ngini = 0.4082\nsamples = 7\nvalue = [5, 2]"] ;
276 -> 278 ;
279 [label="gini = 0.0\nsamples = 1\nvalue = [0, 1]"] ;
278 -> 279 ;
280 [label="sex_Female <= 0.5\ngini = 0.2778\nsamples = 6\nvalue = [5, 1]"] ;
278 -> 280 ;
281 [label="gini = 0.0\nsamples = 5\nvalue = [5, 0]"] ;
280 -> 281 ;
282 [label="gini = 0.0\nsamples = 1\nvalue = [0, 1]"] ;
280 -> 282 ;
283 [label="hours-per-week <= 62.5\ngini = 0.4032\nsamples = 25\nvalue = [18, 7]"] ;
257 -> 283 ;
284 [label="education_12th <= 0.5\ngini = 0.255\nsamples = 20\nvalue = [17, 3]"] ;
283 -> 284 ;
285 [label="fnlwgt <= 58156.5\ngini = 0.1884\nsamples = 19\nvalue = [17, 2]"] ;
284 -> 285 ;
286 [label="gini = 0.0\nsamples = 1\nvalue = [0, 1]"] ;
285 -> 286 ;
287 [label="fnlwgt <= 114965.0\ngini = 0.1049\nsamples = 18\nvalue = [17, 1]"] ;
285 -> 287 ;
288 [label="fnlwgt <= 102419.5\ngini = 0.4444\nsamples = 3\nvalue = [2, 1]"] ;
287 -> 288 ;
289 [label="gini = 0.0\nsamples = 2\nvalue = [2, 0]"] ;
288 -> 289 ;
290 [label="gini = 0.0\nsamples = 1\nvalue = [0, 1]"] ;
288 -> 290 ;
291 [label="gini = 0.0\nsamples = 15\nvalue = [15, 0]"] ;
287 -> 291 ;
292 [label="gini = 0.0\nsamples = 1\nvalue = [0, 1]"] ;
284 -> 292 ;
293 [label="native-country_Cuba <= 0.5\ngini = 0.32\nsamples = 5\nvalue = [1, 4]"] ;
283 -> 293 ;
294 [label="gini = 0.0\nsamples = 4\nvalue = [0, 4]"] ;
293 -> 294 ;
295 [label="gini = 0.0\nsamples = 1\nvalue = [1, 0]"] ;
293 -> 295 ;
296 [label="education-num <= 10.5\ngini = 0.0843\nsamples = 726\nvalue = [694, 32]"] ;
256 -> 296 ;
297 [label="fnlwgt <= 30808.5\ngini = 0.0672\nsamples = 632\nvalue = [610, 22]"] ;
296 -> 297 ;
298 [label="occupation_Transport-moving <= 0.5\ngini = 0.2975\nsamples = 11\nvalue = [9, 2]"] ;
297 -> 298 ;
299 [label="hours-per-week <= 49.0\ngini = 0.18\nsamples = 10\nvalue = [9, 1]"] ;
298 -> 299 ;
300 [label="occupation_Adm-clerical <= 0.5\ngini = 0.5\nsamples = 2\nvalue = [1, 1]"] ;
299 -> 300 ;
301 [label="gini = 0.0\nsamples = 1\nvalue = [0, 1]"] ;
300 -> 301 ;
302 [label="gini = 0.0\nsamples = 1\nvalue = [1, 0]"] ;
300 -> 302 ;
303 [label="gini = 0.0\nsamples = 8\nvalue = [8, 0]"] ;
299 -> 303 ;
304 [label="gini = 0.0\nsamples = 1\nvalue = [0, 1]"] ;
298 -> 304 ;
305 [label="education_9th <= 0.5\ngini = 0.0623\nsamples = 621\nvalue = [601, 20]"] ;
297 -> 305 ;
306 [label="fnlwgt <= 465605.5\ngini = 0.0575\nsamples = 608\nvalue = [590, 18]"] ;
305 -> 306 ;
307 [label="hours-per-week <= 41.5\ngini = 0.0524\nsamples = 594\nvalue = [578, 16]"] ;
306 -> 307 ;
308 [label="occupation_Other-service <= 0.5\ngini = 0.32\nsamples = 5\nvalue = [4, 1]"] ;
307 -> 308 ;
309 [label="gini = 0.0\nsamples = 4\nvalue = [4, 0]"] ;
308 -> 309 ;
310 [label="gini = 0.0\nsamples = 1\nvalue = [0, 1]"] ;
308 -> 310 ;
311 [label="education_7th-8th <= 0.5\ngini = 0.0496\nsamples = 589\nvalue = [574, 15]"] ;
307 -> 311 ;
312 [label="gini = 0.0469\nsamples = 583\nvalue = [569, 14]"] ;
311 -> 312 ;
313 [label="gini = 0.2778\nsamples = 6\nvalue = [5, 1]"] ;
311 -> 313 ;
314 [label="marital-status_Separated <= 0.5\ngini = 0.2449\nsamples = 14\nvalue = [12, 2]"] ;
306 -> 314 ;
315 [label="fnlwgt <= 477227.5\ngini = 0.142\nsamples = 13\nvalue = [12, 1]"] ;
314 -> 315 ;
316 [label="gini = 0.0\nsamples = 1\nvalue = [0, 1]"] ;
315 -> 316 ;
317 [label="gini = 0.0\nsamples = 12\nvalue = [12, 0]"] ;
315 -> 317 ;
318 [label="gini = 0.0\nsamples = 1\nvalue = [0, 1]"] ;
314 -> 318 ;
319 [label="hours-per-week <= 44.0\ngini = 0.2604\nsamples = 13\nvalue = [11, 2]"] ;
305 -> 319 ;
320 [label="gini = 0.0\nsamples = 1\nvalue = [0, 1]"] ;
319 -> 320 ;
321 [label="native-country_? <= 0.5\ngini = 0.1528\nsamples = 12\nvalue = [11, 1]"] ;
319 -> 321 ;
322 [label="gini = 0.0\nsamples = 11\nvalue = [11, 0]"] ;
321 -> 322 ;
323 [label="gini = 0.0\nsamples = 1\nvalue = [0, 1]"] ;
321 -> 323 ;
324 [label="capital-gain <= 3692.0\ngini = 0.1901\nsamples = 94\nvalue = [84, 10]"] ;
296 -> 324 ;
325 [label="hours-per-week <= 64.5\ngini = 0.1748\nsamples = 93\nvalue = [84, 9]"] ;
324 -> 325 ;
326 [label="fnlwgt <= 213271.5\ngini = 0.1464\nsamples = 88\nvalue = [81, 7]"] ;
325 -> 326 ;
327 [label="fnlwgt <= 205085.5\ngini = 0.2122\nsamples = 58\nvalue = [51, 7]"] ;
326 -> 327 ;
328 [label="age <= 35.5\ngini = 0.1396\nsamples = 53\nvalue = [49, 4]"] ;
327 -> 328 ;
329 [label="gini = 0.0832\nsamples = 46\nvalue = [44, 2]"] ;
328 -> 329 ;
330 [label="gini = 0.4082\nsamples = 7\nvalue = [5, 2]"] ;
328 -> 330 ;
331 [label="hours-per-week <= 47.5\ngini = 0.48\nsamples = 5\nvalue = [2, 3]"] ;
327 -> 331 ;
332 [label="gini = 0.0\nsamples = 2\nvalue = [2, 0]"] ;
331 -> 332 ;
333 [label="gini = 0.0\nsamples = 3\nvalue = [0, 3]"] ;
331 -> 333 ;
334 [label="gini = 0.0\nsamples = 30\nvalue = [30, 0]"] ;
326 -> 334 ;
335 [label="occupation_Exec-managerial <= 0.5\ngini = 0.48\nsamples = 5\nvalue = [3, 2]"] ;
325 -> 335 ;
336 [label="fnlwgt <= 313562.5\ngini = 0.375\nsamples = 4\nvalue = [3, 1]"] ;
335 -> 336 ;
337 [label="gini = 0.0\nsamples = 2\nvalue = [2, 0]"] ;
336 -> 337 ;
338 [label="education_Assoc-acdm <= 0.5\ngini = 0.5\nsamples = 2\nvalue = [1, 1]"] ;
336 -> 338 ;
339 [label="gini = 0.0\nsamples = 1\nvalue = [1, 0]"] ;
338 -> 339 ;
340 [label="gini = 0.0\nsamples = 1\nvalue = [0, 1]"] ;
338 -> 340 ;
341 [label="gini = 0.0\nsamples = 1\nvalue = [0, 1]"] ;
335 -> 341 ;
342 [label="gini = 0.0\nsamples = 1\nvalue = [0, 1]"] ;
324 -> 342 ;
343 [label="gini = 0.0\nsamples = 1\nvalue = [0, 1]"] ;
225 -> 343 ;
344 [label="capital-gain <= 4668.5\ngini = 0.1999\nsamples = 888\nvalue = [788, 100]"] ;
224 -> 344 ;
345 [label="sex_Female <= 0.5\ngini = 0.1928\nsamples = 879\nvalue = [784, 95]"] ;
344 -> 345 ;
346 [label="fnlwgt <= 361071.0\ngini = 0.2529\nsamples = 458\nvalue = [390, 68]"] ;
345 -> 346 ;
347 [label="marital-status_Never-married <= 0.5\ngini = 0.2345\nsamples = 435\nvalue = [376, 59]"] ;
346 -> 347 ;
348 [label="occupation_Tech-support <= 0.5\ngini = 0.2828\nsamples = 311\nvalue = [258, 53]"] ;
347 -> 348 ;
349 [label="education-num <= 9.5\ngini = 0.2727\nsamples = 307\nvalue = [257, 50]"] ;
348 -> 349 ;
350 [label="fnlwgt <= 26943.0\ngini = 0.1995\nsamples = 178\nvalue = [158, 20]"] ;
349 -> 350 ;
351 [label="education_HS-grad <= 0.5\ngini = 0.4444\nsamples = 3\nvalue = [1, 2]"] ;
350 -> 351 ;
352 [label="gini = 0.0\nsamples = 1\nvalue = [1, 0]"] ;
351 -> 352 ;
353 [label="gini = 0.0\nsamples = 2\nvalue = [0, 2]"] ;
351 -> 353 ;
354 [label="age <= 51.5\ngini = 0.1846\nsamples = 175\nvalue = [157, 18]"] ;
350 -> 354 ;
355 [label="fnlwgt <= 321184.5\ngini = 0.0899\nsamples = 106\nvalue = [101, 5]"] ;
354 -> 355 ;
356 [label="gini = 0.0594\nsamples = 98\nvalue = [95, 3]"] ;
355 -> 356 ;
357 [label="gini = 0.375\nsamples = 8\nvalue = [6, 2]"] ;
355 -> 357 ;
358 [label="relationship_Not-in-family <= 0.5\ngini = 0.3058\nsamples = 69\nvalue = [56, 13]"] ;
354 -> 358 ;
359 [label="gini = 0.4753\nsamples = 18\nvalue = [11, 7]"] ;
358 -> 359 ;
360 [label="gini = 0.2076\nsamples = 51\nvalue = [45, 6]"] ;
358 -> 360 ;
361 [label="hours-per-week <= 45.5\ngini = 0.3569\nsamples = 129\nvalue = [99, 30]"] ;
349 -> 361 ;
362 [label="occupation_Exec-managerial <= 0.5\ngini = 0.1884\nsamples = 38\nvalue = [34, 4]"] ;
361 -> 362 ;
363 [label="fnlwgt <= 339936.0\ngini = 0.1172\nsamples = 32\nvalue = [30, 2]"] ;
362 -> 363 ;
364 [label="gini = 0.0624\nsamples = 31\nvalue = [30, 1]"] ;
363 -> 364 ;
365 [label="gini = 0.0\nsamples = 1\nvalue = [0, 1]"] ;
363 -> 365 ;
366 [label="education_Some-college <= 0.5\ngini = 0.4444\nsamples = 6\nvalue = [4, 2]"] ;
362 -> 366 ;
367 [label="gini = 0.0\nsamples = 1\nvalue = [0, 1]"] ;
366 -> 367 ;
368 [label="gini = 0.32\nsamples = 5\nvalue = [4, 1]"] ;
366 -> 368 ;
369 [label="hours-per-week <= 49.0\ngini = 0.4082\nsamples = 91\nvalue = [65, 26]"] ;
361 -> 369 ;
370 [label="fnlwgt <= 203728.5\ngini = 0.4978\nsamples = 15\nvalue = [7, 8]"] ;
369 -> 370 ;
371 [label="gini = 0.4628\nsamples = 11\nvalue = [7, 4]"] ;
370 -> 371 ;
372 [label="gini = 0.0\nsamples = 4\nvalue = [0, 4]"] ;
370 -> 372 ;
373 [label="age <= 43.5\ngini = 0.3615\nsamples = 76\nvalue = [58, 18]"] ;
369 -> 373 ;
374 [label="gini = 0.48\nsamples = 25\nvalue = [15, 10]"] ;
373 -> 374 ;
375 [label="gini = 0.2645\nsamples = 51\nvalue = [43, 8]"] ;
373 -> 375 ;
376 [label="education-num <= 9.5\ngini = 0.375\nsamples = 4\nvalue = [1, 3]"] ;
348 -> 376 ;
377 [label="gini = 0.0\nsamples = 3\nvalue = [0, 3]"] ;
376 -> 377 ;
378 [label="gini = 0.0\nsamples = 1\nvalue = [1, 0]"] ;
376 -> 378 ;
379 [label="capital-loss <= 1534.0\ngini = 0.0921\nsamples = 124\nvalue = [118, 6]"] ;
347 -> 379 ;
380 [label="age <= 59.5\ngini = 0.065\nsamples = 119\nvalue = [115, 4]"] ;
379 -> 380 ;
381 [label="occupation_Adm-clerical <= 0.5\ngini = 0.0517\nsamples = 113\nvalue = [110, 3]"] ;
380 -> 381 ;
382 [label="fnlwgt <= 183920.0\ngini = 0.0374\nsamples = 105\nvalue = [103, 2]"] ;
381 -> 382 ;
383 [label="gini = 0.0\nsamples = 66\nvalue = [66, 0]"] ;
382 -> 383 ;
384 [label="fnlwgt <= 188732.0\ngini = 0.0973\nsamples = 39\nvalue = [37, 2]"] ;
382 -> 384 ;
385 [label="gini = 0.5\nsamples = 2\nvalue = [1, 1]"] ;
384 -> 385 ;
386 [label="gini = 0.0526\nsamples = 37\nvalue = [36, 1]"] ;
384 -> 386 ;
387 [label="fnlwgt <= 170496.0\ngini = 0.2188\nsamples = 8\nvalue = [7, 1]"] ;
381 -> 387 ;
388 [label="education-num <= 9.5\ngini = 0.5\nsamples = 2\nvalue = [1, 1]"] ;
387 -> 388 ;
389 [label="gini = 0.0\nsamples = 1\nvalue = [1, 0]"] ;
388 -> 389 ;
390 [label="gini = 0.0\nsamples = 1\nvalue = [0, 1]"] ;
388 -> 390 ;
391 [label="gini = 0.0\nsamples = 6\nvalue = [6, 0]"] ;
387 -> 391 ;
392 [label="fnlwgt <= 51439.0\ngini = 0.2778\nsamples = 6\nvalue = [5, 1]"] ;
380 -> 392 ;
393 [label="gini = 0.0\nsamples = 1\nvalue = [0, 1]"] ;
392 -> 393 ;
394 [label="gini = 0.0\nsamples = 5\nvalue = [5, 0]"] ;
392 -> 394 ;
395 [label="capital-loss <= 1577.0\ngini = 0.48\nsamples = 5\nvalue = [3, 2]"] ;
379 -> 395 ;
396 [label="gini = 0.0\nsamples = 2\nvalue = [0, 2]"] ;
395 -> 396 ;
397 [label="gini = 0.0\nsamples = 3\nvalue = [3, 0]"] ;
395 -> 397 ;
398 [label="education_Some-college <= 0.5\ngini = 0.4764\nsamples = 23\nvalue = [14, 9]"] ;
346 -> 398 ;
399 [label="occupation_Craft-repair <= 0.5\ngini = 0.32\nsamples = 15\nvalue = [12, 3]"] ;
398 -> 399 ;
400 [label="occupation_Prof-specialty <= 0.5\ngini = 0.2449\nsamples = 14\nvalue = [12, 2]"] ;
399 -> 400 ;
401 [label="age <= 53.0\ngini = 0.142\nsamples = 13\nvalue = [12, 1]"] ;
400 -> 401 ;
402 [label="gini = 0.0\nsamples = 12\nvalue = [12, 0]"] ;
401 -> 402 ;
403 [label="gini = 0.0\nsamples = 1\nvalue = [0, 1]"] ;
401 -> 403 ;
404 [label="gini = 0.0\nsamples = 1\nvalue = [0, 1]"] ;
400 -> 404 ;
405 [label="gini = 0.0\nsamples = 1\nvalue = [0, 1]"] ;
399 -> 405 ;
406 [label="fnlwgt <= 420118.0\ngini = 0.375\nsamples = 8\nvalue = [2, 6]"] ;
398 -> 406 ;
407 [label="gini = 0.0\nsamples = 5\nvalue = [0, 5]"] ;
406 -> 407 ;
408 [label="relationship_Own-child <= 0.5\ngini = 0.4444\nsamples = 3\nvalue = [2, 1]"] ;
406 -> 408 ;
409 [label="gini = 0.0\nsamples = 2\nvalue = [2, 0]"] ;
408 -> 409 ;
410 [label="gini = 0.0\nsamples = 1\nvalue = [0, 1]"] ;
408 -> 410 ;
411 [label="relationship_Wife <= 0.5\ngini = 0.12\nsamples = 421\nvalue = [394, 27]"] ;
345 -> 411 ;
412 [label="native-country_Greece <= 0.5\ngini = 0.1161\nsamples = 420\nvalue = [394, 26]"] ;
411 -> 412 ;
413 [label="occupation_Tech-support <= 0.5\ngini = 0.1122\nsamples = 419\nvalue = [394, 25]"] ;
412 -> 413 ;
414 [label="education-num <= 9.5\ngini = 0.1018\nsamples = 409\nvalue = [387, 22]"] ;
413 -> 414 ;
415 [label="workclass_Self-emp-inc <= 0.5\ngini = 0.0375\nsamples = 209\nvalue = [205, 4]"] ;
414 -> 415 ;
416 [label="marital-status_Married-spouse-absent <= 0.5\ngini = 0.0287\nsamples = 206\nvalue = [203, 3]"] ;
415 -> 416 ;
417 [label="workclass_State-gov <= 0.5\ngini = 0.0198\nsamples = 200\nvalue = [198, 2]"] ;
416 -> 417 ;
418 [label="gini = 0.0103\nsamples = 193\nvalue = [192, 1]"] ;
417 -> 418 ;
419 [label="gini = 0.2449\nsamples = 7\nvalue = [6, 1]"] ;
417 -> 419 ;
420 [label="race_White <= 0.5\ngini = 0.2778\nsamples = 6\nvalue = [5, 1]"] ;
416 -> 420 ;
421 [label="gini = 0.0\nsamples = 1\nvalue = [0, 1]"] ;
420 -> 421 ;
422 [label="gini = 0.0\nsamples = 5\nvalue = [5, 0]"] ;
420 -> 422 ;
423 [label="native-country_United-States <= 0.5\ngini = 0.4444\nsamples = 3\nvalue = [2, 1]"] ;
415 -> 423 ;
424 [label="gini = 0.0\nsamples = 2\nvalue = [2, 0]"] ;
423 -> 424 ;
425 [label="gini = 0.0\nsamples = 1\nvalue = [0, 1]"] ;
423 -> 425 ;
426 [label="occupation_? <= 0.5\ngini = 0.1638\nsamples = 200\nvalue = [182, 18]"] ;
414 -> 426 ;
427 [label="occupation_Protective-serv <= 0.5\ngini = 0.1563\nsamples = 199\nvalue = [182, 17]"] ;
426 -> 427 ;
428 [label="age <= 46.5\ngini = 0.1486\nsamples = 198\nvalue = [182, 16]"] ;
427 -> 428 ;
429 [label="gini = 0.0754\nsamples = 102\nvalue = [98, 4]"] ;
428 -> 429 ;
430 [label="gini = 0.2188\nsamples = 96\nvalue = [84, 12]"] ;
428 -> 430 ;
431 [label="gini = 0.0\nsamples = 1\nvalue = [0, 1]"] ;
427 -> 431 ;
432 [label="gini = 0.0\nsamples = 1\nvalue = [0, 1]"] ;
426 -> 432 ;
433 [label="marital-status_Divorced <= 0.5\ngini = 0.42\nsamples = 10\nvalue = [7, 3]"] ;
413 -> 433 ;
434 [label="gini = 0.0\nsamples = 2\nvalue = [0, 2]"] ;
433 -> 434 ;
435 [label="fnlwgt <= 129209.0\ngini = 0.2188\nsamples = 8\nvalue = [7, 1]"] ;
433 -> 435 ;
436 [label="gini = 0.0\nsamples = 1\nvalue = [0, 1]"] ;
435 -> 436 ;
437 [label="gini = 0.0\nsamples = 7\nvalue = [7, 0]"] ;
435 -> 437 ;
438 [label="gini = 0.0\nsamples = 1\nvalue = [0, 1]"] ;
412 -> 438 ;
439 [label="gini = 0.0\nsamples = 1\nvalue = [0, 1]"] ;
411 -> 439 ;
440 [label="capital-gain <= 5194.5\ngini = 0.4938\nsamples = 9\nvalue = [4, 5]"] ;
344 -> 440 ;
441 [label="occupation_Machine-op-inspct <= 0.5\ngini = 0.2778\nsamples = 6\nvalue = [1, 5]"] ;
440 -> 441 ;
442 [label="gini = 0.0\nsamples = 5\nvalue = [0, 5]"] ;
441 -> 442 ;
443 [label="gini = 0.0\nsamples = 1\nvalue = [1, 0]"] ;
441 -> 443 ;
444 [label="gini = 0.0\nsamples = 3\nvalue = [3, 0]"] ;
440 -> 444 ;
445 [label="fnlwgt <= 125450.5\ngini = 0.4986\nsamples = 57\nvalue = [30, 27]"] ;
3 -> 445 ;
446 [label="age <= 60.0\ngini = 0.3457\nsamples = 18\nvalue = [4, 14]"] ;
445 -> 446 ;
447 [label="occupation_Sales <= 0.5\ngini = 0.1244\nsamples = 15\nvalue = [1, 14]"] ;
446 -> 447 ;
448 [label="gini = 0.0\nsamples = 14\nvalue = [0, 14]"] ;
447 -> 448 ;
449 [label="gini = 0.0\nsamples = 1\nvalue = [1, 0]"] ;
447 -> 449 ;
450 [label="gini = 0.0\nsamples = 3\nvalue = [3, 0]"] ;
446 -> 450 ;
451 [label="capital-loss <= 2391.5\ngini = 0.4444\nsamples = 39\nvalue = [26, 13]"] ;
445 -> 451 ;
452 [label="education-num <= 11.5\ngini = 0.2873\nsamples = 23\nvalue = [19, 4]"] ;
451 -> 452 ;
453 [label="workclass_Private <= 0.5\ngini = 0.2355\nsamples = 22\nvalue = [19, 3]"] ;
452 -> 453 ;
454 [label="gini = 0.0\nsamples = 10\nvalue = [10, 0]"] ;
453 -> 454 ;
455 [label="relationship_Own-child <= 0.5\ngini = 0.375\nsamples = 12\nvalue = [9, 3]"] ;
453 -> 455 ;
456 [label="occupation_Farming-fishing <= 0.5\ngini = 0.2975\nsamples = 11\nvalue = [9, 2]"] ;
455 -> 456 ;
457 [label="occupation_Exec-managerial <= 0.5\ngini = 0.18\nsamples = 10\nvalue = [9, 1]"] ;
456 -> 457 ;
458 [label="gini = 0.0\nsamples = 8\nvalue = [8, 0]"] ;
457 -> 458 ;
459 [label="sex_Female <= 0.5\ngini = 0.5\nsamples = 2\nvalue = [1, 1]"] ;
457 -> 459 ;
460 [label="gini = 0.0\nsamples = 1\nvalue = [1, 0]"] ;
459 -> 460 ;
461 [label="gini = 0.0\nsamples = 1\nvalue = [0, 1]"] ;
459 -> 461 ;
462 [label="gini = 0.0\nsamples = 1\nvalue = [0, 1]"] ;
456 -> 462 ;
463 [label="gini = 0.0\nsamples = 1\nvalue = [0, 1]"] ;
455 -> 463 ;
464 [label="gini = 0.0\nsamples = 1\nvalue = [0, 1]"] ;
452 -> 464 ;
465 [label="capital-loss <= 3253.5\ngini = 0.4922\nsamples = 16\nvalue = [7, 9]"] ;
451 -> 465 ;
466 [label="gini = 0.0\nsamples = 9\nvalue = [0, 9]"] ;
465 -> 466 ;
467 [label="gini = 0.0\nsamples = 7\nvalue = [7, 0]"] ;
465 -> 467 ;
468 [label="hours-per-week <= 43.5\ngini = 0.2531\nsamples = 3410\nvalue = [2903, 507]"] ;
2 -> 468 ;
469 [label="age <= 33.5\ngini = 0.1608\nsamples = 2302\nvalue = [2099, 203]"] ;
468 -> 469 ;
470 [label="relationship_Wife <= 0.5\ngini = 0.0463\nsamples = 1181\nvalue = [1153, 28]"] ;
469 -> 470 ;
471 [label="capital-loss <= 2116.0\ngini = 0.0431\nsamples = 1179\nvalue = [1153, 26]"] ;
470 -> 471 ;
472 [label="age <= 29.5\ngini = 0.04\nsamples = 1175\nvalue = [1151, 24]"] ;
471 -> 472 ;
473 [label="marital-status_Separated <= 0.5\ngini = 0.0213\nsamples = 929\nvalue = [919, 10]"] ;
472 -> 473 ;
474 [label="fnlwgt <= 41011.0\ngini = 0.0193\nsamples = 924\nvalue = [915, 9]"] ;
473 -> 474 ;
475 [label="occupation_Craft-repair <= 0.5\ngini = 0.0973\nsamples = 39\nvalue = [37, 2]"] ;
474 -> 475 ;
476 [label="fnlwgt <= 40713.5\ngini = 0.0512\nsamples = 38\nvalue = [37, 1]"] ;
475 -> 476 ;
477 [label="gini = 0.0\nsamples = 36\nvalue = [36, 0]"] ;
476 -> 477 ;
478 [label="occupation_Exec-managerial <= 0.5\ngini = 0.5\nsamples = 2\nvalue = [1, 1]"] ;
476 -> 478 ;
479 [label="gini = 0.0\nsamples = 1\nvalue = [1, 0]"] ;
478 -> 479 ;
480 [label="gini = 0.0\nsamples = 1\nvalue = [0, 1]"] ;
478 -> 480 ;
481 [label="gini = 0.0\nsamples = 1\nvalue = [0, 1]"] ;
475 -> 481 ;
482 [label="capital-loss <= 1486.0\ngini = 0.0157\nsamples = 885\nvalue = [878, 7]"] ;
474 -> 482 ;
483 [label="education_Masters <= 0.5\ngini = 0.0137\nsamples = 870\nvalue = [864, 6]"] ;
482 -> 483 ;
484 [label="relationship_Unmarried <= 0.5\ngini = 0.0101\nsamples = 791\nvalue = [787, 4]"] ;
483 -> 484 ;
485 [label="occupation_Adm-clerical <= 0.5\ngini = 0.0078\nsamples = 764\nvalue = [761, 3]"] ;
484 -> 485 ;
486 [label="fnlwgt <= 323996.5\ngini = 0.0033\nsamples = 612\nvalue = [611, 1]"] ;
485 -> 486 ;
487 [label="gini = 0.0\nsamples = 537\nvalue = [537, 0]"] ;
486 -> 487 ;
488 [label="gini = 0.0263\nsamples = 75\nvalue = [74, 1]"] ;
486 -> 488 ;
489 [label="fnlwgt <= 199150.0\ngini = 0.026\nsamples = 152\nvalue = [150, 2]"] ;
485 -> 489 ;
490 [label="gini = 0.047\nsamples = 83\nvalue = [81, 2]"] ;
489 -> 490 ;
491 [label="gini = 0.0\nsamples = 69\nvalue = [69, 0]"] ;
489 -> 491 ;
492 [label="occupation_Exec-managerial <= 0.5\ngini = 0.0713\nsamples = 27\nvalue = [26, 1]"] ;
484 -> 492 ;
493 [label="gini = 0.0\nsamples = 22\nvalue = [22, 0]"] ;
492 -> 493 ;
494 [label="fnlwgt <= 163012.0\ngini = 0.32\nsamples = 5\nvalue = [4, 1]"] ;
492 -> 494 ;
495 [label="gini = 0.0\nsamples = 1\nvalue = [0, 1]"] ;
494 -> 495 ;
496 [label="gini = 0.0\nsamples = 4\nvalue = [4, 0]"] ;
494 -> 496 ;
497 [label="fnlwgt <= 345340.0\ngini = 0.0494\nsamples = 79\nvalue = [77, 2]"] ;
483 -> 497 ;
498 [label="relationship_Own-child <= 0.5\ngini = 0.0263\nsamples = 75\nvalue = [74, 1]"] ;
497 -> 498 ;
499 [label="gini = 0.0\nsamples = 50\nvalue = [50, 0]"] ;
498 -> 499 ;
500 [label="fnlwgt <= 188084.5\ngini = 0.0768\nsamples = 25\nvalue = [24, 1]"] ;
498 -> 500 ;
501 [label="gini = 0.1653\nsamples = 11\nvalue = [10, 1]"] ;
500 -> 501 ;
502 [label="gini = 0.0\nsamples = 14\nvalue = [14, 0]"] ;
500 -> 502 ;
503 [label="fnlwgt <= 373063.0\ngini = 0.375\nsamples = 4\nvalue = [3, 1]"] ;
497 -> 503 ;
504 [label="gini = 0.0\nsamples = 1\nvalue = [0, 1]"] ;
503 -> 504 ;
505 [label="gini = 0.0\nsamples = 3\nvalue = [3, 0]"] ;
503 -> 505 ;
506 [label="capital-loss <= 1577.0\ngini = 0.1244\nsamples = 15\nvalue = [14, 1]"] ;
482 -> 506 ;
507 [label="gini = 0.0\nsamples = 1\nvalue = [0, 1]"] ;
506 -> 507 ;
508 [label="gini = 0.0\nsamples = 14\nvalue = [14, 0]"] ;
506 -> 508 ;
509 [label="native-country_United-States <= 0.5\ngini = 0.32\nsamples = 5\nvalue = [4, 1]"] ;
473 -> 509 ;
510 [label="gini = 0.0\nsamples = 1\nvalue = [0, 1]"] ;
509 -> 510 ;
511 [label="gini = 0.0\nsamples = 4\nvalue = [4, 0]"] ;
509 -> 511 ;
512 [label="sex_Male <= 0.5\ngini = 0.1073\nsamples = 246\nvalue = [232, 14]"] ;
472 -> 512 ;
513 [label="occupation_Tech-support <= 0.5\ngini = 0.0161\nsamples = 123\nvalue = [122, 1]"] ;
512 -> 513 ;
514 [label="gini = 0.0\nsamples = 115\nvalue = [115, 0]"] ;
513 -> 514 ;
515 [label="fnlwgt <= 171021.5\ngini = 0.2188\nsamples = 8\nvalue = [7, 1]"] ;
513 -> 515 ;
516 [label="age <= 31.0\ngini = 0.5\nsamples = 2\nvalue = [1, 1]"] ;
515 -> 516 ;
517 [label="gini = 0.0\nsamples = 1\nvalue = [0, 1]"] ;
516 -> 517 ;
518 [label="gini = 0.0\nsamples = 1\nvalue = [1, 0]"] ;
516 -> 518 ;
519 [label="gini = 0.0\nsamples = 6\nvalue = [6, 0]"] ;
515 -> 519 ;
520 [label="occupation_Sales <= 0.5\ngini = 0.189\nsamples = 123\nvalue = [110, 13]"] ;
512 -> 520 ;
521 [label="education-num <= 14.5\ngini = 0.1515\nsamples = 109\nvalue = [100, 9]"] ;
520 -> 521 ;
522 [label="fnlwgt <= 138993.5\ngini = 0.1128\nsamples = 100\nvalue = [94, 6]"] ;
521 -> 522 ;
523 [label="fnlwgt <= 134457.0\ngini = 0.213\nsamples = 33\nvalue = [29, 4]"] ;
522 -> 523 ;
524 [label="workclass_Federal-gov <= 0.5\ngini = 0.1699\nsamples = 32\nvalue = [29, 3]"] ;
523 -> 524 ;
525 [label="age <= 31.5\ngini = 0.1244\nsamples = 30\nvalue = [28, 2]"] ;
524 -> 525 ;
526 [label="gini = 0.0\nsamples = 17\nvalue = [17, 0]"] ;
525 -> 526 ;
527 [label="gini = 0.2604\nsamples = 13\nvalue = [11, 2]"] ;
525 -> 527 ;
528 [label="fnlwgt <= 93146.5\ngini = 0.5\nsamples = 2\nvalue = [1, 1]"] ;
524 -> 528 ;
529 [label="gini = 0.0\nsamples = 1\nvalue = [0, 1]"] ;
528 -> 529 ;
530 [label="gini = 0.0\nsamples = 1\nvalue = [1, 0]"] ;
528 -> 530 ;
531 [label="gini = 0.0\nsamples = 1\nvalue = [0, 1]"] ;
523 -> 531 ;
532 [label="marital-status_Divorced <= 0.5\ngini = 0.0579\nsamples = 67\nvalue = [65, 2]"] ;
522 -> 532 ;
533 [label="capital-loss <= 1486.0\ngini = 0.0298\nsamples = 66\nvalue = [65, 1]"] ;
532 -> 533 ;
534 [label="gini = 0.0\nsamples = 62\nvalue = [62, 0]"] ;
533 -> 534 ;
535 [label="capital-loss <= 1652.5\ngini = 0.375\nsamples = 4\nvalue = [3, 1]"] ;
533 -> 535 ;
536 [label="gini = 0.0\nsamples = 1\nvalue = [0, 1]"] ;
535 -> 536 ;
537 [label="gini = 0.0\nsamples = 3\nvalue = [3, 0]"] ;
535 -> 537 ;
538 [label="gini = 0.0\nsamples = 1\nvalue = [0, 1]"] ;
532 -> 538 ;
539 [label="age <= 31.5\ngini = 0.4444\nsamples = 9\nvalue = [6, 3]"] ;
521 -> 539 ;
540 [label="gini = 0.0\nsamples = 5\nvalue = [5, 0]"] ;
539 -> 540 ;
541 [label="fnlwgt <= 155365.5\ngini = 0.375\nsamples = 4\nvalue = [1, 3]"] ;
539 -> 541 ;
542 [label="fnlwgt <= 124592.5\ngini = 0.5\nsamples = 2\nvalue = [1, 1]"] ;
541 -> 542 ;
543 [label="gini = 0.0\nsamples = 1\nvalue = [0, 1]"] ;
542 -> 543 ;
544 [label="gini = 0.0\nsamples = 1\nvalue = [1, 0]"] ;
542 -> 544 ;
545 [label="gini = 0.0\nsamples = 2\nvalue = [0, 2]"] ;
541 -> 545 ;
546 [label="relationship_Not-in-family <= 0.5\ngini = 0.4082\nsamples = 14\nvalue = [10, 4]"] ;
520 -> 546 ;
547 [label="gini = 0.0\nsamples = 5\nvalue = [5, 0]"] ;
546 -> 547 ;
548 [label="fnlwgt <= 184522.5\ngini = 0.4938\nsamples = 9\nvalue = [5, 4]"] ;
546 -> 548 ;
549 [label="gini = 0.0\nsamples = 3\nvalue = [0, 3]"] ;
548 -> 549 ;
550 [label="capital-loss <= 782.0\ngini = 0.2778\nsamples = 6\nvalue = [5, 1]"] ;
548 -> 550 ;
551 [label="gini = 0.0\nsamples = 5\nvalue = [5, 0]"] ;
550 -> 551 ;
552 [label="gini = 0.0\nsamples = 1\nvalue = [0, 1]"] ;
550 -> 552 ;
553 [label="age <= 24.0\ngini = 0.5\nsamples = 4\nvalue = [2, 2]"] ;
471 -> 553 ;
554 [label="gini = 0.0\nsamples = 2\nvalue = [0, 2]"] ;
553 -> 554 ;
555 [label="gini = 0.0\nsamples = 2\nvalue = [2, 0]"] ;
553 -> 555 ;
556 [label="gini = 0.0\nsamples = 2\nvalue = [0, 2]"] ;
470 -> 556 ;
557 [label="capital-loss <= 2365.5\ngini = 0.2635\nsamples = 1121\nvalue = [946, 175]"] ;
469 -> 557 ;
558 [label="education-num <= 14.5\ngini = 0.2529\nsamples = 1111\nvalue = [946, 165]"] ;
557 -> 558 ;
559 [label="capital-gain <= 4668.5\ngini = 0.2246\nsamples = 1024\nvalue = [892, 132]"] ;
558 -> 559 ;
560 [label="age <= 46.5\ngini = 0.216\nsamples = 1007\nvalue = [883, 124]"] ;
559 -> 560 ;
561 [label="native-country_Taiwan <= 0.5\ngini = 0.1665\nsamples = 633\nvalue = [575, 58]"] ;
560 -> 561 ;
562 [label="relationship_Not-in-family <= 0.5\ngini = 0.1641\nsamples = 632\nvalue = [575, 57]"] ;
561 -> 562 ;
563 [label="occupation_Sales <= 0.5\ngini = 0.0915\nsamples = 229\nvalue = [218, 11]"] ;
562 -> 563 ;
564 [label="marital-status_Widowed <= 0.5\ngini = 0.0465\nsamples = 210\nvalue = [205, 5]"] ;
563 -> 564 ;
565 [label="native-country_Philippines <= 0.5\ngini = 0.03\nsamples = 197\nvalue = [194, 3]"] ;
564 -> 565 ;
566 [label="fnlwgt <= 408540.5\ngini = 0.0205\nsamples = 193\nvalue = [191, 2]"] ;
565 -> 566 ;
567 [label="gini = 0.0106\nsamples = 188\nvalue = [187, 1]"] ;
566 -> 567 ;
568 [label="gini = 0.32\nsamples = 5\nvalue = [4, 1]"] ;
566 -> 568 ;
569 [label="occupation_Prof-specialty <= 0.5\ngini = 0.375\nsamples = 4\nvalue = [3, 1]"] ;
565 -> 569 ;
570 [label="gini = 0.0\nsamples = 3\nvalue = [3, 0]"] ;
569 -> 570 ;
571 [label="gini = 0.0\nsamples = 1\nvalue = [0, 1]"] ;
569 -> 571 ;
572 [label="fnlwgt <= 55932.5\ngini = 0.2604\nsamples = 13\nvalue = [11, 2]"] ;
564 -> 572 ;
573 [label="gini = 0.0\nsamples = 1\nvalue = [0, 1]"] ;
572 -> 573 ;
574 [label="age <= 35.5\ngini = 0.1528\nsamples = 12\nvalue = [11, 1]"] ;
572 -> 574 ;
575 [label="gini = 0.0\nsamples = 1\nvalue = [0, 1]"] ;
574 -> 575 ;
576 [label="gini = 0.0\nsamples = 11\nvalue = [11, 0]"] ;
574 -> 576 ;
577 [label="age <= 45.0\ngini = 0.4321\nsamples = 19\nvalue = [13, 6]"] ;
563 -> 577 ;
578 [label="fnlwgt <= 310021.5\ngini = 0.3599\nsamples = 17\nvalue = [13, 4]"] ;
577 -> 578 ;
579 [label="age <= 42.5\ngini = 0.2449\nsamples = 14\nvalue = [12, 2]"] ;
578 -> 579 ;
580 [label="gini = 0.1528\nsamples = 12\nvalue = [11, 1]"] ;
579 -> 580 ;
581 [label="gini = 0.5\nsamples = 2\nvalue = [1, 1]"] ;
579 -> 581 ;
582 [label="fnlwgt <= 572438.0\ngini = 0.4444\nsamples = 3\nvalue = [1, 2]"] ;
578 -> 582 ;
583 [label="gini = 0.0\nsamples = 2\nvalue = [0, 2]"] ;
582 -> 583 ;
584 [label="gini = 0.0\nsamples = 1\nvalue = [1, 0]"] ;
582 -> 584 ;
585 [label="gini = 0.0\nsamples = 2\nvalue = [0, 2]"] ;
577 -> 585 ;
586 [label="hours-per-week <= 37.5\ngini = 0.2022\nsamples = 403\nvalue = [357, 46]"] ;
562 -> 586 ;
587 [label="occupation_Tech-support <= 0.5\ngini = 0.0217\nsamples = 91\nvalue = [90, 1]"] ;
586 -> 587 ;
588 [label="gini = 0.0\nsamples = 86\nvalue = [86, 0]"] ;
587 -> 588 ;
589 [label="education_Masters <= 0.5\ngini = 0.32\nsamples = 5\nvalue = [4, 1]"] ;
587 -> 589 ;
590 [label="gini = 0.0\nsamples = 4\nvalue = [4, 0]"] ;
589 -> 590 ;
591 [label="gini = 0.0\nsamples = 1\nvalue = [0, 1]"] ;
589 -> 591 ;
592 [label="occupation_Exec-managerial <= 0.5\ngini = 0.2469\nsamples = 312\nvalue = [267, 45]"] ;
586 -> 592 ;
593 [label="occupation_Prof-specialty <= 0.5\ngini = 0.2076\nsamples = 255\nvalue = [225, 30]"] ;
592 -> 593 ;
594 [label="native-country_Mexico <= 0.5\ngini = 0.1244\nsamples = 120\nvalue = [112, 8]"] ;
593 -> 594 ;
595 [label="gini = 0.1116\nsamples = 118\nvalue = [111, 7]"] ;
594 -> 595 ;
596 [label="gini = 0.5\nsamples = 2\nvalue = [1, 1]"] ;
594 -> 596 ;
597 [label="workclass_Private <= 0.5\ngini = 0.2728\nsamples = 135\nvalue = [113, 22]"] ;
593 -> 597 ;
598 [label="gini = 0.1362\nsamples = 68\nvalue = [63, 5]"] ;
597 -> 598 ;
599 [label="gini = 0.3787\nsamples = 67\nvalue = [50, 17]"] ;
597 -> 599 ;
600 [label="education_Masters <= 0.5\ngini = 0.3878\nsamples = 57\nvalue = [42, 15]"] ;
592 -> 600 ;
601 [label="age <= 39.5\ngini = 0.2887\nsamples = 40\nvalue = [33, 7]"] ;
600 -> 601 ;
602 [label="gini = 0.0868\nsamples = 22\nvalue = [21, 1]"] ;
601 -> 602 ;
603 [label="gini = 0.4444\nsamples = 18\nvalue = [12, 6]"] ;
601 -> 603 ;
604 [label="workclass_Private <= 0.5\ngini = 0.4983\nsamples = 17\nvalue = [9, 8]"] ;
600 -> 604 ;
605 [label="gini = 0.32\nsamples = 5\nvalue = [4, 1]"] ;
604 -> 605 ;
606 [label="gini = 0.4861\nsamples = 12\nvalue = [5, 7]"] ;
604 -> 606 ;
607 [label="gini = 0.0\nsamples = 1\nvalue = [0, 1]"] ;
561 -> 607 ;
608 [label="hours-per-week <= 31.0\ngini = 0.2907\nsamples = 374\nvalue = [308, 66]"] ;
560 -> 608 ;
609 [label="native-country_Japan <= 0.5\ngini = 0.0907\nsamples = 84\nvalue = [80, 4]"] ;
608 -> 609 ;
610 [label="marital-status_Married-spouse-absent <= 0.5\ngini = 0.0697\nsamples = 83\nvalue = [80, 3]"] ;
609 -> 610 ;
611 [label="occupation_Adm-clerical <= 0.5\ngini = 0.0487\nsamples = 80\nvalue = [78, 2]"] ;
610 -> 611 ;
612 [label="fnlwgt <= 43926.5\ngini = 0.026\nsamples = 76\nvalue = [75, 1]"] ;
611 -> 612 ;
613 [label="workclass_? <= 0.5\ngini = 0.2449\nsamples = 7\nvalue = [6, 1]"] ;
612 -> 613 ;
614 [label="gini = 0.0\nsamples = 6\nvalue = [6, 0]"] ;
613 -> 614 ;
615 [label="gini = 0.0\nsamples = 1\nvalue = [0, 1]"] ;
613 -> 615 ;
616 [label="gini = 0.0\nsamples = 69\nvalue = [69, 0]"] ;
612 -> 616 ;
617 [label="education_Masters <= 0.5\ngini = 0.375\nsamples = 4\nvalue = [3, 1]"] ;
611 -> 617 ;
618 [label="gini = 0.0\nsamples = 3\nvalue = [3, 0]"] ;
617 -> 618 ;
619 [label="gini = 0.0\nsamples = 1\nvalue = [0, 1]"] ;
617 -> 619 ;
620 [label="fnlwgt <= 237651.0\ngini = 0.4444\nsamples = 3\nvalue = [2, 1]"] ;
610 -> 620 ;
621 [label="gini = 0.0\nsamples = 1\nvalue = [0, 1]"] ;
620 -> 621 ;
622 [label="gini = 0.0\nsamples = 2\nvalue = [2, 0]"] ;
620 -> 622 ;
623 [label="gini = 0.0\nsamples = 1\nvalue = [0, 1]"] ;
609 -> 623 ;
624 [label="age <= 48.5\ngini = 0.3362\nsamples = 290\nvalue = [228, 62]"] ;
608 -> 624 ;
625 [label="fnlwgt <= 104358.5\ngini = 0.4352\nsamples = 50\nvalue = [34, 16]"] ;
624 -> 625 ;
626 [label="fnlwgt <= 64128.5\ngini = 0.2449\nsamples = 14\nvalue = [12, 2]"] ;
625 -> 626 ;
627 [label="sex_Female <= 0.5\ngini = 0.4444\nsamples = 3\nvalue = [1, 2]"] ;
626 -> 627 ;
628 [label="gini = 0.0\nsamples = 2\nvalue = [0, 2]"] ;
627 -> 628 ;
629 [label="gini = 0.0\nsamples = 1\nvalue = [1, 0]"] ;
627 -> 629 ;
630 [label="gini = 0.0\nsamples = 11\nvalue = [11, 0]"] ;
626 -> 630 ;
631 [label="occupation_Sales <= 0.5\ngini = 0.4753\nsamples = 36\nvalue = [22, 14]"] ;
625 -> 631 ;
632 [label="occupation_Exec-managerial <= 0.5\ngini = 0.4444\nsamples = 33\nvalue = [22, 11]"] ;
631 -> 632 ;
633 [label="hours-per-week <= 39.0\ngini = 0.355\nsamples = 26\nvalue = [20, 6]"] ;
632 -> 633 ;
634 [label="gini = 0.4444\nsamples = 6\nvalue = [2, 4]"] ;
633 -> 634 ;
635 [label="gini = 0.18\nsamples = 20\nvalue = [18, 2]"] ;
633 -> 635 ;
636 [label="marital-status_Never-married <= 0.5\ngini = 0.4082\nsamples = 7\nvalue = [2, 5]"] ;
632 -> 636 ;
637 [label="gini = 0.2778\nsamples = 6\nvalue = [1, 5]"] ;
636 -> 637 ;
638 [label="gini = 0.0\nsamples = 1\nvalue = [1, 0]"] ;
636 -> 638 ;
639 [label="gini = 0.0\nsamples = 3\nvalue = [0, 3]"] ;
631 -> 639 ;
640 [label="workclass_Local-gov <= 0.5\ngini = 0.3099\nsamples = 240\nvalue = [194, 46]"] ;
624 -> 640 ;
641 [label="hours-per-week <= 39.5\ngini = 0.2743\nsamples = 195\nvalue = [163, 32]"] ;
640 -> 641 ;
642 [label="age <= 67.5\ngini = 0.0588\nsamples = 33\nvalue = [32, 1]"] ;
641 -> 642 ;
643 [label="gini = 0.0\nsamples = 30\nvalue = [30, 0]"] ;
642 -> 643 ;
644 [label="occupation_Sales <= 0.5\ngini = 0.4444\nsamples = 3\nvalue = [2, 1]"] ;
642 -> 644 ;
645 [label="gini = 0.0\nsamples = 2\nvalue = [2, 0]"] ;
644 -> 645 ;
646 [label="gini = 0.0\nsamples = 1\nvalue = [0, 1]"] ;
644 -> 646 ;
647 [label="race_White <= 0.5\ngini = 0.3095\nsamples = 162\nvalue = [131, 31]"] ;
641 -> 647 ;
648 [label="workclass_State-gov <= 0.5\ngini = 0.0768\nsamples = 25\nvalue = [24, 1]"] ;
647 -> 648 ;
649 [label="gini = 0.0\nsamples = 20\nvalue = [20, 0]"] ;
648 -> 649 ;
650 [label="gini = 0.32\nsamples = 5\nvalue = [4, 1]"] ;
648 -> 650 ;
651 [label="education_Masters <= 0.5\ngini = 0.3421\nsamples = 137\nvalue = [107, 30]"] ;
647 -> 651 ;
652 [label="gini = 0.2825\nsamples = 94\nvalue = [78, 16]"] ;
651 -> 652 ;
653 [label="gini = 0.4392\nsamples = 43\nvalue = [29, 14]"] ;
651 -> 653 ;
654 [label="hours-per-week <= 33.5\ngini = 0.4286\nsamples = 45\nvalue = [31, 14]"] ;
640 -> 654 ;
655 [label="gini = 0.0\nsamples = 2\nvalue = [0, 2]"] ;
654 -> 655 ;
656 [label="age <= 50.5\ngini = 0.4024\nsamples = 43\nvalue = [31, 12]"] ;
654 -> 656 ;
657 [label="age <= 49.5\ngini = 0.5\nsamples = 10\nvalue = [5, 5]"] ;
656 -> 657 ;
658 [label="gini = 0.2778\nsamples = 6\nvalue = [5, 1]"] ;
657 -> 658 ;
659 [label="gini = 0.0\nsamples = 4\nvalue = [0, 4]"] ;
657 -> 659 ;
660 [label="fnlwgt <= 42423.0\ngini = 0.3343\nsamples = 33\nvalue = [26, 7]"] ;
656 -> 660 ;
661 [label="gini = 0.0\nsamples = 1\nvalue = [0, 1]"] ;
660 -> 661 ;
662 [label="gini = 0.3047\nsamples = 32\nvalue = [26, 6]"] ;
660 -> 662 ;
663 [label="capital-gain <= 5194.5\ngini = 0.4983\nsamples = 17\nvalue = [9, 8]"] ;
559 -> 663 ;
664 [label="gini = 0.0\nsamples = 8\nvalue = [0, 8]"] ;
663 -> 664 ;
665 [label="gini = 0.0\nsamples = 9\nvalue = [9, 0]"] ;
663 -> 665 ;
666 [label="sex_Male <= 0.5\ngini = 0.4709\nsamples = 87\nvalue = [54, 33]"] ;
558 -> 666 ;
667 [label="workclass_Federal-gov <= 0.5\ngini = 0.3482\nsamples = 49\nvalue = [38, 11]"] ;
666 -> 667 ;
668 [label="workclass_State-gov <= 0.5\ngini = 0.3096\nsamples = 47\nvalue = [38, 9]"] ;
667 -> 668 ;
669 [label="occupation_Machine-op-inspct <= 0.5\ngini = 0.1567\nsamples = 35\nvalue = [32, 3]"] ;
668 -> 669 ;
670 [label="age <= 44.5\ngini = 0.1107\nsamples = 34\nvalue = [32, 2]"] ;
669 -> 670 ;
671 [label="age <= 41.5\ngini = 0.2449\nsamples = 14\nvalue = [12, 2]"] ;
670 -> 671 ;
672 [label="gini = 0.0\nsamples = 8\nvalue = [8, 0]"] ;
671 -> 672 ;
673 [label="education_Doctorate <= 0.5\ngini = 0.4444\nsamples = 6\nvalue = [4, 2]"] ;
671 -> 673 ;
674 [label="fnlwgt <= 140042.0\ngini = 0.4444\nsamples = 3\nvalue = [1, 2]"] ;
673 -> 674 ;
675 [label="gini = 0.0\nsamples = 1\nvalue = [1, 0]"] ;
674 -> 675 ;
676 [label="gini = 0.0\nsamples = 2\nvalue = [0, 2]"] ;
674 -> 676 ;
677 [label="gini = 0.0\nsamples = 3\nvalue = [3, 0]"] ;
673 -> 677 ;
678 [label="gini = 0.0\nsamples = 20\nvalue = [20, 0]"] ;
670 -> 678 ;
679 [label="gini = 0.0\nsamples = 1\nvalue = [0, 1]"] ;
669 -> 679 ;
680 [label="education_Prof-school <= 0.5\ngini = 0.5\nsamples = 12\nvalue = [6, 6]"] ;
668 -> 680 ;
681 [label="race_Black <= 0.5\ngini = 0.375\nsamples = 8\nvalue = [2, 6]"] ;
680 -> 681 ;
682 [label="fnlwgt <= 342011.5\ngini = 0.2449\nsamples = 7\nvalue = [1, 6]"] ;
681 -> 682 ;
683 [label="gini = 0.0\nsamples = 6\nvalue = [0, 6]"] ;
682 -> 683 ;
684 [label="gini = 0.0\nsamples = 1\nvalue = [1, 0]"] ;
682 -> 684 ;
685 [label="gini = 0.0\nsamples = 1\nvalue = [1, 0]"] ;
681 -> 685 ;
686 [label="gini = 0.0\nsamples = 4\nvalue = [4, 0]"] ;
680 -> 686 ;
687 [label="gini = 0.0\nsamples = 2\nvalue = [0, 2]"] ;
667 -> 687 ;
688 [label="marital-status_Divorced <= 0.5\ngini = 0.4875\nsamples = 38\nvalue = [16, 22]"] ;
666 -> 688 ;
689 [label="fnlwgt <= 93895.5\ngini = 0.42\nsamples = 30\nvalue = [9, 21]"] ;
688 -> 689 ;
690 [label="hours-per-week <= 20.5\ngini = 0.32\nsamples = 5\nvalue = [4, 1]"] ;
689 -> 690 ;
691 [label="gini = 0.0\nsamples = 1\nvalue = [0, 1]"] ;
690 -> 691 ;
692 [label="gini = 0.0\nsamples = 4\nvalue = [4, 0]"] ;
690 -> 692 ;
693 [label="hours-per-week <= 16.5\ngini = 0.32\nsamples = 25\nvalue = [5, 20]"] ;
689 -> 693 ;
694 [label="gini = 0.0\nsamples = 2\nvalue = [2, 0]"] ;
693 -> 694 ;
695 [label="workclass_Local-gov <= 0.5\ngini = 0.2268\nsamples = 23\nvalue = [3, 20]"] ;
693 -> 695 ;
696 [label="native-country_England <= 0.5\ngini = 0.1653\nsamples = 22\nvalue = [2, 20]"] ;
695 -> 696 ;
697 [label="age <= 66.5\ngini = 0.0907\nsamples = 21\nvalue = [1, 20]"] ;
696 -> 697 ;
698 [label="gini = 0.0\nsamples = 19\nvalue = [0, 19]"] ;
697 -> 698 ;
699 [label="marital-status_Married-spouse-absent <= 0.5\ngini = 0.5\nsamples = 2\nvalue = [1, 1]"] ;
697 -> 699 ;
700 [label="gini = 0.0\nsamples = 1\nvalue = [1, 0]"] ;
699 -> 700 ;
701 [label="gini = 0.0\nsamples = 1\nvalue = [0, 1]"] ;
699 -> 701 ;
702 [label="gini = 0.0\nsamples = 1\nvalue = [1, 0]"] ;
696 -> 702 ;
703 [label="gini = 0.0\nsamples = 1\nvalue = [1, 0]"] ;
695 -> 703 ;
704 [label="fnlwgt <= 316106.5\ngini = 0.2188\nsamples = 8\nvalue = [7, 1]"] ;
688 -> 704 ;
705 [label="gini = 0.0\nsamples = 7\nvalue = [7, 0]"] ;
704 -> 705 ;
706 [label="gini = 0.0\nsamples = 1\nvalue = [0, 1]"] ;
704 -> 706 ;
707 [label="gini = 0.0\nsamples = 10\nvalue = [0, 10]"] ;
557 -> 707 ;
708 [label="age <= 27.5\ngini = 0.3982\nsamples = 1108\nvalue = [804, 304]"] ;
468 -> 708 ;
709 [label="capital-loss <= 2116.0\ngini = 0.0736\nsamples = 209\nvalue = [201, 8]"] ;
708 -> 709 ;
710 [label="hours-per-week <= 62.5\ngini = 0.0653\nsamples = 207\nvalue = [200, 7]"] ;
709 -> 710 ;
711 [label="workclass_Self-emp-inc <= 0.5\ngini = 0.0425\nsamples = 184\nvalue = [180, 4]"] ;
710 -> 711 ;
712 [label="occupation_Craft-repair <= 0.5\ngini = 0.0328\nsamples = 180\nvalue = [177, 3]"] ;
711 -> 712 ;
713 [label="hours-per-week <= 53.5\ngini = 0.0225\nsamples = 176\nvalue = [174, 2]"] ;
712 -> 713 ;
714 [label="gini = 0.0\nsamples = 135\nvalue = [135, 0]"] ;
713 -> 714 ;
715 [label="occupation_Tech-support <= 0.5\ngini = 0.0928\nsamples = 41\nvalue = [39, 2]"] ;
713 -> 715 ;
716 [label="education_Masters <= 0.5\ngini = 0.0512\nsamples = 38\nvalue = [37, 1]"] ;
715 -> 716 ;
717 [label="gini = 0.0\nsamples = 33\nvalue = [33, 0]"] ;
716 -> 717 ;
718 [label="age <= 25.5\ngini = 0.32\nsamples = 5\nvalue = [4, 1]"] ;
716 -> 718 ;
719 [label="gini = 0.0\nsamples = 4\nvalue = [4, 0]"] ;
718 -> 719 ;
720 [label="gini = 0.0\nsamples = 1\nvalue = [0, 1]"] ;
718 -> 720 ;
721 [label="fnlwgt <= 181076.0\ngini = 0.4444\nsamples = 3\nvalue = [2, 1]"] ;
715 -> 721 ;
722 [label="gini = 0.0\nsamples = 2\nvalue = [2, 0]"] ;
721 -> 722 ;
723 [label="gini = 0.0\nsamples = 1\nvalue = [0, 1]"] ;
721 -> 723 ;
724 [label="age <= 26.5\ngini = 0.375\nsamples = 4\nvalue = [3, 1]"] ;
712 -> 724 ;
725 [label="gini = 0.0\nsamples = 1\nvalue = [0, 1]"] ;
724 -> 725 ;
726 [label="gini = 0.0\nsamples = 3\nvalue = [3, 0]"] ;
724 -> 726 ;
727 [label="fnlwgt <= 179865.5\ngini = 0.375\nsamples = 4\nvalue = [3, 1]"] ;
711 -> 727 ;
728 [label="gini = 0.0\nsamples = 3\nvalue = [3, 0]"] ;
727 -> 728 ;
729 [label="gini = 0.0\nsamples = 1\nvalue = [0, 1]"] ;
727 -> 729 ;
730 [label="fnlwgt <= 78354.0\ngini = 0.2268\nsamples = 23\nvalue = [20, 3]"] ;
710 -> 730 ;
731 [label="gini = 0.0\nsamples = 1\nvalue = [0, 1]"] ;
730 -> 731 ;
732 [label="occupation_Sales <= 0.5\ngini = 0.1653\nsamples = 22\nvalue = [20, 2]"] ;
730 -> 732 ;
733 [label="occupation_Exec-managerial <= 0.5\ngini = 0.0997\nsamples = 19\nvalue = [18, 1]"] ;
732 -> 733 ;
734 [label="gini = 0.0\nsamples = 15\nvalue = [15, 0]"] ;
733 -> 734 ;
735 [label="fnlwgt <= 227228.0\ngini = 0.375\nsamples = 4\nvalue = [3, 1]"] ;
733 -> 735 ;
736 [label="gini = 0.0\nsamples = 3\nvalue = [3, 0]"] ;
735 -> 736 ;
737 [label="gini = 0.0\nsamples = 1\nvalue = [0, 1]"] ;
735 -> 737 ;
738 [label="age <= 26.0\ngini = 0.4444\nsamples = 3\nvalue = [2, 1]"] ;
732 -> 738 ;
739 [label="gini = 0.0\nsamples = 2\nvalue = [2, 0]"] ;
738 -> 739 ;
740 [label="gini = 0.0\nsamples = 1\nvalue = [0, 1]"] ;
738 -> 740 ;
741 [label="capital-loss <= 2298.5\ngini = 0.5\nsamples = 2\nvalue = [1, 1]"] ;
709 -> 741 ;
742 [label="gini = 0.0\nsamples = 1\nvalue = [0, 1]"] ;
741 -> 742 ;
743 [label="gini = 0.0\nsamples = 1\nvalue = [1, 0]"] ;
741 -> 743 ;
744 [label="capital-loss <= 2391.5\ngini = 0.4417\nsamples = 899\nvalue = [603, 296]"] ;
708 -> 744 ;
745 [label="occupation_Exec-managerial <= 0.5\ngini = 0.4337\nsamples = 884\nvalue = [603, 281]"] ;
744 -> 745 ;
746 [label="education-num <= 14.5\ngini = 0.3981\nsamples = 660\nvalue = [479, 181]"] ;
745 -> 746 ;
747 [label="sex_Female <= 0.5\ngini = 0.3612\nsamples = 558\nvalue = [426, 132]"] ;
746 -> 747 ;
748 [label="age <= 42.5\ngini = 0.4241\nsamples = 308\nvalue = [214, 94]"] ;
747 -> 748 ;
749 [label="workclass_Private <= 0.5\ngini = 0.385\nsamples = 196\nvalue = [145, 51]"] ;
748 -> 749 ;
750 [label="race_Black <= 0.5\ngini = 0.2809\nsamples = 71\nvalue = [59, 12]"] ;
749 -> 750 ;
751 [label="native-country_India <= 0.5\ngini = 0.2386\nsamples = 65\nvalue = [56, 9]"] ;
750 -> 751 ;
752 [label="marital-status_Married-AF-spouse <= 0.5\ngini = 0.2188\nsamples = 64\nvalue = [56, 8]"] ;
751 -> 752 ;
753 [label="fnlwgt <= 30280.5\ngini = 0.1975\nsamples = 63\nvalue = [56, 7]"] ;
752 -> 753 ;
754 [label="gini = 0.0\nsamples = 1\nvalue = [0, 1]"] ;
753 -> 754 ;
755 [label="gini = 0.1748\nsamples = 62\nvalue = [56, 6]"] ;
753 -> 755 ;
756 [label="gini = 0.0\nsamples = 1\nvalue = [0, 1]"] ;
752 -> 756 ;
757 [label="gini = 0.0\nsamples = 1\nvalue = [0, 1]"] ;
751 -> 757 ;
758 [label="fnlwgt <= 322489.5\ngini = 0.5\nsamples = 6\nvalue = [3, 3]"] ;
750 -> 758 ;
759 [label="occupation_? <= 0.5\ngini = 0.375\nsamples = 4\nvalue = [1, 3]"] ;
758 -> 759 ;
760 [label="gini = 0.0\nsamples = 3\nvalue = [0, 3]"] ;
759 -> 760 ;
761 [label="gini = 0.0\nsamples = 1\nvalue = [1, 0]"] ;
759 -> 761 ;
762 [label="gini = 0.0\nsamples = 2\nvalue = [2, 0]"] ;
758 -> 762 ;
763 [label="education-num <= 13.5\ngini = 0.4293\nsamples = 125\nvalue = [86, 39]"] ;
749 -> 763 ;
764 [label="relationship_Not-in-family <= 0.5\ngini = 0.3983\nsamples = 102\nvalue = [74, 28]"] ;
763 -> 764 ;
765 [label="native-country_Philippines <= 0.5\ngini = 0.18\nsamples = 20\nvalue = [18, 2]"] ;
764 -> 765 ;
766 [label="capital-loss <= 326.5\ngini = 0.0997\nsamples = 19\nvalue = [18, 1]"] ;
765 -> 766 ;
767 [label="gini = 0.0\nsamples = 18\nvalue = [18, 0]"] ;
766 -> 767 ;
768 [label="gini = 0.0\nsamples = 1\nvalue = [0, 1]"] ;
766 -> 768 ;
769 [label="gini = 0.0\nsamples = 1\nvalue = [0, 1]"] ;
765 -> 769 ;
770 [label="native-country_? <= 0.5\ngini = 0.4331\nsamples = 82\nvalue = [56, 26]"] ;
764 -> 770 ;
771 [label="marital-status_Divorced <= 0.5\ngini = 0.4158\nsamples = 78\nvalue = [55, 23]"] ;
770 -> 771 ;
772 [label="gini = 0.3787\nsamples = 67\nvalue = [50, 17]"] ;
771 -> 772 ;
773 [label="gini = 0.4959\nsamples = 11\nvalue = [5, 6]"] ;
771 -> 773 ;
774 [label="fnlwgt <= 183365.0\ngini = 0.375\nsamples = 4\nvalue = [1, 3]"] ;
770 -> 774 ;
775 [label="gini = 0.0\nsamples = 3\nvalue = [0, 3]"] ;
774 -> 775 ;
776 [label="gini = 0.0\nsamples = 1\nvalue = [1, 0]"] ;
774 -> 776 ;
777 [label="age <= 34.5\ngini = 0.4991\nsamples = 23\nvalue = [12, 11]"] ;
763 -> 777 ;
778 [label="occupation_Sales <= 0.5\ngini = 0.3967\nsamples = 11\nvalue = [8, 3]"] ;
777 -> 778 ;
779 [label="hours-per-week <= 47.5\ngini = 0.2188\nsamples = 8\nvalue = [7, 1]"] ;
778 -> 779 ;
780 [label="gini = 0.5\nsamples = 2\nvalue = [1, 1]"] ;
779 -> 780 ;
781 [label="gini = 0.0\nsamples = 6\nvalue = [6, 0]"] ;
779 -> 781 ;
782 [label="fnlwgt <= 187966.0\ngini = 0.4444\nsamples = 3\nvalue = [1, 2]"] ;
778 -> 782 ;
783 [label="gini = 0.0\nsamples = 1\nvalue = [1, 0]"] ;
782 -> 783 ;
784 [label="gini = 0.0\nsamples = 2\nvalue = [0, 2]"] ;
782 -> 784 ;
785 [label="fnlwgt <= 215015.5\ngini = 0.4444\nsamples = 12\nvalue = [4, 8]"] ;
777 -> 785 ;
786 [label="fnlwgt <= 33060.5\ngini = 0.1975\nsamples = 9\nvalue = [1, 8]"] ;
785 -> 786 ;
787 [label="gini = 0.0\nsamples = 1\nvalue = [1, 0]"] ;
786 -> 787 ;
788 [label="gini = 0.0\nsamples = 8\nvalue = [0, 8]"] ;
786 -> 788 ;
789 [label="gini = 0.0\nsamples = 3\nvalue = [3, 0]"] ;
785 -> 789 ;
790 [label="age <= 53.5\ngini = 0.4731\nsamples = 112\nvalue = [69, 43]"] ;
748 -> 790 ;
791 [label="fnlwgt <= 74021.5\ngini = 0.4987\nsamples = 78\nvalue = [41, 37]"] ;
790 -> 791 ;
792 [label="age <= 51.5\ngini = 0.355\nsamples = 13\nvalue = [10, 3]"] ;
791 -> 792 ;
793 [label="hours-per-week <= 44.5\ngini = 0.2778\nsamples = 12\nvalue = [10, 2]"] ;
792 -> 793 ;
794 [label="gini = 0.0\nsamples = 1\nvalue = [0, 1]"] ;
793 -> 794 ;
795 [label="hours-per-week <= 65.0\ngini = 0.1653\nsamples = 11\nvalue = [10, 1]"] ;
793 -> 795 ;
796 [label="gini = 0.0\nsamples = 9\nvalue = [9, 0]"] ;
795 -> 796 ;
797 [label="gini = 0.5\nsamples = 2\nvalue = [1, 1]"] ;
795 -> 797 ;
798 [label="gini = 0.0\nsamples = 1\nvalue = [0, 1]"] ;
792 -> 798 ;
799 [label="workclass_Self-emp-not-inc <= 0.5\ngini = 0.4989\nsamples = 65\nvalue = [31, 34]"] ;
791 -> 799 ;
800 [label="marital-status_Married-spouse-absent <= 0.5\ngini = 0.4856\nsamples = 53\nvalue = [22, 31]"] ;
799 -> 800 ;
801 [label="marital-status_Separated <= 0.5\ngini = 0.4712\nsamples = 50\nvalue = [19, 31]"] ;
800 -> 801 ;
802 [label="gini = 0.4575\nsamples = 48\nvalue = [17, 31]"] ;
801 -> 802 ;
803 [label="gini = 0.0\nsamples = 2\nvalue = [2, 0]"] ;
801 -> 803 ;
804 [label="gini = 0.0\nsamples = 3\nvalue = [3, 0]"] ;
800 -> 804 ;
805 [label="relationship_Not-in-family <= 0.5\ngini = 0.375\nsamples = 12\nvalue = [9, 3]"] ;
799 -> 805 ;
806 [label="hours-per-week <= 79.5\ngini = 0.4444\nsamples = 3\nvalue = [1, 2]"] ;
805 -> 806 ;
807 [label="gini = 0.0\nsamples = 2\nvalue = [0, 2]"] ;
806 -> 807 ;
808 [label="gini = 0.0\nsamples = 1\nvalue = [1, 0]"] ;
806 -> 808 ;
809 [label="age <= 44.5\ngini = 0.1975\nsamples = 9\nvalue = [8, 1]"] ;
805 -> 809 ;
810 [label="gini = 0.5\nsamples = 2\nvalue = [1, 1]"] ;
809 -> 810 ;
811 [label="gini = 0.0\nsamples = 7\nvalue = [7, 0]"] ;
809 -> 811 ;
812 [label="marital-status_Never-married <= 0.5\ngini = 0.2907\nsamples = 34\nvalue = [28, 6]"] ;
790 -> 812 ;
813 [label="fnlwgt <= 101032.0\ngini = 0.4321\nsamples = 19\nvalue = [13, 6]"] ;
812 -> 813 ;
814 [label="hours-per-week <= 57.5\ngini = 0.375\nsamples = 4\nvalue = [1, 3]"] ;
813 -> 814 ;
815 [label="gini = 0.0\nsamples = 3\nvalue = [0, 3]"] ;
814 -> 815 ;
816 [label="gini = 0.0\nsamples = 1\nvalue = [1, 0]"] ;
814 -> 816 ;
817 [label="race_White <= 0.5\ngini = 0.32\nsamples = 15\nvalue = [12, 3]"] ;
813 -> 817 ;
818 [label="gini = 0.0\nsamples = 1\nvalue = [0, 1]"] ;
817 -> 818 ;
819 [label="occupation_Prof-specialty <= 0.5\ngini = 0.2449\nsamples = 14\nvalue = [12, 2]"] ;
817 -> 819 ;
820 [label="gini = 0.0\nsamples = 8\nvalue = [8, 0]"] ;
819 -> 820 ;
821 [label="gini = 0.4444\nsamples = 6\nvalue = [4, 2]"] ;
819 -> 821 ;
822 [label="gini = 0.0\nsamples = 15\nvalue = [15, 0]"] ;
812 -> 822 ;
823 [label="fnlwgt <= 131504.0\ngini = 0.2578\nsamples = 250\nvalue = [212, 38]"] ;
747 -> 823 ;
824 [label="hours-per-week <= 61.0\ngini = 0.095\nsamples = 80\nvalue = [76, 4]"] ;
823 -> 824 ;
825 [label="workclass_Federal-gov <= 0.5\ngini = 0.0533\nsamples = 73\nvalue = [71, 2]"] ;
824 -> 825 ;
826 [label="occupation_Sales <= 0.5\ngini = 0.0282\nsamples = 70\nvalue = [69, 1]"] ;
825 -> 826 ;
827 [label="gini = 0.0\nsamples = 62\nvalue = [62, 0]"] ;
826 -> 827 ;
828 [label="age <= 35.5\ngini = 0.2188\nsamples = 8\nvalue = [7, 1]"] ;
826 -> 828 ;
829 [label="marital-status_Never-married <= 0.5\ngini = 0.5\nsamples = 2\nvalue = [1, 1]"] ;
828 -> 829 ;
830 [label="gini = 0.0\nsamples = 1\nvalue = [0, 1]"] ;
829 -> 830 ;
831 [label="gini = 0.0\nsamples = 1\nvalue = [1, 0]"] ;
829 -> 831 ;
832 [label="gini = 0.0\nsamples = 6\nvalue = [6, 0]"] ;
828 -> 832 ;
833 [label="age <= 43.0\ngini = 0.4444\nsamples = 3\nvalue = [2, 1]"] ;
825 -> 833 ;
834 [label="gini = 0.0\nsamples = 2\nvalue = [2, 0]"] ;
833 -> 834 ;
835 [label="gini = 0.0\nsamples = 1\nvalue = [0, 1]"] ;
833 -> 835 ;
836 [label="fnlwgt <= 48103.5\ngini = 0.4082\nsamples = 7\nvalue = [5, 2]"] ;
824 -> 836 ;
837 [label="gini = 0.0\nsamples = 4\nvalue = [4, 0]"] ;
836 -> 837 ;
838 [label="workclass_Local-gov <= 0.5\ngini = 0.4444\nsamples = 3\nvalue = [1, 2]"] ;
836 -> 838 ;
839 [label="gini = 0.0\nsamples = 2\nvalue = [0, 2]"] ;
838 -> 839 ;
840 [label="gini = 0.0\nsamples = 1\nvalue = [1, 0]"] ;
838 -> 840 ;
841 [label="fnlwgt <= 352536.5\ngini = 0.32\nsamples = 170\nvalue = [136, 34]"] ;
823 -> 841 ;
842 [label="marital-status_Widowed <= 0.5\ngini = 0.2982\nsamples = 159\nvalue = [130, 29]"] ;
841 -> 842 ;
843 [label="fnlwgt <= 134534.0\ngini = 0.2717\nsamples = 148\nvalue = [124, 24]"] ;
842 -> 843 ;
844 [label="occupation_Sales <= 0.5\ngini = 0.4444\nsamples = 3\nvalue = [1, 2]"] ;
843 -> 844 ;
845 [label="gini = 0.0\nsamples = 2\nvalue = [0, 2]"] ;
844 -> 845 ;
846 [label="gini = 0.0\nsamples = 1\nvalue = [1, 0]"] ;
844 -> 846 ;
847 [label="occupation_Protective-serv <= 0.5\ngini = 0.2574\nsamples = 145\nvalue = [123, 22]"] ;
843 -> 847 ;
848 [label="race_Amer-Indian-Eskimo <= 0.5\ngini = 0.2491\nsamples = 144\nvalue = [123, 21]"] ;
847 -> 848 ;
849 [label="gini = 0.2406\nsamples = 143\nvalue = [123, 20]"] ;
848 -> 849 ;
850 [label="gini = 0.0\nsamples = 1\nvalue = [0, 1]"] ;
848 -> 850 ;
851 [label="gini = 0.0\nsamples = 1\nvalue = [0, 1]"] ;
847 -> 851 ;
852 [label="hours-per-week <= 49.0\ngini = 0.4959\nsamples = 11\nvalue = [6, 5]"] ;
842 -> 852 ;
853 [label="gini = 0.0\nsamples = 4\nvalue = [4, 0]"] ;
852 -> 853 ;
854 [label="fnlwgt <= 182583.0\ngini = 0.4082\nsamples = 7\nvalue = [2, 5]"] ;
852 -> 854 ;
855 [label="hours-per-week <= 52.5\ngini = 0.4444\nsamples = 3\nvalue = [2, 1]"] ;
854 -> 855 ;
856 [label="gini = 0.0\nsamples = 2\nvalue = [2, 0]"] ;
855 -> 856 ;
857 [label="gini = 0.0\nsamples = 1\nvalue = [0, 1]"] ;
855 -> 857 ;
858 [label="gini = 0.0\nsamples = 4\nvalue = [0, 4]"] ;
854 -> 858 ;
859 [label="age <= 38.5\ngini = 0.4959\nsamples = 11\nvalue = [6, 5]"] ;
841 -> 859 ;
860 [label="fnlwgt <= 392054.5\ngini = 0.4082\nsamples = 7\nvalue = [2, 5]"] ;
859 -> 860 ;
861 [label="gini = 0.0\nsamples = 3\nvalue = [0, 3]"] ;
860 -> 861 ;
862 [label="fnlwgt <= 409631.5\ngini = 0.5\nsamples = 4\nvalue = [2, 2]"] ;
860 -> 862 ;
863 [label="gini = 0.0\nsamples = 2\nvalue = [2, 0]"] ;
862 -> 863 ;
864 [label="gini = 0.0\nsamples = 2\nvalue = [0, 2]"] ;
862 -> 864 ;
865 [label="gini = 0.0\nsamples = 4\nvalue = [4, 0]"] ;
859 -> 865 ;
866 [label="age <= 32.5\ngini = 0.4992\nsamples = 102\nvalue = [53, 49]"] ;
746 -> 866 ;
867 [label="fnlwgt <= 401751.5\ngini = 0.2975\nsamples = 33\nvalue = [27, 6]"] ;
866 -> 867 ;
868 [label="native-country_Italy <= 0.5\ngini = 0.2311\nsamples = 30\nvalue = [26, 4]"] ;
867 -> 868 ;
869 [label="marital-status_Divorced <= 0.5\ngini = 0.1855\nsamples = 29\nvalue = [26, 3]"] ;
868 -> 869 ;
870 [label="fnlwgt <= 77487.5\ngini = 0.0799\nsamples = 24\nvalue = [23, 1]"] ;
869 -> 870 ;
871 [label="age <= 28.5\ngini = 0.32\nsamples = 5\nvalue = [4, 1]"] ;
870 -> 871 ;
872 [label="gini = 0.0\nsamples = 1\nvalue = [0, 1]"] ;
871 -> 872 ;
873 [label="gini = 0.0\nsamples = 4\nvalue = [4, 0]"] ;
871 -> 873 ;
874 [label="gini = 0.0\nsamples = 19\nvalue = [19, 0]"] ;
870 -> 874 ;
875 [label="relationship_Not-in-family <= 0.5\ngini = 0.48\nsamples = 5\nvalue = [3, 2]"] ;
869 -> 875 ;
876 [label="gini = 0.0\nsamples = 3\nvalue = [3, 0]"] ;
875 -> 876 ;
877 [label="gini = 0.0\nsamples = 2\nvalue = [0, 2]"] ;
875 -> 877 ;
878 [label="gini = 0.0\nsamples = 1\nvalue = [0, 1]"] ;
868 -> 878 ;
879 [label="native-country_United-States <= 0.5\ngini = 0.4444\nsamples = 3\nvalue = [1, 2]"] ;
867 -> 879 ;
880 [label="gini = 0.0\nsamples = 2\nvalue = [0, 2]"] ;
879 -> 880 ;
881 [label="gini = 0.0\nsamples = 1\nvalue = [1, 0]"] ;
879 -> 881 ;
882 [label="hours-per-week <= 89.5\ngini = 0.4696\nsamples = 69\nvalue = [26, 43]"] ;
866 -> 882 ;
883 [label="fnlwgt <= 40537.5\ngini = 0.4541\nsamples = 66\nvalue = [23, 43]"] ;
882 -> 883 ;
884 [label="education-num <= 15.5\ngini = 0.32\nsamples = 5\nvalue = [4, 1]"] ;
883 -> 884 ;
885 [label="gini = 0.0\nsamples = 1\nvalue = [0, 1]"] ;
884 -> 885 ;
886 [label="gini = 0.0\nsamples = 4\nvalue = [4, 0]"] ;
884 -> 886 ;
887 [label="age <= 58.0\ngini = 0.4289\nsamples = 61\nvalue = [19, 42]"] ;
883 -> 887 ;
888 [label="hours-per-week <= 49.0\ngini = 0.3967\nsamples = 55\nvalue = [15, 40]"] ;
887 -> 888 ;
889 [label="age <= 35.5\ngini = 0.5\nsamples = 10\nvalue = [5, 5]"] ;
888 -> 889 ;
890 [label="gini = 0.0\nsamples = 3\nvalue = [0, 3]"] ;
889 -> 890 ;
891 [label="marital-status_Divorced <= 0.5\ngini = 0.4082\nsamples = 7\nvalue = [5, 2]"] ;
889 -> 891 ;
892 [label="gini = 0.0\nsamples = 4\nvalue = [4, 0]"] ;
891 -> 892 ;
893 [label="gini = 0.4444\nsamples = 3\nvalue = [1, 2]"] ;
891 -> 893 ;
894 [label="fnlwgt <= 448288.5\ngini = 0.3457\nsamples = 45\nvalue = [10, 35]"] ;
888 -> 894 ;
895 [label="hours-per-week <= 62.0\ngini = 0.3254\nsamples = 44\nvalue = [9, 35]"] ;
894 -> 895 ;
896 [label="gini = 0.2449\nsamples = 35\nvalue = [5, 30]"] ;
895 -> 896 ;
897 [label="gini = 0.4938\nsamples = 9\nvalue = [4, 5]"] ;
895 -> 897 ;
898 [label="gini = 0.0\nsamples = 1\nvalue = [1, 0]"] ;
894 -> 898 ;
899 [label="hours-per-week <= 62.5\ngini = 0.4444\nsamples = 6\nvalue = [4, 2]"] ;
887 -> 899 ;
900 [label="gini = 0.0\nsamples = 4\nvalue = [4, 0]"] ;
899 -> 900 ;
901 [label="gini = 0.0\nsamples = 2\nvalue = [0, 2]"] ;
899 -> 901 ;
902 [label="gini = 0.0\nsamples = 3\nvalue = [3, 0]"] ;
882 -> 902 ;
903 [label="age <= 39.5\ngini = 0.4943\nsamples = 224\nvalue = [124, 100]"] ;
745 -> 903 ;
904 [label="fnlwgt <= 185983.5\ngini = 0.4339\nsamples = 110\nvalue = [75, 35]"] ;
903 -> 904 ;
905 [label="marital-status_Divorced <= 0.5\ngini = 0.4824\nsamples = 64\nvalue = [38, 26]"] ;
904 -> 905 ;
906 [label="race_White <= 0.5\ngini = 0.4395\nsamples = 46\nvalue = [31, 15]"] ;
905 -> 906 ;
907 [label="gini = 0.0\nsamples = 5\nvalue = [5, 0]"] ;
906 -> 907 ;
908 [label="hours-per-week <= 52.5\ngini = 0.464\nsamples = 41\nvalue = [26, 15]"] ;
906 -> 908 ;
909 [label="fnlwgt <= 117858.5\ngini = 0.4965\nsamples = 24\nvalue = [13, 11]"] ;
908 -> 909 ;
910 [label="education_Masters <= 0.5\ngini = 0.3967\nsamples = 11\nvalue = [8, 3]"] ;
909 -> 910 ;
911 [label="age <= 29.5\ngini = 0.32\nsamples = 10\nvalue = [8, 2]"] ;
910 -> 911 ;
912 [label="gini = 0.5\nsamples = 4\nvalue = [2, 2]"] ;
911 -> 912 ;
913 [label="gini = 0.0\nsamples = 6\nvalue = [6, 0]"] ;
911 -> 913 ;
914 [label="gini = 0.0\nsamples = 1\nvalue = [0, 1]"] ;
910 -> 914 ;
915 [label="fnlwgt <= 149987.0\ngini = 0.4734\nsamples = 13\nvalue = [5, 8]"] ;
909 -> 915 ;
916 [label="gini = 0.0\nsamples = 4\nvalue = [0, 4]"] ;
915 -> 916 ;
917 [label="fnlwgt <= 171899.0\ngini = 0.4938\nsamples = 9\nvalue = [5, 4]"] ;
915 -> 917 ;
918 [label="gini = 0.32\nsamples = 5\nvalue = [4, 1]"] ;
917 -> 918 ;
919 [label="gini = 0.375\nsamples = 4\nvalue = [1, 3]"] ;
917 -> 919 ;
920 [label="age <= 33.0\ngini = 0.3599\nsamples = 17\nvalue = [13, 4]"] ;
908 -> 920 ;
921 [label="fnlwgt <= 49574.0\ngini = 0.2449\nsamples = 14\nvalue = [12, 2]"] ;
920 -> 921 ;
922 [label="gini = 0.0\nsamples = 1\nvalue = [0, 1]"] ;
921 -> 922 ;
923 [label="hours-per-week <= 65.0\ngini = 0.142\nsamples = 13\nvalue = [12, 1]"] ;
921 -> 923 ;
924 [label="gini = 0.0\nsamples = 10\nvalue = [10, 0]"] ;
923 -> 924 ;
925 [label="gini = 0.4444\nsamples = 3\nvalue = [2, 1]"] ;
923 -> 925 ;
926 [label="fnlwgt <= 157442.5\ngini = 0.4444\nsamples = 3\nvalue = [1, 2]"] ;
920 -> 926 ;
927 [label="gini = 0.0\nsamples = 1\nvalue = [1, 0]"] ;
926 -> 927 ;
928 [label="gini = 0.0\nsamples = 2\nvalue = [0, 2]"] ;
926 -> 928 ;
929 [label="fnlwgt <= 40949.5\ngini = 0.4753\nsamples = 18\nvalue = [7, 11]"] ;
905 -> 929 ;
930 [label="gini = 0.0\nsamples = 2\nvalue = [2, 0]"] ;
929 -> 930 ;
931 [label="age <= 34.5\ngini = 0.4297\nsamples = 16\nvalue = [5, 11]"] ;
929 -> 931 ;
932 [label="gini = 0.0\nsamples = 5\nvalue = [0, 5]"] ;
931 -> 932 ;
933 [label="sex_Female <= 0.5\ngini = 0.4959\nsamples = 11\nvalue = [5, 6]"] ;
931 -> 933 ;
934 [label="education-num <= 13.5\ngini = 0.2778\nsamples = 6\nvalue = [1, 5]"] ;
933 -> 934 ;
935 [label="hours-per-week <= 50.0\ngini = 0.5\nsamples = 2\nvalue = [1, 1]"] ;
934 -> 935 ;
936 [label="gini = 0.0\nsamples = 1\nvalue = [0, 1]"] ;
935 -> 936 ;
937 [label="gini = 0.0\nsamples = 1\nvalue = [1, 0]"] ;
935 -> 937 ;
938 [label="gini = 0.0\nsamples = 4\nvalue = [0, 4]"] ;
934 -> 938 ;
939 [label="fnlwgt <= 71663.0\ngini = 0.32\nsamples = 5\nvalue = [4, 1]"] ;
933 -> 939 ;
940 [label="gini = 0.0\nsamples = 1\nvalue = [0, 1]"] ;
939 -> 940 ;
941 [label="gini = 0.0\nsamples = 4\nvalue = [4, 0]"] ;
939 -> 941 ;
942 [label="fnlwgt <= 572687.5\ngini = 0.3147\nsamples = 46\nvalue = [37, 9]"] ;
904 -> 942 ;
943 [label="marital-status_Separated <= 0.5\ngini = 0.2676\nsamples = 44\nvalue = [37, 7]"] ;
942 -> 943 ;
944 [label="age <= 32.5\ngini = 0.2142\nsamples = 41\nvalue = [36, 5]"] ;
943 -> 944 ;
945 [label="age <= 31.5\ngini = 0.3911\nsamples = 15\nvalue = [11, 4]"] ;
944 -> 945 ;
946 [label="relationship_Unmarried <= 0.5\ngini = 0.2604\nsamples = 13\nvalue = [11, 2]"] ;
945 -> 946 ;
947 [label="hours-per-week <= 52.5\ngini = 0.1528\nsamples = 12\nvalue = [11, 1]"] ;
946 -> 947 ;
948 [label="gini = 0.0\nsamples = 9\nvalue = [9, 0]"] ;
947 -> 948 ;
949 [label="gini = 0.4444\nsamples = 3\nvalue = [2, 1]"] ;
947 -> 949 ;
950 [label="gini = 0.0\nsamples = 1\nvalue = [0, 1]"] ;
946 -> 950 ;
951 [label="gini = 0.0\nsamples = 2\nvalue = [0, 2]"] ;
945 -> 951 ;
952 [label="hours-per-week <= 49.0\ngini = 0.074\nsamples = 26\nvalue = [25, 1]"] ;
944 -> 952 ;
953 [label="hours-per-week <= 46.5\ngini = 0.2188\nsamples = 8\nvalue = [7, 1]"] ;
952 -> 953 ;
954 [label="gini = 0.0\nsamples = 7\nvalue = [7, 0]"] ;
953 -> 954 ;
955 [label="gini = 0.0\nsamples = 1\nvalue = [0, 1]"] ;
953 -> 955 ;
956 [label="gini = 0.0\nsamples = 18\nvalue = [18, 0]"] ;
952 -> 956 ;
957 [label="race_White <= 0.5\ngini = 0.4444\nsamples = 3\nvalue = [1, 2]"] ;
943 -> 957 ;
958 [label="gini = 0.0\nsamples = 1\nvalue = [1, 0]"] ;
957 -> 958 ;
959 [label="gini = 0.0\nsamples = 2\nvalue = [0, 2]"] ;
957 -> 959 ;
960 [label="gini = 0.0\nsamples = 2\nvalue = [0, 2]"] ;
942 -> 960 ;
961 [label="workclass_Self-emp-not-inc <= 0.5\ngini = 0.4902\nsamples = 114\nvalue = [49, 65]"] ;
903 -> 961 ;
962 [label="education-num <= 14.5\ngini = 0.4741\nsamples = 101\nvalue = [39, 62]"] ;
961 -> 962 ;
963 [label="fnlwgt <= 114362.0\ngini = 0.487\nsamples = 93\nvalue = [39, 54]"] ;
962 -> 963 ;
964 [label="race_White <= 0.5\ngini = 0.4851\nsamples = 29\nvalue = [17, 12]"] ;
963 -> 964 ;
965 [label="gini = 0.0\nsamples = 4\nvalue = [0, 4]"] ;
964 -> 965 ;
966 [label="hours-per-week <= 55.5\ngini = 0.4352\nsamples = 25\nvalue = [17, 8]"] ;
964 -> 966 ;
967 [label="relationship_Not-in-family <= 0.5\ngini = 0.2907\nsamples = 17\nvalue = [14, 3]"] ;
966 -> 967 ;
968 [label="fnlwgt <= 50489.5\ngini = 0.375\nsamples = 4\nvalue = [1, 3]"] ;
967 -> 968 ;
969 [label="gini = 0.0\nsamples = 1\nvalue = [1, 0]"] ;
968 -> 969 ;
970 [label="gini = 0.0\nsamples = 3\nvalue = [0, 3]"] ;
968 -> 970 ;
971 [label="gini = 0.0\nsamples = 13\nvalue = [13, 0]"] ;
967 -> 971 ;
972 [label="age <= 48.5\ngini = 0.4688\nsamples = 8\nvalue = [3, 5]"] ;
966 -> 972 ;
973 [label="gini = 0.0\nsamples = 4\nvalue = [0, 4]"] ;
972 -> 973 ;
974 [label="fnlwgt <= 69941.5\ngini = 0.375\nsamples = 4\nvalue = [3, 1]"] ;
972 -> 974 ;
975 [label="gini = 0.0\nsamples = 1\nvalue = [0, 1]"] ;
974 -> 975 ;
976 [label="gini = 0.0\nsamples = 3\nvalue = [3, 0]"] ;
974 -> 976 ;
977 [label="relationship_Not-in-family <= 0.5\ngini = 0.4512\nsamples = 64\nvalue = [22, 42]"] ;
963 -> 977 ;
978 [label="fnlwgt <= 128327.5\ngini = 0.4844\nsamples = 17\nvalue = [10, 7]"] ;
977 -> 978 ;
979 [label="gini = 0.0\nsamples = 3\nvalue = [0, 3]"] ;
978 -> 979 ;
980 [label="sex_Male <= 0.5\ngini = 0.4082\nsamples = 14\nvalue = [10, 4]"] ;
978 -> 980 ;
981 [label="hours-per-week <= 57.5\ngini = 0.18\nsamples = 10\nvalue = [9, 1]"] ;
980 -> 981 ;
982 [label="gini = 0.0\nsamples = 8\nvalue = [8, 0]"] ;
981 -> 982 ;
983 [label="gini = 0.5\nsamples = 2\nvalue = [1, 1]"] ;
981 -> 983 ;
984 [label="fnlwgt <= 159045.5\ngini = 0.375\nsamples = 4\nvalue = [1, 3]"] ;
980 -> 984 ;
985 [label="gini = 0.0\nsamples = 1\nvalue = [1, 0]"] ;
984 -> 985 ;
986 [label="gini = 0.0\nsamples = 3\nvalue = [0, 3]"] ;
984 -> 986 ;
987 [label="workclass_State-gov <= 0.5\ngini = 0.3803\nsamples = 47\nvalue = [12, 35]"] ;
977 -> 987 ;
988 [label="workclass_Self-emp-inc <= 0.5\ngini = 0.3457\nsamples = 45\nvalue = [10, 35]"] ;
987 -> 988 ;
989 [label="hours-per-week <= 66.0\ngini = 0.2887\nsamples = 40\nvalue = [7, 33]"] ;
988 -> 989 ;
990 [label="gini = 0.2337\nsamples = 37\nvalue = [5, 32]"] ;
989 -> 990 ;
991 [label="gini = 0.4444\nsamples = 3\nvalue = [2, 1]"] ;
989 -> 991 ;
992 [label="hours-per-week <= 60.0\ngini = 0.48\nsamples = 5\nvalue = [3, 2]"] ;
988 -> 992 ;
993 [label="gini = 0.0\nsamples = 3\nvalue = [3, 0]"] ;
992 -> 993 ;
994 [label="gini = 0.0\nsamples = 2\nvalue = [0, 2]"] ;
992 -> 994 ;
995 [label="gini = 0.0\nsamples = 2\nvalue = [2, 0]"] ;
987 -> 995 ;
996 [label="gini = 0.0\nsamples = 8\nvalue = [0, 8]"] ;
962 -> 996 ;
997 [label="education_Masters <= 0.5\ngini = 0.355\nsamples = 13\nvalue = [10, 3]"] ;
961 -> 997 ;
998 [label="gini = 0.0\nsamples = 9\nvalue = [9, 0]"] ;
997 -> 998 ;
999 [label="hours-per-week <= 52.5\ngini = 0.375\nsamples = 4\nvalue = [1, 3]"] ;
997 -> 999 ;
1000 [label="gini = 0.0\nsamples = 3\nvalue = [0, 3]"] ;
999 -> 1000 ;
1001 [label="gini = 0.0\nsamples = 1\nvalue = [1, 0]"] ;
999 -> 1001 ;
1002 [label="gini = 0.0\nsamples = 15\nvalue = [0, 15]"] ;
744 -> 1002 ;
1003 [label="age <= 20.5\ngini = 0.0682\nsamples = 311\nvalue = [11, 300]"] ;
1 -> 1003 ;
1004 [label="gini = 0.0\nsamples = 4\nvalue = [4, 0]"] ;
1003 -> 1004 ;
1005 [label="fnlwgt <= 25115.5\ngini = 0.0446\nsamples = 307\nvalue = [7, 300]"] ;
1003 -> 1005 ;
1006 [label="gini = 0.0\nsamples = 2\nvalue = [2, 0]"] ;
1005 -> 1006 ;
1007 [label="occupation_Handlers-cleaners <= 0.5\ngini = 0.0322\nsamples = 305\nvalue = [5, 300]"] ;
1005 -> 1007 ;
1008 [label="capital-gain <= 8296.0\ngini = 0.026\nsamples = 304\nvalue = [4, 300]"] ;
1007 -> 1008 ;
1009 [label="occupation_Adm-clerical <= 0.5\ngini = 0.3047\nsamples = 16\nvalue = [3, 13]"] ;
1008 -> 1009 ;
1010 [label="fnlwgt <= 295752.5\ngini = 0.1327\nsamples = 14\nvalue = [1, 13]"] ;
1009 -> 1010 ;
1011 [label="gini = 0.0\nsamples = 12\nvalue = [0, 12]"] ;
1010 -> 1011 ;
1012 [label="education-num <= 11.5\ngini = 0.5\nsamples = 2\nvalue = [1, 1]"] ;
1010 -> 1012 ;
1013 [label="gini = 0.0\nsamples = 1\nvalue = [1, 0]"] ;
1012 -> 1013 ;
1014 [label="gini = 0.0\nsamples = 1\nvalue = [0, 1]"] ;
1012 -> 1014 ;
1015 [label="gini = 0.0\nsamples = 2\nvalue = [2, 0]"] ;
1009 -> 1015 ;
1016 [label="capital-gain <= 30961.5\ngini = 0.0069\nsamples = 288\nvalue = [1, 287]"] ;
1008 -> 1016 ;
1017 [label="gini = 0.0\nsamples = 260\nvalue = [0, 260]"] ;
1016 -> 1017 ;
1018 [label="capital-gain <= 67047.0\ngini = 0.0689\nsamples = 28\nvalue = [1, 27]"] ;
1016 -> 1018 ;
1019 [label="gini = 0.0\nsamples = 1\nvalue = [1, 0]"] ;
1018 -> 1019 ;
1020 [label="gini = 0.0\nsamples = 27\nvalue = [0, 27]"] ;
1018 -> 1020 ;
1021 [label="gini = 0.0\nsamples = 1\nvalue = [1, 0]"] ;
1007 -> 1021 ;
1022 [label="education-num <= 12.5\ngini = 0.4943\nsamples = 14976\nvalue = [8284, 6692]"] ;
0 -> 1022 [labeldistance=2.5, labelangle=-45, headlabel="False"] ;
1023 [label="capital-gain <= 5095.5\ngini = 0.4429\nsamples = 10507\nvalue = [7029, 3478]"] ;
1022 -> 1023 ;
1024 [label="education-num <= 8.5\ngini = 0.4174\nsamples = 9979\nvalue = [7018, 2961]"] ;
1023 -> 1024 ;
1025 [label="capital-loss <= 1791.5\ngini = 0.1814\nsamples = 1656\nvalue = [1489, 167]"] ;
1024 -> 1025 ;
1026 [label="age <= 36.5\ngini = 0.17\nsamples = 1621\nvalue = [1469, 152]"] ;
1025 -> 1026 ;
1027 [label="native-country_Trinadad&Tobago <= 0.5\ngini = 0.0816\nsamples = 493\nvalue = [472, 21]"] ;
1026 -> 1027 ;
1028 [label="occupation_Tech-support <= 0.5\ngini = 0.078\nsamples = 492\nvalue = [472, 20]"] ;
1027 -> 1028 ;
1029 [label="hours-per-week <= 49.0\ngini = 0.0712\nsamples = 487\nvalue = [469, 18]"] ;
1028 -> 1029 ;
1030 [label="native-country_Laos <= 0.5\ngini = 0.0432\nsamples = 407\nvalue = [398, 9]"] ;
1029 -> 1030 ;
1031 [label="education_12th <= 0.5\ngini = 0.0387\nsamples = 405\nvalue = [397, 8]"] ;
1030 -> 1031 ;
1032 [label="native-country_? <= 0.5\ngini = 0.027\nsamples = 365\nvalue = [360, 5]"] ;
1031 -> 1032 ;
1033 [label="occupation_Adm-clerical <= 0.5\ngini = 0.022\nsamples = 360\nvalue = [356, 4]"] ;
1032 -> 1033 ;
1034 [label="education_10th <= 0.5\ngini = 0.0169\nsamples = 353\nvalue = [350, 3]"] ;
1033 -> 1034 ;
1035 [label="gini = 0.0\nsamples = 268\nvalue = [268, 0]"] ;
1034 -> 1035 ;
1036 [label="occupation_Craft-repair <= 0.5\ngini = 0.0681\nsamples = 85\nvalue = [82, 3]"] ;
1034 -> 1036 ;
1037 [label="gini = 0.0\nsamples = 57\nvalue = [57, 0]"] ;
1036 -> 1037 ;
1038 [label="gini = 0.1913\nsamples = 28\nvalue = [25, 3]"] ;
1036 -> 1038 ;
1039 [label="fnlwgt <= 219946.5\ngini = 0.2449\nsamples = 7\nvalue = [6, 1]"] ;
1033 -> 1039 ;
1040 [label="gini = 0.0\nsamples = 6\nvalue = [6, 0]"] ;
1039 -> 1040 ;
1041 [label="gini = 0.0\nsamples = 1\nvalue = [0, 1]"] ;
1039 -> 1041 ;
1042 [label="age <= 34.5\ngini = 0.32\nsamples = 5\nvalue = [4, 1]"] ;
1032 -> 1042 ;
1043 [label="gini = 0.0\nsamples = 4\nvalue = [4, 0]"] ;
1042 -> 1043 ;
1044 [label="gini = 0.0\nsamples = 1\nvalue = [0, 1]"] ;
1042 -> 1044 ;
1045 [label="occupation_Sales <= 0.5\ngini = 0.1388\nsamples = 40\nvalue = [37, 3]"] ;
1031 -> 1045 ;
1046 [label="occupation_Transport-moving <= 0.5\ngini = 0.0973\nsamples = 39\nvalue = [37, 2]"] ;
1045 -> 1046 ;
1047 [label="age <= 25.5\ngini = 0.0571\nsamples = 34\nvalue = [33, 1]"] ;
1046 -> 1047 ;
1048 [label="occupation_Craft-repair <= 0.5\ngini = 0.18\nsamples = 10\nvalue = [9, 1]"] ;
1047 -> 1048 ;
1049 [label="gini = 0.0\nsamples = 6\nvalue = [6, 0]"] ;
1048 -> 1049 ;
1050 [label="gini = 0.375\nsamples = 4\nvalue = [3, 1]"] ;
1048 -> 1050 ;
1051 [label="gini = 0.0\nsamples = 24\nvalue = [24, 0]"] ;
1047 -> 1051 ;
1052 [label="age <= 32.0\ngini = 0.32\nsamples = 5\nvalue = [4, 1]"] ;
1046 -> 1052 ;
1053 [label="fnlwgt <= 121094.5\ngini = 0.4444\nsamples = 3\nvalue = [2, 1]"] ;
1052 -> 1053 ;
1054 [label="gini = 0.0\nsamples = 1\nvalue = [1, 0]"] ;
1053 -> 1054 ;
1055 [label="gini = 0.5\nsamples = 2\nvalue = [1, 1]"] ;
1053 -> 1055 ;
1056 [label="gini = 0.0\nsamples = 2\nvalue = [2, 0]"] ;
1052 -> 1056 ;
1057 [label="gini = 0.0\nsamples = 1\nvalue = [0, 1]"] ;
1045 -> 1057 ;
1058 [label="occupation_? <= 0.5\ngini = 0.5\nsamples = 2\nvalue = [1, 1]"] ;
1030 -> 1058 ;
1059 [label="gini = 0.0\nsamples = 1\nvalue = [0, 1]"] ;
1058 -> 1059 ;
1060 [label="gini = 0.0\nsamples = 1\nvalue = [1, 0]"] ;
1058 -> 1060 ;
1061 [label="relationship_Not-in-family <= 0.5\ngini = 0.1997\nsamples = 80\nvalue = [71, 9]"] ;
1029 -> 1061 ;
1062 [label="workclass_Self-emp-inc <= 0.5\ngini = 0.182\nsamples = 79\nvalue = [71, 8]"] ;
1061 -> 1062 ;
1063 [label="fnlwgt <= 29992.5\ngini = 0.1653\nsamples = 77\nvalue = [70, 7]"] ;
1062 -> 1063 ;
1064 [label="education-num <= 5.5\ngini = 0.5\nsamples = 2\nvalue = [1, 1]"] ;
1063 -> 1064 ;
1065 [label="gini = 0.0\nsamples = 1\nvalue = [1, 0]"] ;
1064 -> 1065 ;
1066 [label="gini = 0.0\nsamples = 1\nvalue = [0, 1]"] ;
1064 -> 1066 ;
1067 [label="education_5th-6th <= 0.5\ngini = 0.1472\nsamples = 75\nvalue = [69, 6]"] ;
1063 -> 1067 ;
1068 [label="relationship_Own-child <= 0.5\ngini = 0.1107\nsamples = 68\nvalue = [64, 4]"] ;
1067 -> 1068 ;
1069 [label="age <= 24.5\ngini = 0.088\nsamples = 65\nvalue = [62, 3]"] ;
1068 -> 1069 ;
1070 [label="gini = 0.2604\nsamples = 13\nvalue = [11, 2]"] ;
1069 -> 1070 ;
1071 [label="gini = 0.0377\nsamples = 52\nvalue = [51, 1]"] ;
1069 -> 1071 ;
1072 [label="hours-per-week <= 52.5\ngini = 0.4444\nsamples = 3\nvalue = [2, 1]"] ;
1068 -> 1072 ;
1073 [label="gini = 0.0\nsamples = 1\nvalue = [0, 1]"] ;
1072 -> 1073 ;
1074 [label="gini = 0.0\nsamples = 2\nvalue = [2, 0]"] ;
1072 -> 1074 ;
1075 [label="workclass_Private <= 0.5\ngini = 0.4082\nsamples = 7\nvalue = [5, 2]"] ;
1067 -> 1075 ;
1076 [label="gini = 0.0\nsamples = 2\nvalue = [0, 2]"] ;
1075 -> 1076 ;
1077 [label="gini = 0.0\nsamples = 5\nvalue = [5, 0]"] ;
1075 -> 1077 ;
1078 [label="occupation_Sales <= 0.5\ngini = 0.5\nsamples = 2\nvalue = [1, 1]"] ;
1062 -> 1078 ;
1079 [label="gini = 0.0\nsamples = 1\nvalue = [0, 1]"] ;
1078 -> 1079 ;
1080 [label="gini = 0.0\nsamples = 1\nvalue = [1, 0]"] ;
1078 -> 1080 ;
1081 [label="gini = 0.0\nsamples = 1\nvalue = [0, 1]"] ;
1061 -> 1081 ;
1082 [label="fnlwgt <= 273083.5\ngini = 0.48\nsamples = 5\nvalue = [3, 2]"] ;
1028 -> 1082 ;
1083 [label="gini = 0.0\nsamples = 3\nvalue = [3, 0]"] ;
1082 -> 1083 ;
1084 [label="gini = 0.0\nsamples = 2\nvalue = [0, 2]"] ;
1082 -> 1084 ;
1085 [label="gini = 0.0\nsamples = 1\nvalue = [0, 1]"] ;
1027 -> 1085 ;
1086 [label="education-num <= 5.5\ngini = 0.2053\nsamples = 1128\nvalue = [997, 131]"] ;
1026 -> 1086 ;
1087 [label="hours-per-week <= 49.5\ngini = 0.155\nsamples = 626\nvalue = [573, 53]"] ;
1086 -> 1087 ;
1088 [label="workclass_Self-emp-inc <= 0.5\ngini = 0.1117\nsamples = 522\nvalue = [491, 31]"] ;
1087 -> 1088 ;
1089 [label="native-country_Yugoslavia <= 0.5\ngini = 0.0999\nsamples = 512\nvalue = [485, 27]"] ;
1088 -> 1089 ;
1090 [label="workclass_Federal-gov <= 0.5\ngini = 0.0966\nsamples = 511\nvalue = [485, 26]"] ;
1089 -> 1090 ;
1091 [label="occupation_Exec-managerial <= 0.5\ngini = 0.0932\nsamples = 510\nvalue = [485, 25]"] ;
1090 -> 1091 ;
1092 [label="occupation_Sales <= 0.5\ngini = 0.0809\nsamples = 497\nvalue = [476, 21]"] ;
1091 -> 1092 ;
1093 [label="native-country_Haiti <= 0.5\ngini = 0.0685\nsamples = 479\nvalue = [462, 17]"] ;
1092 -> 1093 ;
1094 [label="native-country_Vietnam <= 0.5\ngini = 0.065\nsamples = 476\nvalue = [460, 16]"] ;
1093 -> 1094 ;
1095 [label="gini = 0.0614\nsamples = 473\nvalue = [458, 15]"] ;
1094 -> 1095 ;
1096 [label="gini = 0.4444\nsamples = 3\nvalue = [2, 1]"] ;
1094 -> 1096 ;
1097 [label="education-num <= 2.5\ngini = 0.4444\nsamples = 3\nvalue = [2, 1]"] ;
1093 -> 1097 ;
1098 [label="gini = 0.0\nsamples = 1\nvalue = [0, 1]"] ;
1097 -> 1098 ;
1099 [label="gini = 0.0\nsamples = 2\nvalue = [2, 0]"] ;
1097 -> 1099 ;
1100 [label="age <= 58.5\ngini = 0.3457\nsamples = 18\nvalue = [14, 4]"] ;
1092 -> 1100 ;
1101 [label="age <= 39.0\ngini = 0.1528\nsamples = 12\nvalue = [11, 1]"] ;
1100 -> 1101 ;
1102 [label="gini = 0.4444\nsamples = 3\nvalue = [2, 1]"] ;
1101 -> 1102 ;
1103 [label="gini = 0.0\nsamples = 9\nvalue = [9, 0]"] ;
1101 -> 1103 ;
1104 [label="fnlwgt <= 178666.0\ngini = 0.5\nsamples = 6\nvalue = [3, 3]"] ;
1100 -> 1104 ;
1105 [label="gini = 0.375\nsamples = 4\nvalue = [3, 1]"] ;
1104 -> 1105 ;
1106 [label="gini = 0.0\nsamples = 2\nvalue = [0, 2]"] ;
1104 -> 1106 ;
1107 [label="workclass_Private <= 0.5\ngini = 0.426\nsamples = 13\nvalue = [9, 4]"] ;
1091 -> 1107 ;
1108 [label="gini = 0.0\nsamples = 6\nvalue = [6, 0]"] ;
1107 -> 1108 ;
1109 [label="age <= 52.0\ngini = 0.4898\nsamples = 7\nvalue = [3, 4]"] ;
1107 -> 1109 ;
1110 [label="gini = 0.0\nsamples = 2\nvalue = [2, 0]"] ;
1109 -> 1110 ;
1111 [label="fnlwgt <= 49328.0\ngini = 0.32\nsamples = 5\nvalue = [1, 4]"] ;
1109 -> 1111 ;
1112 [label="gini = 0.0\nsamples = 1\nvalue = [1, 0]"] ;
1111 -> 1112 ;
1113 [label="gini = 0.0\nsamples = 4\nvalue = [0, 4]"] ;
1111 -> 1113 ;
1114 [label="gini = 0.0\nsamples = 1\nvalue = [0, 1]"] ;
1090 -> 1114 ;
1115 [label="gini = 0.0\nsamples = 1\nvalue = [0, 1]"] ;
1089 -> 1115 ;
1116 [label="education-num <= 4.5\ngini = 0.48\nsamples = 10\nvalue = [6, 4]"] ;
1088 -> 1116 ;
1117 [label="fnlwgt <= 129309.0\ngini = 0.4898\nsamples = 7\nvalue = [3, 4]"] ;
1116 -> 1117 ;
1118 [label="gini = 0.0\nsamples = 2\nvalue = [0, 2]"] ;
1117 -> 1118 ;
1119 [label="education_5th-6th <= 0.5\ngini = 0.48\nsamples = 5\nvalue = [3, 2]"] ;
1117 -> 1119 ;
1120 [label="gini = 0.0\nsamples = 2\nvalue = [2, 0]"] ;
1119 -> 1120 ;
1121 [label="native-country_Italy <= 0.5\ngini = 0.4444\nsamples = 3\nvalue = [1, 2]"] ;
1119 -> 1121 ;
1122 [label="gini = 0.0\nsamples = 2\nvalue = [0, 2]"] ;
1121 -> 1122 ;
1123 [label="gini = 0.0\nsamples = 1\nvalue = [1, 0]"] ;
1121 -> 1123 ;
1124 [label="gini = 0.0\nsamples = 3\nvalue = [3, 0]"] ;
1116 -> 1124 ;
1125 [label="capital-gain <= 4164.0\ngini = 0.3336\nsamples = 104\nvalue = [82, 22]"] ;
1087 -> 1125 ;
1126 [label="age <= 63.5\ngini = 0.3246\nsamples = 103\nvalue = [82, 21]"] ;
1125 -> 1126 ;
1127 [label="age <= 62.5\ngini = 0.3496\nsamples = 93\nvalue = [72, 21]"] ;
1126 -> 1127 ;
1128 [label="fnlwgt <= 157700.0\ngini = 0.3331\nsamples = 90\nvalue = [71, 19]"] ;
1127 -> 1128 ;
1129 [label="fnlwgt <= 147178.0\ngini = 0.4244\nsamples = 36\nvalue = [25, 11]"] ;
1128 -> 1129 ;
1130 [label="native-country_Italy <= 0.5\ngini = 0.3893\nsamples = 34\nvalue = [25, 9]"] ;
1129 -> 1130 ;
1131 [label="education_9th <= 0.5\ngini = 0.3673\nsamples = 33\nvalue = [25, 8]"] ;
1130 -> 1131 ;
1132 [label="gini = 0.3018\nsamples = 27\nvalue = [22, 5]"] ;
1131 -> 1132 ;
1133 [label="gini = 0.5\nsamples = 6\nvalue = [3, 3]"] ;
1131 -> 1133 ;
1134 [label="gini = 0.0\nsamples = 1\nvalue = [0, 1]"] ;
1130 -> 1134 ;
1135 [label="gini = 0.0\nsamples = 2\nvalue = [0, 2]"] ;
1129 -> 1135 ;
1136 [label="race_Black <= 0.5\ngini = 0.2524\nsamples = 54\nvalue = [46, 8]"] ;
1128 -> 1136 ;
1137 [label="fnlwgt <= 245164.5\ngini = 0.2112\nsamples = 50\nvalue = [44, 6]"] ;
1136 -> 1137 ;
1138 [label="fnlwgt <= 241814.0\ngini = 0.2975\nsamples = 33\nvalue = [27, 6]"] ;
1137 -> 1138 ;
1139 [label="gini = 0.2637\nsamples = 32\nvalue = [27, 5]"] ;
1138 -> 1139 ;
1140 [label="gini = 0.0\nsamples = 1\nvalue = [0, 1]"] ;
1138 -> 1140 ;
1141 [label="gini = 0.0\nsamples = 17\nvalue = [17, 0]"] ;
1137 -> 1141 ;
1142 [label="fnlwgt <= 318354.0\ngini = 0.5\nsamples = 4\nvalue = [2, 2]"] ;
1136 -> 1142 ;
1143 [label="gini = 0.0\nsamples = 2\nvalue = [2, 0]"] ;
1142 -> 1143 ;
1144 [label="gini = 0.0\nsamples = 2\nvalue = [0, 2]"] ;
1142 -> 1144 ;
1145 [label="fnlwgt <= 87998.0\ngini = 0.4444\nsamples = 3\nvalue = [1, 2]"] ;
1127 -> 1145 ;
1146 [label="gini = 0.0\nsamples = 1\nvalue = [1, 0]"] ;
1145 -> 1146 ;
1147 [label="gini = 0.0\nsamples = 2\nvalue = [0, 2]"] ;
1145 -> 1147 ;
1148 [label="gini = 0.0\nsamples = 10\nvalue = [10, 0]"] ;
1126 -> 1148 ;
1149 [label="gini = 0.0\nsamples = 1\nvalue = [0, 1]"] ;
1125 -> 1149 ;
1150 [label="age <= 65.5\ngini = 0.2625\nsamples = 502\nvalue = [424, 78]"] ;
1086 -> 1150 ;
1151 [label="occupation_Prof-specialty <= 0.5\ngini = 0.2851\nsamples = 453\nvalue = [375, 78]"] ;
1150 -> 1151 ;
1152 [label="fnlwgt <= 366223.0\ngini = 0.2783\nsamples = 449\nvalue = [374, 75]"] ;
1151 -> 1152 ;
1153 [label="fnlwgt <= 198384.0\ngini = 0.2651\nsamples = 426\nvalue = [359, 67]"] ;
1152 -> 1153 ;
1154 [label="fnlwgt <= 197304.0\ngini = 0.3055\nsamples = 287\nvalue = [233, 54]"] ;
1153 -> 1154 ;
1155 [label="native-country_Japan <= 0.5\ngini = 0.2955\nsamples = 283\nvalue = [232, 51]"] ;
1154 -> 1155 ;
1156 [label="native-country_Cambodia <= 0.5\ngini = 0.2917\nsamples = 282\nvalue = [232, 50]"] ;
1155 -> 1156 ;
1157 [label="capital-gain <= 2869.0\ngini = 0.2879\nsamples = 281\nvalue = [232, 49]"] ;
1156 -> 1157 ;
1158 [label="gini = 0.2761\nsamples = 272\nvalue = [227, 45]"] ;
1157 -> 1158 ;
1159 [label="gini = 0.4938\nsamples = 9\nvalue = [5, 4]"] ;
1157 -> 1159 ;
1160 [label="gini = 0.0\nsamples = 1\nvalue = [0, 1]"] ;
1156 -> 1160 ;
1161 [label="gini = 0.0\nsamples = 1\nvalue = [0, 1]"] ;
1155 -> 1161 ;
1162 [label="age <= 57.5\ngini = 0.375\nsamples = 4\nvalue = [1, 3]"] ;
1154 -> 1162 ;
1163 [label="gini = 0.0\nsamples = 3\nvalue = [0, 3]"] ;
1162 -> 1163 ;
1164 [label="gini = 0.0\nsamples = 1\nvalue = [1, 0]"] ;
1162 -> 1164 ;
1165 [label="race_Black <= 0.5\ngini = 0.1696\nsamples = 139\nvalue = [126, 13]"] ;
1153 -> 1165 ;
1166 [label="workclass_Private <= 0.5\ngini = 0.1254\nsamples = 119\nvalue = [111, 8]"] ;
1165 -> 1166 ;
1167 [label="gini = 0.0\nsamples = 40\nvalue = [40, 0]"] ;
1166 -> 1167 ;
1168 [label="education-num <= 7.5\ngini = 0.182\nsamples = 79\nvalue = [71, 8]"] ;
1166 -> 1168 ;
1169 [label="age <= 44.5\ngini = 0.1309\nsamples = 71\nvalue = [66, 5]"] ;
1168 -> 1169 ;
1170 [label="gini = 0.2688\nsamples = 25\nvalue = [21, 4]"] ;
1169 -> 1170 ;
1171 [label="gini = 0.0425\nsamples = 46\nvalue = [45, 1]"] ;
1169 -> 1171 ;
1172 [label="fnlwgt <= 255075.0\ngini = 0.4688\nsamples = 8\nvalue = [5, 3]"] ;
1168 -> 1172 ;
1173 [label="gini = 0.48\nsamples = 5\nvalue = [2, 3]"] ;
1172 -> 1173 ;
1174 [label="gini = 0.0\nsamples = 3\nvalue = [3, 0]"] ;
1172 -> 1174 ;
1175 [label="occupation_Craft-repair <= 0.5\ngini = 0.375\nsamples = 20\nvalue = [15, 5]"] ;
1165 -> 1175 ;
1176 [label="workclass_Self-emp-not-inc <= 0.5\ngini = 0.2778\nsamples = 18\nvalue = [15, 3]"] ;
1175 -> 1176 ;
1177 [label="occupation_Transport-moving <= 0.5\ngini = 0.2076\nsamples = 17\nvalue = [15, 2]"] ;
1176 -> 1177 ;
1178 [label="gini = 0.0\nsamples = 12\nvalue = [12, 0]"] ;
1177 -> 1178 ;
1179 [label="gini = 0.48\nsamples = 5\nvalue = [3, 2]"] ;
1177 -> 1179 ;
1180 [label="gini = 0.0\nsamples = 1\nvalue = [0, 1]"] ;
1176 -> 1180 ;
