digraph Tree {
node [shape=box] ;
0 [label="marital-status_Married-civ-spouse <= 0.5\ngini = 0.3656\nsamples = 32561\nvalue = [24720, 7841]"] ;
1 [label="capital-gain <= 7073.5\ngini = 0.1221\nsamples = 17585\nvalue = [16436, 1149]"] ;
0 -> 1 [labeldistance=2.5, labelangle=45, headlabel="True"] ;
2 [label="education-num <= 12.5\ngini = 0.0935\nsamples = 17274\nvalue = [16425, 849]"] ;
1 -> 2 ;
3 [label="capital-loss <= 2218.5\ngini = 0.0481\nsamples = 13864\nvalue = [13522, 342]"] ;
2 -> 3 ;
4 [label="hours-per-week <= 40.5\ngini = 0.0446\nsamples = 13807\nvalue = [13492, 315]"] ;
3 -> 4 ;
5 [label="age <= 33.5\ngini = 0.0268\nsamples = 11351\nvalue = [11197, 154]"] ;
4 -> 5 ;
6 [label="relationship_Husband <= 0.5\ngini = 0.0071\nsamples = 6698\nvalue = [6674, 24]"] ;
5 -> 6 ;
7 [label="relationship_Wife <= 0.5\ngini = 0.0068\nsamples = 6696\nvalue = [6673, 23]"] ;
6 -> 7 ;
8 [label="fnlwgt <= 23759.0\ngini = 0.0066\nsamples = 6692\nvalue = [6670, 22]"] ;
7 -> 8 ;
9 [label="fnlwgt <= 23381.0\ngini = 0.142\nsamples = 26\nvalue = [24, 2]"] ;
8 -> 9 ;
10 [label="gini = 0.0\nsamples = 23\nvalue = [23, 0]"] ;
9 -> 10 ;
11 [label="age <= 23.5\ngini = 0.4444\nsamples = 3\nvalue = [1, 2]"] ;
9 -> 11 ;
12 [label="gini = 0.0\nsamples = 1\nvalue = [1, 0]"] ;
11 -> 12 ;
13 [label="gini = 0.0\nsamples = 2\nvalue = [0, 2]"] ;
11 -> 13 ;
14 [label="age <= 28.5\ngini = 0.006\nsamples = 6666\nvalue = [6646, 20]"] ;
8 -> 14 ;
15 [label="workclass_Local-gov <= 0.5\ngini = 0.0026\nsamples = 5386\nvalue = [5379, 7]"] ;
14 -> 15 ;
16 [label="workclass_Self-emp-not-inc <= 0.5\ngini = 0.0015\nsamples = 5245\nvalue = [5241, 4]"] ;
15 -> 16 ;
17 [label="occupation_Tech-support <= 0.5\ngini = 0.0012\nsamples = 5139\nvalue = [5136, 3]"] ;
16 -> 17 ;
18 [label="occupation_Exec-managerial <= 0.5\ngini = 0.0008\nsamples = 5026\nvalue = [5024, 2]"] ;
17 -> 18 ;
19 [label="occupation_Other-service <= 0.5\ngini = 0.0004\nsamples = 4882\nvalue = [4881, 1]"] ;
18 -> 19 ;
20 [label="gini = 0.0\nsamples = 3812\nvalue = [3812, 0]"] ;
19 -> 20 ;
21 [label="fnlwgt <= 127914.5\ngini = 0.0019\nsamples = 1070\nvalue = [1069, 1]"] ;
19 -> 21 ;
22 [label="fnlwgt <= 127707.5\ngini = 0.0065\nsamples = 308\nvalue = [307, 1]"] ;
21 -> 22 ;
23 [label="gini = 0.0\nsamples = 307\nvalue = [307, 0]"] ;
22 -> 23 ;
24 [label="gini = 0.0\nsamples = 1\nvalue = [0, 1]"] ;
22 -> 24 ;
25 [label="gini = 0.0\nsamples = 762\nvalue = [762, 0]"] ;
21 -> 25 ;
26 [label="education_Assoc-acdm <= 0.5\ngini = 0.0138\nsamples = 144\nvalue = [143, 1]"] ;
18 -> 26 ;
27 [label="gini = 0.0\nsamples = 135\nvalue = [135, 0]"] ;
26 -> 27 ;
28 [label="age <= 26.5\ngini = 0.1975\nsamples = 9\nvalue = [8, 1]"] ;
26 -> 28 ;
29 [label="gini = 0.0\nsamples = 7\nvalue = [7, 0]"] ;
28 -> 29 ;
30 [label="fnlwgt <= 279321.0\ngini = 0.5\nsamples = 2\nvalue = [1, 1]"] ;
28 -> 30 ;
31 [label="gini = 0.0\nsamples = 1\nvalue = [0, 1]"] ;
30 -> 31 ;
32 [label="gini = 0.0\nsamples = 1\nvalue = [1, 0]"] ;
30 -> 32 ;
33 [label="marital-status_Separated <= 0.5\ngini = 0.0175\nsamples = 113\nvalue = [112, 1]"] ;
17 -> 33 ;
34 [label="gini = 0.0\nsamples = 111\nvalue = [111, 0]"] ;
33 -> 34 ;
35 [label="relationship_Own-child <= 0.5\ngini = 0.5\nsamples = 2\nvalue = [1, 1]"] ;
33 -> 35 ;
36 [label="gini = 0.0\nsamples = 1\nvalue = [0, 1]"] ;
35 -> 36 ;
37 [label="gini = 0.0\nsamples = 1\nvalue = [1, 0]"] ;
35 -> 37 ;
38 [label="race_Asian-Pac-Islander <= 0.5\ngini = 0.0187\nsamples = 106\nvalue = [105, 1]"] ;
16 -> 38 ;
39 [label="gini = 0.0\nsamples = 100\nvalue = [100, 0]"] ;
38 -> 39 ;
40 [label="relationship_Not-in-family <= 0.5\ngini = 0.2778\nsamples = 6\nvalue = [5, 1]"] ;
38 -> 40 ;
41 [label="gini = 0.0\nsamples = 4\nvalue = [4, 0]"] ;
40 -> 41 ;
42 [label="hours-per-week <= 35.0\ngini = 0.5\nsamples = 2\nvalue = [1, 1]"] ;
40 -> 42 ;
43 [label="gini = 0.0\nsamples = 1\nvalue = [0, 1]"] ;
42 -> 43 ;
44 [label="gini = 0.0\nsamples = 1\nvalue = [1, 0]"] ;
42 -> 44 ;
45 [label="education_5th-6th <= 0.5\ngini = 0.0416\nsamples = 141\nvalue = [138, 3]"] ;
15 -> 45 ;
46 [label="occupation_Protective-serv <= 0.5\ngini = 0.0282\nsamples = 140\nvalue = [138, 2]"] ;
45 -> 46 ;
47 [label="gini = 0.0\nsamples = 115\nvalue = [115, 0]"] ;
46 -> 47 ;
48 [label="fnlwgt <= 196863.0\ngini = 0.1472\nsamples = 25\nvalue = [23, 2]"] ;
46 -> 48 ;
49 [label="gini = 0.0\nsamples = 14\nvalue = [14, 0]"] ;
48 -> 49 ;
50 [label="fnlwgt <= 234027.0\ngini = 0.2975\nsamples = 11\nvalue = [9, 2]"] ;
48 -> 50 ;
51 [label="sex_Female <= 0.5\ngini = 0.4444\nsamples = 3\nvalue = [1, 2]"] ;
50 -> 51 ;
52 [label="fnlwgt <= 199791.0\ngini = 0.5\nsamples = 2\nvalue = [1, 1]"] ;
51 -> 52 ;
53 [label="gini = 0.0\nsamples = 1\nvalue = [0, 1]"] ;
52 -> 53 ;
54 [label="gini = 0.0\nsamples = 1\nvalue = [1, 0]"] ;
52 -> 54 ;
55 [label="gini = 0.0\nsamples = 1\nvalue = [0, 1]"] ;
51 -> 55 ;
56 [label="gini = 0.0\nsamples = 8\nvalue = [8, 0]"] ;
50 -> 56 ;
57 [label="gini = 0.0\nsamples = 1\nvalue = [0, 1]"] ;
45 -> 57 ;
58 [label="occupation_Craft-repair <= 0.5\ngini = 0.0201\nsamples = 1280\nvalue = [1267, 13]"] ;
14 -> 58 ;
59 [label="marital-status_Widowed <= 0.5\ngini = 0.0125\nsamples = 1117\nvalue = [1110, 7]"] ;
58 -> 59 ;
60 [label="workclass_State-gov <= 0.5\ngini = 0.0108\nsamples = 1106\nvalue = [1100, 6]"] ;
59 -> 60 ;
61 [label="education_7th-8th <= 0.5\ngini = 0.0075\nsamples = 1060\nvalue = [1056, 4]"] ;
60 -> 61 ;
62 [label="workclass_Federal-gov <= 0.5\ngini = 0.0057\nsamples = 1041\nvalue = [1038, 3]"] ;
61 -> 62 ;
63 [label="education_11th <= 0.5\ngini = 0.004\nsamples = 1004\nvalue = [1002, 2]"] ;
62 -> 63 ;
64 [label="fnlwgt <= 372765.0\ngini = 0.0021\nsamples = 963\nvalue = [962, 1]"] ;
63 -> 64 ;
65 [label="gini = 0.0\nsamples = 901\nvalue = [901, 0]"] ;
64 -> 65 ;
66 [label="fnlwgt <= 373437.5\ngini = 0.0317\nsamples = 62\nvalue = [61, 1]"] ;
64 -> 66 ;
67 [label="gini = 0.0\nsamples = 1\nvalue = [0, 1]"] ;
66 -> 67 ;
68 [label="gini = 0.0\nsamples = 61\nvalue = [61, 0]"] ;
66 -> 68 ;
69 [label="occupation_Exec-managerial <= 0.5\ngini = 0.0476\nsamples = 41\nvalue = [40, 1]"] ;
63 -> 69 ;
70 [label="gini = 0.0\nsamples = 39\nvalue = [39, 0]"] ;
69 -> 70 ;
71 [label="relationship_Unmarried <= 0.5\ngini = 0.5\nsamples = 2\nvalue = [1, 1]"] ;
69 -> 71 ;
72 [label="gini = 0.0\nsamples = 1\nvalue = [1, 0]"] ;
71 -> 72 ;
73 [label="gini = 0.0\nsamples = 1\nvalue = [0, 1]"] ;
71 -> 73 ;
74 [label="occupation_Other-service <= 0.5\ngini = 0.0526\nsamples = 37\nvalue = [36, 1]"] ;
62 -> 74 ;
75 [label="gini = 0.0\nsamples = 30\nvalue = [30, 0]"] ;
74 -> 75 ;
76 [label="age <= 30.5\ngini = 0.2449\nsamples = 7\nvalue = [6, 1]"] ;
74 -> 76 ;
77 [label="race_Black <= 0.5\ngini = 0.5\nsamples = 2\nvalue = [1, 1]"] ;
76 -> 77 ;
78 [label="gini = 0.0\nsamples = 1\nvalue = [0, 1]"] ;
77 -> 78 ;
79 [label="gini = 0.0\nsamples = 1\nvalue = [1, 0]"] ;
77 -> 79 ;
80 [label="gini = 0.0\nsamples = 5\nvalue = [5, 0]"] ;
76 -> 80 ;
81 [label="occupation_Farming-fishing <= 0.5\ngini = 0.0997\nsamples = 19\nvalue = [18, 1]"] ;
61 -> 81 ;
82 [label="gini = 0.0\nsamples = 18\nvalue = [18, 0]"] ;
81 -> 82 ;
83 [label="gini = 0.0\nsamples = 1\nvalue = [0, 1]"] ;
81 -> 83 ;
84 [label="education_Assoc-acdm <= 0.5\ngini = 0.0832\nsamples = 46\nvalue = [44, 2]"] ;
60 -> 84 ;
85 [label="fnlwgt <= 399295.0\ngini = 0.0454\nsamples = 43\nvalue = [42, 1]"] ;
84 -> 85 ;
86 [label="gini = 0.0\nsamples = 39\nvalue = [39, 0]"] ;
85 -> 86 ;
87 [label="occupation_Protective-serv <= 0.5\ngini = 0.375\nsamples = 4\nvalue = [3, 1]"] ;
85 -> 87 ;
88 [label="gini = 0.0\nsamples = 3\nvalue = [3, 0]"] ;
87 -> 88 ;
89 [label="gini = 0.0\nsamples = 1\nvalue = [0, 1]"] ;
87 -> 89 ;
90 [label="age <= 30.0\ngini = 0.4444\nsamples = 3\nvalue = [2, 1]"] ;
84 -> 90 ;
91 [label="gini = 0.0\nsamples = 1\nvalue = [0, 1]"] ;
90 -> 91 ;
92 [label="gini = 0.0\nsamples = 2\nvalue = [2, 0]"] ;
90 -> 92 ;
93 [label="workclass_Self-emp-not-inc <= 0.5\ngini = 0.1653\nsamples = 11\nvalue = [10, 1]"] ;
59 -> 93 ;
94 [label="gini = 0.0\nsamples = 10\nvalue = [10, 0]"] ;
93 -> 94 ;
95 [label="gini = 0.0\nsamples = 1\nvalue = [0, 1]"] ;
93 -> 95 ;
96 [label="education-num <= 9.5\ngini = 0.0709\nsamples = 163\nvalue = [157, 6]"] ;
58 -> 96 ;
97 [label="fnlwgt <= 347879.0\ngini = 0.0177\nsamples = 112\nvalue = [111, 1]"] ;
96 -> 97 ;
98 [label="gini = 0.0\nsamples = 104\nvalue = [104, 0]"] ;
97 -> 98 ;
99 [label="fnlwgt <= 352303.5\ngini = 0.2188\nsamples = 8\nvalue = [7, 1]"] ;
97 -> 99 ;
100 [label="gini = 0.0\nsamples = 1\nvalue = [0, 1]"] ;
99 -> 100 ;
101 [label="gini = 0.0\nsamples = 7\nvalue = [7, 0]"] ;
99 -> 101 ;
102 [label="workclass_Federal-gov <= 0.5\ngini = 0.1769\nsamples = 51\nvalue = [46, 5]"] ;
96 -> 102 ;
103 [label="fnlwgt <= 220252.0\ngini = 0.1499\nsamples = 49\nvalue = [45, 4]"] ;
102 -> 103 ;
104 [label="fnlwgt <= 210558.0\ngini = 0.2188\nsamples = 32\nvalue = [28, 4]"] ;
103 -> 104 ;
105 [label="age <= 30.5\ngini = 0.1748\nsamples = 31\nvalue = [28, 3]"] ;
104 -> 105 ;
106 [label="fnlwgt <= 60105.0\ngini = 0.3367\nsamples = 14\nvalue = [11, 3]"] ;
105 -> 106 ;
107 [label="gini = 0.0\nsamples = 1\nvalue = [0, 1]"] ;
106 -> 107 ;
108 [label="fnlwgt <= 154796.5\ngini = 0.2604\nsamples = 13\nvalue = [11, 2]"] ;
106 -> 108 ;
109 [label="gini = 0.0\nsamples = 7\nvalue = [7, 0]"] ;
108 -> 109 ;
110 [label="fnlwgt <= 179165.5\ngini = 0.4444\nsamples = 6\nvalue = [4, 2]"] ;
108 -> 110 ;
111 [label="relationship_Not-in-family <= 0.5\ngini = 0.4444\nsamples = 3\nvalue = [1, 2]"] ;
110 -> 111 ;
112 [label="education_Assoc-voc <= 0.5\ngini = 0.5\nsamples = 2\nvalue = [1, 1]"] ;
111 -> 112 ;
113 [label="gini = 0.0\nsamples = 1\nvalue = [1, 0]"] ;
112 -> 113 ;
114 [label="gini = 0.0\nsamples = 1\nvalue = [0, 1]"] ;
112 -> 114 ;
115 [label="gini = 0.0\nsamples = 1\nvalue = [0, 1]"] ;
111 -> 115 ;
116 [label="gini = 0.0\nsamples = 3\nvalue = [3, 0]"] ;
110 -> 116 ;
117 [label="gini = 0.0\nsamples = 17\nvalue = [17, 0]"] ;
105 -> 117 ;
118 [label="gini = 0.0\nsamples = 1\nvalue = [0, 1]"] ;
104 -> 118 ;
119 [label="gini = 0.0\nsamples = 17\nvalue = [17, 0]"] ;
103 -> 119 ;
120 [label="sex_Male <= 0.5\ngini = 0.5\nsamples = 2\nvalue = [1, 1]"] ;
102 -> 120 ;
121 [label="gini = 0.0\nsamples = 1\nvalue = [0, 1]"] ;
120 -> 121 ;
122 [label="gini = 0.0\nsamples = 1\nvalue = [1, 0]"] ;
120 -> 122 ;
123 [label="education_Some-college <= 0.5\ngini = 0.375\nsamples = 4\nvalue = [3, 1]"] ;
7 -> 123 ;
124 [label="gini = 0.0\nsamples = 3\nvalue = [3, 0]"] ;
123 -> 124 ;
125 [label="gini = 0.0\nsamples = 1\nvalue = [0, 1]"] ;
123 -> 125 ;
126 [label="age <= 26.5\ngini = 0.5\nsamples = 2\nvalue = [1, 1]"] ;
6 -> 126 ;
127 [label="gini = 0.0\nsamples = 1\nvalue = [1, 0]"] ;
126 -> 127 ;
128 [label="gini = 0.0\nsamples = 1\nvalue = [0, 1]"] ;
126 -> 128 ;
129 [label="occupation_Prof-specialty <= 0.5\ngini = 0.0543\nsamples = 4653\nvalue = [4523, 130]"] ;
5 -> 129 ;
130 [label="occupation_Exec-managerial <= 0.5\ngini = 0.046\nsamples = 4416\nvalue = [4312, 104]"] ;
129 -> 130 ;
131 [label="marital-status_Married-AF-spouse <= 0.5\ngini = 0.0376\nsamples = 4072\nvalue = [3994, 78]"] ;
130 -> 131 ;
132 [label="occupation_Protective-serv <= 0.5\ngini = 0.0367\nsamples = 4067\nvalue = [3991, 76]"] ;
131 -> 132 ;
133 [label="native-country_India <= 0.5\ngini = 0.0339\nsamples = 4000\nvalue = [3931, 69]"] ;
132 -> 133 ;
134 [label="capital-gain <= 4718.5\ngini = 0.0334\nsamples = 3999\nvalue = [3931, 68]"] ;
133 -> 134 ;
135 [label="occupation_Craft-repair <= 0.5\ngini = 0.0317\nsamples = 3972\nvalue = [3908, 64]"] ;
134 -> 135 ;
136 [label="workclass_Self-emp-inc <= 0.5\ngini = 0.0255\nsamples = 3477\nvalue = [3432, 45]"] ;
135 -> 136 ;
137 [label="fnlwgt <= 20302.0\ngini = 0.024\nsamples = 3453\nvalue = [3411, 42]"] ;
136 -> 137 ;
138 [label="relationship_Unmarried <= 0.5\ngini = 0.32\nsamples = 5\nvalue = [4, 1]"] ;
137 -> 138 ;
139 [label="gini = 0.0\nsamples = 1\nvalue = [0, 1]"] ;
138 -> 139 ;
140 [label="gini = 0.0\nsamples = 4\nvalue = [4, 0]"] ;
138 -> 140 ;
141 [label="occupation_Tech-support <= 0.5\ngini = 0.0235\nsamples = 3448\nvalue = [3407, 41]"] ;
137 -> 141 ;
142 [label="native-country_England <= 0.5\ngini = 0.0209\nsamples = 3319\nvalue = [3284, 35]"] ;
141 -> 142 ;
143 [label="native-country_Italy <= 0.5\ngini = 0.0203\nsamples = 3311\nvalue = [3277, 34]"] ;
142 -> 143 ;
144 [label="race_White <= 0.5\ngini = 0.0198\nsamples = 3302\nvalue = [3269, 33]"] ;
143 -> 144 ;
145 [label="education_Assoc-voc <= 0.5\ngini = 0.0024\nsamples = 827\nvalue = [826, 1]"] ;
144 -> 145 ;
146 [label="gini = 0.0\nsamples = 801\nvalue = [801, 0]"] ;
145 -> 146 ;
147 [label="workclass_Federal-gov <= 0.5\ngini = 0.074\nsamples = 26\nvalue = [25, 1]"] ;
145 -> 147 ;
148 [label="gini = 0.0\nsamples = 22\nvalue = [22, 0]"] ;
147 -> 148 ;
149 [label="fnlwgt <= 230043.5\ngini = 0.375\nsamples = 4\nvalue = [3, 1]"] ;
147 -> 149 ;
150 [label="gini = 0.0\nsamples = 3\nvalue = [3, 0]"] ;
149 -> 150 ;
151 [label="gini = 0.0\nsamples = 1\nvalue = [0, 1]"] ;
149 -> 151 ;
152 [label="occupation_Transport-moving <= 0.5\ngini = 0.0255\nsamples = 2475\nvalue = [2443, 32]"] ;
144 -> 152 ;
153 [label="age <= 56.5\ngini = 0.0227\nsamples = 2356\nvalue = [2329, 27]"] ;
152 -> 153 ;
154 [label="occupation_Adm-clerical <= 0.5\ngini = 0.0161\nsamples = 1729\nvalue = [1715, 14]"] ;
153 -> 154 ;
155 [label="hours-per-week <= 20.5\ngini = 0.0087\nsamples = 1143\nvalue = [1138, 5]"] ;
154 -> 155 ;
156 [label="age <= 50.5\ngini = 0.0339\nsamples = 116\nvalue = [114, 2]"] ;
155 -> 156 ;
157 [label="gini = 0.0\nsamples = 90\nvalue = [90, 0]"] ;
156 -> 157 ;
158 [label="age <= 52.5\ngini = 0.142\nsamples = 26\nvalue = [24, 2]"] ;
156 -> 158 ;
159 [label="education_Some-college <= 0.5\ngini = 0.375\nsamples = 8\nvalue = [6, 2]"] ;
158 -> 159 ;
160 [label="relationship_Not-in-family <= 0.5\ngini = 0.2449\nsamples = 7\nvalue = [6, 1]"] ;
159 -> 160 ;
161 [label="gini = 0.0\nsamples = 6\nvalue = [6, 0]"] ;
160 -> 161 ;
162 [label="gini = 0.0\nsamples = 1\nvalue = [0, 1]"] ;
160 -> 162 ;
163 [label="gini = 0.0\nsamples = 1\nvalue = [0, 1]"] ;
159 -> 163 ;
164 [label="gini = 0.0\nsamples = 18\nvalue = [18, 0]"] ;
158 -> 164 ;
165 [label="workclass_Local-gov <= 0.5\ngini = 0.0058\nsamples = 1027\nvalue = [1024, 3]"] ;
155 -> 165 ;
166 [label="fnlwgt <= 179557.0\ngini = 0.004\nsamples = 995\nvalue = [993, 2]"] ;
165 -> 166 ;
167 [label="gini = 0.0\nsamples = 539\nvalue = [539, 0]"] ;
166 -> 167 ;
168 [label="fnlwgt <= 179602.5\ngini = 0.0087\nsamples = 456\nvalue = [454, 2]"] ;
166 -> 168 ;
169 [label="gini = 0.0\nsamples = 1\nvalue = [0, 1]"] ;
168 -> 169 ;
170 [label="fnlwgt <= 185587.0\ngini = 0.0044\nsamples = 455\nvalue = [454, 1]"] ;
168 -> 170 ;
171 [label="fnlwgt <= 185480.5\ngini = 0.0555\nsamples = 35\nvalue = [34, 1]"] ;
170 -> 171 ;
172 [label="gini = 0.0\nsamples = 34\nvalue = [34, 0]"] ;
171 -> 172 ;
173 [label="gini = 0.0\nsamples = 1\nvalue = [0, 1]"] ;
171 -> 173 ;
174 [label="gini = 0.0\nsamples = 420\nvalue = [420, 0]"] ;
170 -> 174 ;
175 [label="age <= 39.5\ngini = 0.0605\nsamples = 32\nvalue = [31, 1]"] ;
165 -> 175 ;
176 [label="age <= 38.0\ngini = 0.32\nsamples = 5\nvalue = [4, 1]"] ;
175 -> 176 ;
177 [label="gini = 0.0\nsamples = 4\nvalue = [4, 0]"] ;
176 -> 177 ;
178 [label="gini = 0.0\nsamples = 1\nvalue = [0, 1]"] ;
176 -> 178 ;
179 [label="gini = 0.0\nsamples = 27\nvalue = [27, 0]"] ;
175 -> 179 ;
180 [label="education_11th <= 0.5\ngini = 0.0302\nsamples = 586\nvalue = [577, 9]"] ;
154 -> 180 ;
181 [label="fnlwgt <= 29138.5\ngini = 0.0273\nsamples = 579\nvalue = [571, 8]"] ;
180 -> 181 ;
182 [label="age <= 53.5\ngini = 0.1653\nsamples = 11\nvalue = [10, 1]"] ;
181 -> 182 ;
183 [label="gini = 0.0\nsamples = 10\nvalue = [10, 0]"] ;
182 -> 183 ;
184 [label="gini = 0.0\nsamples = 1\nvalue = [0, 1]"] ;
182 -> 184 ;
185 [label="age <= 39.5\ngini = 0.0243\nsamples = 568\nvalue = [561, 7]"] ;
181 -> 185 ;
186 [label="workclass_Federal-gov <= 0.5\ngini = 0.0549\nsamples = 177\nvalue = [172, 5]"] ;
185 -> 186 ;
187 [label="relationship_Unmarried <= 0.5\ngini = 0.0357\nsamples = 165\nvalue = [162, 3]"] ;
186 -> 187 ;
188 [label="fnlwgt <= 343738.0\ngini = 0.0689\nsamples = 84\nvalue = [81, 3]"] ;
187 -> 188 ;
189 [label="gini = 0.0487\nsamples = 80\nvalue = [78, 2]"] ;
188 -> 189 ;
190 [label="gini = 0.375\nsamples = 4\nvalue = [3, 1]"] ;
188 -> 190 ;
191 [label="gini = 0.0\nsamples = 81\nvalue = [81, 0]"] ;
187 -> 191 ;
192 [label="fnlwgt <= 188557.0\ngini = 0.2778\nsamples = 12\nvalue = [10, 2]"] ;
186 -> 192 ;
193 [label="education_Some-college <= 0.5\ngini = 0.48\nsamples = 5\nvalue = [3, 2]"] ;
192 -> 193 ;
194 [label="gini = 0.0\nsamples = 3\nvalue = [3, 0]"] ;
193 -> 194 ;
195 [label="gini = 0.0\nsamples = 2\nvalue = [0, 2]"] ;
193 -> 195 ;
196 [label="gini = 0.0\nsamples = 7\nvalue = [7, 0]"] ;
192 -> 196 ;
197 [label="fnlwgt <= 403299.0\ngini = 0.0102\nsamples = 391\nvalue = [389, 2]"] ;
185 -> 197 ;
198 [label="marital-status_Never-married <= 0.5\ngini = 0.0052\nsamples = 383\nvalue = [382, 1]"] ;
197 -> 198 ;
199 [label="gini = 0.0\nsamples = 310\nvalue = [310, 0]"] ;
198 -> 199 ;
200 [label="fnlwgt <= 197612.5\ngini = 0.027\nsamples = 73\nvalue = [72, 1]"] ;
198 -> 200 ;
201 [label="gini = 0.0\nsamples = 52\nvalue = [52, 0]"] ;
200 -> 201 ;
202 [label="gini = 0.0907\nsamples = 21\nvalue = [20, 1]"] ;
200 -> 202 ;
203 [label="fnlwgt <= 414990.0\ngini = 0.2188\nsamples = 8\nvalue = [7, 1]"] ;
197 -> 203 ;
204 [label="gini = 0.0\nsamples = 1\nvalue = [0, 1]"] ;
203 -> 204 ;
205 [label="gini = 0.0\nsamples = 7\nvalue = [7, 0]"] ;
203 -> 205 ;
206 [label="sex_Male <= 0.5\ngini = 0.2449\nsamples = 7\nvalue = [6, 1]"] ;
180 -> 206 ;
207 [label="gini = 0.0\nsamples = 6\nvalue = [6, 0]"] ;
206 -> 207 ;
208 [label="gini = 0.0\nsamples = 1\nvalue = [0, 1]"] ;
206 -> 208 ;
209 [label="occupation_Sales <= 0.5\ngini = 0.0406\nsamples = 627\nvalue = [614, 13]"] ;
153 -> 209 ;
210 [label="native-country_Puerto-Rico <= 0.5\ngini = 0.0285\nsamples = 554\nvalue = [546, 8]"] ;
209 -> 210 ;
211 [label="hours-per-week <= 21.0\ngini = 0.0253\nsamples = 547\nvalue = [540, 7]"] ;
210 -> 211 ;
212 [label="gini = 0.0\nsamples = 173\nvalue = [173, 0]"] ;
211 -> 212 ;
213 [label="hours-per-week <= 22.5\ngini = 0.0367\nsamples = 374\nvalue = [367, 7]"] ;
211 -> 213 ;
214 [label="gini = 0.0\nsamples = 1\nvalue = [0, 1]"] ;
213 -> 214 ;
215 [label="fnlwgt <= 365272.5\ngini = 0.0317\nsamples = 373\nvalue = [367, 6]"] ;
213 -> 215 ;
216 [label="workclass_Private <= 0.5\ngini = 0.0272\nsamples = 363\nvalue = [358, 5]"] ;
215 -> 216 ;
217 [label="education_11th <= 0.5\ngini = 0.0583\nsamples = 133\nvalue = [129, 4]"] ;
216 -> 217 ;
218 [label="gini = 0.0458\nsamples = 128\nvalue = [125, 3]"] ;
217 -> 218 ;
219 [label="gini = 0.32\nsamples = 5\nvalue = [4, 1]"] ;
217 -> 219 ;
220 [label="fnlwgt <= 110399.5\ngini = 0.0087\nsamples = 230\nvalue = [229, 1]"] ;
216 -> 220 ;
221 [label="gini = 0.0408\nsamples = 48\nvalue = [47, 1]"] ;
220 -> 221 ;
222 [label="gini = 0.0\nsamples = 182\nvalue = [182, 0]"] ;
220 -> 222 ;
223 [label="fnlwgt <= 366107.0\ngini = 0.18\nsamples = 10\nvalue = [9, 1]"] ;
215 -> 223 ;
224 [label="gini = 0.0\nsamples = 1\nvalue = [0, 1]"] ;
223 -> 224 ;
225 [label="gini = 0.0\nsamples = 9\nvalue = [9, 0]"] ;
223 -> 225 ;
226 [label="sex_Male <= 0.5\ngini = 0.2449\nsamples = 7\nvalue = [6, 1]"] ;
210 -> 226 ;
227 [label="gini = 0.0\nsamples = 6\nvalue = [6, 0]"] ;
226 -> 227 ;
228 [label="gini = 0.0\nsamples = 1\nvalue = [0, 1]"] ;
226 -> 228 ;
229 [label="hours-per-week <= 34.5\ngini = 0.1276\nsamples = 73\nvalue = [68, 5]"] ;
209 -> 229 ;
230 [label="gini = 0.0\nsamples = 43\nvalue = [43, 0]"] ;
229 -> 230 ;
231 [label="hours-per-week <= 35.5\ngini = 0.2778\nsamples = 30\nvalue = [25, 5]"] ;
229 -> 231 ;
232 [label="relationship_Not-in-family <= 0.5\ngini = 0.4898\nsamples = 7\nvalue = [4, 3]"] ;
231 -> 232 ;
233 [label="gini = 0.0\nsamples = 2\nvalue = [2, 0]"] ;
232 -> 233 ;
234 [label="fnlwgt <= 158080.5\ngini = 0.48\nsamples = 5\nvalue = [2, 3]"] ;
232 -> 234 ;
235 [label="fnlwgt <= 126294.5\ngini = 0.4444\nsamples = 3\nvalue = [2, 1]"] ;
234 -> 235 ;
236 [label="gini = 0.0\nsamples = 1\nvalue = [0, 1]"] ;
235 -> 236 ;
237 [label="gini = 0.0\nsamples = 2\nvalue = [2, 0]"] ;
235 -> 237 ;
238 [label="gini = 0.0\nsamples = 2\nvalue = [0, 2]"] ;
234 -> 238 ;
239 [label="fnlwgt <= 344270.0\ngini = 0.1588\nsamples = 23\nvalue = [21, 2]"] ;
231 -> 239 ;
240 [label="age <= 65.5\ngini = 0.0907\nsamples = 21\nvalue = [20, 1]"] ;
239 -> 240 ;
241 [label="gini = 0.0\nsamples = 16\nvalue = [16, 0]"] ;
240 -> 241 ;
242 [label="fnlwgt <= 156674.5\ngini = 0.32\nsamples = 5\nvalue = [4, 1]"] ;
240 -> 242 ;
243 [label="gini = 0.0\nsamples = 3\nvalue = [3, 0]"] ;
242 -> 243 ;
244 [label="fnlwgt <= 225866.0\ngini = 0.5\nsamples = 2\nvalue = [1, 1]"] ;
242 -> 244 ;
245 [label="gini = 0.0\nsamples = 1\nvalue = [0, 1]"] ;
244 -> 245 ;
246 [label="gini = 0.0\nsamples = 1\nvalue = [1, 0]"] ;
244 -> 246 ;
247 [label="sex_Male <= 0.5\ngini = 0.5\nsamples = 2\nvalue = [1, 1]"] ;
239 -> 247 ;
248 [label="gini = 0.0\nsamples = 1\nvalue = [0, 1]"] ;
247 -> 248 ;
249 [label="gini = 0.0\nsamples = 1\nvalue = [1, 0]"] ;
247 -> 249 ;
250 [label="education_9th <= 0.5\ngini = 0.0805\nsamples = 119\nvalue = [114, 5]"] ;
152 -> 250 ;
251 [label="relationship_Unmarried <= 0.5\ngini = 0.0655\nsamples = 118\nvalue = [114, 4]"] ;
250 -> 251 ;
252 [label="age <= 52.5\ngini = 0.0412\nsamples = 95\nvalue = [93, 2]"] ;
251 -> 252 ;
253 [label="gini = 0.0\nsamples = 70\nvalue = [70, 0]"] ;
252 -> 253 ;
254 [label="fnlwgt <= 123357.0\ngini = 0.1472\nsamples = 25\nvalue = [23, 2]"] ;
252 -> 254 ;
255 [label="fnlwgt <= 111237.0\ngini = 0.375\nsamples = 8\nvalue = [6, 2]"] ;
254 -> 255 ;
256 [label="gini = 0.0\nsamples = 6\nvalue = [6, 0]"] ;
255 -> 256 ;
257 [label="gini = 0.0\nsamples = 2\nvalue = [0, 2]"] ;
255 -> 257 ;
258 [label="gini = 0.0\nsamples = 17\nvalue = [17, 0]"] ;
254 -> 258 ;
259 [label="fnlwgt <= 317498.0\ngini = 0.1588\nsamples = 23\nvalue = [21, 2]"] ;
251 -> 259 ;
260 [label="education_10th <= 0.5\ngini = 0.0868\nsamples = 22\nvalue = [21, 1]"] ;
259 -> 260 ;
261 [label="gini = 0.0\nsamples = 20\nvalue = [20, 0]"] ;
260 -> 261 ;
262 [label="workclass_Self-emp-not-inc <= 0.5\ngini = 0.5\nsamples = 2\nvalue = [1, 1]"] ;
260 -> 262 ;
263 [label="gini = 0.0\nsamples = 1\nvalue = [0, 1]"] ;
262 -> 263 ;
264 [label="gini = 0.0\nsamples = 1\nvalue = [1, 0]"] ;
262 -> 264 ;
265 [label="gini = 0.0\nsamples = 1\nvalue = [0, 1]"] ;
259 -> 265 ;
266 [label="gini = 0.0\nsamples = 1\nvalue = [0, 1]"] ;
250 -> 266 ;
267 [label="fnlwgt <= 81056.5\ngini = 0.1975\nsamples = 9\nvalue = [8, 1]"] ;
143 -> 267 ;
268 [label="gini = 0.0\nsamples = 1\nvalue = [0, 1]"] ;
267 -> 268 ;
269 [label="gini = 0.0\nsamples = 8\nvalue = [8, 0]"] ;
267 -> 269 ;
270 [label="education_Some-college <= 0.5\ngini = 0.2188\nsamples = 8\nvalue = [7, 1]"] ;
142 -> 270 ;
271 [label="gini = 0.0\nsamples = 7\nvalue = [7, 0]"] ;
270 -> 271 ;
272 [label="gini = 0.0\nsamples = 1\nvalue = [0, 1]"] ;
270 -> 272 ;
273 [label="native-country_Guatemala <= 0.5\ngini = 0.0887\nsamples = 129\nvalue = [123, 6]"] ;
141 -> 273 ;
274 [label="native-country_? <= 0.5\ngini = 0.0751\nsamples = 128\nvalue = [123, 5]"] ;
273 -> 274 ;
275 [label="hours-per-week <= 13.5\ngini = 0.0615\nsamples = 126\nvalue = [122, 4]"] ;
274 -> 275 ;
276 [label="marital-status_Never-married <= 0.5\ngini = 0.5\nsamples = 2\nvalue = [1, 1]"] ;
275 -> 276 ;
277 [label="gini = 0.0\nsamples = 1\nvalue = [0, 1]"] ;
276 -> 277 ;
278 [label="gini = 0.0\nsamples = 1\nvalue = [1, 0]"] ;
276 -> 278 ;
279 [label="marital-status_Divorced <= 0.5\ngini = 0.0472\nsamples = 124\nvalue = [121, 3]"] ;
275 -> 279 ;
280 [label="age <= 45.5\ngini = 0.0965\nsamples = 59\nvalue = [56, 3]"] ;
279 -> 280 ;
281 [label="age <= 44.5\ngini = 0.1454\nsamples = 38\nvalue = [35, 3]"] ;
280 -> 281 ;
282 [label="education_Some-college <= 0.5\ngini = 0.1049\nsamples = 36\nvalue = [34, 2]"] ;
281 -> 282 ;
283 [label="gini = 0.0\nsamples = 24\nvalue = [24, 0]"] ;
282 -> 283 ;
284 [label="relationship_Not-in-family <= 0.5\ngini = 0.2778\nsamples = 12\nvalue = [10, 2]"] ;
282 -> 284 ;
285 [label="gini = 0.0\nsamples = 7\nvalue = [7, 0]"] ;
284 -> 285 ;
286 [label="hours-per-week <= 39.0\ngini = 0.48\nsamples = 5\nvalue = [3, 2]"] ;
284 -> 286 ;
287 [label="gini = 0.0\nsamples = 2\nvalue = [2, 0]"] ;
286 -> 287 ;
288 [label="age <= 36.5\ngini = 0.4444\nsamples = 3\nvalue = [1, 2]"] ;
286 -> 288 ;
289 [label="gini = 0.0\nsamples = 1\nvalue = [1, 0]"] ;
288 -> 289 ;
290 [label="gini = 0.0\nsamples = 2\nvalue = [0, 2]"] ;
288 -> 290 ;
291 [label="marital-status_Separated <= 0.5\ngini = 0.5\nsamples = 2\nvalue = [1, 1]"] ;
281 -> 291 ;
292 [label="gini = 0.0\nsamples = 1\nvalue = [0, 1]"] ;
291 -> 292 ;
293 [label="gini = 0.0\nsamples = 1\nvalue = [1, 0]"] ;
291 -> 293 ;
294 [label="gini = 0.0\nsamples = 21\nvalue = [21, 0]"] ;
280 -> 294 ;
295 [label="gini = 0.0\nsamples = 65\nvalue = [65, 0]"] ;
279 -> 295 ;
296 [label="relationship_Unmarried <= 0.5\ngini = 0.5\nsamples = 2\nvalue = [1, 1]"] ;
274 -> 296 ;
297 [label="gini = 0.0\nsamples = 1\nvalue = [0, 1]"] ;
296 -> 297 ;
298 [label="gini = 0.0\nsamples = 1\nvalue = [1, 0]"] ;
296 -> 298 ;
299 [label="gini = 0.0\nsamples = 1\nvalue = [0, 1]"] ;
273 -> 299 ;
300 [label="race_White <= 0.5\ngini = 0.2188\nsamples = 24\nvalue = [21, 3]"] ;
136 -> 300 ;
301 [label="gini = 0.0\nsamples = 1\nvalue = [0, 1]"] ;
300 -> 301 ;
302 [label="education_Some-college <= 0.5\ngini = 0.1588\nsamples = 23\nvalue = [21, 2]"] ;
300 -> 302 ;
303 [label="gini = 0.0\nsamples = 15\nvalue = [15, 0]"] ;
302 -> 303 ;
304 [label="fnlwgt <= 109262.0\ngini = 0.375\nsamples = 8\nvalue = [6, 2]"] ;
302 -> 304 ;
305 [label="gini = 0.0\nsamples = 1\nvalue = [0, 1]"] ;
304 -> 305 ;
306 [label="fnlwgt <= 212568.0\ngini = 0.2449\nsamples = 7\nvalue = [6, 1]"] ;
304 -> 306 ;
307 [label="gini = 0.0\nsamples = 5\nvalue = [5, 0]"] ;
306 -> 307 ;
308 [label="age <= 59.5\ngini = 0.5\nsamples = 2\nvalue = [1, 1]"] ;
306 -> 308 ;
309 [label="gini = 0.0\nsamples = 1\nvalue = [0, 1]"] ;
308 -> 309 ;
310 [label="gini = 0.0\nsamples = 1\nvalue = [1, 0]"] ;
308 -> 310 ;
311 [label="age <= 49.5\ngini = 0.0738\nsamples = 495\nvalue = [476, 19]"] ;
135 -> 311 ;
312 [label="education_Some-college <= 0.5\ngini = 0.0422\nsamples = 371\nvalue = [363, 8]"] ;
311 -> 312 ;
313 [label="marital-status_Married-spouse-absent <= 0.5\ngini = 0.014\nsamples = 284\nvalue = [282, 2]"] ;
312 -> 313 ;
314 [label="fnlwgt <= 85951.0\ngini = 0.0074\nsamples = 269\nvalue = [268, 1]"] ;
313 -> 314 ;
315 [label="fnlwgt <= 84861.5\ngini = 0.0713\nsamples = 27\nvalue = [26, 1]"] ;
314 -> 315 ;
316 [label="gini = 0.0\nsamples = 26\nvalue = [26, 0]"] ;
315 -> 316 ;
317 [label="gini = 0.0\nsamples = 1\nvalue = [0, 1]"] ;
315 -> 317 ;
318 [label="gini = 0.0\nsamples = 242\nvalue = [242, 0]"] ;
314 -> 318 ;
319 [label="age <= 40.5\ngini = 0.1244\nsamples = 15\nvalue = [14, 1]"] ;
313 -> 319 ;
320 [label="age <= 39.0\ngini = 0.2778\nsamples = 6\nvalue = [5, 1]"] ;
319 -> 320 ;
321 [label="gini = 0.0\nsamples = 5\nvalue = [5, 0]"] ;
320 -> 321 ;
322 [label="gini = 0.0\nsamples = 1\nvalue = [0, 1]"] ;
320 -> 322 ;
323 [label="gini = 0.0\nsamples = 9\nvalue = [9, 0]"] ;
319 -> 323 ;
324 [label="fnlwgt <= 41026.0\ngini = 0.1284\nsamples = 87\nvalue = [81, 6]"] ;
312 -> 324 ;
325 [label="fnlwgt <= 35229.0\ngini = 0.4444\nsamples = 3\nvalue = [1, 2]"] ;
324 -> 325 ;
326 [label="gini = 0.0\nsamples = 1\nvalue = [1, 0]"] ;
325 -> 326 ;
327 [label="gini = 0.0\nsamples = 2\nvalue = [0, 2]"] ;
325 -> 327 ;
328 [label="age <= 45.5\ngini = 0.0907\nsamples = 84\nvalue = [80, 4]"] ;
324 -> 328 ;
329 [label="hours-per-week <= 36.0\ngini = 0.0548\nsamples = 71\nvalue = [69, 2]"] ;
328 -> 329 ;
330 [label="hours-per-week <= 32.5\ngini = 0.1975\nsamples = 9\nvalue = [8, 1]"] ;
329 -> 330 ;
331 [label="gini = 0.0\nsamples = 7\nvalue = [7, 0]"] ;
330 -> 331 ;
332 [label="relationship_Unmarried <= 0.5\ngini = 0.5\nsamples = 2\nvalue = [1, 1]"] ;
330 -> 332 ;
333 [label="gini = 0.0\nsamples = 1\nvalue = [0, 1]"] ;
332 -> 333 ;
334 [label="gini = 0.0\nsamples = 1\nvalue = [1, 0]"] ;
332 -> 334 ;
335 [label="fnlwgt <= 126203.5\ngini = 0.0317\nsamples = 62\nvalue = [61, 1]"] ;
329 -> 335 ;
336 [label="fnlwgt <= 125050.0\ngini = 0.095\nsamples = 20\nvalue = [19, 1]"] ;
335 -> 336 ;
337 [label="gini = 0.0\nsamples = 19\nvalue = [19, 0]"] ;
336 -> 337 ;
338 [label="gini = 0.0\nsamples = 1\nvalue = [0, 1]"] ;
336 -> 338 ;
339 [label="gini = 0.0\nsamples = 42\nvalue = [42, 0]"] ;
335 -> 339 ;
340 [label="fnlwgt <= 308836.0\ngini = 0.2604\nsamples = 13\nvalue = [11, 2]"] ;
328 -> 340 ;
341 [label="hours-per-week <= 39.0\ngini = 0.1528\nsamples = 12\nvalue = [11, 1]"] ;
340 -> 341 ;
342 [label="fnlwgt <= 157817.0\ngini = 0.5\nsamples = 2\nvalue = [1, 1]"] ;
341 -> 342 ;
343 [label="gini = 0.0\nsamples = 1\nvalue = [1, 0]"] ;
342 -> 343 ;
344 [label="gini = 0.0\nsamples = 1\nvalue = [0, 1]"] ;
342 -> 344 ;
345 [label="gini = 0.0\nsamples = 10\nvalue = [10, 0]"] ;
341 -> 345 ;
346 [label="gini = 0.0\nsamples = 1\nvalue = [0, 1]"] ;
340 -> 346 ;
347 [label="workclass_Local-gov <= 0.5\ngini = 0.1617\nsamples = 124\nvalue = [113, 11]"] ;
311 -> 347 ;
348 [label="fnlwgt <= 111950.0\ngini = 0.1409\nsamples = 118\nvalue = [109, 9]"] ;
347 -> 348 ;
349 [label="fnlwgt <= 109658.0\ngini = 0.32\nsamples = 25\nvalue = [20, 5]"] ;
348 -> 349 ;
350 [label="age <= 57.0\ngini = 0.2778\nsamples = 24\nvalue = [20, 4]"] ;
349 -> 350 ;
351 [label="age <= 55.5\ngini = 0.4082\nsamples = 14\nvalue = [10, 4]"] ;
350 -> 351 ;
352 [label="fnlwgt <= 91403.0\ngini = 0.355\nsamples = 13\nvalue = [10, 3]"] ;
351 -> 352 ;
353 [label="marital-status_Divorced <= 0.5\ngini = 0.2188\nsamples = 8\nvalue = [7, 1]"] ;
352 -> 353 ;
354 [label="gini = 0.0\nsamples = 4\nvalue = [4, 0]"] ;
353 -> 354 ;
355 [label="age <= 51.5\ngini = 0.375\nsamples = 4\nvalue = [3, 1]"] ;
353 -> 355 ;
356 [label="gini = 0.0\nsamples = 2\nvalue = [2, 0]"] ;
355 -> 356 ;
357 [label="fnlwgt <= 37173.0\ngini = 0.5\nsamples = 2\nvalue = [1, 1]"] ;
355 -> 357 ;
358 [label="gini = 0.0\nsamples = 1\nvalue = [1, 0]"] ;
357 -> 358 ;
359 [label="gini = 0.0\nsamples = 1\nvalue = [0, 1]"] ;
357 -> 359 ;
360 [label="relationship_Own-child <= 0.5\ngini = 0.48\nsamples = 5\nvalue = [3, 2]"] ;
352 -> 360 ;
361 [label="marital-status_Divorced <= 0.5\ngini = 0.4444\nsamples = 3\nvalue = [1, 2]"] ;
360 -> 361 ;
362 [label="gini = 0.0\nsamples = 2\nvalue = [0, 2]"] ;
361 -> 362 ;
363 [label="gini = 0.0\nsamples = 1\nvalue = [1, 0]"] ;
361 -> 363 ;
364 [label="gini = 0.0\nsamples = 2\nvalue = [2, 0]"] ;
360 -> 364 ;
365 [label="gini = 0.0\nsamples = 1\nvalue = [0, 1]"] ;
351 -> 365 ;
366 [label="gini = 0.0\nsamples = 10\nvalue = [10, 0]"] ;
350 -> 366 ;
367 [label="gini = 0.0\nsamples = 1\nvalue = [0, 1]"] ;
349 -> 367 ;
368 [label="fnlwgt <= 380931.5\ngini = 0.0823\nsamples = 93\nvalue = [89, 4]"] ;
348 -> 368 ;
369 [label="education_Assoc-voc <= 0.5\ngini = 0.0638\nsamples = 91\nvalue = [88, 3]"] ;
368 -> 369 ;
370 [label="age <= 53.5\ngini = 0.0439\nsamples = 89\nvalue = [87, 2]"] ;
369 -> 370 ;
371 [label="education_Some-college <= 0.5\ngini = 0.1023\nsamples = 37\nvalue = [35, 2]"] ;
370 -> 371 ;
372 [label="fnlwgt <= 242477.0\ngini = 0.0605\nsamples = 32\nvalue = [31, 1]"] ;
371 -> 372 ;
373 [label="gini = 0.0\nsamples = 25\nvalue = [25, 0]"] ;
372 -> 373 ;
374 [label="fnlwgt <= 266166.5\ngini = 0.2449\nsamples = 7\nvalue = [6, 1]"] ;
372 -> 374 ;
375 [label="gini = 0.0\nsamples = 1\nvalue = [0, 1]"] ;
374 -> 375 ;
376 [label="gini = 0.0\nsamples = 6\nvalue = [6, 0]"] ;
374 -> 376 ;
377 [label="fnlwgt <= 187115.0\ngini = 0.32\nsamples = 5\nvalue = [4, 1]"] ;
371 -> 377 ;
378 [label="gini = 0.0\nsamples = 3\nvalue = [3, 0]"] ;
377 -> 378 ;
379 [label="age <= 51.5\ngini = 0.5\nsamples = 2\nvalue = [1, 1]"] ;
377 -> 379 ;
380 [label="gini = 0.0\nsamples = 1\nvalue = [1, 0]"] ;
379 -> 380 ;
381 [label="gini = 0.0\nsamples = 1\nvalue = [0, 1]"] ;
379 -> 381 ;
382 [label="gini = 0.0\nsamples = 52\nvalue = [52, 0]"] ;
370 -> 382 ;
383 [label="fnlwgt <= 233733.0\ngini = 0.5\nsamples = 2\nvalue = [1, 1]"] ;
369 -> 383 ;
384 [label="gini = 0.0\nsamples = 1\nvalue = [1, 0]"] ;
383 -> 384 ;
385 [label="gini = 0.0\nsamples = 1\nvalue = [0, 1]"] ;
383 -> 385 ;
386 [label="native-country_Puerto-Rico <= 0.5\ngini = 0.5\nsamples = 2\nvalue = [1, 1]"] ;
368 -> 386 ;
387 [label="gini = 0.0\nsamples = 1\nvalue = [1, 0]"] ;
386 -> 387 ;
388 [label="gini = 0.0\nsamples = 1\nvalue = [0, 1]"] ;
386 -> 388 ;
389 [label="marital-status_Divorced <= 0.5\ngini = 0.4444\nsamples = 6\nvalue = [4, 2]"] ;
347 -> 389 ;
390 [label="gini = 0.0\nsamples = 3\nvalue = [3, 0]"] ;
389 -> 390 ;
391 [label="education_Assoc-voc <= 0.5\ngini = 0.4444\nsamples = 3\nvalue = [1, 2]"] ;
389 -> 391 ;
392 [label="gini = 0.0\nsamples = 2\nvalue = [0, 2]"] ;
391 -> 392 ;
393 [label="gini = 0.0\nsamples = 1\nvalue = [1, 0]"] ;
391 -> 393 ;
394 [label="capital-gain <= 4826.0\ngini = 0.2524\nsamples = 27\nvalue = [23, 4]"] ;
134 -> 394 ;
395 [label="gini = 0.0\nsamples = 3\nvalue = [0, 3]"] ;
394 -> 395 ;
396 [label="occupation_Tech-support <= 0.5\ngini = 0.0799\nsamples = 24\nvalue = [23, 1]"] ;
394 -> 396 ;
397 [label="gini = 0.0\nsamples = 21\nvalue = [21, 0]"] ;
396 -> 397 ;
398 [label="hours-per-week <= 38.0\ngini = 0.4444\nsamples = 3\nvalue = [2, 1]"] ;
396 -> 398 ;
399 [label="gini = 0.0\nsamples = 1\nvalue = [0, 1]"] ;
398 -> 399 ;
400 [label="gini = 0.0\nsamples = 2\nvalue = [2, 0]"] ;
398 -> 400 ;
401 [label="gini = 0.0\nsamples = 1\nvalue = [0, 1]"] ;
133 -> 401 ;
402 [label="workclass_Private <= 0.5\ngini = 0.1871\nsamples = 67\nvalue = [60, 7]"] ;
132 -> 402 ;
403 [label="fnlwgt <= 364930.5\ngini = 0.2726\nsamples = 43\nvalue = [36, 7]"] ;
402 -> 403 ;
404 [label="fnlwgt <= 33692.0\ngini = 0.2449\nsamples = 42\nvalue = [36, 6]"] ;
403 -> 404 ;
405 [label="relationship_Unmarried <= 0.5\ngini = 0.5\nsamples = 2\nvalue = [1, 1]"] ;
404 -> 405 ;
406 [label="gini = 0.0\nsamples = 1\nvalue = [1, 0]"] ;
405 -> 406 ;
407 [label="gini = 0.0\nsamples = 1\nvalue = [0, 1]"] ;
405 -> 407 ;
408 [label="marital-status_Divorced <= 0.5\ngini = 0.2188\nsamples = 40\nvalue = [35, 5]"] ;
404 -> 408 ;
409 [label="fnlwgt <= 310871.0\ngini = 0.3299\nsamples = 24\nvalue = [19, 5]"] ;
408 -> 409 ;
410 [label="fnlwgt <= 152565.0\ngini = 0.2873\nsamples = 23\nvalue = [19, 4]"] ;
409 -> 410 ;
411 [label="gini = 0.0\nsamples = 9\nvalue = [9, 0]"] ;
410 -> 411 ;
412 [label="fnlwgt <= 163716.0\ngini = 0.4082\nsamples = 14\nvalue = [10, 4]"] ;
410 -> 412 ;
413 [label="gini = 0.0\nsamples = 1\nvalue = [0, 1]"] ;
412 -> 413 ;
414 [label="relationship_Not-in-family <= 0.5\ngini = 0.355\nsamples = 13\nvalue = [10, 3]"] ;
412 -> 414 ;
415 [label="gini = 0.0\nsamples = 4\nvalue = [4, 0]"] ;
414 -> 415 ;
416 [label="education_Assoc-voc <= 0.5\ngini = 0.4444\nsamples = 9\nvalue = [6, 3]"] ;
414 -> 416 ;
417 [label="fnlwgt <= 188687.5\ngini = 0.375\nsamples = 8\nvalue = [6, 2]"] ;
416 -> 417 ;
418 [label="gini = 0.0\nsamples = 1\nvalue = [0, 1]"] ;
417 -> 418 ;
419 [label="age <= 55.0\ngini = 0.2449\nsamples = 7\nvalue = [6, 1]"] ;
417 -> 419 ;
420 [label="gini = 0.0\nsamples = 5\nvalue = [5, 0]"] ;
419 -> 420 ;
421 [label="fnlwgt <= 218438.5\ngini = 0.5\nsamples = 2\nvalue = [1, 1]"] ;
419 -> 421 ;
422 [label="gini = 0.0\nsamples = 1\nvalue = [0, 1]"] ;
421 -> 422 ;
423 [label="gini = 0.0\nsamples = 1\nvalue = [1, 0]"] ;
421 -> 423 ;
424 [label="gini = 0.0\nsamples = 1\nvalue = [0, 1]"] ;
416 -> 424 ;
425 [label="gini = 0.0\nsamples = 1\nvalue = [0, 1]"] ;
409 -> 425 ;
426 [label="gini = 0.0\nsamples = 16\nvalue = [16, 0]"] ;
408 -> 426 ;
427 [label="gini = 0.0\nsamples = 1\nvalue = [0, 1]"] ;
403 -> 427 ;
428 [label="gini = 0.0\nsamples = 24\nvalue = [24, 0]"] ;
402 -> 428 ;
429 [label="age <= 36.5\ngini = 0.48\nsamples = 5\nvalue = [3, 2]"] ;
131 -> 429 ;
430 [label="education_Assoc-acdm <= 0.5\ngini = 0.4444\nsamples = 3\nvalue = [1, 2]"] ;
429 -> 430 ;
431 [label="gini = 0.0\nsamples = 2\nvalue = [0, 2]"] ;
430 -> 431 ;
432 [label="gini = 0.0\nsamples = 1\nvalue = [1, 0]"] ;
430 -> 432 ;
433 [label="gini = 0.0\nsamples = 2\nvalue = [2, 0]"] ;
429 -> 433 ;
434 [label="native-country_Japan <= 0.5\ngini = 0.1397\nsamples = 344\nvalue = [318, 26]"] ;
130 -> 434 ;
435 [label="native-country_Ireland <= 0.5\ngini = 0.1351\nsamples = 343\nvalue = [318, 25]"] ;
434 -> 435 ;
436 [label="capital-gain <= 5373.5\ngini = 0.1305\nsamples = 342\nvalue = [318, 24]"] ;
435 -> 436 ;
437 [label="education-num <= 10.5\ngini = 0.1258\nsamples = 341\nvalue = [318, 23]"] ;
436 -> 437 ;
438 [label="marital-status_Widowed <= 0.5\ngini = 0.1033\nsamples = 293\nvalue = [277, 16]"] ;
437 -> 438 ;
439 [label="fnlwgt <= 61980.5\ngini = 0.0835\nsamples = 252\nvalue = [241, 11]"] ;
438 -> 439 ;
440 [label="fnlwgt <= 47090.0\ngini = 0.2112\nsamples = 25\nvalue = [22, 3]"] ;
439 -> 440 ;
441 [label="gini = 0.0\nsamples = 19\nvalue = [19, 0]"] ;
440 -> 441 ;
442 [label="age <= 37.5\ngini = 0.5\nsamples = 6\nvalue = [3, 3]"] ;
440 -> 442 ;
443 [label="gini = 0.0\nsamples = 2\nvalue = [0, 2]"] ;
442 -> 443 ;
444 [label="education_Some-college <= 0.5\ngini = 0.375\nsamples = 4\nvalue = [3, 1]"] ;
442 -> 444 ;
445 [label="gini = 0.0\nsamples = 1\nvalue = [0, 1]"] ;
444 -> 445 ;
446 [label="gini = 0.0\nsamples = 3\nvalue = [3, 0]"] ;
444 -> 446 ;
447 [label="fnlwgt <= 138184.0\ngini = 0.068\nsamples = 227\nvalue = [219, 8]"] ;
439 -> 447 ;
448 [label="gini = 0.0\nsamples = 63\nvalue = [63, 0]"] ;
447 -> 448 ;
449 [label="fnlwgt <= 140565.0\ngini = 0.0928\nsamples = 164\nvalue = [156, 8]"] ;
447 -> 449 ;
450 [label="gini = 0.0\nsamples = 1\nvalue = [0, 1]"] ;
449 -> 450 ;
451 [label="education_HS-grad <= 0.5\ngini = 0.0822\nsamples = 163\nvalue = [156, 7]"] ;
449 -> 451 ;
452 [label="age <= 53.5\ngini = 0.0222\nsamples = 89\nvalue = [88, 1]"] ;
451 -> 452 ;
453 [label="gini = 0.0\nsamples = 73\nvalue = [73, 0]"] ;
452 -> 453 ;
454 [label="marital-status_Never-married <= 0.5\ngini = 0.1172\nsamples = 16\nvalue = [15, 1]"] ;
452 -> 454 ;
455 [label="gini = 0.0\nsamples = 14\nvalue = [14, 0]"] ;
454 -> 455 ;
456 [label="workclass_Private <= 0.5\ngini = 0.5\nsamples = 2\nvalue = [1, 1]"] ;
454 -> 456 ;
457 [label="gini = 0.0\nsamples = 1\nvalue = [1, 0]"] ;
456 -> 457 ;
458 [label="gini = 0.0\nsamples = 1\nvalue = [0, 1]"] ;
456 -> 458 ;
459 [label="fnlwgt <= 329254.5\ngini = 0.149\nsamples = 74\nvalue = [68, 6]"] ;
451 -> 459 ;
460 [label="hours-per-week <= 32.5\ngini = 0.1172\nsamples = 64\nvalue = [60, 4]"] ;
459 -> 460 ;
461 [label="hours-per-week <= 20.0\ngini = 0.4444\nsamples = 3\nvalue = [2, 1]"] ;
460 -> 461 ;
462 [label="gini = 0.0\nsamples = 2\nvalue = [2, 0]"] ;
461 -> 462 ;
463 [label="gini = 0.0\nsamples = 1\nvalue = [0, 1]"] ;
461 -> 463 ;
464 [label="relationship_Unmarried <= 0.5\ngini = 0.0935\nsamples = 61\nvalue = [58, 3]"] ;
460 -> 464 ;
465 [label="gini = 0.0\nsamples = 32\nvalue = [32, 0]"] ;
464 -> 465 ;
466 [label="race_Black <= 0.5\ngini = 0.1855\nsamples = 29\nvalue = [26, 3]"] ;
464 -> 466 ;
467 [label="fnlwgt <= 157395.5\ngini = 0.1327\nsamples = 28\nvalue = [26, 2]"] ;
466 -> 467 ;
468 [label="gini = 0.0\nsamples = 1\nvalue = [0, 1]"] ;
467 -> 468 ;
469 [label="age <= 35.5\ngini = 0.0713\nsamples = 27\nvalue = [26, 1]"] ;
467 -> 469 ;
470 [label="fnlwgt <= 259374.0\ngini = 0.32\nsamples = 5\nvalue = [4, 1]"] ;
469 -> 470 ;
471 [label="gini = 0.0\nsamples = 3\nvalue = [3, 0]"] ;
470 -> 471 ;
472 [label="age <= 34.5\ngini = 0.5\nsamples = 2\nvalue = [1, 1]"] ;
470 -> 472 ;
473 [label="gini = 0.0\nsamples = 1\nvalue = [1, 0]"] ;
472 -> 473 ;
474 [label="gini = 0.0\nsamples = 1\nvalue = [0, 1]"] ;
472 -> 474 ;
475 [label="gini = 0.0\nsamples = 22\nvalue = [22, 0]"] ;
469 -> 475 ;
476 [label="gini = 0.0\nsamples = 1\nvalue = [0, 1]"] ;
466 -> 476 ;
477 [label="fnlwgt <= 344967.5\ngini = 0.32\nsamples = 10\nvalue = [8, 2]"] ;
459 -> 477 ;
478 [label="workclass_Local-gov <= 0.5\ngini = 0.4444\nsamples = 3\nvalue = [1, 2]"] ;
477 -> 478 ;
479 [label="gini = 0.0\nsamples = 2\nvalue = [0, 2]"] ;
478 -> 479 ;
480 [label="gini = 0.0\nsamples = 1\nvalue = [1, 0]"] ;
478 -> 480 ;
481 [label="gini = 0.0\nsamples = 7\nvalue = [7, 0]"] ;
477 -> 481 ;
482 [label="fnlwgt <= 25270.0\ngini = 0.2142\nsamples = 41\nvalue = [36, 5]"] ;
438 -> 482 ;
483 [label="hours-per-week <= 27.5\ngini = 0.5\nsamples = 2\nvalue = [1, 1]"] ;
482 -> 483 ;
484 [label="gini = 0.0\nsamples = 1\nvalue = [1, 0]"] ;
483 -> 484 ;
485 [label="gini = 0.0\nsamples = 1\nvalue = [0, 1]"] ;
483 -> 485 ;
486 [label="fnlwgt <= 126767.0\ngini = 0.1841\nsamples = 39\nvalue = [35, 4]"] ;
482 -> 486 ;
487 [label="gini = 0.0\nsamples = 12\nvalue = [12, 0]"] ;
486 -> 487 ;
488 [label="fnlwgt <= 142112.0\ngini = 0.2524\nsamples = 27\nvalue = [23, 4]"] ;
486 -> 488 ;
489 [label="education-num <= 8.5\ngini = 0.4444\nsamples = 3\nvalue = [1, 2]"] ;
488 -> 489 ;
490 [label="gini = 0.0\nsamples = 1\nvalue = [1, 0]"] ;
489 -> 490 ;
491 [label="gini = 0.0\nsamples = 2\nvalue = [0, 2]"] ;
489 -> 491 ;
492 [label="age <= 66.5\ngini = 0.1528\nsamples = 24\nvalue = [22, 2]"] ;
488 -> 492 ;
493 [label="gini = 0.0\nsamples = 16\nvalue = [16, 0]"] ;
492 -> 493 ;
494 [label="age <= 69.0\ngini = 0.375\nsamples = 8\nvalue = [6, 2]"] ;
492 -> 494 ;
495 [label="gini = 0.0\nsamples = 2\nvalue = [0, 2]"] ;
494 -> 495 ;
496 [label="gini = 0.0\nsamples = 6\nvalue = [6, 0]"] ;
494 -> 496 ;
497 [label="age <= 57.0\ngini = 0.2491\nsamples = 48\nvalue = [41, 7]"] ;
437 -> 497 ;
498 [label="fnlwgt <= 354495.0\ngini = 0.142\nsamples = 39\nvalue = [36, 3]"] ;
497 -> 498 ;
499 [label="relationship_Not-in-family <= 0.5\ngini = 0.1023\nsamples = 37\nvalue = [35, 2]"] ;
498 -> 499 ;
500 [label="gini = 0.0\nsamples = 19\nvalue = [19, 0]"] ;
499 -> 500 ;
501 [label="workclass_Private <= 0.5\ngini = 0.1975\nsamples = 18\nvalue = [16, 2]"] ;
499 -> 501 ;
502 [label="gini = 0.0\nsamples = 10\nvalue = [10, 0]"] ;
501 -> 502 ;
503 [label="marital-status_Divorced <= 0.5\ngini = 0.375\nsamples = 8\nvalue = [6, 2]"] ;
501 -> 503 ;
504 [label="gini = 0.0\nsamples = 2\nvalue = [2, 0]"] ;
503 -> 504 ;
505 [label="education_Assoc-voc <= 0.5\ngini = 0.4444\nsamples = 6\nvalue = [4, 2]"] ;
503 -> 505 ;
506 [label="fnlwgt <= 235430.0\ngini = 0.32\nsamples = 5\nvalue = [4, 1]"] ;
505 -> 506 ;
507 [label="gini = 0.0\nsamples = 3\nvalue = [3, 0]"] ;
506 -> 507 ;
508 [label="fnlwgt <= 269098.0\ngini = 0.5\nsamples = 2\nvalue = [1, 1]"] ;
506 -> 508 ;
509 [label="gini = 0.0\nsamples = 1\nvalue = [0, 1]"] ;
508 -> 509 ;
510 [label="gini = 0.0\nsamples = 1\nvalue = [1, 0]"] ;
508 -> 510 ;
511 [label="gini = 0.0\nsamples = 1\nvalue = [0, 1]"] ;
505 -> 511 ;
512 [label="workclass_Federal-gov <= 0.5\ngini = 0.5\nsamples = 2\nvalue = [1, 1]"] ;
498 -> 512 ;
513 [label="gini = 0.0\nsamples = 1\nvalue = [0, 1]"] ;
512 -> 513 ;
514 [label="gini = 0.0\nsamples = 1\nvalue = [1, 0]"] ;
512 -> 514 ;
515 [label="fnlwgt <= 157862.0\ngini = 0.4938\nsamples = 9\nvalue = [5, 4]"] ;
497 -> 515 ;
516 [label="gini = 0.0\nsamples = 3\nvalue = [0, 3]"] ;
515 -> 516 ;
517 [label="fnlwgt <= 266228.0\ngini = 0.2778\nsamples = 6\nvalue = [5, 1]"] ;
515 -> 517 ;
518 [label="gini = 0.0\nsamples = 5\nvalue = [5, 0]"] ;
517 -> 518 ;
519 [label="gini = 0.0\nsamples = 1\nvalue = [0, 1]"] ;
517 -> 519 ;
520 [label="gini = 0.0\nsamples = 1\nvalue = [0, 1]"] ;
436 -> 520 ;
521 [label="gini = 0.0\nsamples = 1\nvalue = [0, 1]"] ;
435 -> 521 ;
522 [label="gini = 0.0\nsamples = 1\nvalue = [0, 1]"] ;
434 -> 522 ;
523 [label="sex_Male <= 0.5\ngini = 0.1953\nsamples = 237\nvalue = [211, 26]"] ;
129 -> 523 ;
524 [label="native-country_Philippines <= 0.5\ngini = 0.113\nsamples = 183\nvalue = [172, 11]"] ;
523 -> 524 ;
525 [label="capital-loss <= 1472.0\ngini = 0.1039\nsamples = 182\nvalue = [172, 10]"] ;
524 -> 525 ;
526 [label="workclass_Federal-gov <= 0.5\ngini = 0.0955\nsamples = 179\nvalue = [170, 9]"] ;
525 -> 526 ;
527 [label="age <= 36.5\ngini = 0.0794\nsamples = 169\nvalue = [162, 7]"] ;
526 -> 527 ;
528 [label="hours-per-week <= 16.0\ngini = 0.2041\nsamples = 26\nvalue = [23, 3]"] ;
527 -> 528 ;
529 [label="fnlwgt <= 143074.5\ngini = 0.5\nsamples = 2\nvalue = [1, 1]"] ;
528 -> 529 ;
530 [label="gini = 0.0\nsamples = 1\nvalue = [1, 0]"] ;
529 -> 530 ;
531 [label="gini = 0.0\nsamples = 1\nvalue = [0, 1]"] ;
529 -> 531 ;
532 [label="marital-status_Divorced <= 0.5\ngini = 0.1528\nsamples = 24\nvalue = [22, 2]"] ;
528 -> 532 ;
533 [label="gini = 0.0\nsamples = 15\nvalue = [15, 0]"] ;
532 -> 533 ;
534 [label="relationship_Own-child <= 0.5\ngini = 0.3457\nsamples = 9\nvalue = [7, 2]"] ;
532 -> 534 ;
535 [label="fnlwgt <= 178916.0\ngini = 0.2188\nsamples = 8\nvalue = [7, 1]"] ;
534 -> 535 ;
536 [label="relationship_Not-in-family <= 0.5\ngini = 0.4444\nsamples = 3\nvalue = [2, 1]"] ;
535 -> 536 ;
537 [label="gini = 0.0\nsamples = 1\nvalue = [0, 1]"] ;
536 -> 537 ;
538 [label="gini = 0.0\nsamples = 2\nvalue = [2, 0]"] ;
536 -> 538 ;
539 [label="gini = 0.0\nsamples = 5\nvalue = [5, 0]"] ;
535 -> 539 ;
540 [label="gini = 0.0\nsamples = 1\nvalue = [0, 1]"] ;
534 -> 540 ;
541 [label="marital-status_Divorced <= 0.5\ngini = 0.0544\nsamples = 143\nvalue = [139, 4]"] ;
527 -> 541 ;
542 [label="gini = 0.0\nsamples = 69\nvalue = [69, 0]"] ;
541 -> 542 ;
543 [label="education_Some-college <= 0.5\ngini = 0.1023\nsamples = 74\nvalue = [70, 4]"] ;
541 -> 543 ;
544 [label="fnlwgt <= 46887.0\ngini = 0.1557\nsamples = 47\nvalue = [43, 4]"] ;
543 -> 544 ;
545 [label="relationship_Unmarried <= 0.5\ngini = 0.5\nsamples = 2\nvalue = [1, 1]"] ;
544 -> 545 ;
546 [label="gini = 0.0\nsamples = 1\nvalue = [1, 0]"] ;
545 -> 546 ;
547 [label="gini = 0.0\nsamples = 1\nvalue = [0, 1]"] ;
545 -> 547 ;
548 [label="fnlwgt <= 137044.5\ngini = 0.1244\nsamples = 45\nvalue = [42, 3]"] ;
544 -> 548 ;
549 [label="gini = 0.0\nsamples = 18\nvalue = [18, 0]"] ;
548 -> 549 ;
550 [label="fnlwgt <= 139169.0\ngini = 0.1975\nsamples = 27\nvalue = [24, 3]"] ;
548 -> 550 ;
551 [label="gini = 0.0\nsamples = 1\nvalue = [0, 1]"] ;
550 -> 551 ;
552 [label="age <= 44.5\ngini = 0.142\nsamples = 26\nvalue = [24, 2]"] ;
550 -> 552 ;
553 [label="age <= 43.5\ngini = 0.32\nsamples = 10\nvalue = [8, 2]"] ;
552 -> 553 ;
554 [label="fnlwgt <= 183690.0\ngini = 0.1975\nsamples = 9\nvalue = [8, 1]"] ;
553 -> 554 ;
555 [label="gini = 0.0\nsamples = 5\nvalue = [5, 0]"] ;
554 -> 555 ;
556 [label="education_Assoc-voc <= 0.5\ngini = 0.375\nsamples = 4\nvalue = [3, 1]"] ;
554 -> 556 ;
557 [label="gini = 0.0\nsamples = 3\nvalue = [3, 0]"] ;
556 -> 557 ;
558 [label="gini = 0.0\nsamples = 1\nvalue = [0, 1]"] ;
556 -> 558 ;
559 [label="gini = 0.0\nsamples = 1\nvalue = [0, 1]"] ;
553 -> 559 ;
560 [label="gini = 0.0\nsamples = 16\nvalue = [16, 0]"] ;
552 -> 560 ;
561 [label="gini = 0.0\nsamples = 27\nvalue = [27, 0]"] ;
543 -> 561 ;
562 [label="fnlwgt <= 242596.5\ngini = 0.32\nsamples = 10\nvalue = [8, 2]"] ;
526 -> 562 ;
563 [label="fnlwgt <= 94417.5\ngini = 0.1975\nsamples = 9\nvalue = [8, 1]"] ;
562 -> 563 ;
564 [label="gini = 0.0\nsamples = 5\nvalue = [5, 0]"] ;
563 -> 564 ;
565 [label="fnlwgt <= 142097.0\ngini = 0.375\nsamples = 4\nvalue = [3, 1]"] ;
563 -> 565 ;
566 [label="gini = 0.0\nsamples = 1\nvalue = [0, 1]"] ;
565 -> 566 ;
567 [label="gini = 0.0\nsamples = 3\nvalue = [3, 0]"] ;
565 -> 567 ;
568 [label="gini = 0.0\nsamples = 1\nvalue = [0, 1]"] ;
562 -> 568 ;
569 [label="fnlwgt <= 175854.0\ngini = 0.4444\nsamples = 3\nvalue = [2, 1]"] ;
525 -> 569 ;
570 [label="gini = 0.0\nsamples = 2\nvalue = [2, 0]"] ;
569 -> 570 ;
571 [label="gini = 0.0\nsamples = 1\nvalue = [0, 1]"] ;
569 -> 571 ;
572 [label="gini = 0.0\nsamples = 1\nvalue = [0, 1]"] ;
524 -> 572 ;
573 [label="capital-gain <= 4718.5\ngini = 0.4012\nsamples = 54\nvalue = [39, 15]"] ;
523 -> 573 ;
574 [label="education_11th <= 0.5\ngini = 0.375\nsamples = 52\nvalue = [39, 13]"] ;
573 -> 574 ;
575 [label="fnlwgt <= 29452.0\ngini = 0.3599\nsamples = 51\nvalue = [39, 12]"] ;
574 -> 575 ;
576 [label="gini = 0.0\nsamples = 1\nvalue = [0, 1]"] ;
575 -> 576 ;
577 [label="native-country_Japan <= 0.5\ngini = 0.3432\nsamples = 50\nvalue = [39, 11]"] ;
575 -> 577 ;
578 [label="native-country_Germany <= 0.5\ngini = 0.3249\nsamples = 49\nvalue = [39, 10]"] ;
577 -> 578 ;
579 [label="fnlwgt <= 201059.0\ngini = 0.3047\nsamples = 48\nvalue = [39, 9]"] ;
578 -> 579 ;
580 [label="workclass_Local-gov <= 0.5\ngini = 0.1748\nsamples = 31\nvalue = [28, 3]"] ;
579 -> 580 ;
581 [label="age <= 38.5\ngini = 0.074\nsamples = 26\nvalue = [25, 1]"] ;
580 -> 581 ;
582 [label="education_HS-grad <= 0.5\ngini = 0.2778\nsamples = 6\nvalue = [5, 1]"] ;
581 -> 582 ;
583 [label="gini = 0.0\nsamples = 3\nvalue = [3, 0]"] ;
582 -> 583 ;
584 [label="fnlwgt <= 142626.0\ngini = 0.4444\nsamples = 3\nvalue = [2, 1]"] ;
582 -> 584 ;
585 [label="gini = 0.0\nsamples = 1\nvalue = [0, 1]"] ;
584 -> 585 ;
586 [label="gini = 0.0\nsamples = 2\nvalue = [2, 0]"] ;
584 -> 586 ;
587 [label="gini = 0.0\nsamples = 20\nvalue = [20, 0]"] ;
581 -> 587 ;
588 [label="education_Some-college <= 0.5\ngini = 0.48\nsamples = 5\nvalue = [3, 2]"] ;
580 -> 588 ;
589 [label="fnlwgt <= 191959.0\ngini = 0.4444\nsamples = 3\nvalue = [1, 2]"] ;
588 -> 589 ;
590 [label="gini = 0.0\nsamples = 2\nvalue = [0, 2]"] ;
589 -> 590 ;
591 [label="gini = 0.0\nsamples = 1\nvalue = [1, 0]"] ;
589 -> 591 ;
592 [label="gini = 0.0\nsamples = 2\nvalue = [2, 0]"] ;
588 -> 592 ;
593 [label="fnlwgt <= 329693.0\ngini = 0.4567\nsamples = 17\nvalue = [11, 6]"] ;
579 -> 593 ;
594 [label="age <= 49.0\ngini = 0.4959\nsamples = 11\nvalue = [5, 6]"] ;
593 -> 594 ;
595 [label="age <= 39.5\ngini = 0.4688\nsamples = 8\nvalue = [5, 3]"] ;
594 -> 595 ;
596 [label="age <= 38.5\ngini = 0.48\nsamples = 5\nvalue = [2, 3]"] ;
595 -> 596 ;
597 [label="education_Assoc-voc <= 0.5\ngini = 0.4444\nsamples = 3\nvalue = [2, 1]"] ;
596 -> 597 ;
598 [label="gini = 0.0\nsamples = 2\nvalue = [2, 0]"] ;
597 -> 598 ;
599 [label="gini = 0.0\nsamples = 1\nvalue = [0, 1]"] ;
597 -> 599 ;
600 [label="gini = 0.0\nsamples = 2\nvalue = [0, 2]"] ;
596 -> 600 ;
601 [label="gini = 0.0\nsamples = 3\nvalue = [3, 0]"] ;
595 -> 601 ;
602 [label="gini = 0.0\nsamples = 3\nvalue = [0, 3]"] ;
594 -> 602 ;
603 [label="gini = 0.0\nsamples = 6\nvalue = [6, 0]"] ;
593 -> 603 ;
604 [label="gini = 0.0\nsamples = 1\nvalue = [0, 1]"] ;
578 -> 604 ;
605 [label="gini = 0.0\nsamples = 1\nvalue = [0, 1]"] ;
577 -> 605 ;
606 [label="gini = 0.0\nsamples = 1\nvalue = [0, 1]"] ;
574 -> 606 ;
607 [label="gini = 0.0\nsamples = 2\nvalue = [0, 2]"] ;
573 -> 607 ;
608 [label="age <= 38.5\ngini = 0.1225\nsamples = 2456\nvalue = [2295, 161]"] ;
4 -> 608 ;
609 [label="native-country_India <= 0.5\ngini = 0.0748\nsamples = 1568\nvalue = [1507, 61]"] ;
608 -> 609 ;
610 [label="relationship_Not-in-family <= 0.5\ngini = 0.0736\nsamples = 1567\nvalue = [1507, 60]"] ;
609 -> 610 ;
611 [label="native-country_Portugal <= 0.5\ngini = 0.0264\nsamples = 673\nvalue = [664, 9]"] ;
610 -> 611 ;
612 [label="race_Asian-Pac-Islander <= 0.5\ngini = 0.0236\nsamples = 671\nvalue = [663, 8]"] ;
611 -> 612 ;
613 [label="relationship_Husband <= 0.5\ngini = 0.0181\nsamples = 657\nvalue = [651, 6]"] ;
612 -> 613 ;
614 [label="hours-per-week <= 98.5\ngini = 0.0152\nsamples = 653\nvalue = [648, 5]"] ;
613 -> 614 ;
615 [label="workclass_Federal-gov <= 0.5\ngini = 0.0123\nsamples = 649\nvalue = [645, 4]"] ;
614 -> 615 ;
616 [label="marital-status_Married-spouse-absent <= 0.5\ngini = 0.0093\nsamples = 642\nvalue = [639, 3]"] ;
615 -> 616 ;
617 [label="fnlwgt <= 284055.5\ngini = 0.0063\nsamples = 628\nvalue = [626, 2]"] ;
616 -> 617 ;
618 [label="gini = 0.0\nsamples = 537\nvalue = [537, 0]"] ;
617 -> 618 ;
619 [label="fnlwgt <= 284811.5\ngini = 0.043\nsamples = 91\nvalue = [89, 2]"] ;
617 -> 619 ;
620 [label="gini = 0.0\nsamples = 1\nvalue = [0, 1]"] ;
619 -> 620 ;
621 [label="fnlwgt <= 287804.5\ngini = 0.022\nsamples = 90\nvalue = [89, 1]"] ;
619 -> 621 ;
622 [label="fnlwgt <= 287188.0\ngini = 0.4444\nsamples = 3\nvalue = [2, 1]"] ;
621 -> 622 ;
623 [label="gini = 0.0\nsamples = 2\nvalue = [2, 0]"] ;
622 -> 623 ;
624 [label="gini = 0.0\nsamples = 1\nvalue = [0, 1]"] ;
622 -> 624 ;
625 [label="gini = 0.0\nsamples = 87\nvalue = [87, 0]"] ;
621 -> 625 ;
626 [label="workclass_Self-emp-not-inc <= 0.5\ngini = 0.1327\nsamples = 14\nvalue = [13, 1]"] ;
616 -> 626 ;
627 [label="gini = 0.0\nsamples = 13\nvalue = [13, 0]"] ;
626 -> 627 ;
628 [label="gini = 0.0\nsamples = 1\nvalue = [0, 1]"] ;
626 -> 628 ;
629 [label="education-num <= 11.5\ngini = 0.2449\nsamples = 7\nvalue = [6, 1]"] ;
615 -> 629 ;
630 [label="gini = 0.0\nsamples = 6\nvalue = [6, 0]"] ;
629 -> 630 ;
631 [label="gini = 0.0\nsamples = 1\nvalue = [0, 1]"] ;
629 -> 631 ;
632 [label="fnlwgt <= 173043.0\ngini = 0.375\nsamples = 4\nvalue = [3, 1]"] ;
614 -> 632 ;
633 [label="gini = 0.0\nsamples = 3\nvalue = [3, 0]"] ;
632 -> 633 ;
634 [label="gini = 0.0\nsamples = 1\nvalue = [0, 1]"] ;
632 -> 634 ;
635 [label="education_Assoc-voc <= 0.5\ngini = 0.375\nsamples = 4\nvalue = [3, 1]"] ;
613 -> 635 ;
636 [label="gini = 0.0\nsamples = 3\nvalue = [3, 0]"] ;
635 -> 636 ;
637 [label="gini = 0.0\nsamples = 1\nvalue = [0, 1]"] ;
635 -> 637 ;
638 [label="fnlwgt <= 70533.5\ngini = 0.2449\nsamples = 14\nvalue = [12, 2]"] ;
612 -> 638 ;
639 [label="gini = 0.0\nsamples = 1\nvalue = [0, 1]"] ;
638 -> 639 ;
640 [label="hours-per-week <= 70.0\ngini = 0.142\nsamples = 13\nvalue = [12, 1]"] ;
638 -> 640 ;
641 [label="gini = 0.0\nsamples = 12\nvalue = [12, 0]"] ;
640 -> 641 ;
642 [label="gini = 0.0\nsamples = 1\nvalue = [0, 1]"] ;
640 -> 642 ;
643 [label="marital-status_Never-married <= 0.5\ngini = 0.5\nsamples = 2\nvalue = [1, 1]"] ;
611 -> 643 ;
644 [label="gini = 0.0\nsamples = 1\nvalue = [0, 1]"] ;
643 -> 644 ;
645 [label="gini = 0.0\nsamples = 1\nvalue = [1, 0]"] ;
643 -> 645 ;
646 [label="workclass_Private <= 0.5\ngini = 0.1076\nsamples = 894\nvalue = [843, 51]"] ;
610 -> 646 ;
647 [label="occupation_Exec-managerial <= 0.5\ngini = 0.2006\nsamples = 168\nvalue = [149, 19]"] ;
646 -> 647 ;
648 [label="occupation_Protective-serv <= 0.5\ngini = 0.1537\nsamples = 143\nvalue = [131, 12]"] ;
647 -> 648 ;
649 [label="fnlwgt <= 344990.0\ngini = 0.1155\nsamples = 130\nvalue = [122, 8]"] ;
648 -> 649 ;
650 [label="education_HS-grad <= 0.5\ngini = 0.0805\nsamples = 119\nvalue = [114, 5]"] ;
649 -> 650 ;
651 [label="gini = 0.0\nsamples = 68\nvalue = [68, 0]"] ;
650 -> 651 ;
652 [label="fnlwgt <= 34376.0\ngini = 0.1769\nsamples = 51\nvalue = [46, 5]"] ;
650 -> 652 ;
653 [label="fnlwgt <= 32842.0\ngini = 0.5\nsamples = 4\nvalue = [2, 2]"] ;
652 -> 653 ;
654 [label="gini = 0.0\nsamples = 2\nvalue = [2, 0]"] ;
653 -> 654 ;
655 [label="gini = 0.0\nsamples = 2\nvalue = [0, 2]"] ;
653 -> 655 ;
656 [label="occupation_Sales <= 0.5\ngini = 0.1195\nsamples = 47\nvalue = [44, 3]"] ;
652 -> 656 ;
657 [label="occupation_Adm-clerical <= 0.5\ngini = 0.0868\nsamples = 44\nvalue = [42, 2]"] ;
656 -> 657 ;
658 [label="age <= 29.5\ngini = 0.0487\nsamples = 40\nvalue = [39, 1]"] ;
657 -> 658 ;
659 [label="age <= 28.5\ngini = 0.18\nsamples = 10\nvalue = [9, 1]"] ;
658 -> 659 ;
660 [label="gini = 0.0\nsamples = 8\nvalue = [8, 0]"] ;
659 -> 660 ;
661 [label="hours-per-week <= 47.5\ngini = 0.5\nsamples = 2\nvalue = [1, 1]"] ;
659 -> 661 ;
662 [label="gini = 0.0\nsamples = 1\nvalue = [1, 0]"] ;
661 -> 662 ;
663 [label="gini = 0.0\nsamples = 1\nvalue = [0, 1]"] ;
661 -> 663 ;
664 [label="gini = 0.0\nsamples = 30\nvalue = [30, 0]"] ;
658 -> 664 ;
665 [label="marital-status_Divorced <= 0.5\ngini = 0.375\nsamples = 4\nvalue = [3, 1]"] ;
657 -> 665 ;
666 [label="gini = 0.0\nsamples = 1\nvalue = [0, 1]"] ;
665 -> 666 ;
667 [label="gini = 0.0\nsamples = 3\nvalue = [3, 0]"] ;
665 -> 667 ;
668 [label="age <= 33.5\ngini = 0.4444\nsamples = 3\nvalue = [2, 1]"] ;
656 -> 668 ;
669 [label="gini = 0.0\nsamples = 2\nvalue = [2, 0]"] ;
668 -> 669 ;
670 [label="gini = 0.0\nsamples = 1\nvalue = [0, 1]"] ;
668 -> 670 ;
671 [label="occupation_Craft-repair <= 0.5\ngini = 0.3967\nsamples = 11\nvalue = [8, 3]"] ;
649 -> 671 ;
672 [label="gini = 0.0\nsamples = 6\nvalue = [6, 0]"] ;
671 -> 672 ;
673 [label="education-num <= 9.5\ngini = 0.48\nsamples = 5\nvalue = [2, 3]"] ;
671 -> 673 ;
674 [label="gini = 0.0\nsamples = 3\nvalue = [0, 3]"] ;
673 -> 674 ;
675 [label="gini = 0.0\nsamples = 2\nvalue = [2, 0]"] ;
673 -> 675 ;
676 [label="age <= 28.0\ngini = 0.426\nsamples = 13\nvalue = [9, 4]"] ;
648 -> 676 ;
677 [label="gini = 0.0\nsamples = 4\nvalue = [4, 0]"] ;
676 -> 677 ;
678 [label="age <= 32.0\ngini = 0.4938\nsamples = 9\nvalue = [5, 4]"] ;
676 -> 678 ;
679 [label="gini = 0.0\nsamples = 2\nvalue = [0, 2]"] ;
678 -> 679 ;
680 [label="fnlwgt <= 183982.5\ngini = 0.4082\nsamples = 7\nvalue = [5, 2]"] ;
678 -> 680 ;
681 [label="hours-per-week <= 65.0\ngini = 0.4444\nsamples = 3\nvalue = [1, 2]"] ;
680 -> 681 ;
682 [label="gini = 0.0\nsamples = 2\nvalue = [0, 2]"] ;
681 -> 682 ;
683 [label="gini = 0.0\nsamples = 1\nvalue = [1, 0]"] ;
681 -> 683 ;
684 [label="gini = 0.0\nsamples = 4\nvalue = [4, 0]"] ;
680 -> 684 ;
685 [label="hours-per-week <= 62.5\ngini = 0.4032\nsamples = 25\nvalue = [18, 7]"] ;
647 -> 685 ;
686 [label="fnlwgt <= 58156.5\ngini = 0.255\nsamples = 20\nvalue = [17, 3]"] ;
685 -> 686 ;
687 [label="gini = 0.0\nsamples = 1\nvalue = [0, 1]"] ;
686 -> 687 ;
688 [label="education_12th <= 0.5\ngini = 0.1884\nsamples = 19\nvalue = [17, 2]"] ;
686 -> 688 ;
689 [label="fnlwgt <= 114965.0\ngini = 0.1049\nsamples = 18\nvalue = [17, 1]"] ;
688 -> 689 ;
690 [label="age <= 28.0\ngini = 0.4444\nsamples = 3\nvalue = [2, 1]"] ;
689 -> 690 ;
691 [label="gini = 0.0\nsamples = 1\nvalue = [0, 1]"] ;
690 -> 691 ;
692 [label="gini = 0.0\nsamples = 2\nvalue = [2, 0]"] ;
690 -> 692 ;
693 [label="gini = 0.0\nsamples = 15\nvalue = [15, 0]"] ;
689 -> 693 ;
694 [label="gini = 0.0\nsamples = 1\nvalue = [0, 1]"] ;
688 -> 694 ;
695 [label="native-country_Cuba <= 0.5\ngini = 0.32\nsamples = 5\nvalue = [1, 4]"] ;
685 -> 695 ;
696 [label="gini = 0.0\nsamples = 4\nvalue = [0, 4]"] ;
695 -> 696 ;
697 [label="gini = 0.0\nsamples = 1\nvalue = [1, 0]"] ;
695 -> 697 ;
698 [label="education-num <= 10.5\ngini = 0.0843\nsamples = 726\nvalue = [694, 32]"] ;
646 -> 698 ;
699 [label="fnlwgt <= 30808.5\ngini = 0.0672\nsamples = 632\nvalue = [610, 22]"] ;
698 -> 699 ;
700 [label="fnlwgt <= 30066.0\ngini = 0.2975\nsamples = 11\nvalue = [9, 2]"] ;
699 -> 700 ;
701 [label="hours-per-week <= 49.0\ngini = 0.18\nsamples = 10\nvalue = [9, 1]"] ;
700 -> 701 ;
702 [label="education-num <= 9.5\ngini = 0.5\nsamples = 2\nvalue = [1, 1]"] ;
701 -> 702 ;
703 [label="gini = 0.0\nsamples = 1\nvalue = [0, 1]"] ;
702 -> 703 ;
704 [label="gini = 0.0\nsamples = 1\nvalue = [1, 0]"] ;
702 -> 704 ;
705 [label="gini = 0.0\nsamples = 8\nvalue = [8, 0]"] ;
701 -> 705 ;
706 [label="gini = 0.0\nsamples = 1\nvalue = [0, 1]"] ;
700 -> 706 ;
707 [label="education_9th <= 0.5\ngini = 0.0623\nsamples = 621\nvalue = [601, 20]"] ;
699 -> 707 ;
708 [label="fnlwgt <= 465605.5\ngini = 0.0575\nsamples = 608\nvalue = [590, 18]"] ;
707 -> 708 ;
709 [label="hours-per-week <= 41.5\ngini = 0.0524\nsamples = 594\nvalue = [578, 16]"] ;
708 -> 709 ;
710 [label="fnlwgt <= 127800.5\ngini = 0.32\nsamples = 5\nvalue = [4, 1]"] ;
709 -> 710 ;
711 [label="gini = 0.0\nsamples = 4\nvalue = [4, 0]"] ;
710 -> 711 ;
712 [label="gini = 0.0\nsamples = 1\nvalue = [0, 1]"] ;
710 -> 712 ;
713 [label="education_7th-8th <= 0.5\ngini = 0.0496\nsamples = 589\nvalue = [574, 15]"] ;
709 -> 713 ;
714 [label="fnlwgt <= 251746.5\ngini = 0.0469\nsamples = 583\nvalue = [569, 14]"] ;
713 -> 714 ;
715 [label="fnlwgt <= 250640.0\ngini = 0.0617\nsamples = 439\nvalue = [425, 14]"] ;
714 -> 715 ;
716 [label="age <= 23.5\ngini = 0.0576\nsamples = 438\nvalue = [425, 13]"] ;
715 -> 716 ;
717 [label="gini = 0.0\nsamples = 92\nvalue = [92, 0]"] ;
716 -> 717 ;
718 [label="education_12th <= 0.5\ngini = 0.0723\nsamples = 346\nvalue = [333, 13]"] ;
716 -> 718 ;
719 [label="occupation_Sales <= 0.5\ngini = 0.0681\nsamples = 340\nvalue = [328, 12]"] ;
718 -> 719 ;
720 [label="race_Asian-Pac-Islander <= 0.5\ngini = 0.0537\nsamples = 290\nvalue = [282, 8]"] ;
719 -> 720 ;
721 [label="occupation_Prof-specialty <= 0.5\ngini = 0.0476\nsamples = 287\nvalue = [280, 7]"] ;
720 -> 721 ;
722 [label="age <= 24.5\ngini = 0.0424\nsamples = 277\nvalue = [271, 6]"] ;
721 -> 722 ;
723 [label="marital-status_Divorced <= 0.5\ngini = 0.1653\nsamples = 11\nvalue = [10, 1]"] ;
722 -> 723 ;
724 [label="gini = 0.0\nsamples = 9\nvalue = [9, 0]"] ;
723 -> 724 ;
725 [label="education_Some-college <= 0.5\ngini = 0.5\nsamples = 2\nvalue = [1, 1]"] ;
723 -> 725 ;
726 [label="gini = 0.0\nsamples = 1\nvalue = [0, 1]"] ;
725 -> 726 ;
727 [label="gini = 0.0\nsamples = 1\nvalue = [1, 0]"] ;
725 -> 727 ;
728 [label="occupation_Transport-moving <= 0.5\ngini = 0.0369\nsamples = 266\nvalue = [261, 5]"] ;
722 -> 728 ;
729 [label="marital-status_Separated <= 0.5\ngini = 0.0259\nsamples = 229\nvalue = [226, 3]"] ;
728 -> 729 ;
730 [label="fnlwgt <= 226610.5\ngini = 0.0182\nsamples = 218\nvalue = [216, 2]"] ;
729 -> 730 ;
731 [label="occupation_Other-service <= 0.5\ngini = 0.0099\nsamples = 202\nvalue = [201, 1]"] ;
730 -> 731 ;
732 [label="gini = 0.0\nsamples = 182\nvalue = [182, 0]"] ;
731 -> 732 ;
733 [label="age <= 27.5\ngini = 0.095\nsamples = 20\nvalue = [19, 1]"] ;
731 -> 733 ;
734 [label="gini = 0.32\nsamples = 5\nvalue = [4, 1]"] ;
733 -> 734 ;
735 [label="gini = 0.0\nsamples = 15\nvalue = [15, 0]"] ;
733 -> 735 ;
736 [label="fnlwgt <= 228558.0\ngini = 0.1172\nsamples = 16\nvalue = [15, 1]"] ;
730 -> 736 ;
737 [label="gini = 0.0\nsamples = 1\nvalue = [0, 1]"] ;
736 -> 737 ;
738 [label="gini = 0.0\nsamples = 15\nvalue = [15, 0]"] ;
736 -> 738 ;
739 [label="occupation_Exec-managerial <= 0.5\ngini = 0.1653\nsamples = 11\nvalue = [10, 1]"] ;
729 -> 739 ;
740 [label="gini = 0.0\nsamples = 10\nvalue = [10, 0]"] ;
739 -> 740 ;
741 [label="gini = 0.0\nsamples = 1\nvalue = [0, 1]"] ;
739 -> 741 ;
742 [label="sex_Male <= 0.5\ngini = 0.1023\nsamples = 37\nvalue = [35, 2]"] ;
728 -> 742 ;
743 [label="hours-per-week <= 52.5\ngini = 0.5\nsamples = 2\nvalue = [1, 1]"] ;
742 -> 743 ;
744 [label="gini = 0.0\nsamples = 1\nvalue = [1, 0]"] ;
743 -> 744 ;
745 [label="gini = 0.0\nsamples = 1\nvalue = [0, 1]"] ;
743 -> 745 ;
746 [label="hours-per-week <= 47.5\ngini = 0.0555\nsamples = 35\nvalue = [34, 1]"] ;
742 -> 746 ;
747 [label="fnlwgt <= 131108.5\ngini = 0.2778\nsamples = 6\nvalue = [5, 1]"] ;
746 -> 747 ;
748 [label="gini = 0.0\nsamples = 1\nvalue = [0, 1]"] ;
747 -> 748 ;
749 [label="gini = 0.0\nsamples = 5\nvalue = [5, 0]"] ;
747 -> 749 ;
750 [label="gini = 0.0\nsamples = 29\nvalue = [29, 0]"] ;
746 -> 750 ;
751 [label="hours-per-week <= 56.0\ngini = 0.18\nsamples = 10\nvalue = [9, 1]"] ;
721 -> 751 ;
752 [label="gini = 0.0\nsamples = 9\nvalue = [9, 0]"] ;
751 -> 752 ;
753 [label="gini = 0.0\nsamples = 1\nvalue = [0, 1]"] ;
751 -> 753 ;
754 [label="occupation_Machine-op-inspct <= 0.5\ngini = 0.4444\nsamples = 3\nvalue = [2, 1]"] ;
720 -> 754 ;
755 [label="gini = 0.0\nsamples = 2\nvalue = [2, 0]"] ;
754 -> 755 ;
756 [label="gini = 0.0\nsamples = 1\nvalue = [0, 1]"] ;
754 -> 756 ;
757 [label="hours-per-week <= 43.5\ngini = 0.1472\nsamples = 50\nvalue = [46, 4]"] ;
719 -> 757 ;
758 [label="gini = 0.0\nsamples = 1\nvalue = [0, 1]"] ;
757 -> 758 ;
759 [label="fnlwgt <= 190181.5\ngini = 0.115\nsamples = 49\nvalue = [46, 3]"] ;
757 -> 759 ;
760 [label="gini = 0.0\nsamples = 31\nvalue = [31, 0]"] ;
759 -> 760 ;
761 [label="fnlwgt <= 190843.0\ngini = 0.2778\nsamples = 18\nvalue = [15, 3]"] ;
759 -> 761 ;
762 [label="gini = 0.0\nsamples = 1\nvalue = [0, 1]"] ;
761 -> 762 ;
763 [label="fnlwgt <= 213736.0\ngini = 0.2076\nsamples = 17\nvalue = [15, 2]"] ;
761 -> 763 ;
764 [label="fnlwgt <= 213474.0\ngini = 0.3457\nsamples = 9\nvalue = [7, 2]"] ;
763 -> 764 ;
765 [label="hours-per-week <= 47.5\ngini = 0.2188\nsamples = 8\nvalue = [7, 1]"] ;
764 -> 765 ;
766 [label="age <= 30.5\ngini = 0.4444\nsamples = 3\nvalue = [2, 1]"] ;
765 -> 766 ;
767 [label="gini = 0.0\nsamples = 1\nvalue = [0, 1]"] ;
766 -> 767 ;
768 [label="gini = 0.0\nsamples = 2\nvalue = [2, 0]"] ;
766 -> 768 ;
769 [label="gini = 0.0\nsamples = 5\nvalue = [5, 0]"] ;
765 -> 769 ;
770 [label="gini = 0.0\nsamples = 1\nvalue = [0, 1]"] ;
764 -> 770 ;
771 [label="gini = 0.0\nsamples = 8\nvalue = [8, 0]"] ;
763 -> 771 ;
772 [label="marital-status_Divorced <= 0.5\ngini = 0.2778\nsamples = 6\nvalue = [5, 1]"] ;
718 -> 772 ;
773 [label="gini = 0.0\nsamples = 5\nvalue = [5, 0]"] ;
772 -> 773 ;
774 [label="gini = 0.0\nsamples = 1\nvalue = [0, 1]"] ;
772 -> 774 ;
775 [label="gini = 0.0\nsamples = 1\nvalue = [0, 1]"] ;
715 -> 775 ;
776 [label="gini = 0.0\nsamples = 144\nvalue = [144, 0]"] ;
714 -> 776 ;
777 [label="hours-per-week <= 55.0\ngini = 0.2778\nsamples = 6\nvalue = [5, 1]"] ;
713 -> 777 ;
778 [label="gini = 0.0\nsamples = 5\nvalue = [5, 0]"] ;
777 -> 778 ;
779 [label="gini = 0.0\nsamples = 1\nvalue = [0, 1]"] ;
777 -> 779 ;
780 [label="marital-status_Never-married <= 0.5\ngini = 0.2449\nsamples = 14\nvalue = [12, 2]"] ;
708 -> 780 ;
781 [label="gini = 0.0\nsamples = 1\nvalue = [0, 1]"] ;
780 -> 781 ;
782 [label="fnlwgt <= 477227.5\ngini = 0.142\nsamples = 13\nvalue = [12, 1]"] ;
780 -> 782 ;
783 [label="gini = 0.0\nsamples = 1\nvalue = [0, 1]"] ;
782 -> 783 ;
784 [label="gini = 0.0\nsamples = 12\nvalue = [12, 0]"] ;
782 -> 784 ;
785 [label="hours-per-week <= 44.0\ngini = 0.2604\nsamples = 13\nvalue = [11, 2]"] ;
707 -> 785 ;
786 [label="gini = 0.0\nsamples = 1\nvalue = [0, 1]"] ;
785 -> 786 ;
787 [label="native-country_? <= 0.5\ngini = 0.1528\nsamples = 12\nvalue = [11, 1]"] ;
785 -> 787 ;
788 [label="gini = 0.0\nsamples = 11\nvalue = [11, 0]"] ;
787 -> 788 ;
789 [label="gini = 0.0\nsamples = 1\nvalue = [0, 1]"] ;
787 -> 789 ;
790 [label="capital-gain <= 3692.0\ngini = 0.1901\nsamples = 94\nvalue = [84, 10]"] ;
698 -> 790 ;
791 [label="hours-per-week <= 64.5\ngini = 0.1748\nsamples = 93\nvalue = [84, 9]"] ;
790 -> 791 ;
792 [label="fnlwgt <= 213271.5\ngini = 0.1464\nsamples = 88\nvalue = [81, 7]"] ;
791 -> 792 ;
793 [label="fnlwgt <= 205085.5\ngini = 0.2122\nsamples = 58\nvalue = [51, 7]"] ;
792 -> 793 ;
794 [label="age <= 35.5\ngini = 0.1396\nsamples = 53\nvalue = [49, 4]"] ;
793 -> 794 ;
795 [label="fnlwgt <= 180814.5\ngini = 0.0832\nsamples = 46\nvalue = [44, 2]"] ;
794 -> 795 ;
796 [label="gini = 0.0\nsamples = 37\nvalue = [37, 0]"] ;
795 -> 796 ;
797 [label="marital-status_Never-married <= 0.5\ngini = 0.3457\nsamples = 9\nvalue = [7, 2]"] ;
795 -> 797 ;
798 [label="hours-per-week <= 47.5\ngini = 0.4444\nsamples = 3\nvalue = [1, 2]"] ;
797 -> 798 ;
799 [label="gini = 0.0\nsamples = 1\nvalue = [1, 0]"] ;
798 -> 799 ;
800 [label="gini = 0.0\nsamples = 2\nvalue = [0, 2]"] ;
798 -> 800 ;
801 [label="gini = 0.0\nsamples = 6\nvalue = [6, 0]"] ;
797 -> 801 ;
802 [label="occupation_Sales <= 0.5\ngini = 0.4082\nsamples = 7\nvalue = [5, 2]"] ;
794 -> 802 ;
803 [label="fnlwgt <= 58363.0\ngini = 0.2778\nsamples = 6\nvalue = [5, 1]"] ;
802 -> 803 ;
804 [label="gini = 0.0\nsamples = 1\nvalue = [0, 1]"] ;
803 -> 804 ;
805 [label="gini = 0.0\nsamples = 5\nvalue = [5, 0]"] ;
803 -> 805 ;
806 [label="gini = 0.0\nsamples = 1\nvalue = [0, 1]"] ;
802 -> 806 ;
807 [label="hours-per-week <= 47.5\ngini = 0.48\nsamples = 5\nvalue = [2, 3]"] ;
793 -> 807 ;
808 [label="gini = 0.0\nsamples = 2\nvalue = [2, 0]"] ;
807 -> 808 ;
809 [label="gini = 0.0\nsamples = 3\nvalue = [0, 3]"] ;
807 -> 809 ;
810 [label="gini = 0.0\nsamples = 30\nvalue = [30, 0]"] ;
792 -> 810 ;
811 [label="occupation_Exec-managerial <= 0.5\ngini = 0.48\nsamples = 5\nvalue = [3, 2]"] ;
791 -> 811 ;
812 [label="age <= 31.5\ngini = 0.375\nsamples = 4\nvalue = [3, 1]"] ;
811 -> 812 ;
813 [label="gini = 0.0\nsamples = 2\nvalue = [2, 0]"] ;
812 -> 813 ;
814 [label="education_Assoc-voc <= 0.5\ngini = 0.5\nsamples = 2\nvalue = [1, 1]"] ;
812 -> 814 ;
815 [label="gini = 0.0\nsamples = 1\nvalue = [0, 1]"] ;
814 -> 815 ;
816 [label="gini = 0.0\nsamples = 1\nvalue = [1, 0]"] ;
814 -> 816 ;
817 [label="gini = 0.0\nsamples = 1\nvalue = [0, 1]"] ;
811 -> 817 ;
818 [label="gini = 0.0\nsamples = 1\nvalue = [0, 1]"] ;
790 -> 818 ;
819 [label="gini = 0.0\nsamples = 1\nvalue = [0, 1]"] ;
609 -> 819 ;
820 [label="capital-gain <= 4668.5\ngini = 0.1999\nsamples = 888\nvalue = [788, 100]"] ;
608 -> 820 ;
821 [label="sex_Male <= 0.5\ngini = 0.1928\nsamples = 879\nvalue = [784, 95]"] ;
820 -> 821 ;
822 [label="native-country_Greece <= 0.5\ngini = 0.12\nsamples = 421\nvalue = [394, 27]"] ;
821 -> 822 ;
823 [label="relationship_Wife <= 0.5\ngini = 0.1161\nsamples = 420\nvalue = [394, 26]"] ;
822 -> 823 ;
824 [label="occupation_Tech-support <= 0.5\ngini = 0.1122\nsamples = 419\nvalue = [394, 25]"] ;
823 -> 824 ;
825 [label="education-num <= 9.5\ngini = 0.1018\nsamples = 409\nvalue = [387, 22]"] ;
824 -> 825 ;
826 [label="workclass_Self-emp-inc <= 0.5\ngini = 0.0375\nsamples = 209\nvalue = [205, 4]"] ;
825 -> 826 ;
827 [label="marital-status_Married-spouse-absent <= 0.5\ngini = 0.0287\nsamples = 206\nvalue = [203, 3]"] ;
826 -> 827 ;
828 [label="workclass_State-gov <= 0.5\ngini = 0.0198\nsamples = 200\nvalue = [198, 2]"] ;
827 -> 828 ;
829 [label="education_11th <= 0.5\ngini = 0.0103\nsamples = 193\nvalue = [192, 1]"] ;
828 -> 829 ;
830 [label="gini = 0.0\nsamples = 185\nvalue = [185, 0]"] ;
829 -> 830 ;
831 [label="fnlwgt <= 209904.0\ngini = 0.2188\nsamples = 8\nvalue = [7, 1]"] ;
829 -> 831 ;
832 [label="gini = 0.0\nsamples = 6\nvalue = [6, 0]"] ;
831 -> 832 ;
833 [label="age <= 50.5\ngini = 0.5\nsamples = 2\nvalue = [1, 1]"] ;
831 -> 833 ;
834 [label="gini = 0.0\nsamples = 1\nvalue = [1, 0]"] ;
833 -> 834 ;
835 [label="gini = 0.0\nsamples = 1\nvalue = [0, 1]"] ;
833 -> 835 ;
836 [label="occupation_Adm-clerical <= 0.5\ngini = 0.2449\nsamples = 7\nvalue = [6, 1]"] ;
828 -> 836 ;
837 [label="gini = 0.0\nsamples = 5\nvalue = [5, 0]"] ;
836 -> 837 ;
838 [label="age <= 46.5\ngini = 0.5\nsamples = 2\nvalue = [1, 1]"] ;
836 -> 838 ;
839 [label="gini = 0.0\nsamples = 1\nvalue = [0, 1]"] ;
838 -> 839 ;
840 [label="gini = 0.0\nsamples = 1\nvalue = [1, 0]"] ;
838 -> 840 ;
841 [label="race_Black <= 0.5\ngini = 0.2778\nsamples = 6\nvalue = [5, 1]"] ;
827 -> 841 ;
842 [label="gini = 0.0\nsamples = 5\nvalue = [5, 0]"] ;
841 -> 842 ;
843 [label="gini = 0.0\nsamples = 1\nvalue = [0, 1]"] ;
841 -> 843 ;
844 [label="native-country_United-States <= 0.5\ngini = 0.4444\nsamples = 3\nvalue = [2, 1]"] ;
826 -> 844 ;
845 [label="gini = 0.0\nsamples = 2\nvalue = [2, 0]"] ;
844 -> 845 ;
846 [label="gini = 0.0\nsamples = 1\nvalue = [0, 1]"] ;
844 -> 846 ;
847 [label="occupation_? <= 0.5\ngini = 0.1638\nsamples = 200\nvalue = [182, 18]"] ;
825 -> 847 ;
848 [label="occupation_Protective-serv <= 0.5\ngini = 0.1563\nsamples = 199\nvalue = [182, 17]"] ;
847 -> 848 ;
849 [label="age <= 46.5\ngini = 0.1486\nsamples = 198\nvalue = [182, 16]"] ;
848 -> 849 ;
850 [label="fnlwgt <= 369903.5\ngini = 0.0754\nsamples = 102\nvalue = [98, 4]"] ;
849 -> 850 ;
851 [label="relationship_Own-child <= 0.5\ngini = 0.0582\nsamples = 100\nvalue = [97, 3]"] ;
850 -> 851 ;
852 [label="hours-per-week <= 52.5\ngini = 0.0421\nsamples = 93\nvalue = [91, 2]"] ;
851 -> 852 ;
853 [label="gini = 0.0\nsamples = 66\nvalue = [66, 0]"] ;
852 -> 853 ;
854 [label="occupation_Sales <= 0.5\ngini = 0.1372\nsamples = 27\nvalue = [25, 2]"] ;
852 -> 854 ;
855 [label="education_Assoc-voc <= 0.5\ngini = 0.0768\nsamples = 25\nvalue = [24, 1]"] ;
854 -> 855 ;
856 [label="gini = 0.0\nsamples = 19\nvalue = [19, 0]"] ;
855 -> 856 ;
857 [label="hours-per-week <= 57.5\ngini = 0.2778\nsamples = 6\nvalue = [5, 1]"] ;
855 -> 857 ;
858 [label="gini = 0.0\nsamples = 1\nvalue = [0, 1]"] ;
857 -> 858 ;
859 [label="gini = 0.0\nsamples = 5\nvalue = [5, 0]"] ;
857 -> 859 ;
860 [label="fnlwgt <= 191400.0\ngini = 0.5\nsamples = 2\nvalue = [1, 1]"] ;
854 -> 860 ;
861 [label="gini = 0.0\nsamples = 1\nvalue = [0, 1]"] ;
860 -> 861 ;
862 [label="gini = 0.0\nsamples = 1\nvalue = [1, 0]"] ;
860 -> 862 ;
863 [label="hours-per-week <= 44.5\ngini = 0.2449\nsamples = 7\nvalue = [6, 1]"] ;
851 -> 863 ;
864 [label="gini = 0.0\nsamples = 1\nvalue = [0, 1]"] ;
863 -> 864 ;
865 [label="gini = 0.0\nsamples = 6\nvalue = [6, 0]"] ;
863 -> 865 ;
866 [label="fnlwgt <= 392593.5\ngini = 0.5\nsamples = 2\nvalue = [1, 1]"] ;
850 -> 866 ;
867 [label="gini = 0.0\nsamples = 1\nvalue = [0, 1]"] ;
866 -> 867 ;
868 [label="gini = 0.0\nsamples = 1\nvalue = [1, 0]"] ;
866 -> 868 ;
869 [label="hours-per-week <= 56.5\ngini = 0.2188\nsamples = 96\nvalue = [84, 12]"] ;
849 -> 869 ;
870 [label="hours-per-week <= 55.5\ngini = 0.2747\nsamples = 73\nvalue = [61, 12]"] ;
869 -> 870 ;
871 [label="fnlwgt <= 103105.5\ngini = 0.2589\nsamples = 72\nvalue = [61, 11]"] ;
870 -> 871 ;
872 [label="gini = 0.0\nsamples = 18\nvalue = [18, 0]"] ;
871 -> 872 ;
873 [label="fnlwgt <= 209422.5\ngini = 0.3244\nsamples = 54\nvalue = [43, 11]"] ;
871 -> 873 ;
874 [label="fnlwgt <= 204193.0\ngini = 0.4297\nsamples = 32\nvalue = [22, 10]"] ;
873 -> 874 ;
875 [label="hours-per-week <= 49.0\ngini = 0.3911\nsamples = 30\nvalue = [22, 8]"] ;
874 -> 875 ;
876 [label="marital-status_Separated <= 0.5\ngini = 0.2076\nsamples = 17\nvalue = [15, 2]"] ;
875 -> 876 ;
877 [label="age <= 47.5\ngini = 0.1172\nsamples = 16\nvalue = [15, 1]"] ;
876 -> 877 ;
878 [label="workclass_Private <= 0.5\ngini = 0.5\nsamples = 2\nvalue = [1, 1]"] ;
877 -> 878 ;
879 [label="gini = 0.0\nsamples = 1\nvalue = [1, 0]"] ;
878 -> 879 ;
880 [label="gini = 0.0\nsamples = 1\nvalue = [0, 1]"] ;
878 -> 880 ;
881 [label="gini = 0.0\nsamples = 14\nvalue = [14, 0]"] ;
877 -> 881 ;
882 [label="gini = 0.0\nsamples = 1\nvalue = [0, 1]"] ;
876 -> 882 ;
883 [label="age <= 52.5\ngini = 0.497\nsamples = 13\nvalue = [7, 6]"] ;
875 -> 883 ;
884 [label="age <= 47.5\ngini = 0.2188\nsamples = 8\nvalue = [7, 1]"] ;
883 -> 884 ;
885 [label="gini = 0.0\nsamples = 1\nvalue = [0, 1]"] ;
884 -> 885 ;
886 [label="gini = 0.0\nsamples = 7\nvalue = [7, 0]"] ;
884 -> 886 ;
887 [label="gini = 0.0\nsamples = 5\nvalue = [0, 5]"] ;
883 -> 887 ;
888 [label="gini = 0.0\nsamples = 2\nvalue = [0, 2]"] ;
874 -> 888 ;
889 [label="marital-status_Never-married <= 0.5\ngini = 0.0868\nsamples = 22\nvalue = [21, 1]"] ;
873 -> 889 ;
890 [label="gini = 0.0\nsamples = 20\nvalue = [20, 0]"] ;
889 -> 890 ;
891 [label="age <= 52.5\ngini = 0.5\nsamples = 2\nvalue = [1, 1]"] ;
889 -> 891 ;
892 [label="gini = 0.0\nsamples = 1\nvalue = [1, 0]"] ;
891 -> 892 ;
893 [label="gini = 0.0\nsamples = 1\nvalue = [0, 1]"] ;
891 -> 893 ;
894 [label="gini = 0.0\nsamples = 1\nvalue = [0, 1]"] ;
870 -> 894 ;
895 [label="gini = 0.0\nsamples = 23\nvalue = [23, 0]"] ;
869 -> 895 ;
896 [label="gini = 0.0\nsamples = 1\nvalue = [0, 1]"] ;
848 -> 896 ;
897 [label="gini = 0.0\nsamples = 1\nvalue = [0, 1]"] ;
847 -> 897 ;
898 [label="marital-status_Divorced <= 0.5\ngini = 0.42\nsamples = 10\nvalue = [7, 3]"] ;
824 -> 898 ;
899 [label="gini = 0.0\nsamples = 2\nvalue = [0, 2]"] ;
898 -> 899 ;
900 [label="fnlwgt <= 129209.0\ngini = 0.2188\nsamples = 8\nvalue = [7, 1]"] ;
898 -> 900 ;
901 [label="gini = 0.0\nsamples = 1\nvalue = [0, 1]"] ;
900 -> 901 ;
902 [label="gini = 0.0\nsamples = 7\nvalue = [7, 0]"] ;
900 -> 902 ;
903 [label="gini = 0.0\nsamples = 1\nvalue = [0, 1]"] ;
823 -> 903 ;
904 [label="gini = 0.0\nsamples = 1\nvalue = [0, 1]"] ;
822 -> 904 ;
905 [label="fnlwgt <= 361071.0\ngini = 0.2529\nsamples = 458\nvalue = [390, 68]"] ;
821 -> 905 ;
906 [label="marital-status_Never-married <= 0.5\ngini = 0.2345\nsamples = 435\nvalue = [376, 59]"] ;
905 -> 906 ;
907 [label="occupation_Tech-support <= 0.5\ngini = 0.2828\nsamples = 311\nvalue = [258, 53]"] ;
906 -> 907 ;
908 [label="education-num <= 9.5\ngini = 0.2727\nsamples = 307\nvalue = [257, 50]"] ;
907 -> 908 ;
909 [label="fnlwgt <= 26943.0\ngini = 0.1995\nsamples = 178\nvalue = [158, 20]"] ;
908 -> 909 ;
910 [label="education_HS-grad <= 0.5\ngini = 0.4444\nsamples = 3\nvalue = [1, 2]"] ;
909 -> 910 ;
911 [label="gini = 0.0\nsamples = 1\nvalue = [1, 0]"] ;
910 -> 911 ;
912 [label="gini = 0.0\nsamples = 2\nvalue = [0, 2]"] ;
910 -> 912 ;
913 [label="age <= 51.5\ngini = 0.1846\nsamples = 175\nvalue = [157, 18]"] ;
909 -> 913 ;
914 [label="fnlwgt <= 321184.5\ngini = 0.0899\nsamples = 106\nvalue = [101, 5]"] ;
913 -> 914 ;
915 [label="education_12th <= 0.5\ngini = 0.0594\nsamples = 98\nvalue = [95, 3]"] ;
914 -> 915 ;
916 [label="occupation_Sales <= 0.5\ngini = 0.0412\nsamples = 95\nvalue = [93, 2]"] ;
915 -> 916 ;
917 [label="gini = 0.0\nsamples = 81\nvalue = [81, 0]"] ;
916 -> 917 ;
918 [label="age <= 40.5\ngini = 0.2449\nsamples = 14\nvalue = [12, 2]"] ;
916 -> 918 ;
919 [label="gini = 0.0\nsamples = 1\nvalue = [0, 1]"] ;
918 -> 919 ;
920 [label="workclass_Self-emp-not-inc <= 0.5\ngini = 0.142\nsamples = 13\nvalue = [12, 1]"] ;
918 -> 920 ;
921 [label="gini = 0.0\nsamples = 9\nvalue = [9, 0]"] ;
920 -> 921 ;
922 [label="age <= 46.5\ngini = 0.375\nsamples = 4\nvalue = [3, 1]"] ;
920 -> 922 ;
923 [label="gini = 0.0\nsamples = 3\nvalue = [3, 0]"] ;
922 -> 923 ;
924 [label="gini = 0.0\nsamples = 1\nvalue = [0, 1]"] ;
922 -> 924 ;
925 [label="fnlwgt <= 48655.0\ngini = 0.4444\nsamples = 3\nvalue = [2, 1]"] ;
915 -> 925 ;
926 [label="gini = 0.0\nsamples = 1\nvalue = [0, 1]"] ;
925 -> 926 ;
927 [label="gini = 0.0\nsamples = 2\nvalue = [2, 0]"] ;
925 -> 927 ;
928 [label="fnlwgt <= 322823.0\ngini = 0.375\nsamples = 8\nvalue = [6, 2]"] ;
914 -> 928 ;
929 [label="gini = 0.0\nsamples = 1\nvalue = [0, 1]"] ;
928 -> 929 ;
930 [label="occupation_Exec-managerial <= 0.5\ngini = 0.2449\nsamples = 7\nvalue = [6, 1]"] ;
928 -> 930 ;
931 [label="gini = 0.0\nsamples = 6\nvalue = [6, 0]"] ;
930 -> 931 ;
932 [label="gini = 0.0\nsamples = 1\nvalue = [0, 1]"] ;
930 -> 932 ;
933 [label="relationship_Not-in-family <= 0.5\ngini = 0.3058\nsamples = 69\nvalue = [56, 13]"] ;
913 -> 933 ;
934 [label="fnlwgt <= 191470.0\ngini = 0.4753\nsamples = 18\nvalue = [11, 7]"] ;
933 -> 934 ;
935 [label="education-num <= 5.5\ngini = 0.4628\nsamples = 11\nvalue = [4, 7]"] ;
934 -> 935 ;
936 [label="gini = 0.0\nsamples = 3\nvalue = [3, 0]"] ;
935 -> 936 ;
937 [label="age <= 76.5\ngini = 0.2188\nsamples = 8\nvalue = [1, 7]"] ;
935 -> 937 ;
938 [label="gini = 0.0\nsamples = 7\nvalue = [0, 7]"] ;
937 -> 938 ;
939 [label="gini = 0.0\nsamples = 1\nvalue = [1, 0]"] ;
937 -> 939 ;
940 [label="gini = 0.0\nsamples = 7\nvalue = [7, 0]"] ;
934 -> 940 ;
941 [label="occupation_? <= 0.5\ngini = 0.2076\nsamples = 51\nvalue = [45, 6]"] ;
933 -> 941 ;
942 [label="workclass_Self-emp-inc <= 0.5\ngini = 0.18\nsamples = 50\nvalue = [45, 5]"] ;
941 -> 942 ;
943 [label="hours-per-week <= 53.5\ngini = 0.1271\nsamples = 44\nvalue = [41, 3]"] ;
942 -> 943 ;
944 [label="gini = 0.0\nsamples = 23\nvalue = [23, 0]"] ;
943 -> 944 ;
945 [label="hours-per-week <= 62.5\ngini = 0.2449\nsamples = 21\nvalue = [18, 3]"] ;
943 -> 945 ;
946 [label="age <= 58.0\ngini = 0.42\nsamples = 10\nvalue = [7, 3]"] ;
945 -> 946 ;
947 [label="fnlwgt <= 177897.5\ngini = 0.48\nsamples = 5\nvalue = [2, 3]"] ;
946 -> 947 ;
948 [label="gini = 0.0\nsamples = 3\nvalue = [0, 3]"] ;
947 -> 948 ;
949 [label="gini = 0.0\nsamples = 2\nvalue = [2, 0]"] ;
947 -> 949 ;
950 [label="gini = 0.0\nsamples = 5\nvalue = [5, 0]"] ;
946 -> 950 ;
951 [label="gini = 0.0\nsamples = 11\nvalue = [11, 0]"] ;
945 -> 951 ;
952 [label="marital-status_Divorced <= 0.5\ngini = 0.4444\nsamples = 6\nvalue = [4, 2]"] ;
942 -> 952 ;
953 [label="gini = 0.0\nsamples = 2\nvalue = [0, 2]"] ;
952 -> 953 ;
954 [label="gini = 0.0\nsamples = 4\nvalue = [4, 0]"] ;
952 -> 954 ;
955 [label="gini = 0.0\nsamples = 1\nvalue = [0, 1]"] ;
941 -> 955 ;
956 [label="hours-per-week <= 45.5\ngini = 0.3569\nsamples = 129\nvalue = [99, 30]"] ;
908 -> 956 ;
957 [label="occupation_Exec-managerial <= 0.5\ngini = 0.1884\nsamples = 38\nvalue = [34, 4]"] ;
956 -> 957 ;
958 [label="fnlwgt <= 339936.0\ngini = 0.1172\nsamples = 32\nvalue = [30, 2]"] ;
957 -> 958 ;
959 [label="age <= 59.0\ngini = 0.0624\nsamples = 31\nvalue = [30, 1]"] ;
958 -> 959 ;
960 [label="gini = 0.0\nsamples = 28\nvalue = [28, 0]"] ;
959 -> 960 ;
961 [label="relationship_Own-child <= 0.5\ngini = 0.4444\nsamples = 3\nvalue = [2, 1]"] ;
959 -> 961 ;
962 [label="gini = 0.0\nsamples = 2\nvalue = [2, 0]"] ;
961 -> 962 ;
963 [label="gini = 0.0\nsamples = 1\nvalue = [0, 1]"] ;
961 -> 963 ;
964 [label="gini = 0.0\nsamples = 1\nvalue = [0, 1]"] ;
958 -> 964 ;
965 [label="education-num <= 10.5\ngini = 0.4444\nsamples = 6\nvalue = [4, 2]"] ;
957 -> 965 ;
966 [label="marital-status_Separated <= 0.5\ngini = 0.32\nsamples = 5\nvalue = [4, 1]"] ;
965 -> 966 ;
967 [label="gini = 0.0\nsamples = 3\nvalue = [3, 0]"] ;
966 -> 967 ;
968 [label="native-country_United-States <= 0.5\ngini = 0.5\nsamples = 2\nvalue = [1, 1]"] ;
966 -> 968 ;
969 [label="gini = 0.0\nsamples = 1\nvalue = [1, 0]"] ;
968 -> 969 ;
970 [label="gini = 0.0\nsamples = 1\nvalue = [0, 1]"] ;
968 -> 970 ;
971 [label="gini = 0.0\nsamples = 1\nvalue = [0, 1]"] ;
965 -> 971 ;
972 [label="hours-per-week <= 49.0\ngini = 0.4082\nsamples = 91\nvalue = [65, 26]"] ;
956 -> 972 ;
973 [label="fnlwgt <= 203728.5\ngini = 0.4978\nsamples = 15\nvalue = [7, 8]"] ;
972 -> 973 ;
974 [label="fnlwgt <= 102092.0\ngini = 0.4628\nsamples = 11\nvalue = [7, 4]"] ;
973 -> 974 ;
975 [label="gini = 0.0\nsamples = 2\nvalue = [0, 2]"] ;
974 -> 975 ;
976 [label="occupation_Craft-repair <= 0.5\ngini = 0.3457\nsamples = 9\nvalue = [7, 2]"] ;
974 -> 976 ;
977 [label="gini = 0.0\nsamples = 6\nvalue = [6, 0]"] ;
976 -> 977 ;
978 [label="age <= 56.5\ngini = 0.4444\nsamples = 3\nvalue = [1, 2]"] ;
976 -> 978 ;
979 [label="gini = 0.0\nsamples = 2\nvalue = [0, 2]"] ;
978 -> 979 ;
980 [label="gini = 0.0\nsamples = 1\nvalue = [1, 0]"] ;
978 -> 980 ;
981 [label="gini = 0.0\nsamples = 4\nvalue = [0, 4]"] ;
973 -> 981 ;
982 [label="age <= 43.5\ngini = 0.3615\nsamples = 76\nvalue = [58, 18]"] ;
972 -> 982 ;
983 [label="fnlwgt <= 101486.0\ngini = 0.48\nsamples = 25\nvalue = [15, 10]"] ;
982 -> 983 ;
984 [label="occupation_Sales <= 0.5\ngini = 0.2778\nsamples = 6\nvalue = [1, 5]"] ;
983 -> 984 ;
985 [label="gini = 0.0\nsamples = 5\nvalue = [0, 5]"] ;
984 -> 985 ;
986 [label="gini = 0.0\nsamples = 1\nvalue = [1, 0]"] ;
984 -> 986 ;
987 [label="age <= 41.5\ngini = 0.3878\nsamples = 19\nvalue = [14, 5]"] ;
983 -> 987 ;
988 [label="native-country_United-States <= 0.5\ngini = 0.3047\nsamples = 16\nvalue = [13, 3]"] ;
987 -> 988 ;
989 [label="gini = 0.0\nsamples = 1\nvalue = [0, 1]"] ;
988 -> 989 ;
990 [label="relationship_Unmarried <= 0.5\ngini = 0.2311\nsamples = 15\nvalue = [13, 2]"] ;
988 -> 990 ;
991 [label="marital-status_Separated <= 0.5\ngini = 0.1327\nsamples = 14\nvalue = [13, 1]"] ;
990 -> 991 ;
992 [label="gini = 0.0\nsamples = 12\nvalue = [12, 0]"] ;
991 -> 992 ;
993 [label="workclass_Private <= 0.5\ngini = 0.5\nsamples = 2\nvalue = [1, 1]"] ;
991 -> 993 ;
994 [label="gini = 0.0\nsamples = 1\nvalue = [1, 0]"] ;
993 -> 994 ;
995 [label="gini = 0.0\nsamples = 1\nvalue = [0, 1]"] ;
993 -> 995 ;
996 [label="gini = 0.0\nsamples = 1\nvalue = [0, 1]"] ;
990 -> 996 ;
997 [label="native-country_United-States <= 0.5\ngini = 0.4444\nsamples = 3\nvalue = [1, 2]"] ;
987 -> 997 ;
998 [label="gini = 0.0\nsamples = 1\nvalue = [1, 0]"] ;
997 -> 998 ;
999 [label="gini = 0.0\nsamples = 2\nvalue = [0, 2]"] ;
997 -> 999 ;
1000 [label="workclass_Federal-gov <= 0.5\ngini = 0.2645\nsamples = 51\nvalue = [43, 8]"] ;
982 -> 1000 ;
1001 [label="age <= 58.5\ngini = 0.2408\nsamples = 50\nvalue = [43, 7]"] ;
1000 -> 1001 ;
1002 [label="relationship_Unmarried <= 0.5\ngini = 0.1975\nsamples = 45\nvalue = [40, 5]"] ;
1001 -> 1002 ;
1003 [label="workclass_Local-gov <= 0.5\ngini = 0.1078\nsamples = 35\nvalue = [33, 2]"] ;
1002 -> 1003 ;
1004 [label="fnlwgt <= 184052.5\ngini = 0.0588\nsamples = 33\nvalue = [32, 1]"] ;
1003 -> 1004 ;
1005 [label="gini = 0.0\nsamples = 24\nvalue = [24, 0]"] ;
1004 -> 1005 ;
1006 [label="fnlwgt <= 191566.5\ngini = 0.1975\nsamples = 9\nvalue = [8, 1]"] ;
1004 -> 1006 ;
1007 [label="gini = 0.0\nsamples = 1\nvalue = [0, 1]"] ;
1006 -> 1007 ;
1008 [label="gini = 0.0\nsamples = 8\nvalue = [8, 0]"] ;
1006 -> 1008 ;
1009 [label="age <= 45.5\ngini = 0.5\nsamples = 2\nvalue = [1, 1]"] ;
1003 -> 1009 ;
1010 [label="gini = 0.0\nsamples = 1\nvalue = [1, 0]"] ;
1009 -> 1010 ;
1011 [label="gini = 0.0\nsamples = 1\nvalue = [0, 1]"] ;
1009 -> 1011 ;
1012 [label="fnlwgt <= 218481.5\ngini = 0.42\nsamples = 10\nvalue = [7, 3]"] ;
1002 -> 1012 ;
1013 [label="occupation_Machine-op-inspct <= 0.5\ngini = 0.3457\nsamples = 9\nvalue = [7, 2]"] ;
1012 -> 1013 ;
1014 [label="fnlwgt <= 124036.5\ngini = 0.2188\nsamples = 8\nvalue = [7, 1]"] ;
1013 -> 1014 ;
1015 [label="occupation_Sales <= 0.5\ngini = 0.4444\nsamples = 3\nvalue = [2, 1]"] ;
1014 -> 1015 ;
1016 [label="gini = 0.0\nsamples = 2\nvalue = [2, 0]"] ;
1015 -> 1016 ;
1017 [label="gini = 0.0\nsamples = 1\nvalue = [0, 1]"] ;
1015 -> 1017 ;
1018 [label="gini = 0.0\nsamples = 5\nvalue = [5, 0]"] ;
1014 -> 1018 ;
1019 [label="gini = 0.0\nsamples = 1\nvalue = [0, 1]"] ;
1013 -> 1019 ;
1020 [label="gini = 0.0\nsamples = 1\nvalue = [0, 1]"] ;
1012 -> 1020 ;
1021 [label="age <= 61.5\ngini = 0.48\nsamples = 5\nvalue = [3, 2]"] ;
1001 -> 1021 ;
1022 [label="fnlwgt <= 151731.0\ngini = 0.4444\nsamples = 3\nvalue = [1, 2]"] ;
1021 -> 1022 ;
1023 [label="gini = 0.0\nsamples = 2\nvalue = [0, 2]"] ;
1022 -> 1023 ;
1024 [label="gini = 0.0\nsamples = 1\nvalue = [1, 0]"] ;
1022 -> 1024 ;
1025 [label="gini = 0.0\nsamples = 2\nvalue = [2, 0]"] ;
1021 -> 1025 ;
1026 [label="gini = 0.0\nsamples = 1\nvalue = [0, 1]"] ;
1000 -> 1026 ;
1027 [label="education-num <= 9.5\ngini = 0.375\nsamples = 4\nvalue = [1, 3]"] ;
907 -> 1027 ;
1028 [label="gini = 0.0\nsamples = 3\nvalue = [0, 3]"] ;
1027 -> 1028 ;
1029 [label="gini = 0.0\nsamples = 1\nvalue = [1, 0]"] ;
1027 -> 1029 ;
1030 [label="capital-loss <= 1534.0\ngini = 0.0921\nsamples = 124\nvalue = [118, 6]"] ;
906 -> 1030 ;
1031 [label="age <= 59.5\ngini = 0.065\nsamples = 119\nvalue = [115, 4]"] ;
1030 -> 1031 ;
1032 [label="occupation_Adm-clerical <= 0.5\ngini = 0.0517\nsamples = 113\nvalue = [110, 3]"] ;
1031 -> 1032 ;
1033 [label="fnlwgt <= 183920.0\ngini = 0.0374\nsamples = 105\nvalue = [103, 2]"] ;
1032 -> 1033 ;
1034 [label="gini = 0.0\nsamples = 66\nvalue = [66, 0]"] ;
1033 -> 1034 ;
1035 [label="fnlwgt <= 188732.0\ngini = 0.0973\nsamples = 39\nvalue = [37, 2]"] ;
1033 -> 1035 ;
1036 [label="capital-gain <= 1087.0\ngini = 0.5\nsamples = 2\nvalue = [1, 1]"] ;
1035 -> 1036 ;
1037 [label="gini = 0.0\nsamples = 1\nvalue = [0, 1]"] ;
1036 -> 1037 ;
1038 [label="gini = 0.0\nsamples = 1\nvalue = [1, 0]"] ;
1036 -> 1038 ;
1039 [label="occupation_Sales <= 0.5\ngini = 0.0526\nsamples = 37\nvalue = [36, 1]"] ;
1035 -> 1039 ;
1040 [label="gini = 0.0\nsamples = 33\nvalue = [33, 0]"] ;
1039 -> 1040 ;
1041 [label="fnlwgt <= 250791.5\ngini = 0.375\nsamples = 4\nvalue = [3, 1]"] ;
1039 -> 1041 ;
1042 [label="gini = 0.0\nsamples = 3\nvalue = [3, 0]"] ;
1041 -> 1042 ;
1043 [label="gini = 0.0\nsamples = 1\nvalue = [0, 1]"] ;
1041 -> 1043 ;
1044 [label="fnlwgt <= 170496.0\ngini = 0.2188\nsamples = 8\nvalue = [7, 1]"] ;
1032 -> 1044 ;
1045 [label="education-num <= 9.5\ngini = 0.5\nsamples = 2\nvalue = [1, 1]"] ;
1044 -> 1045 ;
1046 [label="gini = 0.0\nsamples = 1\nvalue = [1, 0]"] ;
1045 -> 1046 ;
1047 [label="gini = 0.0\nsamples = 1\nvalue = [0, 1]"] ;
1045 -> 1047 ;
1048 [label="gini = 0.0\nsamples = 6\nvalue = [6, 0]"] ;
1044 -> 1048 ;
1049 [label="fnlwgt <= 51439.0\ngini = 0.2778\nsamples = 6\nvalue = [5, 1]"] ;
1031 -> 1049 ;
1050 [label="gini = 0.0\nsamples = 1\nvalue = [0, 1]"] ;
1049 -> 1050 ;
1051 [label="gini = 0.0\nsamples = 5\nvalue = [5, 0]"] ;
1049 -> 1051 ;
1052 [label="age <= 45.0\ngini = 0.48\nsamples = 5\nvalue = [3, 2]"] ;
1030 -> 1052 ;
1053 [label="gini = 0.0\nsamples = 2\nvalue = [0, 2]"] ;
1052 -> 1053 ;
1054 [label="gini = 0.0\nsamples = 3\nvalue = [3, 0]"] ;
1052 -> 1054 ;
1055 [label="education_Some-college <= 0.5\ngini = 0.4764\nsamples = 23\nvalue = [14, 9]"] ;
905 -> 1055 ;
1056 [label="occupation_Prof-specialty <= 0.5\ngini = 0.32\nsamples = 15\nvalue = [12, 3]"] ;
1055 -> 1056 ;
1057 [label="age <= 53.0\ngini = 0.2449\nsamples = 14\nvalue = [12, 2]"] ;
1056 -> 1057 ;
1058 [label="fnlwgt <= 365071.5\ngini = 0.142\nsamples = 13\nvalue = [12, 1]"] ;
1057 -> 1058 ;
1059 [label="gini = 0.0\nsamples = 1\nvalue = [0, 1]"] ;
1058 -> 1059 ;
1060 [label="gini = 0.0\nsamples = 12\nvalue = [12, 0]"] ;
1058 -> 1060 ;
1061 [label="gini = 0.0\nsamples = 1\nvalue = [0, 1]"] ;
1057 -> 1061 ;
1062 [label="gini = 0.0\nsamples = 1\nvalue = [0, 1]"] ;
1056 -> 1062 ;
1063 [label="fnlwgt <= 420118.0\ngini = 0.375\nsamples = 8\nvalue = [2, 6]"] ;
1055 -> 1063 ;
1064 [label="gini = 0.0\nsamples = 5\nvalue = [0, 5]"] ;
1063 -> 1064 ;
1065 [label="fnlwgt <= 449989.0\ngini = 0.4444\nsamples = 3\nvalue = [2, 1]"] ;
1063 -> 1065 ;
1066 [label="gini = 0.0\nsamples = 2\nvalue = [2, 0]"] ;
1065 -> 1066 ;
1067 [label="gini = 0.0\nsamples = 1\nvalue = [0, 1]"] ;
1065 -> 1067 ;
1068 [label="capital-gain <= 5194.5\ngini = 0.4938\nsamples = 9\nvalue = [4, 5]"] ;
820 -> 1068 ;
1069 [label="age <= 54.0\ngini = 0.2778\nsamples = 6\nvalue = [1, 5]"] ;
1068 -> 1069 ;
1070 [label="gini = 0.0\nsamples = 5\nvalue = [0, 5]"] ;
1069 -> 1070 ;
1071 [label="gini = 0.0\nsamples = 1\nvalue = [1, 0]"] ;
1069 -> 1071 ;
1072 [label="gini = 0.0\nsamples = 3\nvalue = [3, 0]"] ;
1068 -> 1072 ;
1073 [label="fnlwgt <= 125450.5\ngini = 0.4986\nsamples = 57\nvalue = [30, 27]"] ;
3 -> 1073 ;
1074 [label="age <= 60.0\ngini = 0.3457\nsamples = 18\nvalue = [4, 14]"] ;
1073 -> 1074 ;
1075 [label="occupation_Sales <= 0.5\ngini = 0.1244\nsamples = 15\nvalue = [1, 14]"] ;
1074 -> 1075 ;
1076 [label="gini = 0.0\nsamples = 14\nvalue = [0, 14]"] ;
1075 -> 1076 ;
1077 [label="gini = 0.0\nsamples = 1\nvalue = [1, 0]"] ;
1075 -> 1077 ;
1078 [label="gini = 0.0\nsamples = 3\nvalue = [3, 0]"] ;
1074 -> 1078 ;
1079 [label="capital-loss <= 2391.5\ngini = 0.4444\nsamples = 39\nvalue = [26, 13]"] ;
1073 -> 1079 ;
1080 [label="education_Assoc-acdm <= 0.5\ngini = 0.2873\nsamples = 23\nvalue = [19, 4]"] ;
1079 -> 1080 ;
1081 [label="workclass_Private <= 0.5\ngini = 0.2355\nsamples = 22\nvalue = [19, 3]"] ;
1080 -> 1081 ;
1082 [label="gini = 0.0\nsamples = 10\nvalue = [10, 0]"] ;
1081 -> 1082 ;
1083 [label="relationship_Own-child <= 0.5\ngini = 0.375\nsamples = 12\nvalue = [9, 3]"] ;
1081 -> 1083 ;
1084 [label="occupation_Farming-fishing <= 0.5\ngini = 0.2975\nsamples = 11\nvalue = [9, 2]"] ;
1083 -> 1084 ;
1085 [label="occupation_Exec-managerial <= 0.5\ngini = 0.18\nsamples = 10\nvalue = [9, 1]"] ;
1084 -> 1085 ;
1086 [label="gini = 0.0\nsamples = 8\nvalue = [8, 0]"] ;
1085 -> 1086 ;
1087 [label="marital-status_Never-married <= 0.5\ngini = 0.5\nsamples = 2\nvalue = [1, 1]"] ;
1085 -> 1087 ;
1088 [label="gini = 0.0\nsamples = 1\nvalue = [0, 1]"] ;
1087 -> 1088 ;
1089 [label="gini = 0.0\nsamples = 1\nvalue = [1, 0]"] ;
1087 -> 1089 ;
1090 [label="gini = 0.0\nsamples = 1\nvalue = [0, 1]"] ;
1084 -> 1090 ;
1091 [label="gini = 0.0\nsamples = 1\nvalue = [0, 1]"] ;
1083 -> 1091 ;
1092 [label="gini = 0.0\nsamples = 1\nvalue = [0, 1]"] ;
1080 -> 1092 ;
1093 [label="capital-loss <= 3253.5\ngini = 0.4922\nsamples = 16\nvalue = [7, 9]"] ;
1079 -> 1093 ;
1094 [label="gini = 0.0\nsamples = 9\nvalue = [0, 9]"] ;
1093 -> 1094 ;
1095 [label="gini = 0.0\nsamples = 7\nvalue = [7, 0]"] ;
1093 -> 1095 ;
1096 [label="hours-per-week <= 43.5\ngini = 0.2531\nsamples = 3410\nvalue = [2903, 507]"] ;
2 -> 1096 ;
1097 [label="age <= 33.5\ngini = 0.1608\nsamples = 2302\nvalue = [2099, 203]"] ;
1096 -> 1097 ;
1098 [label="marital-status_Married-AF-spouse <= 0.5\ngini = 0.0463\nsamples = 1181\nvalue = [1153, 28]"] ;
1097 -> 1098 ;
1099 [label="capital-loss <= 2116.0\ngini = 0.0431\nsamples = 1179\nvalue = [1153, 26]"] ;
1098 -> 1099 ;
1100 [label="age <= 29.5\ngini = 0.04\nsamples = 1175\nvalue = [1151, 24]"] ;
1099 -> 1100 ;
1101 [label="marital-status_Separated <= 0.5\ngini = 0.0213\nsamples = 929\nvalue = [919, 10]"] ;
1100 -> 1101 ;
1102 [label="fnlwgt <= 41011.0\ngini = 0.0193\nsamples = 924\nvalue = [915, 9]"] ;
1101 -> 1102 ;
1103 [label="occupation_Craft-repair <= 0.5\ngini = 0.0973\nsamples = 39\nvalue = [37, 2]"] ;
1102 -> 1103 ;
1104 [label="fnlwgt <= 40713.5\ngini = 0.0512\nsamples = 38\nvalue = [37, 1]"] ;
1103 -> 1104 ;
1105 [label="gini = 0.0\nsamples = 36\nvalue = [36, 0]"] ;
1104 -> 1105 ;
1106 [label="hours-per-week <= 32.5\ngini = 0.5\nsamples = 2\nvalue = [1, 1]"] ;
1104 -> 1106 ;
1107 [label="gini = 0.0\nsamples = 1\nvalue = [1, 0]"] ;
1106 -> 1107 ;
1108 [label="gini = 0.0\nsamples = 1\nvalue = [0, 1]"] ;
1106 -> 1108 ;
1109 [label="gini = 0.0\nsamples = 1\nvalue = [0, 1]"] ;
1103 -> 1109 ;
1110 [label="capital-loss <= 1486.0\ngini = 0.0157\nsamples = 885\nvalue = [878, 7]"] ;
1102 -> 1110 ;
1111 [label="education_Masters <= 0.5\ngini = 0.0137\nsamples = 870\nvalue = [864, 6]"] ;
1110 -> 1111 ;
1112 [label="relationship_Unmarried <= 0.5\ngini = 0.0101\nsamples = 791\nvalue = [787, 4]"] ;
1111 -> 1112 ;
1113 [label="occupation_Adm-clerical <= 0.5\ngini = 0.0078\nsamples = 764\nvalue = [761, 3]"] ;
1112 -> 1113 ;
1114 [label="fnlwgt <= 323996.5\ngini = 0.0033\nsamples = 612\nvalue = [611, 1]"] ;
1113 -> 1114 ;
1115 [label="gini = 0.0\nsamples = 537\nvalue = [537, 0]"] ;
1114 -> 1115 ;
1116 [label="fnlwgt <= 325594.0\ngini = 0.0263\nsamples = 75\nvalue = [74, 1]"] ;
1114 -> 1116 ;
1117 [label="gini = 0.0\nsamples = 1\nvalue = [0, 1]"] ;
1116 -> 1117 ;
1118 [label="gini = 0.0\nsamples = 74\nvalue = [74, 0]"] ;
1116 -> 1118 ;
1119 [label="age <= 24.5\ngini = 0.026\nsamples = 152\nvalue = [150, 2]"] ;
1113 -> 1119 ;
1120 [label="gini = 0.0\nsamples = 69\nvalue = [69, 0]"] ;
1119 -> 1120 ;
1121 [label="age <= 26.5\ngini = 0.047\nsamples = 83\nvalue = [81, 2]"] ;
1119 -> 1121 ;
1122 [label="fnlwgt <= 211774.5\ngini = 0.0887\nsamples = 43\nvalue = [41, 2]"] ;
1121 -> 1122 ;
1123 [label="fnlwgt <= 198928.0\ngini = 0.1472\nsamples = 25\nvalue = [23, 2]"] ;
1122 -> 1123 ;
1124 [label="fnlwgt <= 172959.5\ngini = 0.0799\nsamples = 24\nvalue = [23, 1]"] ;
1123 -> 1124 ;
1125 [label="gini = 0.0\nsamples = 17\nvalue = [17, 0]"] ;
1124 -> 1125 ;
1126 [label="fnlwgt <= 177636.5\ngini = 0.2449\nsamples = 7\nvalue = [6, 1]"] ;
1124 -> 1126 ;
1127 [label="gini = 0.0\nsamples = 1\nvalue = [0, 1]"] ;
1126 -> 1127 ;
1128 [label="gini = 0.0\nsamples = 6\nvalue = [6, 0]"] ;
1126 -> 1128 ;
1129 [label="gini = 0.0\nsamples = 1\nvalue = [0, 1]"] ;
1123 -> 1129 ;
1130 [label="gini = 0.0\nsamples = 18\nvalue = [18, 0]"] ;
1122 -> 1130 ;
1131 [label="gini = 0.0\nsamples = 40\nvalue = [40, 0]"] ;
1121 -> 1131 ;
1132 [label="occupation_Exec-managerial <= 0.5\ngini = 0.0713\nsamples = 27\nvalue = [26, 1]"] ;
1112 -> 1132 ;
1133 [label="gini = 0.0\nsamples = 22\nvalue = [22, 0]"] ;
1132 -> 1133 ;
1134 [label="age <= 23.5\ngini = 0.32\nsamples = 5\nvalue = [4, 1]"] ;
1132 -> 1134 ;
1135 [label="gini = 0.0\nsamples = 4\nvalue = [4, 0]"] ;
1134 -> 1135 ;
1136 [label="gini = 0.0\nsamples = 1\nvalue = [0, 1]"] ;
1134 -> 1136 ;
1137 [label="fnlwgt <= 345340.0\ngini = 0.0494\nsamples = 79\nvalue = [77, 2]"] ;
1111 -> 1137 ;
1138 [label="relationship_Own-child <= 0.5\ngini = 0.0263\nsamples = 75\nvalue = [74, 1]"] ;
1137 -> 1138 ;
1139 [label="gini = 0.0\nsamples = 50\nvalue = [50, 0]"] ;
1138 -> 1139 ;
1140 [label="fnlwgt <= 188084.5\ngini = 0.0768\nsamples = 25\nvalue = [24, 1]"] ;
1138 -> 1140 ;
1141 [label="fnlwgt <= 182947.5\ngini = 0.1653\nsamples = 11\nvalue = [10, 1]"] ;
1140 -> 1141 ;
1142 [label="gini = 0.0\nsamples = 10\nvalue = [10, 0]"] ;
1141 -> 1142 ;
1143 [label="gini = 0.0\nsamples = 1\nvalue = [0, 1]"] ;
1141 -> 1143 ;
1144 [label="gini = 0.0\nsamples = 14\nvalue = [14, 0]"] ;
1140 -> 1144 ;
1145 [label="fnlwgt <= 373063.0\ngini = 0.375\nsamples = 4\nvalue = [3, 1]"] ;
1137 -> 1145 ;
1146 [label="gini = 0.0\nsamples = 1\nvalue = [0, 1]"] ;
1145 -> 1146 ;
1147 [label="gini = 0.0\nsamples = 3\nvalue = [3, 0]"] ;
1145 -> 1147 ;
1148 [label="capital-loss <= 1577.0\ngini = 0.1244\nsamples = 15\nvalue = [14, 1]"] ;
1110 -> 1148 ;
1149 [label="gini = 0.0\nsamples = 1\nvalue = [0, 1]"] ;
1148 -> 1149 ;
1150 [label="gini = 0.0\nsamples = 14\nvalue = [14, 0]"] ;
1148 -> 1150 ;
1151 [label="race_White <= 0.5\ngini = 0.32\nsamples = 5\nvalue = [4, 1]"] ;
1101 -> 1151 ;
1152 [label="gini = 0.0\nsamples = 1\nvalue = [0, 1]"] ;
1151 -> 1152 ;
1153 [label="gini = 0.0\nsamples = 4\nvalue = [4, 0]"] ;
1151 -> 1153 ;
1154 [label="sex_Male <= 0.5\ngini = 0.1073\nsamples = 246\nvalue = [232, 14]"] ;
1100 -> 1154 ;
1155 [label="occupation_Tech-support <= 0.5\ngini = 0.0161\nsamples = 123\nvalue = [122, 1]"] ;
1154 -> 1155 ;
1156 [label="gini = 0.0\nsamples = 115\nvalue = [115, 0]"] ;
1155 -> 1156 ;
1157 [label="fnlwgt <= 171021.5\ngini = 0.2188\nsamples = 8\nvalue = [7, 1]"] ;
1155 -> 1157 ;
1158 [label="race_White <= 0.5\ngini = 0.5\nsamples = 2\nvalue = [1, 1]"] ;
1157 -> 1158 ;
1159 [label="gini = 0.0\nsamples = 1\nvalue = [1, 0]"] ;
1158 -> 1159 ;
1160 [label="gini = 0.0\nsamples = 1\nvalue = [0, 1]"] ;
1158 -> 1160 ;
1161 [label="gini = 0.0\nsamples = 6\nvalue = [6, 0]"] ;
1157 -> 1161 ;
1162 [label="occupation_Sales <= 0.5\ngini = 0.189\nsamples = 123\nvalue = [110, 13]"] ;
1154 -> 1162 ;
1163 [label="education-num <= 14.5\ngini = 0.1515\nsamples = 109\nvalue = [100, 9]"] ;
1162 -> 1163 ;
1164 [label="fnlwgt <= 138993.5\ngini = 0.1128\nsamples = 100\nvalue = [94, 6]"] ;
1163 -> 1164 ;
1165 [label="fnlwgt <= 134457.0\ngini = 0.213\nsamples = 33\nvalue = [29, 4]"] ;
1164 -> 1165 ;
1166 [label="workclass_Federal-gov <= 0.5\ngini = 0.1699\nsamples = 32\nvalue = [29, 3]"] ;
1165 -> 1166 ;
1167 [label="age <= 31.5\ngini = 0.1244\nsamples = 30\nvalue = [28, 2]"] ;
1166 -> 1167 ;
1168 [label="gini = 0.0\nsamples = 17\nvalue = [17, 0]"] ;
1167 -> 1168 ;
1169 [label="fnlwgt <= 90161.0\ngini = 0.2604\nsamples = 13\nvalue = [11, 2]"] ;
1167 -> 1169 ;
1170 [label="gini = 0.0\nsamples = 6\nvalue = [6, 0]"] ;
1169 -> 1170 ;
1171 [label="occupation_Exec-managerial <= 0.5\ngini = 0.4082\nsamples = 7\nvalue = [5, 2]"] ;
1169 -> 1171 ;
1172 [label="occupation_Prof-specialty <= 0.5\ngini = 0.2778\nsamples = 6\nvalue = [5, 1]"] ;
1171 -> 1172 ;
1173 [label="gini = 0.0\nsamples = 4\nvalue = [4, 0]"] ;
1172 -> 1173 ;
1174 [label="relationship_Own-child <= 0.5\ngini = 0.5\nsamples = 2\nvalue = [1, 1]"] ;
1172 -> 1174 ;
1175 [label="gini = 0.0\nsamples = 1\nvalue = [0, 1]"] ;
1174 -> 1175 ;
1176 [label="gini = 0.0\nsamples = 1\nvalue = [1, 0]"] ;
1174 -> 1176 ;
1177 [label="gini = 0.0\nsamples = 1\nvalue = [0, 1]"] ;
1171 -> 1177 ;
1178 [label="occupation_Prof-specialty <= 0.5\ngini = 0.5\nsamples = 2\nvalue = [1, 1]"] ;
1166 -> 1178 ;
1179 [label="gini = 0.0\nsamples = 1\nvalue = [1, 0]"] ;
1178 -> 1179 ;
1180 [label="gini = 0.0\nsamples = 1\nvalue = [0, 1]"] ;
1178 -> 1180 ;
1181 [label="gini = 0.0\nsamples = 1\nvalue = [0, 1]"] ;
1165 -> 1181 ;
1182 [label="marital-status_Divorced <= 0.5\ngini = 0.0579\nsamples = 67\nvalue = [65, 2]"] ;
1164 -> 1182 ;
1183 [label="capital-loss <= 1486.0\ngini = 0.0298\nsamples = 66\nvalue = [65, 1]"] ;
1182 -> 1183 ;
1184 [label="gini = 0.0\nsamples = 62\nvalue = [62, 0]"] ;
1183 -> 1184 ;
1185 [label="education_Bachelors <= 0.5\ngini = 0.375\nsamples = 4\nvalue = [3, 1]"] ;
1183 -> 1185 ;
1186 [label="gini = 0.0\nsamples = 1\nvalue = [0, 1]"] ;
1185 -> 1186 ;
1187 [label="gini = 0.0\nsamples = 3\nvalue = [3, 0]"] ;
1185 -> 1187 ;
1188 [label="gini = 0.0\nsamples = 1\nvalue = [0, 1]"] ;
1182 -> 1188 ;
1189 [label="age <= 31.5\ngini = 0.4444\nsamples = 9\nvalue = [6, 3]"] ;
1163 -> 1189 ;
1190 [label="gini = 0.0\nsamples = 5\nvalue = [5, 0]"] ;
1189 -> 1190 ;
1191 [label="fnlwgt <= 155365.5\ngini = 0.375\nsamples = 4\nvalue = [1, 3]"] ;
1189 -> 1191 ;
1192 [label="relationship_Not-in-family <= 0.5\ngini = 0.5\nsamples = 2\nvalue = [1, 1]"] ;
1191 -> 1192 ;
